################################################################################
# Neural network connection values (weights and biases).
################################################################################
# Col  Name       Description
################################################################################
# 1    connection Neural network connection value.
# 2    t          Connection type (a = weight, b = bias).
# 3    index      Index enumerating weights.
# 4    l_s        Starting point layer (end point layer for biases).
# 5    n_s        Starting point neuron in starting layer (end point neuron for biases).
# 6    l_e        End point layer.
# 7    n_e        End point neuron in end layer.
################################################################################
#                      1 2         3     4     5     6     7
#             connection t     index   l_s   n_s   l_e   n_e
############################################################
  1.8819669260878973E+00 a         1     0     1     1     1
  3.6150506331185422E-01 a         2     0     1     1     2
 -9.8041679297364137E-01 a         3     0     1     1     3
 -1.4442139948524528E+00 a         4     0     1     1     4
 -1.3998848218347082E+00 a         5     0     1     1     5
 -1.0054090430124953E+00 a         6     0     1     1     6
  9.7158626486561717E-01 a         7     0     1     1     7
 -8.8975187720403714E-01 a         8     0     1     1     8
  3.8948619279069591E-01 a         9     0     1     1     9
 -2.7835383464396517E+00 a        10     0     1     1    10
  2.7361416673044886E-01 a        11     0     1     1    11
  1.2413094711636552E+00 a        12     0     1     1    12
  8.4670419885647108E-01 a        13     0     1     1    13
 -7.0385012118643941E-01 a        14     0     1     1    14
  1.3031374064390184E+00 a        15     0     1     1    15
 -1.9173997293089112E-01 a        16     0     1     1    16
  1.7818666011599820E+00 a        17     0     1     1    17
  1.3536946288389724E+00 a        18     0     1     1    18
 -1.1635696596800578E+00 a        19     0     1     1    19
  5.9070213175099684E-01 a        20     0     1     1    20
 -1.0497251293781826E+00 a        21     0     2     1     1
 -1.2057234972901766E-01 a        22     0     2     1     2
  9.5747350829071676E-01 a        23     0     2     1     3
  8.6838625454018847E-01 a        24     0     2     1     4
  1.7795937334575813E+00 a        25     0     2     1     5
  7.8430118583209407E-01 a        26     0     2     1     6
 -1.7871583037298175E-02 a        27     0     2     1     7
  2.1145263067986300E-01 a        28     0     2     1     8
 -9.0169002394779874E-02 a        29     0     2     1     9
  3.1350062670262244E+00 a        30     0     2     1    10
 -8.7634556939422148E-01 a        31     0     2     1    11
 -8.0189521857754642E-01 a        32     0     2     1    12
 -7.6217567779300210E-01 a        33     0     2     1    13
  1.3190591413426433E-01 a        34     0     2     1    14
 -4.7545473477348062E-02 a        35     0     2     1    15
 -1.5862523703159767E-01 a        36     0     2     1    16
 -1.3857482753667798E+00 a        37     0     2     1    17
  4.8046717262421429E-01 a        38     0     2     1    18
  1.3003049393972210E+00 a        39     0     2     1    19
  9.0011216265191551E-01 a        40     0     2     1    20
  1.0980853365054477E+00 a        41     0     3     1     1
  1.7867206607474359E-01 a        42     0     3     1     2
 -5.3906464117208419E-01 a        43     0     3     1     3
 -9.9120983381713734E-01 a        44     0     3     1     4
 -1.4801358194377430E+00 a        45     0     3     1     5
  2.7567742637516674E-02 a        46     0     3     1     6
  8.1242883002977073E-01 a        47     0     3     1     7
 -1.3558577204397488E+00 a        48     0     3     1     8
  4.6978614014651460E-01 a        49     0     3     1     9
 -5.1141249279981089E+00 a        50     0     3     1    10
  1.0096532689914954E+00 a        51     0     3     1    11
  1.2391118913294517E+00 a        52     0     3     1    12
  1.0728454227324269E+00 a        53     0     3     1    13
 -1.9767322015945601E-01 a        54     0     3     1    14
  6.4580762608015296E-01 a        55     0     3     1    15
  8.6828311466714728E-02 a        56     0     3     1    16
  1.7076779524910568E+00 a        57     0     3     1    17
  3.2006182029714608E-01 a        58     0     3     1    18
 -1.6118534593765306E+00 a        59     0     3     1    19
 -9.5184192039606164E-01 a        60     0     3     1    20
 -1.1553719925114510E+00 a        61     0     4     1     1
 -1.2128473615220352E+00 a        62     0     4     1     2
  5.0905322331488689E-01 a        63     0     4     1     3
  1.5004499850735362E+00 a        64     0     4     1     4
  5.7223092598783565E-01 a        65     0     4     1     5
  1.7685191367888982E+00 a        66     0     4     1     6
  2.2683765892527968E-01 a        67     0     4     1     7
 -9.3436773986185673E-01 a        68     0     4     1     8
  3.9377868312520881E-01 a        69     0     4     1     9
  4.5463196134397713E-02 a        70     0     4     1    10
 -4.7809876384219269E-01 a        71     0     4     1    11
 -5.5342316989762075E-01 a        72     0     4     1    12
  2.7294274620385922E-01 a        73     0     4     1    13
  4.5487803667360588E-01 a        74     0     4     1    14
 -7.5466687103699359E-01 a        75     0     4     1    15
  7.3457482488097625E-01 a        76     0     4     1    16
 -1.1785619091744615E+00 a        77     0     4     1    17
  5.4774834744302385E-02 a        78     0     4     1    18
 -7.1596518240599727E-01 a        79     0     4     1    19
  3.1322406273546599E-02 a        80     0     4     1    20
  3.8906621078640347E-01 a        81     0     5     1     1
 -9.4798541575850576E-02 a        82     0     5     1     2
  6.6302013703829196E-02 a        83     0     5     1     3
  2.2453220391273934E-01 a        84     0     5     1     4
  2.1825750818866960E-01 a        85     0     5     1     5
 -3.1835871636281216E-01 a        86     0     5     1     6
 -9.8126766600688309E-02 a        87     0     5     1     7
  8.0786639003142469E-01 a        88     0     5     1     8
 -4.1552746006348501E-01 a        89     0     5     1     9
  7.5322183081195915E-01 a        90     0     5     1    10
  3.3296092218129064E-01 a        91     0     5     1    11
  4.3197558506218710E-02 a        92     0     5     1    12
  1.3498307117732178E-01 a        93     0     5     1    13
 -1.7441747199894789E-01 a        94     0     5     1    14
 -2.8097541069422144E-01 a        95     0     5     1    15
  1.6017604452522838E-01 a        96     0     5     1    16
  2.5646606059856303E-01 a        97     0     5     1    17
 -5.4999593680010686E-02 a        98     0     5     1    18
  3.2523152987462062E-01 a        99     0     5     1    19
  3.5417913782918575E-01 a       100     0     5     1    20
  8.6428750975043253E-03 a       101     0     6     1     1
  6.4022452487171699E-01 a       102     0     6     1     2
 -1.0544750071802937E+00 a       103     0     6     1     3
  1.3139740319834030E+00 a       104     0     6     1     4
  8.5682890613406060E-01 a       105     0     6     1     5
  5.7275302065685951E-01 a       106     0     6     1     6
 -2.3814456326418690E-01 a       107     0     6     1     7
 -2.1040996024583145E+00 a       108     0     6     1     8
  1.2132537233659801E+00 a       109     0     6     1     9
  1.8342560476359904E+00 a       110     0     6     1    10
  2.4165974221642023E-01 a       111     0     6     1    11
  5.3753183955397588E-01 a       112     0     6     1    12
  2.0687335252141588E+00 a       113     0     6     1    13
 -4.0007077699976651E-01 a       114     0     6     1    14
  1.9218306817515626E-01 a       115     0     6     1    15
 -1.3536655181094035E+00 a       116     0     6     1    16
  9.7483226333471928E-01 a       117     0     6     1    17
 -1.7187414307931252E+00 a       118     0     6     1    18
 -3.7902631524137135E-03 a       119     0     6     1    19
 -2.7758756398308648E-01 a       120     0     6     1    20
 -1.1552314156900845E+00 a       121     0     7     1     1
  5.8327863344266595E-02 a       122     0     7     1     2
  4.9571934693118341E-01 a       123     0     7     1     3
  6.5775322624845214E-02 a       124     0     7     1     4
 -1.1497241083219762E+00 a       125     0     7     1     5
  1.1598820723500614E+00 a       126     0     7     1     6
  4.2444500256853285E-02 a       127     0     7     1     7
 -1.1428423334030537E+00 a       128     0     7     1     8
  1.8900457800136652E-01 a       129     0     7     1     9
  1.8365835436021816E-01 a       130     0     7     1    10
  1.0995101287569364E-01 a       131     0     7     1    11
 -1.1663569957957851E+00 a       132     0     7     1    12
 -2.8651502437012453E-02 a       133     0     7     1    13
 -9.8096402143616437E-02 a       134     0     7     1    14
 -1.0680611716301788E-01 a       135     0     7     1    15
  1.4425718222471129E+00 a       136     0     7     1    16
  1.4293316265575229E-01 a       137     0     7     1    17
  4.9811934799469598E-01 a       138     0     7     1    18
  5.8757126372439583E-01 a       139     0     7     1    19
  8.7653575466601685E-01 a       140     0     7     1    20
  2.9510083262491676E-01 a       141     0     8     1     1
  2.3925419385054536E-01 a       142     0     8     1     2
  7.9703669061539056E-02 a       143     0     8     1     3
  1.1857688144480947E+00 a       144     0     8     1     4
 -1.9317611701196973E+00 a       145     0     8     1     5
  8.1840385868865240E-01 a       146     0     8     1     6
 -1.6561078781547618E-02 a       147     0     8     1     7
 -1.5161916583810402E+00 a       148     0     8     1     8
  8.7521391129062334E-02 a       149     0     8     1     9
  8.3922555054932657E-01 a       150     0     8     1    10
  1.9295682194388144E+00 a       151     0     8     1    11
  1.0252384310008116E+00 a       152     0     8     1    12
  7.3844047879514962E-01 a       153     0     8     1    13
  1.7004484858433295E+00 a       154     0     8     1    14
  1.1042139893887486E+00 a       155     0     8     1    15
  5.8845575399000793E-01 a       156     0     8     1    16
  1.6355857756421286E+00 a       157     0     8     1    17
  2.3904886854330627E+00 a       158     0     8     1    18
  1.3645849412475222E+00 a       159     0     8     1    19
 -1.0629205139653142E+00 a       160     0     8     1    20
  3.6930278732799793E-01 a       161     0     9     1     1
 -1.6519835073842271E-01 a       162     0     9     1     2
  1.6403841219832552E-01 a       163     0     9     1     3
  4.4649985385330443E-01 a       164     0     9     1     4
  1.5917334470069974E-01 a       165     0     9     1     5
 -5.5712065654913878E-01 a       166     0     9     1     6
 -2.1945099627397435E-01 a       167     0     9     1     7
  8.1070179259549036E-01 a       168     0     9     1     8
 -5.6036485582241524E-01 a       169     0     9     1     9
  7.3557597906539196E-01 a       170     0     9     1    10
  5.3482105705974725E-02 a       171     0     9     1    11
 -2.0241449644891998E-01 a       172     0     9     1    12
  2.0406046120949994E-01 a       173     0     9     1    13
 -1.4375474643861788E-01 a       174     0     9     1    14
 -3.2773699334827733E-01 a       175     0     9     1    15
  2.1019623348657851E-01 a       176     0     9     1    16
  4.7071954268365146E-01 a       177     0     9     1    17
  3.2366164842349204E-01 a       178     0     9     1    18
  6.6883830814337597E-01 a       179     0     9     1    19
  2.7026652201745638E-01 a       180     0     9     1    20
  5.8985857996245306E-01 a       181     0    10     1     1
 -1.4467668533732131E-02 a       182     0    10     1     2
  4.3046757224103999E-01 a       183     0    10     1     3
 -1.2309198845945975E-01 a       184     0    10     1     4
  2.3286720290901808E-01 a       185     0    10     1     5
  9.1369673217602898E-01 a       186     0    10     1     6
  5.8975616384851348E-01 a       187     0    10     1     7
 -4.8532410200068647E-04 a       188     0    10     1     8
 -2.3087498760844435E-01 a       189     0    10     1     9
  1.6884775462946738E-01 a       190     0    10     1    10
  9.2068836303502277E-01 a       191     0    10     1    11
 -1.7058316182426825E-01 a       192     0    10     1    12
  3.1733246690685800E-02 a       193     0    10     1    13
  5.5454817231139375E-01 a       194     0    10     1    14
  3.2846548885736121E-01 a       195     0    10     1    15
  3.1149633061718118E-01 a       196     0    10     1    16
  1.0880944577552736E+00 a       197     0    10     1    17
  3.9454687547834116E-01 a       198     0    10     1    18
  8.5323093560751695E-01 a       199     0    10     1    19
  2.8987159109802751E-01 a       200     0    10     1    20
 -1.1925892673679179E+00 a       201     0    11     1     1
  9.6676612175730259E-02 a       202     0    11     1     2
  6.2254139784237361E-01 a       203     0    11     1     3
  2.1945849692859973E-01 a       204     0    11     1     4
 -1.0620774087317824E+00 a       205     0    11     1     5
  1.1368681293891141E+00 a       206     0    11     1     6
  3.8351140769472469E-01 a       207     0    11     1     7
 -1.1915285263172224E+00 a       208     0    11     1     8
  2.1433371547929572E-01 a       209     0    11     1     9
 -2.5720270933670314E-01 a       210     0    11     1    10
  2.1374740436535536E-01 a       211     0    11     1    11
 -9.1771122793570803E-01 a       212     0    11     1    12
 -3.5884944108294603E-01 a       213     0    11     1    13
  2.8928483163765700E-01 a       214     0    11     1    14
 -3.1030516335379077E-01 a       215     0    11     1    15
  1.5268476451306581E+00 a       216     0    11     1    16
  1.2155143203232377E-01 a       217     0    11     1    17
  3.7890141358226093E-01 a       218     0    11     1    18
  8.1607630678237086E-01 a       219     0    11     1    19
  8.5358733219072414E-01 a       220     0    11     1    20
  2.3924568629838168E-02 a       221     0    12     1     1
 -2.6563838607754670E-01 a       222     0    12     1     2
  2.9309988872620990E-01 a       223     0    12     1     3
  4.5827277532626404E-01 a       224     0    12     1     4
 -1.9847456371753341E-01 a       225     0    12     1     5
 -3.5558844186025185E-01 a       226     0    12     1     6
  1.4832917537891802E-01 a       227     0    12     1     7
  8.9887318135126504E-01 a       228     0    12     1     8
 -8.0068375322879060E-01 a       229     0    12     1     9
  3.4640430406022910E-01 a       230     0    12     1    10
  3.8843535418613456E-01 a       231     0    12     1    11
 -7.5975381345543658E-02 a       232     0    12     1    12
  1.1301663534501886E-01 a       233     0    12     1    13
 -2.1282722907570478E-01 a       234     0    12     1    14
 -3.6806662943829482E-01 a       235     0    12     1    15
  2.4880216855393131E-01 a       236     0    12     1    16
  4.1352515612069229E-01 a       237     0    12     1    17
  1.7343236581550214E-01 a       238     0    12     1    18
  6.0883259492937858E-01 a       239     0    12     1    19
  4.2142374976962232E-01 a       240     0    12     1    20
 -2.1456660020606769E-01 a       241     0    13     1     1
 -3.5154267440851711E-01 a       242     0    13     1     2
  7.2229654974674284E-01 a       243     0    13     1     3
  6.3252879482413105E-01 a       244     0    13     1     4
  9.6066855060614520E-01 a       245     0    13     1     5
 -1.2275729726031532E+00 a       246     0    13     1     6
  4.7934587973390141E-01 a       247     0    13     1     7
 -7.4635710992093118E-01 a       248     0    13     1     8
  6.0895253140556505E-01 a       249     0    13     1     9
  7.9386548430993875E-01 a       250     0    13     1    10
 -2.8482815855496280E-01 a       251     0    13     1    11
 -2.7604651318358225E-01 a       252     0    13     1    12
  9.3600916774997833E-01 a       253     0    13     1    13
 -1.1170534086162139E-01 a       254     0    13     1    14
 -1.7055540870973904E-01 a       255     0    13     1    15
 -4.6013197303391051E-01 a       256     0    13     1    16
  3.6252035369144903E-01 a       257     0    13     1    17
  4.0376182200472011E-01 a       258     0    13     1    18
 -4.4618413617808167E-01 a       259     0    13     1    19
 -8.0856317132283895E-01 a       260     0    13     1    20
 -1.2916698132672486E+00 a       261     0    14     1     1
 -1.4633265690184610E-01 a       262     0    14     1     2
  5.2508123235831528E-01 a       263     0    14     1     3
  8.2900516188051998E-02 a       264     0    14     1     4
 -8.4119439712453958E-01 a       265     0    14     1     5
  9.5193509499998175E-01 a       266     0    14     1     6
  5.4736353466194188E-01 a       267     0    14     1     7
 -8.7162375418763871E-01 a       268     0    14     1     8
 -8.1550450134280819E-02 a       269     0    14     1     9
  6.5243958634288932E-02 a       270     0    14     1    10
  3.7506417405121723E-01 a       271     0    14     1    11
 -9.2102343484727944E-01 a       272     0    14     1    12
 -2.2931456048284873E-01 a       273     0    14     1    13
 -3.8822487260727741E-02 a       274     0    14     1    14
 -2.3146058766922886E-01 a       275     0    14     1    15
  1.3736539590865193E+00 a       276     0    14     1    16
  2.3239911506752339E-01 a       277     0    14     1    17
  5.5125492201558013E-01 a       278     0    14     1    18
  4.7240310534689839E-01 a       279     0    14     1    19
  9.4809261258717292E-01 a       280     0    14     1    20
 -1.7225191580409724E+00 a       281     0    15     1     1
 -1.1803736176468722E+00 a       282     0    15     1     2
  5.2973707819466054E-01 a       283     0    15     1     3
  6.9802302752342933E-03 a       284     0    15     1     4
 -3.4085652744180278E-01 a       285     0    15     1     5
  5.7061291151028903E-01 a       286     0    15     1     6
 -7.6527358891473296E-01 a       287     0    15     1     7
 -1.1469286752829750E+00 a       288     0    15     1     8
 -5.0345948050148881E-01 a       289     0    15     1     9
  1.2516621654489701E+00 a       290     0    15     1    10
  1.0299444974521732E+00 a       291     0    15     1    11
 -1.3815934239466898E+00 a       292     0    15     1    12
 -1.4747684263432088E+00 a       293     0    15     1    13
 -1.6912875811335082E+00 a       294     0    15     1    14
 -6.0947560261636380E-01 a       295     0    15     1    15
  1.1481339374574704E+00 a       296     0    15     1    16
  5.5479444293940006E-01 a       297     0    15     1    17
  1.0468238226237754E+00 a       298     0    15     1    18
  1.1823076725331858E+00 a       299     0    15     1    19
  1.3602175047546472E+00 a       300     0    15     1    20
 -3.9115017684310555E-01 a       301     0    16     1     1
  1.3276523276900987E+00 a       302     0    16     1     2
 -5.8470875700297631E-01 a       303     0    16     1     3
  7.0338972761999949E-02 a       304     0    16     1     4
  4.4579163135551891E-01 a       305     0    16     1     5
 -3.6628775314295792E-01 a       306     0    16     1     6
  8.1246348946426483E-01 a       307     0    16     1     7
 -4.6704952262862942E-01 a       308     0    16     1     8
 -3.7766314740756382E-02 a       309     0    16     1     9
 -2.1369153921615613E-01 a       310     0    16     1    10
 -7.4131606216233700E-02 a       311     0    16     1    11
  3.4444386302478452E-01 a       312     0    16     1    12
  5.9044599191082059E-01 a       313     0    16     1    13
  5.5480919097868464E-01 a       314     0    16     1    14
 -2.1710431242444736E-01 a       315     0    16     1    15
  2.5711268831640377E-01 a       316     0    16     1    16
 -1.6518619381757102E-01 a       317     0    16     1    17
  1.1650844204609254E-01 a       318     0    16     1    18
 -7.5914478017739151E-01 a       319     0    16     1    19
  5.1454822889197582E-01 a       320     0    16     1    20
 -1.1444975165678124E+00 a       321     0    17     1     1
  2.1512473679835240E-01 a       322     0    17     1     2
  7.0462760706489103E-01 a       323     0    17     1     3
  5.1530838359104332E-02 a       324     0    17     1     4
 -6.0789564681910813E-01 a       325     0    17     1     5
  6.9755428098877981E-01 a       326     0    17     1     6
  4.5849561353850732E-01 a       327     0    17     1     7
 -5.4200444961691396E-01 a       328     0    17     1     8
 -3.8028499382145739E-02 a       329     0    17     1     9
 -4.0937809194035035E-01 a       330     0    17     1    10
  2.1530818049890271E-01 a       331     0    17     1    11
 -4.9256312772148547E-01 a       332     0    17     1    12
 -3.9903838251109147E-01 a       333     0    17     1    13
  1.0232285476025653E-01 a       334     0    17     1    14
 -2.5265978210514323E-01 a       335     0    17     1    15
  1.7878868130561729E+00 a       336     0    17     1    16
 -4.1428181299464201E-01 a       337     0    17     1    17
  6.3596327614207082E-01 a       338     0    17     1    18
  1.3086571107801828E-01 a       339     0    17     1    19
  8.7592055378392064E-01 a       340     0    17     1    20
 -7.1978618181249288E-01 a       341     0    18     1     1
  4.3077246010059167E-01 a       342     0    18     1     2
 -4.0478357152203243E-01 a       343     0    18     1     3
  1.0090521310370366E+00 a       344     0    18     1     4
 -9.2052462192269791E-01 a       345     0    18     1     5
  7.8022652572129103E-01 a       346     0    18     1     6
 -1.3350019303262350E-03 a       347     0    18     1     7
 -1.8340262402159277E-01 a       348     0    18     1     8
 -2.8530305485931534E-01 a       349     0    18     1     9
  2.4395247275582824E-01 a       350     0    18     1    10
  1.0542020904995446E-01 a       351     0    18     1    11
  1.2095120909170387E-02 a       352     0    18     1    12
 -6.0522443812112037E-01 a       353     0    18     1    13
  1.4033610324867071E-01 a       354     0    18     1    14
  5.7492764847669542E-01 a       355     0    18     1    15
  8.0904131276876412E-01 a       356     0    18     1    16
  8.1324626753392115E-01 a       357     0    18     1    17
  6.3711027172480994E-01 a       358     0    18     1    18
  1.6331652271170918E-02 a       359     0    18     1    19
  2.3256802967563034E-01 a       360     0    18     1    20
 -9.5522599890778537E-01 a       361     0    19     1     1
  1.7993100908440858E+00 a       362     0    19     1     2
 -2.3041268488765909E-01 a       363     0    19     1     3
 -1.1600424536621181E+00 a       364     0    19     1     4
 -2.6406115829982463E-01 a       365     0    19     1     5
 -9.3398271714074321E-01 a       366     0    19     1     6
  1.6808380033028720E+00 a       367     0    19     1     7
  1.3258704361363562E+00 a       368     0    19     1     8
 -1.0585131665313918E+00 a       369     0    19     1     9
 -2.1200310000206009E+00 a       370     0    19     1    10
 -1.0030442088560358E+00 a       371     0    19     1    11
  3.6226239001457550E-01 a       372     0    19     1    12
 -4.6397499052690333E-01 a       373     0    19     1    13
  1.4681919844345170E+00 a       374     0    19     1    14
 -8.1273004939958982E-01 a       375     0    19     1    15
  1.7813475312623468E+00 a       376     0    19     1    16
 -1.0829395510406732E+00 a       377     0    19     1    17
  9.3990095881772728E-01 a       378     0    19     1    18
 -1.2872970474518961E+00 a       379     0    19     1    19
  1.4031719414080581E+00 a       380     0    19     1    20
 -2.9832668783091210E-01 a       381     0    20     1     1
  2.3352278625373066E-01 a       382     0    20     1     2
  3.6186279902995810E-01 a       383     0    20     1     3
 -1.0211816957289466E+00 a       384     0    20     1     4
  5.6914682258503968E-01 a       385     0    20     1     5
 -4.8304102780811831E-01 a       386     0    20     1     6
 -3.6783534604975487E-01 a       387     0    20     1     7
  3.7711902514006482E-02 a       388     0    20     1     8
 -5.5064613250185046E-01 a       389     0    20     1     9
 -1.0478196442103274E-01 a       390     0    20     1    10
  2.3562286996455828E-01 a       391     0    20     1    11
 -7.7279766662209959E-01 a       392     0    20     1    12
 -1.0949324353903342E+00 a       393     0    20     1    13
 -2.7711611684070997E-01 a       394     0    20     1    14
 -4.4583052792036970E-01 a       395     0    20     1    15
  1.7778067440615726E+00 a       396     0    20     1    16
  4.0128118026749933E-02 a       397     0    20     1    17
  2.8933540595776591E-01 a       398     0    20     1    18
 -1.4717926243178051E-01 a       399     0    20     1    19
  5.3073206229896808E-01 a       400     0    20     1    20
 -5.4392498464028527E-01 a       401     0    21     1     1
 -3.0795299945299109E-01 a       402     0    21     1     2
 -1.6339963209824848E-01 a       403     0    21     1     3
  3.4946520211165782E-01 a       404     0    21     1     4
  4.3785944906009860E-01 a       405     0    21     1     5
 -6.2892995030672449E-01 a       406     0    21     1     6
 -2.5539645886045487E-01 a       407     0    21     1     7
 -2.6564523248657573E-01 a       408     0    21     1     8
 -6.0299513647335234E-01 a       409     0    21     1     9
 -3.8860492019217319E-02 a       410     0    21     1    10
  1.0726526277826192E+00 a       411     0    21     1    11
 -2.4941433427535353E-01 a       412     0    21     1    12
  2.9688183877154456E-01 a       413     0    21     1    13
 -2.4049526733110942E+00 a       414     0    21     1    14
 -1.1959189933228820E+00 a       415     0    21     1    15
  6.6912935648031233E-02 a       416     0    21     1    16
 -3.5002131160747924E-01 a       417     0    21     1    17
  3.6570514117915515E-01 a       418     0    21     1    18
 -5.2674551235996458E-01 a       419     0    21     1    19
 -3.1577141344372728E-01 a       420     0    21     1    20
 -7.2663469953455861E-01 a       421     0    22     1     1
 -2.5747260015903556E-01 a       422     0    22     1     2
  1.2403665653321594E-01 a       423     0    22     1     3
  3.2879773640649818E-01 a       424     0    22     1     4
 -2.0156785496905814E+00 a       425     0    22     1     5
  8.1155653389021321E-01 a       426     0    22     1     6
  2.3442666981578544E-01 a       427     0    22     1     7
  9.0448821041718475E-02 a       428     0    22     1     8
 -8.9125796235902566E-01 a       429     0    22     1     9
 -2.3335980866484114E+00 a       430     0    22     1    10
  2.1998056660645790E-02 a       431     0    22     1    11
 -1.3778749575091420E+00 a       432     0    22     1    12
 -2.8585835461820458E-01 a       433     0    22     1    13
 -6.5161059092870199E-01 a       434     0    22     1    14
  8.2657199522592414E-02 a       435     0    22     1    15
 -1.7884102418693526E-01 a       436     0    22     1    16
 -9.2850033846623548E-01 a       437     0    22     1    17
  1.0408962987265528E-01 a       438     0    22     1    18
  1.2954525080945356E+00 a       439     0    22     1    19
  9.0268407080991886E-01 a       440     0    22     1    20
  3.7203506236607470E-01 a       441     0    23     1     1
  1.0647085656536912E+00 a       442     0    23     1     2
  6.7120929468890084E-03 a       443     0    23     1     3
 -9.6226974136284771E-01 a       444     0    23     1     4
  1.3464701345511045E+00 a       445     0    23     1     5
  7.8821731426167252E-01 a       446     0    23     1     6
 -5.7806270912184787E-01 a       447     0    23     1     7
  5.8696374290451980E-01 a       448     0    23     1     8
 -2.8204126193240298E-01 a       449     0    23     1     9
 -4.6503415713752877E-01 a       450     0    23     1    10
 -1.2079177738898939E+00 a       451     0    23     1    11
 -1.3248294027979310E+00 a       452     0    23     1    12
 -9.4091458647192217E-01 a       453     0    23     1    13
 -5.0453150591506424E-01 a       454     0    23     1    14
 -4.1562399320714105E-01 a       455     0    23     1    15
  1.6924390000971803E+00 a       456     0    23     1    16
 -1.6950523470821739E+00 a       457     0    23     1    17
 -2.4320307243065105E+00 a       458     0    23     1    18
 -7.8553691379041213E-01 a       459     0    23     1    19
  2.3653308570408793E+00 a       460     0    23     1    20
  5.2444673563393474E-01 a       461     0    24     1     1
  3.3561712080621803E-01 a       462     0    24     1     2
 -5.3521299550723211E-02 a       463     0    24     1     3
  1.4021451031277959E-01 a       464     0    24     1     4
 -1.2640651998969756E+00 a       465     0    24     1     5
  1.0496974324330508E+00 a       466     0    24     1     6
 -2.8856939316919927E-01 a       467     0    24     1     7
 -5.0564388665449189E-01 a       468     0    24     1     8
 -1.3218374538121272E-01 a       469     0    24     1     9
  1.3889330589218751E-01 a       470     0    24     1    10
  1.4712085039469394E-01 a       471     0    24     1    11
 -4.6429538815277543E-01 a       472     0    24     1    12
 -1.3083405489781605E+00 a       473     0    24     1    13
 -2.6406897668515195E-01 a       474     0    24     1    14
  2.7129618271313721E-01 a       475     0    24     1    15
  4.2874562526370918E-01 a       476     0    24     1    16
 -4.2244489834716431E-01 a       477     0    24     1    17
 -1.2804991193832116E+00 a       478     0    24     1    18
  6.3769570269214104E-01 a       479     0    24     1    19
  6.4960348940403612E-01 a       480     0    24     1    20
  1.5069000763371180E-02 a       481     0    25     1     1
  9.2791778478668674E-01 a       482     0    25     1     2
 -4.1130949575380926E-01 a       483     0    25     1     3
 -7.6907692271517358E-01 a       484     0    25     1     4
 -9.9110132259538397E-01 a       485     0    25     1     5
  1.5044533890253768E+00 a       486     0    25     1     6
 -6.7385504378843297E-01 a       487     0    25     1     7
  1.7775271456096384E-01 a       488     0    25     1     8
 -3.9452608393656596E-01 a       489     0    25     1     9
 -7.6077904604671664E-01 a       490     0    25     1    10
  6.0196312129541540E-01 a       491     0    25     1    11
  4.8165176256274062E-01 a       492     0    25     1    12
 -5.1853120717278600E-01 a       493     0    25     1    13
  7.6295088581272041E-01 a       494     0    25     1    14
  1.5975097033813609E-01 a       495     0    25     1    15
  6.2390943205150440E-01 a       496     0    25     1    16
 -1.4287886727607416E-01 a       497     0    25     1    17
 -4.2290581680055311E-01 a       498     0    25     1    18
 -1.1035361836664580E-01 a       499     0    25     1    19
  8.4141841862246591E-01 a       500     0    25     1    20
  7.4493345696408497E-01 a       501     0    26     1     1
  8.1793312086808367E-01 a       502     0    26     1     2
  6.7856156292948999E-02 a       503     0    26     1     3
 -5.3954116651375061E-01 a       504     0    26     1     4
 -1.0279339877013545E-01 a       505     0    26     1     5
  8.0906342330542547E-01 a       506     0    26     1     6
  2.9024319626104380E-02 a       507     0    26     1     7
  1.0832129853418315E-02 a       508     0    26     1     8
  1.1872491814262473E-03 a       509     0    26     1     9
 -7.6855828979076846E-01 a       510     0    26     1    10
 -3.7181155861478843E-01 a       511     0    26     1    11
 -4.0674887633423035E-01 a       512     0    26     1    12
 -5.8353568439113124E-01 a       513     0    26     1    13
 -4.4611698441129882E-01 a       514     0    26     1    14
 -8.4113870885182102E-02 a       515     0    26     1    15
  1.0543110396624142E+00 a       516     0    26     1    16
 -1.6267080573451309E+00 a       517     0    26     1    17
 -1.6454809668350037E+00 a       518     0    26     1    18
  7.8001011342659146E-02 a       519     0    26     1    19
  1.4103560470971945E+00 a       520     0    26     1    20
  6.3490684660707841E-02 a       521     0    27     1     1
  2.6026762538635989E-01 a       522     0    27     1     2
 -8.5321169924814380E-02 a       523     0    27     1     3
  1.3844119747839956E-01 a       524     0    27     1     4
 -1.2532979505915873E+00 a       525     0    27     1     5
  1.0712479225775935E+00 a       526     0    27     1     6
  2.9521646522426531E-01 a       527     0    27     1     7
  8.0592637312522336E-02 a       528     0    27     1     8
  2.0003994283833254E-01 a       529     0    27     1     9
 -2.5371720141601706E-01 a       530     0    27     1    10
 -8.1967562982400000E-01 a       531     0    27     1    11
 -1.4617613783706782E-01 a       532     0    27     1    12
 -4.3484715782226213E-01 a       533     0    27     1    13
  6.3290549391990314E-01 a       534     0    27     1    14
  2.7203463705619085E-01 a       535     0    27     1    15
  1.1003876620408246E+00 a       536     0    27     1    16
 -1.3763606737264222E+00 a       537     0    27     1    17
 -4.1422766490018270E-01 a       538     0    27     1    18
  2.8903737006184621E-01 a       539     0    27     1    19
  5.6425768370038876E-01 a       540     0    27     1    20
 -2.4913404540827977E-01 a       541     0    28     1     1
 -2.2100948924236143E-03 a       542     0    28     1     2
  5.0122578918524063E-01 a       543     0    28     1     3
 -1.4451276788940448E-02 a       544     0    28     1     4
 -6.0973917732403060E-01 a       545     0    28     1     5
 -1.3207298432416794E+00 a       546     0    28     1     6
  5.9138387796159164E-01 a       547     0    28     1     7
 -5.9861570560636479E-01 a       548     0    28     1     8
 -3.0849071482861735E-02 a       549     0    28     1     9
 -6.9682079207859637E-01 a       550     0    28     1    10
  1.9959580447784525E-01 a       551     0    28     1    11
 -2.1669299826496477E-01 a       552     0    28     1    12
  4.0063742870082453E-01 a       553     0    28     1    13
 -3.8762462512651341E-01 a       554     0    28     1    14
 -1.1275889025229257E-02 a       555     0    28     1    15
  1.6274531024003047E-01 a       556     0    28     1    16
 -6.3818260818823602E-01 a       557     0    28     1    17
 -3.4636844511222420E-01 a       558     0    28     1    18
  8.0549021004493315E-01 a       559     0    28     1    19
 -2.8711274996607317E-01 a       560     0    28     1    20
  8.5606174998076290E-01 a       561     0    29     1     1
  9.3309526008275501E-01 a       562     0    29     1     2
 -9.6906794305045216E-02 a       563     0    29     1     3
 -6.2941470342809991E-01 a       564     0    29     1     4
  2.4955204329912420E-01 a       565     0    29     1     5
 -8.2304275796975479E-01 a       566     0    29     1     6
  3.4355431270299541E-01 a       567     0    29     1     7
  3.7113457082951029E-01 a       568     0    29     1     8
  2.6834449225810447E-01 a       569     0    29     1     9
 -7.3486109282797840E-01 a       570     0    29     1    10
 -2.6063024814664087E-01 a       571     0    29     1    11
 -2.1121824644162532E-01 a       572     0    29     1    12
  1.2769379213262128E-01 a       573     0    29     1    13
  3.7712830009679310E-01 a       574     0    29     1    14
  6.6404970729597312E-01 a       575     0    29     1    15
  8.4367209971626478E-01 a       576     0    29     1    16
 -3.2848442732905853E-02 a       577     0    29     1    17
 -7.0792344059439960E-01 a       578     0    29     1    18
 -6.6109236693769746E-01 a       579     0    29     1    19
 -7.3882036788518446E-01 a       580     0    29     1    20
  9.0815127930255413E-01 a       581     0    30     1     1
  3.6330794737124944E-01 a       582     0    30     1     2
 -5.4352890886852967E-01 a       583     0    30     1     3
  2.4362741826406430E-02 a       584     0    30     1     4
 -1.2170447809346814E+00 a       585     0    30     1     5
  2.3359556731246252E+00 a       586     0    30     1     6
 -1.0385262714607233E+00 a       587     0    30     1     7
 -6.1442992275216723E-01 a       588     0    30     1     8
  5.1933108672625761E-01 a       589     0    30     1     9
 -1.8354587231721116E+00 a       590     0    30     1    10
 -8.2151247587366438E-01 a       591     0    30     1    11
 -1.3652974871648380E+00 a       592     0    30     1    12
  2.1275807520630277E-01 a       593     0    30     1    13
 -1.0436983683004091E+00 a       594     0    30     1    14
  1.2031043306161617E+00 a       595     0    30     1    15
 -8.3639278695189467E-01 a       596     0    30     1    16
 -1.5097187528452196E+00 a       597     0    30     1    17
 -3.6223186342138325E+00 a       598     0    30     1    18
  1.1128723841591071E+00 a       599     0    30     1    19
  1.4146748838809733E-01 a       600     0    30     1    20
  1.4601495947789592E-01 a       601     0    31     1     1
  5.4766115665208692E-01 a       602     0    31     1     2
 -3.6313806512298213E-01 a       603     0    31     1     3
 -5.3286667941509780E-01 a       604     0    31     1     4
  1.6924626956108391E-01 a       605     0    31     1     5
 -2.6386371960717925E-01 a       606     0    31     1     6
 -3.0474534891209087E-02 a       607     0    31     1     7
 -1.2047600988675261E-01 a       608     0    31     1     8
 -1.6909650413886015E-01 a       609     0    31     1     9
  2.9194094363173795E-01 a       610     0    31     1    10
  5.3188763974271314E-01 a       611     0    31     1    11
  2.6007288583029853E-01 a       612     0    31     1    12
 -4.3392970923797625E-01 a       613     0    31     1    13
  2.9178844356427408E-01 a       614     0    31     1    14
 -2.3867401300015764E-01 a       615     0    31     1    15
  8.6545235707425738E-01 a       616     0    31     1    16
 -2.8473898537631293E-01 a       617     0    31     1    17
  6.1246006665493713E-01 a       618     0    31     1    18
 -4.4341141137592244E-01 a       619     0    31     1    19
 -2.4733247395458338E-01 a       620     0    31     1    20
 -3.3560414837367619E-01 a       621     0    32     1     1
 -1.2738125107796747E-01 a       622     0    32     1     2
 -4.9905374424163940E-01 a       623     0    32     1     3
 -6.5866027297177820E-01 a       624     0    32     1     4
  6.6974173910782298E-01 a       625     0    32     1     5
 -5.7382873407175261E-01 a       626     0    32     1     6
 -5.8685634413074195E-01 a       627     0    32     1     7
 -4.9358155427760125E-01 a       628     0    32     1     8
 -2.3146956861054752E-01 a       629     0    32     1     9
 -8.6124969159316733E-01 a       630     0    32     1    10
 -1.0090463325428616E+00 a       631     0    32     1    11
 -1.2874294788020867E-02 a       632     0    32     1    12
  5.3572525195060483E-01 a       633     0    32     1    13
  1.0718002319871429E+00 a       634     0    32     1    14
 -5.2066523193615384E-02 a       635     0    32     1    15
  3.1624212465666074E-02 a       636     0    32     1    16
 -4.7547846751054018E-01 a       637     0    32     1    17
  5.6110081321941352E-01 a       638     0    32     1    18
 -7.4953312359793589E-01 a       639     0    32     1    19
 -3.7412850536301012E-01 a       640     0    32     1    20
 -8.7812516461638609E-02 a       641     0    33     1     1
  1.4257390743200111E+00 a       642     0    33     1     2
  1.8981602413159879E-01 a       643     0    33     1     3
 -8.1408850536253119E-01 a       644     0    33     1     4
  1.6680555549747969E+00 a       645     0    33     1     5
 -2.4640557900832363E+00 a       646     0    33     1     6
  1.0639960842917915E+00 a       647     0    33     1     7
  1.3492373699750317E+00 a       648     0    33     1     8
 -1.0742632955236346E+00 a       649     0    33     1     9
 -1.4366910438525797E+00 a       650     0    33     1    10
 -6.6221811586141066E-01 a       651     0    33     1    11
  1.0726307337446519E+00 a       652     0    33     1    12
 -1.2424777195661540E+00 a       653     0    33     1    13
  8.5323703398607753E-01 a       654     0    33     1    14
 -1.3913290495737829E+00 a       655     0    33     1    15
  1.2399154981728577E+00 a       656     0    33     1    16
 -1.4388327548380102E+00 a       657     0    33     1    17
  1.1912507341218672E+00 a       658     0    33     1    18
 -1.8265243491304437E+00 a       659     0    33     1    19
 -4.5359755373963098E-02 a       660     0    33     1    20
 -2.4998679922760958E-01 a       661     0    34     1     1
  7.9804328991634199E-02 a       662     0    34     1     2
  2.9427091988194337E-01 a       663     0    34     1     3
 -1.2017882588382385E+00 a       664     0    34     1     4
  1.7618954169630732E+00 a       665     0    34     1     5
  2.6012774136932149E-01 a       666     0    34     1     6
 -4.3259526985088267E-02 a       667     0    34     1     7
  1.2285244593705232E-01 a       668     0    34     1     8
 -2.0147655912057044E-01 a       669     0    34     1     9
 -7.2533954115074772E-01 a       670     0    34     1    10
 -1.2832365691714407E+00 a       671     0    34     1    11
 -1.1994433043667532E+00 a       672     0    34     1    12
 -5.5907093216325310E-01 a       673     0    34     1    13
 -1.4208138030163247E+00 a       674     0    34     1    14
 -1.4231904214664970E+00 a       675     0    34     1    15
  9.1826278431447517E-01 a       676     0    34     1    16
 -2.3403469770029122E+00 a       677     0    34     1    17
 -2.0559791477249760E+00 a       678     0    34     1    18
 -5.2993124101695366E-01 a       679     0    34     1    19
  1.8108195480169436E+00 a       680     0    34     1    20
 -5.5041469118247566E-01 a       681     0    35     1     1
 -2.8531496866996651E-03 a       682     0    35     1     2
  1.4699228961539179E+00 a       683     0    35     1     3
  4.5063047800585432E-01 a       684     0    35     1     4
 -1.6962038371762265E+00 a       685     0    35     1     5
  2.1266314540854263E+00 a       686     0    35     1     6
 -3.1269293622917493E-01 a       687     0    35     1     7
 -1.4194310332348761E+00 a       688     0    35     1     8
  2.3505945417979740E-01 a       689     0    35     1     9
 -1.6090424477401306E+00 a       690     0    35     1    10
  4.1836214746624117E-01 a       691     0    35     1    11
 -1.9128998413292750E-01 a       692     0    35     1    12
 -3.3768621984547342E-01 a       693     0    35     1    13
 -6.4225609280046836E-01 a       694     0    35     1    14
  2.4833366022832937E-01 a       695     0    35     1    15
  8.0312821050799343E-01 a       696     0    35     1    16
 -6.4534241441395501E-01 a       697     0    35     1    17
 -2.2281785799845349E-01 a       698     0    35     1    18
  5.9873660754454461E-01 a       699     0    35     1    19
 -8.3178755424839171E-02 a       700     0    35     1    20
 -1.2256820511633741E+00 a       701     0    36     1     1
  3.4946696373474401E-01 a       702     0    36     1     2
 -5.7138306410105799E-01 a       703     0    36     1     3
  8.4569079570147321E-01 a       704     0    36     1     4
  4.7351596661365458E-02 a       705     0    36     1     5
 -7.0183158789670108E-01 a       706     0    36     1     6
  2.8117601289956049E+00 a       707     0    36     1     7
  1.0438020339686298E+00 a       708     0    36     1     8
 -2.0651177622734754E-01 a       709     0    36     1     9
  1.5405894558956148E+00 a       710     0    36     1    10
 -8.9902476217685406E-02 a       711     0    36     1    11
  1.3797550154904574E+00 a       712     0    36     1    12
 -2.0803821744942472E+00 a       713     0    36     1    13
 -1.4990877575490477E-01 a       714     0    36     1    14
 -1.1235078279213300E+00 a       715     0    36     1    15
 -5.5156837716136431E-01 a       716     0    36     1    16
 -1.7548328926551287E+00 a       717     0    36     1    17
  1.7905547808780347E+00 a       718     0    36     1    18
  3.7569298144343749E-01 a       719     0    36     1    19
  6.2852480152906376E-01 a       720     0    36     1    20
 -8.6312445517257885E-01 a       721     0    37     1     1
 -5.4173080903279958E-01 a       722     0    37     1     2
 -5.6651504285981402E-01 a       723     0    37     1     3
  5.3395290436462850E-01 a       724     0    37     1     4
  1.2807855938013604E-01 a       725     0    37     1     5
 -1.7105248600638551E-01 a       726     0    37     1     6
 -2.5637810581132042E-01 a       727     0    37     1     7
 -4.2255659748241003E-01 a       728     0    37     1     8
  1.8543295919580437E-02 a       729     0    37     1     9
 -8.6096180854487425E-01 a       730     0    37     1    10
 -3.1864148526364799E-01 a       731     0    37     1    11
  9.5531521105113715E-01 a       732     0    37     1    12
  2.8978785480694887E-02 a       733     0    37     1    13
 -1.4522267795488861E+00 a       734     0    37     1    14
 -8.7605715771605008E-01 a       735     0    37     1    15
 -1.4850313239293464E-01 a       736     0    37     1    16
 -6.5585184081744252E-01 a       737     0    37     1    17
  1.1602399213415662E-01 a       738     0    37     1    18
  1.1493253193104637E-01 a       739     0    37     1    19
 -5.1258358639560753E-01 a       740     0    37     1    20
  2.7869812456700738E-01 a       741     0    38     1     1
 -9.9554072798655940E-02 a       742     0    38     1     2
 -2.6752968160915019E-01 a       743     0    38     1     3
  1.1505726815067210E-01 a       744     0    38     1     4
  5.8788258305470542E-01 a       745     0    38     1     5
  7.3508493907275596E-01 a       746     0    38     1     6
 -5.6534051583389644E-01 a       747     0    38     1     7
  6.5869792516752712E-01 a       748     0    38     1     8
 -9.8310896987352625E-02 a       749     0    38     1     9
  4.2161034776698320E-01 a       750     0    38     1    10
 -1.5931952743883737E-01 a       751     0    38     1    11
 -8.9443714633122784E-02 a       752     0    38     1    12
 -4.7406893211548334E-01 a       753     0    38     1    13
  8.7756044207766420E-02 a       754     0    38     1    14
  1.2938270087196771E-01 a       755     0    38     1    15
 -7.2246154202333143E-02 a       756     0    38     1    16
  4.9258914848078728E-01 a       757     0    38     1    17
  2.3366850677824741E-01 a       758     0    38     1    18
 -4.9148743991050459E-01 a       759     0    38     1    19
  1.8809716172843355E-01 a       760     0    38     1    20
 -1.3701065055720509E+00 a       761     0    39     1     1
 -2.0083438627411776E-01 a       762     0    39     1     2
 -3.3378709957445840E-01 a       763     0    39     1     3
 -1.6236877550866828E+00 a       764     0    39     1     4
  1.9361477265862874E+00 a       765     0    39     1     5
  2.3845258552368367E-01 a       766     0    39     1     6
  1.0368285289776846E+00 a       767     0    39     1     7
  3.9510631916889932E-01 a       768     0    39     1     8
 -1.3440810860977809E-01 a       769     0    39     1     9
  8.3775392040442265E-01 a       770     0    39     1    10
 -5.2218998138684847E-01 a       771     0    39     1    11
  1.4920535852654362E-01 a       772     0    39     1    12
 -1.4875406782562159E+00 a       773     0    39     1    13
  7.1697745848579497E-01 a       774     0    39     1    14
 -1.6551466864770261E+00 a       775     0    39     1    15
  2.1483276075168813E+00 a       776     0    39     1    16
 -1.8358756128355298E+00 a       777     0    39     1    17
  1.1789481377213734E-01 a       778     0    39     1    18
 -1.3758364980966467E+00 a       779     0    39     1    19
  1.1133173535757024E+00 a       780     0    39     1    20
  8.3179552221581310E-01 a       781     0    40     1     1
  1.0222603981646337E+00 a       782     0    40     1     2
  1.3915634109461225E-01 a       783     0    40     1     3
 -1.4048094377992006E+00 a       784     0    40     1     4
  1.7515056805523330E-01 a       785     0    40     1     5
 -6.8340894484287773E-01 a       786     0    40     1     6
  1.4924103872825170E-01 a       787     0    40     1     7
  1.5005475782438291E+00 a       788     0    40     1     8
  1.5897215050804916E-01 a       789     0    40     1     9
 -9.0438818788899467E-01 a       790     0    40     1    10
 -7.1967042379679469E-01 a       791     0    40     1    11
  4.6521338045187549E-01 a       792     0    40     1    12
 -2.0568740329277074E-01 a       793     0    40     1    13
  1.2260484405264449E+00 a       794     0    40     1    14
  4.1564029528183127E-01 a       795     0    40     1    15
  9.6320852208772045E-01 a       796     0    40     1    16
 -8.6184200427812874E-01 a       797     0    40     1    17
 -3.2084848192014787E-01 a       798     0    40     1    18
 -9.4459053571595286E-01 a       799     0    40     1    19
  2.4876810238276012E-01 a       800     0    40     1    20
  4.3023094324395722E-01 a       801     0    41     1     1
  8.4931143413792498E-01 a       802     0    41     1     2
 -9.8715402914030592E-01 a       803     0    41     1     3
 -1.6158804873439083E+00 a       804     0    41     1     4
  9.6979165653580501E-01 a       805     0    41     1     5
 -1.6515807753461949E+00 a       806     0    41     1     6
  2.6086262048351155E-01 a       807     0    41     1     7
  1.4336154844986784E+00 a       808     0    41     1     8
  6.9994244650909687E-01 a       809     0    41     1     9
 -1.1009232722594349E+00 a       810     0    41     1    10
 -1.0918696235239476E+00 a       811     0    41     1    11
  6.9372807814393908E-02 a       812     0    41     1    12
 -4.1000146571788021E-01 a       813     0    41     1    13
  1.6678274929563179E+00 a       814     0    41     1    14
 -6.3627264248666646E-02 a       815     0    41     1    15
  9.0085007550065554E-01 a       816     0    41     1    16
 -1.9514539192243996E+00 a       817     0    41     1    17
  8.3857890823358719E-02 a       818     0    41     1    18
 -1.2966321525931095E+00 a       819     0    41     1    19
  6.7558826129662311E-02 a       820     0    41     1    20
 -4.9965113224278235E-01 a       821     0    42     1     1
 -7.2547428004367143E-01 a       822     0    42     1     2
  1.0442690932292482E-01 a       823     0    42     1     3
  4.5976244601027183E-01 a       824     0    42     1     4
 -1.6557445756126724E-01 a       825     0    42     1     5
  2.7963236209515235E-01 a       826     0    42     1     6
 -7.1772126350612725E-02 a       827     0    42     1     7
 -7.0598114208661045E-01 a       828     0    42     1     8
  9.8424089408795601E-02 a       829     0    42     1     9
  9.0572504273316687E-02 a       830     0    42     1    10
  5.5157941624991089E-03 a       831     0    42     1    11
 -1.0167006656784683E-01 a       832     0    42     1    12
  3.1820754094183534E-01 a       833     0    42     1    13
  7.1445031274699455E-01 a       834     0    42     1    14
  1.2266406263361411E-01 a       835     0    42     1    15
 -3.3557404455783307E-01 a       836     0    42     1    16
 -2.5320334634511853E-02 a       837     0    42     1    17
 -3.3975820822823055E-01 a       838     0    42     1    18
  1.2737071708438338E-01 a       839     0    42     1    19
 -1.5882585146172742E-02 a       840     0    42     1    20
  3.1124171513215609E-01 a       841     0    43     1     1
 -3.0346555123666336E-01 a       842     0    43     1     2
 -2.5944152905676948E-01 a       843     0    43     1     3
 -2.0686075539665447E-01 a       844     0    43     1     4
  1.4076141263323301E+00 a       845     0    43     1     5
 -9.8532851170761049E-01 a       846     0    43     1     6
 -7.3463064431817160E-01 a       847     0    43     1     7
  1.0204825409590136E-01 a       848     0    43     1     8
 -5.8319617359510756E-01 a       849     0    43     1     9
 -4.3994888568700502E-01 a       850     0    43     1    10
  3.7545901598742765E-01 a       851     0    43     1    11
  5.0843683859947297E-01 a       852     0    43     1    12
  3.9740080171278025E-01 a       853     0    43     1    13
  4.5776021199313432E-01 a       854     0    43     1    14
 -4.4348890937053564E-01 a       855     0    43     1    15
 -7.1326040535163204E-01 a       856     0    43     1    16
  7.4284026360323585E-01 a       857     0    43     1    17
 -4.8730957430898017E-02 a       858     0    43     1    18
 -8.1406363213648625E-01 a       859     0    43     1    19
 -5.8015131992877134E-01 a       860     0    43     1    20
 -1.4607646813641317E-01 a       861     0    44     1     1
 -9.5627860468622994E-01 a       862     0    44     1     2
 -5.1161586965912620E-01 a       863     0    44     1     3
  1.7180800976268986E+00 a       864     0    44     1     4
 -7.5474105800994906E-01 a       865     0    44     1     5
 -1.4558936661891870E+00 a       866     0    44     1     6
  9.4948049126800205E-01 a       867     0    44     1     7
 -1.3049051619432697E+00 a       868     0    44     1     8
  6.4438467849336456E-01 a       869     0    44     1     9
  8.6065378732943831E-01 a       870     0    44     1    10
  4.9552320144994383E-01 a       871     0    44     1    11
  3.2962455198677776E-01 a       872     0    44     1    12
  1.1545601804231498E+00 a       873     0    44     1    13
 -1.4314307275520122E-01 a       874     0    44     1    14
  2.2851087540760265E-01 a       875     0    44     1    15
 -1.5986805644240651E+00 a       876     0    44     1    16
  6.9067763286674844E-01 a       877     0    44     1    17
  1.4112330264837398E+00 a       878     0    44     1    18
  3.1971413208734906E-01 a       879     0    44     1    19
 -1.7975066692406823E+00 a       880     0    44     1    20
  4.6619295348979146E-03 a       881     0    45     1     1
 -7.5360405084686599E-01 a       882     0    45     1     2
  2.1650238608307770E-01 a       883     0    45     1     3
  1.3118668020250148E+00 a       884     0    45     1     4
 -1.3424545461313142E+00 a       885     0    45     1     5
 -1.5311542321487903E+00 a       886     0    45     1     6
  1.1885128995878393E-01 a       887     0    45     1     7
 -1.0970144654021525E+00 a       888     0    45     1     8
  5.0189059491757027E-01 a       889     0    45     1     9
  6.4513635255240787E-02 a       890     0    45     1    10
 -2.2944962685703099E-01 a       891     0    45     1    11
 -3.6460598803234773E-01 a       892     0    45     1    12
  9.3095357245506449E-01 a       893     0    45     1    13
 -6.5065917428166531E-01 a       894     0    45     1    14
 -1.9296594131423994E-01 a       895     0    45     1    15
 -1.9801544382520493E+00 a       896     0    45     1    16
  7.1642001611226225E-01 a       897     0    45     1    17
  9.8614742766274932E-01 a       898     0    45     1    18
  7.8912401898451812E-01 a       899     0    45     1    19
 -3.6934179152537883E-01 a       900     0    45     1    20
  2.2784726532440625E-02 a       901     0    46     1     1
  8.0714218346654376E-01 a       902     0    46     1     2
  4.3688515903087244E-01 a       903     0    46     1     3
 -1.2675499093807499E-01 a       904     0    46     1     4
 -5.3270396301828793E-01 a       905     0    46     1     5
 -1.1235521044316799E+00 a       906     0    46     1     6
 -1.0930397361971918E-01 a       907     0    46     1     7
  2.9308856493689667E-01 a       908     0    46     1     8
 -4.0925970335608686E-01 a       909     0    46     1     9
 -4.6895809441486314E-01 a       910     0    46     1    10
 -1.9402554306188843E-01 a       911     0    46     1    11
 -3.1768795065402694E-01 a       912     0    46     1    12
  3.9812961606016978E-01 a       913     0    46     1    13
  6.9273422315882371E-01 a       914     0    46     1    14
  1.3716596607473113E-02 a       915     0    46     1    15
 -6.1399116200496495E-01 a       916     0    46     1    16
 -6.4326432592649835E-02 a       917     0    46     1    17
 -7.6633595519718378E-01 a       918     0    46     1    18
  6.8585318892941144E-02 a       919     0    46     1    19
  3.7487046151106412E-01 a       920     0    46     1    20
 -1.9926049130638057E+00 a       921     0    47     1     1
 -7.3164794870820022E-03 a       922     0    47     1     2
  5.7300447129473631E-01 a       923     0    47     1     3
 -5.4485590821563634E-01 a       924     0    47     1     4
 -6.0716844761709210E-01 a       925     0    47     1     5
 -6.6507520292524561E-02 a       926     0    47     1     6
  9.1623033181960778E-01 a       927     0    47     1     7
  9.3246837260045856E-01 a       928     0    47     1     8
 -1.0613231878686074E+00 a       929     0    47     1     9
  2.8253918300493419E-01 a       930     0    47     1    10
  4.2397048539804233E-01 a       931     0    47     1    11
  1.7815343408499226E-01 a       932     0    47     1    12
 -7.8993859782026399E-01 a       933     0    47     1    13
  5.0190070776350293E-01 a       934     0    47     1    14
 -1.4051876282181657E+00 a       935     0    47     1    15
  1.6367036882269359E+00 a       936     0    47     1    16
 -4.5161345017085197E-01 a       937     0    47     1    17
  2.7842723883333655E+00 a       938     0    47     1    18
  6.8907770989591680E-02 a       939     0    47     1    19
  8.5741590470341622E-01 a       940     0    47     1    20
  3.9006066655330784E-01 a       941     0    48     1     1
 -4.2647989858300384E-01 a       942     0    48     1     2
 -3.7869582192891355E-01 a       943     0    48     1     3
 -4.5266697650584592E-01 a       944     0    48     1     4
  1.0861184598775739E-01 a       945     0    48     1     5
  4.6291465108228291E-01 a       946     0    48     1     6
 -6.7412354014734766E-01 a       947     0    48     1     7
  3.6965441139031308E-01 a       948     0    48     1     8
 -6.5438866933620388E-01 a       949     0    48     1     9
  2.4163681551004315E-01 a       950     0    48     1    10
 -1.3173894882250320E-01 a       951     0    48     1    11
  1.3050244352734591E-01 a       952     0    48     1    12
 -1.2043752492785960E+00 a       953     0    48     1    13
 -4.9785146657682515E-02 a       954     0    48     1    14
 -4.6484781236584088E-01 a       955     0    48     1    15
  3.3223347897325345E-01 a       956     0    48     1    16
  3.8456247473519189E-01 a       957     0    48     1    17
  1.9308390438088929E-01 a       958     0    48     1    18
 -1.5964571164711491E-02 a       959     0    48     1    19
  6.2412646384519318E-03 a       960     0    48     1    20
 -1.4201088269779401E-02 a       961     0    49     1     1
 -5.7715600548449630E-01 a       962     0    49     1     2
 -4.2737408672574251E-01 a       963     0    49     1     3
  1.5872614140039407E-01 a       964     0    49     1     4
 -1.0535409647948060E+00 a       965     0    49     1     5
  1.1239257235794449E+00 a       966     0    49     1     6
 -3.9907671080837226E-01 a       967     0    49     1     7
  3.9401882870995142E-01 a       968     0    49     1     8
 -5.8965694261032486E-01 a       969     0    49     1     9
  2.6017584917380704E-01 a       970     0    49     1    10
  1.1217715482428900E+00 a       971     0    49     1    11
  4.1870884437972133E-01 a       972     0    49     1    12
 -1.0708600458576263E+00 a       973     0    49     1    13
 -2.1765543584060559E-01 a       974     0    49     1    14
 -2.9994639545455885E-02 a       975     0    49     1    15
  5.2550503718142738E-01 a       976     0    49     1    16
  8.0592890524483679E-02 a       977     0    49     1    17
  4.9132814050989554E-01 a       978     0    49     1    18
 -9.5537501203921057E-02 a       979     0    49     1    19
 -2.4530896556782253E-01 a       980     0    49     1    20
 -7.7912803568505040E-01 a       981     0    50     1     1
  1.5399913636140708E-01 a       982     0    50     1     2
  3.5305022907294170E-01 a       983     0    50     1     3
  7.2465004329628302E-01 a       984     0    50     1     4
 -6.2087173798657809E-02 a       985     0    50     1     5
 -1.9612114269573463E-01 a       986     0    50     1     6
  3.6939390990818394E-01 a       987     0    50     1     7
 -4.4844702128630681E-01 a       988     0    50     1     8
  3.2676441216914537E-01 a       989     0    50     1     9
 -5.3057585957972075E-01 a       990     0    50     1    10
  1.4774715645301537E-01 a       991     0    50     1    11
 -6.0755799077051675E-01 a       992     0    50     1    12
  4.1630181375035435E-01 a       993     0    50     1    13
 -4.1478372984378470E-01 a       994     0    50     1    14
  4.1634961180353153E-01 a       995     0    50     1    15
 -6.4542431235169717E-01 a       996     0    50     1    16
  3.2142801421604489E-01 a       997     0    50     1    17
  7.0896622811305088E-01 a       998     0    50     1    18
  8.7716046098942635E-01 a       999     0    50     1    19
  1.2742592788764667E-01 a      1000     0    50     1    20
 -1.2460710376378489E-01 a      1001     0    51     1     1
  5.3537586052392061E-01 a      1002     0    51     1     2
  4.5701995124402994E-01 a      1003     0    51     1     3
 -8.9819766514805199E-01 a      1004     0    51     1     4
  2.0038937641028581E-01 a      1005     0    51     1     5
  4.9922861930519530E-01 a      1006     0    51     1     6
 -8.4011711788688659E-01 a      1007     0    51     1     7
 -2.3559177202635453E-01 a      1008     0    51     1     8
 -1.0748368538993280E-01 a      1009     0    51     1     9
 -7.7363844314643859E-01 a      1010     0    51     1    10
 -1.2722254883455153E-01 a      1011     0    51     1    11
 -1.9253448687127889E-01 a      1012     0    51     1    12
 -2.4635918796555731E-01 a      1013     0    51     1    13
  1.3088731731221792E-01 a      1014     0    51     1    14
  2.8081242311021132E-01 a      1015     0    51     1    15
  1.0513614024355422E+00 a      1016     0    51     1    16
  2.3516970991583050E-01 a      1017     0    51     1    17
 -6.5317971538699993E-01 a      1018     0    51     1    18
 -4.4617017552112131E-01 a      1019     0    51     1    19
 -1.2202278095526427E-01 a      1020     0    51     1    20
 -5.6092125097438350E-01 a      1021     0    52     1     1
 -4.8183351475912556E-01 a      1022     0    52     1     2
 -1.6296722103798600E-01 a      1023     0    52     1     3
 -7.8539074688899457E-01 a      1024     0    52     1     4
 -1.0957990923162815E+00 a      1025     0    52     1     5
 -5.4475780212151148E-01 a      1026     0    52     1     6
 -1.9610470643611444E-01 a      1027     0    52     1     7
  1.8285355723529320E-01 a      1028     0    52     1     8
 -4.4085083695956090E-01 a      1029     0    52     1     9
 -3.3896418612901608E-01 a      1030     0    52     1    10
  2.0856721532102396E-01 a      1031     0    52     1    11
  4.2607534193444258E-01 a      1032     0    52     1    12
 -2.7149946471015174E-01 a      1033     0    52     1    13
  7.1434665209617287E-01 a      1034     0    52     1    14
 -3.2330104732885961E-01 a      1035     0    52     1    15
  5.3000990983986751E-01 a      1036     0    52     1    16
  8.8438073156314423E-01 a      1037     0    52     1    17
  1.3768637099790804E+00 a      1038     0    52     1    18
 -4.2146211062295186E-02 a      1039     0    52     1    19
 -1.2546924228910841E-01 a      1040     0    52     1    20
 -1.5200961440322107E+00 a      1041     0    53     1     1
 -5.1697452123306098E-01 a      1042     0    53     1     2
 -9.8502358998725476E-02 a      1043     0    53     1     3
 -4.8218535105026072E-01 a      1044     0    53     1     4
  2.1573279174448223E-01 a      1045     0    53     1     5
  2.2672421382858450E+00 a      1046     0    53     1     6
  1.1891258835964531E+00 a      1047     0    53     1     7
  7.3195208175457671E-01 a      1048     0    53     1     8
 -1.4098186204651800E-01 a      1049     0    53     1     9
  2.3674982552453918E+00 a      1050     0    53     1    10
  3.6451758255883188E-01 a      1051     0    53     1    11
 -1.2239220824671273E+00 a      1052     0    53     1    12
 -3.9091584126871948E-01 a      1053     0    53     1    13
 -9.6508883817366264E-01 a      1054     0    53     1    14
 -1.6471561774890684E+00 a      1055     0    53     1    15
 -6.9698243289308859E-01 a      1056     0    53     1    16
 -1.9048535377899818E+00 a      1057     0    53     1    17
 -1.6022777973063476E+00 a      1058     0    53     1    18
  1.4717290580932056E+00 a      1059     0    53     1    19
  1.2558999915245388E+00 a      1060     0    53     1    20
  1.4323606048450568E+00 a      1061     0    54     1     1
 -2.0675452427685173E-01 a      1062     0    54     1     2
  7.9211108760255922E-01 a      1063     0    54     1     3
 -3.0997602617052005E+00 a      1064     0    54     1     4
  1.1883054368874657E+00 a      1065     0    54     1     5
  1.0197812289356942E+00 a      1066     0    54     1     6
 -2.9163265236882174E+00 a      1067     0    54     1     7
  5.2780102149228902E-01 a      1068     0    54     1     8
 -2.8760922847013459E+00 a      1069     0    54     1     9
  4.1175872441017319E-01 a      1070     0    54     1    10
  3.2928744906609891E-01 a      1071     0    54     1    11
 -6.1910632390815151E-02 a      1072     0    54     1    12
  2.0436784930715460E-01 a      1073     0    54     1    13
  2.5990131953529989E+00 a      1074     0    54     1    14
  1.7554268144523405E-01 a      1075     0    54     1    15
  4.8184646403299949E+00 a      1076     0    54     1    16
  2.4482055166588639E+00 a      1077     0    54     1    17
  2.0650959127592619E+00 a      1078     0    54     1    18
 -2.6109869316073677E+00 a      1079     0    54     1    19
 -7.8082748616970110E-01 a      1080     0    54     1    20
 -8.8594078672297449E-01 a      1081     0    55     1     1
 -1.3832631851578978E+00 a      1082     0    55     1     2
 -2.0639732243477865E-01 a      1083     0    55     1     3
 -6.8732903428713199E-01 a      1084     0    55     1     4
  7.2029385788264366E-01 a      1085     0    55     1     5
  2.6498491494602228E-01 a      1086     0    55     1     6
 -7.0871858284006151E-01 a      1087     0    55     1     7
 -9.2791866423109393E-01 a      1088     0    55     1     8
  1.0362117839351710E-01 a      1089     0    55     1     9
  2.1994862048000741E+00 a      1090     0    55     1    10
  3.3491234882282267E-01 a      1091     0    55     1    11
  7.0461953180524139E-01 a      1092     0    55     1    12
  5.2875442183609844E-01 a      1093     0    55     1    13
  1.5529459919237716E+00 a      1094     0    55     1    14
  7.9560511814265344E-01 a      1095     0    55     1    15
  4.5375684457250698E-01 a      1096     0    55     1    16
  3.1172868324679452E+00 a      1097     0    55     1    17
  2.3091787657185878E-01 a      1098     0    55     1    18
  4.7681981038640914E-01 a      1099     0    55     1    19
 -8.2496735067066951E-01 a      1100     0    55     1    20
 -1.5837379661213924E+00 a      1101     0    56     1     1
 -7.2843524187784636E-01 a      1102     0    56     1     2
 -4.7329138079832833E-01 a      1103     0    56     1     3
 -3.1427785304403522E-01 a      1104     0    56     1     4
  3.9108384746527997E-01 a      1105     0    56     1     5
  2.2080196138830575E+00 a      1106     0    56     1     6
  1.5285923498225595E+00 a      1107     0    56     1     7
  1.1670761574099964E+00 a      1108     0    56     1     8
 -4.4356441166499433E-01 a      1109     0    56     1     9
  2.1333970608289983E+00 a      1110     0    56     1    10
  3.2015772067957282E-01 a      1111     0    56     1    11
 -1.0563443438206677E+00 a      1112     0    56     1    12
 -6.8200846015674566E-01 a      1113     0    56     1    13
 -5.4735672007538561E-01 a      1114     0    56     1    14
 -1.6569251872947310E+00 a      1115     0    56     1    15
 -4.3599267367887984E-01 a      1116     0    56     1    16
 -2.1126912726825977E+00 a      1117     0    56     1    17
 -1.2102472506091315E+00 a      1118     0    56     1    18
  1.1461157947555289E+00 a      1119     0    56     1    19
  1.2832151686940545E+00 a      1120     0    56     1    20
 -2.9758736912255401E-01 a      1121     0    57     1     1
 -1.1040194970936845E+00 a      1122     0    57     1     2
  4.9337851791919246E-01 a      1123     0    57     1     3
 -1.4504876649418164E+00 a      1124     0    57     1     4
 -1.2987053842950342E+00 a      1125     0    57     1     5
 -9.0073371801748126E-02 a      1126     0    57     1     6
 -3.0764704727970876E-01 a      1127     0    57     1     7
 -9.4613563733450989E-01 a      1128     0    57     1     8
 -2.7116183602647237E-01 a      1129     0    57     1     9
 -2.4115699047098269E-01 a      1130     0    57     1    10
  7.3337921094148206E-01 a      1131     0    57     1    11
 -2.6206729647571381E-01 a      1132     0    57     1    12
 -4.4697563403895074E-01 a      1133     0    57     1    13
  5.7133349700251490E-01 a      1134     0    57     1    14
  7.8476749741910978E-01 a      1135     0    57     1    15
  1.9526524008812705E+00 a      1136     0    57     1    16
  1.4989655943306379E+00 a      1137     0    57     1    17
  2.4190470366281889E+00 a      1138     0    57     1    18
  7.2024784555512006E-02 a      1139     0    57     1    19
 -9.0228120434844816E-01 a      1140     0    57     1    20
  1.9703089545391964E-01 a      1141     0    58     1     1
 -1.1985504905941043E-01 a      1142     0    58     1     2
  1.7520566045542721E-01 a      1143     0    58     1     3
 -4.6049902324825215E-01 a      1144     0    58     1     4
 -3.0195863026794084E-01 a      1145     0    58     1     5
  2.2330049748248115E-01 a      1146     0    58     1     6
  7.4520915079963626E-02 a      1147     0    58     1     7
 -2.3657713582900569E-01 a      1148     0    58     1     8
  2.1365729958930571E-01 a      1149     0    58     1     9
  3.4267104445292934E-01 a      1150     0    58     1    10
  4.9618914202853498E-01 a      1151     0    58     1    11
 -6.0449140364892096E-01 a      1152     0    58     1    12
  6.4859070270201463E-02 a      1153     0    58     1    13
 -2.1624550675881044E-01 a      1154     0    58     1    14
  8.4103093861763026E-02 a      1155     0    58     1    15
  1.6815213728704859E-01 a      1156     0    58     1    16
 -1.5359234009737582E-01 a      1157     0    58     1    17
  4.8537973843517698E-02 a      1158     0    58     1    18
 -6.8448233897408395E-01 a      1159     0    58     1    19
  8.3846132851408031E-02 a      1160     0    58     1    20
  9.4721417592032842E-01 a      1161     0    59     1     1
 -1.1926307631465538E-01 a      1162     0    59     1     2
  4.5899716751543390E-01 a      1163     0    59     1     3
 -1.3982556867410654E+00 a      1164     0    59     1     4
 -3.4896045846591583E-01 a      1165     0    59     1     5
  2.5049037465544122E-01 a      1166     0    59     1     6
  3.3879538577933077E-01 a      1167     0    59     1     7
 -1.1902527518774442E+00 a      1168     0    59     1     8
  8.5747292087399507E-01 a      1169     0    59     1     9
  2.1501375740759457E-01 a      1170     0    59     1    10
  3.9417446160047409E-01 a      1171     0    59     1    11
 -2.6560262716269223E-01 a      1172     0    59     1    12
  3.6011675495829293E-01 a      1173     0    59     1    13
 -9.6465441086393711E-01 a      1174     0    59     1    14
  8.5893121603879452E-01 a      1175     0    59     1    15
  1.0954034103764145E+00 a      1176     0    59     1    16
  2.3953376710508629E+00 a      1177     0    59     1    17
 -1.5908462537086614E+00 a      1178     0    59     1    18
  3.4709347117331818E-01 a      1179     0    59     1    19
 -2.8367316438154794E-01 a      1180     0    59     1    20
  2.0450734382172269E+00 a      1181     0    60     1     1
  1.9957544760791921E+00 a      1182     0    60     1     2
 -2.3806197630333870E-01 a      1183     0    60     1     3
 -1.9331793138271782E+00 a      1184     0    60     1     4
 -8.6565611115075969E-01 a      1185     0    60     1     5
  3.1558903614759276E-01 a      1186     0    60     1     6
 -5.5520776879385392E-01 a      1187     0    60     1     7
 -1.7078623768912620E+00 a      1188     0    60     1     8
 -1.7383992978385019E+00 a      1189     0    60     1     9
 -2.6720100392905071E+00 a      1190     0    60     1    10
  7.0001378160873517E-01 a      1191     0    60     1    11
 -1.4921190441972912E-01 a      1192     0    60     1    12
 -1.3307454672429087E+00 a      1193     0    60     1    13
  1.4154309692209618E-01 a      1194     0    60     1    14
  6.8652031596843355E-01 a      1195     0    60     1    15
  4.2818073957408336E+00 a      1196     0    60     1    16
  1.6504798722232463E+00 a      1197     0    60     1    17
 -3.1216048251924072E-01 a      1198     0    60     1    18
 -1.2952151848529925E+00 a      1199     0    60     1    19
  4.5794250908502182E-01 a      1200     0    60     1    20
 -2.4052291011929463E+00 a      1201     0    61     1     1
 -1.9044200935547422E+00 a      1202     0    61     1     2
  5.6641841674818993E-01 a      1203     0    61     1     3
  1.1602650691269887E+00 a      1204     0    61     1     4
 -1.3520520093336414E+00 a      1205     0    61     1     5
  2.6100384549058953E-01 a      1206     0    61     1     6
  8.3062817324454341E-01 a      1207     0    61     1     7
 -1.7184300106222072E+00 a      1208     0    61     1     8
  1.0239119863809565E+00 a      1209     0    61     1     9
  1.0854159197834370E+00 a      1210     0    61     1    10
  5.8287915555461955E-01 a      1211     0    61     1    11
 -9.0736631827541459E-01 a      1212     0    61     1    12
 -1.4180301022584357E-01 a      1213     0    61     1    13
 -1.7915498604696085E+00 a      1214     0    61     1    14
 -5.3252639405358559E-01 a      1215     0    61     1    15
 -1.9869154602197983E+00 a      1216     0    61     1    16
  1.3290787862445270E+00 a      1217     0    61     1    17
  1.0356324015939092E-02 a      1218     0    61     1    18
  1.4313349407216398E+00 a      1219     0    61     1    19
 -4.8922751080379211E-02 a      1220     0    61     1    20
  8.6881908864690038E-01 a      1221     0    62     1     1
  4.1911157620953393E-01 a      1222     0    62     1     2
  5.2817376199115473E-01 a      1223     0    62     1     3
 -1.4526619771959095E+00 a      1224     0    62     1     4
 -3.5523335974460940E-01 a      1225     0    62     1     5
  1.8115443226155345E-01 a      1226     0    62     1     6
  4.1958391688444707E-01 a      1227     0    62     1     7
 -9.1544038023195728E-01 a      1228     0    62     1     8
  5.9696373073266651E-01 a      1229     0    62     1     9
 -1.5115350170626356E-02 a      1230     0    62     1    10
  3.2754875064931083E-01 a      1231     0    62     1    11
 -1.7673800122828459E-01 a      1232     0    62     1    12
  2.2149936346610266E-01 a      1233     0    62     1    13
 -8.5531254492986064E-01 a      1234     0    62     1    14
  7.0555506296315729E-01 a      1235     0    62     1    15
  1.0739214165219593E+00 a      1236     0    62     1    16
  2.0121950678296927E+00 a      1237     0    62     1    17
 -1.0514559354435020E+00 a      1238     0    62     1    18
 -2.4261024506462306E-01 a      1239     0    62     1    19
 -1.6680551934803661E-01 a      1240     0    62     1    20
  6.7351161813776739E-01 a      1241     0    63     1     1
  9.2694997722857186E-01 a      1242     0    63     1     2
  1.8356217236663719E-01 a      1243     0    63     1     3
 -3.5206718027329664E-02 a      1244     0    63     1     4
 -3.3199858026623025E-01 a      1245     0    63     1     5
 -7.0830040785903159E-01 a      1246     0    63     1     6
 -1.3795167292294047E-01 a      1247     0    63     1     7
 -7.3776691685844586E-01 a      1248     0    63     1     8
  3.1468776495816442E-01 a      1249     0    63     1     9
 -1.1980367172931332E+00 a      1250     0    63     1    10
 -3.5761022737465009E-01 a      1251     0    63     1    11
  6.2193654166505274E-01 a      1252     0    63     1    12
  6.3255081723548401E-01 a      1253     0    63     1    13
 -1.2988660047295160E+00 a      1254     0    63     1    14
 -2.1064798585893280E-01 a      1255     0    63     1    15
  4.3682770158362011E-01 a      1256     0    63     1    16
  1.0864450243770325E+00 a      1257     0    63     1    17
 -1.5037661575623040E-01 a      1258     0    63     1    18
 -5.5817762845409180E-01 a      1259     0    63     1    19
 -7.0592546360740929E-02 a      1260     0    63     1    20
 -1.6643482341932638E+00 a      1261     0    64     1     1
 -1.0154356648660643E+00 a      1262     0    64     1     2
  2.9984052962252034E-01 a      1263     0    64     1     3
  6.4312395085660223E-01 a      1264     0    64     1     4
 -8.1145785733656528E-01 a      1265     0    64     1     5
  1.1224405505652173E-01 a      1266     0    64     1     6
  3.6564910398456413E-01 a      1267     0    64     1     7
 -6.6966037026662095E-01 a      1268     0    64     1     8
  4.1435683897884151E-01 a      1269     0    64     1     9
  7.6391181214843973E-01 a      1270     0    64     1    10
  2.7148668742345422E-01 a      1271     0    64     1    11
 -5.5011746237625803E-01 a      1272     0    64     1    12
 -2.4937141390238577E-02 a      1273     0    64     1    13
 -1.0597719833567321E+00 a      1274     0    64     1    14
 -6.4700031054479712E-01 a      1275     0    64     1    15
 -1.1605797346318403E+00 a      1276     0    64     1    16
  4.6766334963962813E-01 a      1277     0    64     1    17
  5.8933618426806167E-01 a      1278     0    64     1    18
  8.0943729987960034E-01 a      1279     0    64     1    19
 -2.6878845330793068E-02 a      1280     0    64     1    20
  1.1006692600687857E+00 a      1281     0    65     1     1
  5.5537686835994060E-01 a      1282     0    65     1     2
  4.3473044914045578E-01 a      1283     0    65     1     3
 -1.5029113009706607E+00 a      1284     0    65     1     4
  5.1138594702042621E-02 a      1285     0    65     1     5
 -6.8785829613948890E-01 a      1286     0    65     1     6
  4.6572555871908439E-01 a      1287     0    65     1     7
 -1.6242818019086833E-01 a      1288     0    65     1     8
  2.1588152705109942E-01 a      1289     0    65     1     9
 -6.0479015446672102E-01 a      1290     0    65     1    10
 -3.6555032249538005E-01 a      1291     0    65     1    11
  3.5410767651889957E-01 a      1292     0    65     1    12
 -2.5156204064305376E-01 a      1293     0    65     1    13
 -3.3517538575076930E-02 a      1294     0    65     1    14
  2.7131662961074077E-01 a      1295     0    65     1    15
  1.3637411465846438E+00 a      1296     0    65     1    16
  1.0591463008129212E+00 a      1297     0    65     1    17
 -8.0811970461721316E-01 a      1298     0    65     1    18
 -9.0615054884221202E-01 a      1299     0    65     1    19
 -1.1542246175919839E-01 a      1300     0    65     1    20
 -1.6919095955273094E+00 a      1301     0    66     1     1
  2.6951472339558788E-02 a      1302     0    66     1     2
 -7.2200984603664475E-01 a      1303     0    66     1     3
  4.8474041788791569E+00 a      1304     0    66     1     4
 -2.0860419410403135E+00 a      1305     0    66     1     5
 -8.7288589696253871E-01 a      1306     0    66     1     6
  1.4519066066157509E+00 a      1307     0    66     1     7
 -2.5799224404735250E+00 a      1308     0    66     1     8
  1.5857716192069868E+00 a      1309     0    66     1     9
 -2.7211039885746313E-01 a      1310     0    66     1    10
 -6.8146381180460636E-01 a      1311     0    66     1    11
 -5.8815491152003185E-01 a      1312     0    66     1    12
  1.4471792046982155E+00 a      1313     0    66     1    13
 -3.5190691169154187E+00 a      1314     0    66     1    14
  5.2758418579714161E-01 a      1315     0    66     1    15
 -4.7516846836434157E+00 a      1316     0    66     1    16
 -6.2385796661472370E-01 a      1317     0    66     1    17
 -2.5930103350099039E+00 a      1318     0    66     1    18
  1.7561354805110354E+00 a      1319     0    66     1    19
 -4.8405845661722618E-01 a      1320     0    66     1    20
 -6.9940813814651004E-01 a      1321     0    67     1     1
 -2.1273192821260931E-02 a      1322     0    67     1     2
 -3.2479948752150550E-01 a      1323     0    67     1     3
 -1.4451089292444390E+00 a      1324     0    67     1     4
  1.5194884876602961E+00 a      1325     0    67     1     5
  8.6822488592088776E-01 a      1326     0    67     1     6
  1.0814535560968215E+00 a      1327     0    67     1     7
  3.0028366286762496E+00 a      1328     0    67     1     8
 -1.4160042094440712E+00 a      1329     0    67     1     9
  9.6539654640414263E-01 a      1330     0    67     1    10
  3.1598502829106939E-01 a      1331     0    67     1    11
  1.7302980806412474E-01 a      1332     0    67     1    12
 -1.1494589325298474E+00 a      1333     0    67     1    13
  6.8495333980530637E-01 a      1334     0    67     1    14
 -1.3027531061113073E+00 a      1335     0    67     1    15
  9.5640945245289011E-01 a      1336     0    67     1    16
 -1.6777849888691390E+00 a      1337     0    67     1    17
  8.5980342181337155E-01 a      1338     0    67     1    18
 -7.6627217276582615E-02 a      1339     0    67     1    19
  6.5245521787089189E-01 a      1340     0    67     1    20
 -1.7883237071605118E-01 a      1341     0    68     1     1
 -5.8079098358480985E-01 a      1342     0    68     1     2
 -5.1515965443173140E-01 a      1343     0    68     1     3
  1.3129562852192269E+00 a      1344     0    68     1     4
 -6.6584637198737229E-01 a      1345     0    68     1     5
  9.7918815567181544E-02 a      1346     0    68     1     6
  1.5035567928270788E-02 a      1347     0    68     1     7
 -6.6089108533333857E-02 a      1348     0    68     1     8
  9.2425130201134353E-01 a      1349     0    68     1     9
  8.0615467739849922E-01 a      1350     0    68     1    10
 -4.9776931897904955E-02 a      1351     0    68     1    11
 -1.0667340980629834E+00 a      1352     0    68     1    12
 -4.7179328600361498E-01 a      1353     0    68     1    13
 -2.1653511196912753E-01 a      1354     0    68     1    14
  4.4038497011301464E-01 a      1355     0    68     1    15
 -2.1750653334272649E+00 a      1356     0    68     1    16
 -2.0307781244731151E+00 a      1357     0    68     1    17
 -1.1389429892738279E+00 a      1358     0    68     1    18
  2.4226702653209231E+00 a      1359     0    68     1    19
  9.7717255797048796E-01 a      1360     0    68     1    20
 -7.6375804933417091E-01 a      1361     0    69     1     1
 -3.0356915911805682E-01 a      1362     0    69     1     2
  3.9195728991525636E-01 a      1363     0    69     1     3
  4.7958670071505519E-02 a      1364     0    69     1     4
  2.1087785820811583E-01 a      1365     0    69     1     5
 -3.2002235811725499E-01 a      1366     0    69     1     6
  1.0947417298229614E-01 a      1367     0    69     1     7
 -1.5692319145803955E-02 a      1368     0    69     1     8
  2.5606083546622899E-01 a      1369     0    69     1     9
 -9.4432131125930380E-02 a      1370     0    69     1    10
 -1.6141675069624331E-01 a      1371     0    69     1    11
  6.9337430559737623E-02 a      1372     0    69     1    12
 -1.8265507043845952E-01 a      1373     0    69     1    13
 -3.8218488269749451E-01 a      1374     0    69     1    14
 -6.5451143447381366E-01 a      1375     0    69     1    15
 -5.0943989975277681E-01 a      1376     0    69     1    16
 -2.6509919409662902E-01 a      1377     0    69     1    17
  7.1949168779988060E-01 a      1378     0    69     1    18
  2.3606696463262333E-01 a      1379     0    69     1    19
 -1.6673529957946759E-01 a      1380     0    69     1    20
 -5.2828519815899977E-01 a      1381     0    70     1     1
 -1.4548107189588441E-01 a      1382     0    70     1     2
 -9.1164880478389554E-02 a      1383     0    70     1     3
 -8.6480769729494478E-02 a      1384     0    70     1     4
 -3.7026690187182854E-01 a      1385     0    70     1     5
  2.7204420107001048E-01 a      1386     0    70     1     6
  9.7877782055066298E-01 a      1387     0    70     1     7
 -9.2021006753079471E-01 a      1388     0    70     1     8
  6.9297857351686598E-01 a      1389     0    70     1     9
  5.3134049707371600E-01 a      1390     0    70     1    10
 -7.7155633327108852E-01 a      1391     0    70     1    11
 -5.6950592165508152E-01 a      1392     0    70     1    12
 -5.7728508314369720E-01 a      1393     0    70     1    13
 -1.8403096934059832E-01 a      1394     0    70     1    14
 -3.2953222842839347E-01 a      1395     0    70     1    15
 -2.2969546913480628E-02 a      1396     0    70     1    16
 -1.0004755690460032E+00 a      1397     0    70     1    17
 -1.1870200168727734E+00 a      1398     0    70     1    18
  8.3538881866062253E-01 a      1399     0    70     1    19
  7.6949858265357884E-01 a      1400     0    70     1    20
 -6.0749850246647030E-01 a      1401     0    71     1     1
 -5.9983921458294609E-01 a      1402     0    71     1     2
  5.9991871718474510E-01 a      1403     0    71     1     3
 -7.6557456282447778E-01 a      1404     0    71     1     4
 -1.7670612009734439E+00 a      1405     0    71     1     5
  1.6041284251855044E+00 a      1406     0    71     1     6
 -7.1932306819925640E-01 a      1407     0    71     1     7
 -2.2030212419553856E+00 a      1408     0    71     1     8
 -1.9493688187038427E-01 a      1409     0    71     1     9
 -2.2451907565710498E+00 a      1410     0    71     1    10
  8.5303767609850123E-01 a      1411     0    71     1    11
 -2.6423050024552013E-02 a      1412     0    71     1    12
  1.0484516156002675E+00 a      1413     0    71     1    13
  5.6464430575108415E-01 a      1414     0    71     1    14
 -1.0212441961012300E-01 a      1415     0    71     1    15
  1.0955420014262904E+00 a      1416     0    71     1    16
  7.3713933467900306E-01 a      1417     0    71     1    17
  1.8425923933877828E+00 a      1418     0    71     1    18
  4.3299997448906981E-02 a      1419     0    71     1    19
  2.9304635243056366E-02 a      1420     0    71     1    20
 -4.0007888150643683E-01 a      1421     0    72     1     1
 -2.8121764139687161E-01 a      1422     0    72     1     2
 -7.5946617661887983E-02 a      1423     0    72     1     3
  3.1920340568890204E-01 a      1424     0    72     1     4
 -1.1217448755100021E+00 a      1425     0    72     1     5
  7.5792140891168125E-01 a      1426     0    72     1     6
 -1.4306564202045680E+00 a      1427     0    72     1     7
 -1.3909552739173195E-01 a      1428     0    72     1     8
 -8.9996595241969746E-01 a      1429     0    72     1     9
  1.0390785927232917E+00 a      1430     0    72     1    10
  3.0108703309655049E-01 a      1431     0    72     1    11
 -7.0162285086064824E-01 a      1432     0    72     1    12
  8.2495278057774046E-01 a      1433     0    72     1    13
 -1.0129975122100322E-01 a      1434     0    72     1    14
 -5.3240167068699862E-01 a      1435     0    72     1    15
 -1.4712281890738994E+00 a      1436     0    72     1    16
 -9.8960827246537697E-01 a      1437     0    72     1    17
  3.0948974854332995E-01 a      1438     0    72     1    18
 -6.4381820119357214E-01 a      1439     0    72     1    19
 -1.4006112249820318E-01 a      1440     0    72     1    20
  1.5875837579898555E+00 a      1441     0    73     1     1
  1.6617698612485052E+00 a      1442     0    73     1     2
  3.2434432530506613E-01 a      1443     0    73     1     3
 -1.4113973810926750E+00 a      1444     0    73     1     4
  4.9157585405091725E-01 a      1445     0    73     1     5
 -1.5465727838698271E+00 a      1446     0    73     1     6
  7.1466056303811909E-01 a      1447     0    73     1     7
  5.7672319352243395E-01 a      1448     0    73     1     8
 -1.2983215074370846E-01 a      1449     0    73     1     9
 -1.5860733492511285E+00 a      1450     0    73     1    10
 -9.9295842883171048E-01 a      1451     0    73     1    11
  9.1892060822296395E-01 a      1452     0    73     1    12
 -4.7348948109411743E-01 a      1453     0    73     1    13
  6.4737147222370650E-01 a      1454     0    73     1    14
 -1.8946210018591689E-01 a      1455     0    73     1    15
  1.8044479369533426E+00 a      1456     0    73     1    16
 -6.2333004986086071E-01 a      1457     0    73     1    17
 -1.4567029646071303E-01 a      1458     0    73     1    18
 -1.4596212953845322E+00 a      1459     0    73     1    19
 -1.4290494151602015E-01 a      1460     0    73     1    20
 -5.0328239288719032E-02 a      1461     0    74     1     1
  3.6621075259249491E-01 a      1462     0    74     1     2
  1.1734783755522710E-01 a      1463     0    74     1     3
  2.6075741581713507E-02 a      1464     0    74     1     4
 -9.1321135936937603E-01 a      1465     0    74     1     5
  5.0026824100219669E-01 a      1466     0    74     1     6
  5.4395553470041924E-01 a      1467     0    74     1     7
  8.8689945120477665E-01 a      1468     0    74     1     8
 -5.2072536728419727E-01 a      1469     0    74     1     9
 -1.1902561914493390E+00 a      1470     0    74     1    10
 -7.9050370318962038E-01 a      1471     0    74     1    11
 -1.7608834469244822E-01 a      1472     0    74     1    12
 -5.0711313300005112E-01 a      1473     0    74     1    13
 -4.4490281974669810E-01 a      1474     0    74     1    14
 -3.1273045489786205E-01 a      1475     0    74     1    15
  8.4134116162579042E-01 a      1476     0    74     1    16
 -1.6427860535804184E+00 a      1477     0    74     1    17
 -4.2915572280855220E-02 a      1478     0    74     1    18
  4.1573233577393121E-02 a      1479     0    74     1    19
  7.8133132883659817E-01 a      1480     0    74     1    20
 -5.2658917350267376E-01 a      1481     0    75     1     1
 -2.4604621322609579E-01 a      1482     0    75     1     2
 -1.0103708463792657E-01 a      1483     0    75     1     3
 -6.4671959350097208E-01 a      1484     0    75     1     4
  1.9822612048064077E+00 a      1485     0    75     1     5
 -3.1428891706224982E-01 a      1486     0    75     1     6
  3.1927354284651344E-01 a      1487     0    75     1     7
  2.7419767189336657E+00 a      1488     0    75     1     8
 -1.8118658589089698E+00 a      1489     0    75     1     9
  7.3967617453204992E-01 a      1490     0    75     1    10
  4.4436784130313067E-01 a      1491     0    75     1    11
  7.5093803124967040E-01 a      1492     0    75     1    12
 -1.4465563460523359E+00 a      1493     0    75     1    13
  8.7869074172418205E-01 a      1494     0    75     1    14
 -6.3987406293893201E-01 a      1495     0    75     1    15
  3.6060122228877090E-01 a      1496     0    75     1    16
 -5.3100299985667021E-01 a      1497     0    75     1    17
  1.9250965805264288E+00 a      1498     0    75     1    18
 -9.8734303608936100E-04 a      1499     0    75     1    19
 -1.4738720997982954E-01 a      1500     0    75     1    20
  5.9385190076227820E-02 a      1501     0    76     1     1
 -2.7667565309000719E-01 a      1502     0    76     1     2
  3.7379240842294209E-01 a      1503     0    76     1     3
 -4.9298581532310498E-01 a      1504     0    76     1     4
  1.6836457520749473E+00 a      1505     0    76     1     5
 -6.2030792682376801E-01 a      1506     0    76     1     6
  8.5320447890862272E-01 a      1507     0    76     1     7
  2.0024897877976908E+00 a      1508     0    76     1     8
 -1.5062267476287774E+00 a      1509     0    76     1     9
  1.0410659934694586E+00 a      1510     0    76     1    10
  3.6805446001768058E-03 a      1511     0    76     1    11
  8.1512928080741198E-01 a      1512     0    76     1    12
 -1.0862797076475652E+00 a      1513     0    76     1    13
  1.0752743579948709E+00 a      1514     0    76     1    14
 -1.2901682978767688E+00 a      1515     0    76     1    15
  4.3966768516004112E-01 a      1516     0    76     1    16
  4.0250547517371915E-01 a      1517     0    76     1    17
  1.4456264973909838E+00 a      1518     0    76     1    18
 -3.9910265435566045E-01 a      1519     0    76     1    19
  2.7518807035691201E-01 a      1520     0    76     1    20
 -1.0226933857949227E+00 a      1521     0    77     1     1
  3.4800004669886553E-01 a      1522     0    77     1     2
 -1.0843941108651857E-01 a      1523     0    77     1     3
  9.0047403323875308E-01 a      1524     0    77     1     4
 -4.5423750124548667E-01 a      1525     0    77     1     5
 -7.7703596541265019E-01 a      1526     0    77     1     6
  1.3514226654825061E+00 a      1527     0    77     1     7
  1.7019338606390130E-01 a      1528     0    77     1     8
  1.5282577164650930E+00 a      1529     0    77     1     9
  1.6969966680044459E+00 a      1530     0    77     1    10
 -1.2887059670552585E+00 a      1531     0    77     1    11
 -8.0972164406193170E-01 a      1532     0    77     1    12
 -1.3800317432373741E+00 a      1533     0    77     1    13
  2.1571572640571388E-02 a      1534     0    77     1    14
  2.6505243353601721E-01 a      1535     0    77     1    15
 -5.4053845325374472E-01 a      1536     0    77     1    16
 -1.7937725682232084E+00 a      1537     0    77     1    17
 -9.7743507859217515E-01 a      1538     0    77     1    18
  7.4337209885577771E-01 a      1539     0    77     1    19
  9.7224652259595479E-01 a      1540     0    77     1    20
  7.9550301320700567E-01 a      1541     0    78     1     1
  6.0967992902848350E-02 a      1542     0    78     1     2
  7.9850470188106967E-02 a      1543     0    78     1     3
  2.2741919701572003E-01 a      1544     0    78     1     4
  5.0638433317026288E-01 a      1545     0    78     1     5
 -5.9540832830306833E-01 a      1546     0    78     1     6
 -6.6293345235673840E-01 a      1547     0    78     1     7
  1.4996448100613477E-01 a      1548     0    78     1     8
  5.2903673542625507E-01 a      1549     0    78     1     9
 -3.8048931374673300E-01 a      1550     0    78     1    10
 -3.7569240916200919E-01 a      1551     0    78     1    11
  4.6116786528663284E-01 a      1552     0    78     1    12
  2.2009871130490999E-01 a      1553     0    78     1    13
  4.3486254286600756E-01 a      1554     0    78     1    14
  4.2720559060495378E-01 a      1555     0    78     1    15
 -8.8723464303790744E-01 a      1556     0    78     1    16
 -6.2103218163939955E-01 a      1557     0    78     1    17
  3.8051411790806589E-01 a      1558     0    78     1    18
 -4.2592020929665719E-01 a      1559     0    78     1    19
 -8.0831457571214871E-01 a      1560     0    78     1    20
  1.1817140105930595E+00 a      1561     0    79     1     1
  1.9612863336261985E-01 a      1562     0    79     1     2
 -2.0853375034317492E-01 a      1563     0    79     1     3
 -3.8766621166668253E-01 a      1564     0    79     1     4
  1.5386607275753084E+00 a      1565     0    79     1     5
  1.3834740161558092E+00 a      1566     0    79     1     6
 -1.2207195104305787E-01 a      1567     0    79     1     7
  1.0570613230029476E-01 a      1568     0    79     1     8
  2.5698821104797986E-01 a      1569     0    79     1     9
  1.8340036407342024E+00 a      1570     0    79     1    10
 -4.6796131124867330E-01 a      1571     0    79     1    11
 -1.0261926231596122E-02 a      1572     0    79     1    12
  1.9179908653069754E-02 a      1573     0    79     1    13
  1.9594509397398757E-01 a      1574     0    79     1    14
  3.4650997215258644E-01 a      1575     0    79     1    15
 -4.4086963243397442E-01 a      1576     0    79     1    16
 -1.9982704024112605E-01 a      1577     0    79     1    17
 -2.2028892903592272E+00 a      1578     0    79     1    18
  2.0099749268124750E-01 a      1579     0    79     1    19
  7.0263378341589619E-02 a      1580     0    79     1    20
  2.4780761360763456E-01 a      1581     0    80     1     1
 -4.7342064640234843E-01 a      1582     0    80     1     2
 -2.2013348357755917E-02 a      1583     0    80     1     3
 -1.5065010765067375E+00 a      1584     0    80     1     4
  1.7019692674779996E+00 a      1585     0    80     1     5
  1.5001898915908578E+00 a      1586     0    80     1     6
  5.1456320668237417E-02 a      1587     0    80     1     7
  5.5580446997107680E-01 a      1588     0    80     1     8
  8.7197151969442332E-01 a      1589     0    80     1     9
  2.6930087508807299E+00 a      1590     0    80     1    10
 -2.3032919879601305E-01 a      1591     0    80     1    11
  9.9033842929473503E-01 a      1592     0    80     1    12
 -8.8675609607821559E-01 a      1593     0    80     1    13
  1.0034584307978056E+00 a      1594     0    80     1    14
  1.6694774246719976E-01 a      1595     0    80     1    15
 -3.8309360989459529E-01 a      1596     0    80     1    16
  5.1964901281701927E-02 a      1597     0    80     1    17
 -1.2431537963660577E+00 a      1598     0    80     1    18
  4.1606186356590344E-02 a      1599     0    80     1    19
  2.3385083340493859E-01 a      1600     0    80     1    20
  5.6021943646196914E-01 a      1601     0    81     1     1
  3.1282070656690814E-01 a      1602     0    81     1     2
 -1.7568267556363457E-01 a      1603     0    81     1     3
 -9.5574901396108369E-03 a      1604     0    81     1     4
 -1.2825488389128790E+00 a      1605     0    81     1     5
  1.0541323631801138E+00 a      1606     0    81     1     6
 -8.8889913952494748E-01 a      1607     0    81     1     7
  4.3919399107813617E-01 a      1608     0    81     1     8
  7.3610578699199525E-01 a      1609     0    81     1     9
  3.6318396782463852E-01 a      1610     0    81     1    10
  5.2497014336306574E-02 a      1611     0    81     1    11
 -1.1282547681121753E+00 a      1612     0    81     1    12
 -6.9777052091761882E-02 a      1613     0    81     1    13
 -2.5888720735853310E-01 a      1614     0    81     1    14
  6.7005032646134076E-04 a      1615     0    81     1    15
  9.9571593932190960E-01 a      1616     0    81     1    16
 -1.1718167101612809E+00 a      1617     0    81     1    17
  7.0651557758462918E-03 a      1618     0    81     1    18
 -3.9511068815412093E-01 a      1619     0    81     1    19
  1.1242967850193191E+00 a      1620     0    81     1    20
  2.2582455872291658E+00 a      1621     0    82     1     1
  1.8456662338348999E+00 a      1622     0    82     1     2
 -2.6174913052400778E-01 a      1623     0    82     1     3
