################################################################################
# Neural network connection values (weights and biases).
################################################################################
# Col  Name       Description
################################################################################
# 1    connection Neural network connection value.
# 2    t          Connection type (a = weight, b = bias).
# 3    index      Index enumerating weights.
# 4    l_s        Starting point layer (end point layer for biases).
# 5    n_s        Starting point neuron in starting layer (end point neuron for biases).
# 6    l_e        End point layer.
# 7    n_e        End point neuron in end layer.
################################################################################
#                      1 2         3     4     5     6     7
#             connection t     index   l_s   n_s   l_e   n_e
############################################################
  2.9691907831252884E+00 a         1     0     1     1     1
  1.9361526693310694E-02 a         2     0     1     1     2
 -5.7443794183087904E-01 a         3     0     1     1     3
  2.6238037322591103E+00 a         4     0     1     1     4
 -1.0726887482967046E+01 a         5     0     1     1     5
 -3.6049044379278672E+00 a         6     0     1     1     6
 -5.7318503787080095E+00 a         7     0     1     1     7
 -7.9915923137317746E-01 a         8     0     1     1     8
  4.3097028689305859E+00 a         9     0     1     1     9
  3.5499353644532512E+00 a        10     0     1     1    10
 -3.5382831589164807E+00 a        11     0     1     1    11
 -9.4445182710136477E-01 a        12     0     1     1    12
  5.4816043435547854E+00 a        13     0     1     1    13
 -3.7610112426333639E+00 a        14     0     1     1    14
 -9.9754677378019458E+00 a        15     0     1     1    15
 -1.0328220052359585E+00 a        16     0     1     1    16
 -1.0972987292000125E+01 a        17     0     1     1    17
  4.9180267424572524E+00 a        18     0     1     1    18
 -5.8223390482514157E+00 a        19     0     1     1    19
  1.3589935837563994E+01 a        20     0     1     1    20
 -3.9093147208134056E+00 a        21     0     2     1     1
 -2.9237026908036117E+00 a        22     0     2     1     2
 -1.1833498688921143E-01 a        23     0     2     1     3
 -3.3337594316750527E+00 a        24     0     2     1     4
  1.0504267797387651E+01 a        25     0     2     1     5
  3.1986686026063973E+00 a        26     0     2     1     6
  6.7117629324231149E+00 a        27     0     2     1     7
  1.5794795493324216E+00 a        28     0     2     1     8
 -5.3619153710294007E+00 a        29     0     2     1     9
 -3.0679919784640011E+00 a        30     0     2     1    10
  7.4150758986805512E+00 a        31     0     2     1    11
  4.8374687660029725E+00 a        32     0     2     1    12
 -6.5553978955893291E+00 a        33     0     2     1    13
  8.8716314609989908E+00 a        34     0     2     1    14
  1.4755752786338563E+01 a        35     0     2     1    15
  1.1580816527194380E+00 a        36     0     2     1    16
  1.2790033515415924E+01 a        37     0     2     1    17
 -5.3429161978501130E+00 a        38     0     2     1    18
  7.3859338004888775E+00 a        39     0     2     1    19
 -1.4413610877108878E+01 a        40     0     2     1    20
 -2.9134654696604034E+00 a        41     0     3     1     1
  4.5207471459146115E-01 a        42     0     3     1     2
 -3.3834437405208745E-01 a        43     0     3     1     3
 -5.1105605499414819E-01 a        44     0     3     1     4
 -4.2487518768807653E-01 a        45     0     3     1     5
 -8.6295923945272779E-01 a        46     0     3     1     6
  3.5707576303552186E+00 a        47     0     3     1     7
 -1.2785094184706364E-01 a        48     0     3     1     8
  2.1701316673208875E+00 a        49     0     3     1     9
 -4.4632337962174455E+00 a        50     0     3     1    10
 -1.0958906792061776E+00 a        51     0     3     1    11
  1.1965859018584835E+00 a        52     0     3     1    12
  1.7028901761946442E+00 a        53     0     3     1    13
 -8.3190340102506155E-01 a        54     0     3     1    14
  4.8344910240910471E-01 a        55     0     3     1    15
 -3.9515929706522657E-01 a        56     0     3     1    16
 -9.8478865958693407E-01 a        57     0     3     1    17
 -1.8920758014561104E-01 a        58     0     3     1    18
 -6.2039335997745582E+00 a        59     0     3     1    19
  4.4729924568490276E+00 a        60     0     3     1    20
  2.3619922148284860E+00 a        61     0     4     1     1
  1.1398311242979937E+00 a        62     0     4     1     2
  2.2688122818038612E+00 a        63     0     4     1     3
  5.2658626144857190E-01 a        64     0     4     1     4
  6.8215325260566329E-01 a        65     0     4     1     5
  1.1936413517728501E+00 a        66     0     4     1     6
 -2.6525298094092138E+00 a        67     0     4     1     7
  4.6743352610298833E-01 a        68     0     4     1     8
 -2.0682861866242157E+00 a        69     0     4     1     9
  2.8699426508681429E+00 a        70     0     4     1    10
 -2.8638788567758228E-01 a        71     0     4     1    11
 -3.0384789968051087E+00 a        72     0     4     1    12
 -7.6633061273608971E-01 a        73     0     4     1    13
  2.7834048637864800E-01 a        74     0     4     1    14
 -5.3040788962033680E-01 a        75     0     4     1    15
  9.5140530304232396E-01 a        76     0     4     1    16
  2.8193069700143387E+00 a        77     0     4     1    17
 -1.5529577292229904E+00 a        78     0     4     1    18
  7.5535253604081420E+00 a        79     0     4     1    19
 -5.9383761898066565E+00 a        80     0     4     1    20
 -9.9923764751363842E-01 a        81     0     5     1     1
  3.3344005050054406E+00 a        82     0     5     1     2
 -1.7915658834165795E+00 a        83     0     5     1     3
 -3.2962020277691337E-02 a        84     0     5     1     4
 -8.3410584223053519E-01 a        85     0     5     1     5
 -6.4921499611765077E-01 a        86     0     5     1     6
 -3.2887353235304508E+00 a        87     0     5     1     7
 -4.7209197390198963E+00 a        88     0     5     1     8
  8.3018225693271575E-01 a        89     0     5     1     9
  1.1733777267291590E-01 a        90     0     5     1    10
 -5.5300271828846528E+00 a        91     0     5     1    11
 -1.2364024388914734E+00 a        92     0     5     1    12
  2.5153063553672395E+00 a        93     0     5     1    13
 -1.3251089648622034E+00 a        94     0     5     1    14
 -9.6061418724328114E+00 a        95     0     5     1    15
 -4.4564574393900863E-01 a        96     0     5     1    16
 -2.5664453534169773E+00 a        97     0     5     1    17
 -1.2974248929190413E-01 a        98     0     5     1    18
 -2.6745083997222197E+00 a        99     0     5     1    19
  2.6818396708563741E+00 a       100     0     5     1    20
  1.7639288950867318E-01 a       101     0     6     1     1
  4.3010179083813174E-02 a       102     0     6     1     2
 -3.3343208350893994E-01 a       103     0     6     1     3
  1.2158992723387483E+00 a       104     0     6     1     4
 -2.3953321493972859E-01 a       105     0     6     1     5
 -4.8451244930035844E-02 a       106     0     6     1     6
 -1.5823778756057598E+00 a       107     0     6     1     7
 -7.9719937796820084E-01 a       108     0     6     1     8
 -1.2934123125477772E+00 a       109     0     6     1     9
  1.2424847746304558E-01 a       110     0     6     1    10
  2.1209696518300153E-01 a       111     0     6     1    11
 -6.3126414211481585E-01 a       112     0     6     1    12
 -9.2127646238987393E-01 a       113     0     6     1    13
  3.6153697939493162E-01 a       114     0     6     1    14
  2.8213582407364679E-01 a       115     0     6     1    15
 -1.7122646184332319E-01 a       116     0     6     1    16
  3.3427177885049413E+00 a       117     0     6     1    17
 -1.3133865660465378E+00 a       118     0     6     1    18
  5.3861168884988486E-01 a       119     0     6     1    19
 -1.5911490960672225E+00 a       120     0     6     1    20
  4.4878997292150578E+00 a       121     0     7     1     1
 -1.0011046499174074E+00 a       122     0     7     1     2
 -7.8593605037295267E-01 a       123     0     7     1     3
  8.3388516047023775E-01 a       124     0     7     1     4
  6.7167176465344136E-01 a       125     0     7     1     5
  1.8744452739549526E+00 a       126     0     7     1     6
 -1.1168902413086499E+00 a       127     0     7     1     7
 -1.0268062010333969E+00 a       128     0     7     1     8
  8.9159283977153081E-01 a       129     0     7     1     9
 -1.8353152985684016E+00 a       130     0     7     1    10
 -4.8657621075254315E-01 a       131     0     7     1    11
  5.8124649711878651E-01 a       132     0     7     1    12
 -4.8129089586025431E-01 a       133     0     7     1    13
  2.0759242761419811E-01 a       134     0     7     1    14
  6.6867682831130815E-01 a       135     0     7     1    15
 -8.8872839282880589E-01 a       136     0     7     1    16
  4.2869794231504504E-01 a       137     0     7     1    17
 -4.2268036543610572E+00 a       138     0     7     1    18
 -1.2811593928191427E+00 a       139     0     7     1    19
 -1.7281483152513548E+00 a       140     0     7     1    20
  1.3784384130935619E+00 a       141     0     8     1     1
 -4.4721745675418673E-01 a       142     0     8     1     2
 -9.2373286268158794E-01 a       143     0     8     1     3
  1.5794107078111861E+00 a       144     0     8     1     4
 -1.5641126169036978E+00 a       145     0     8     1     5
  1.2214904062418013E+00 a       146     0     8     1     6
  2.0470469122578996E-01 a       147     0     8     1     7
 -5.1926129460319070E-01 a       148     0     8     1     8
  1.7314603044153192E+00 a       149     0     8     1     9
 -7.7360279623815875E-01 a       150     0     8     1    10
 -1.4308948795996801E+00 a       151     0     8     1    11
 -5.4161342062547402E-01 a       152     0     8     1    12
  8.8202538747221748E-01 a       153     0     8     1    13
 -7.0798665584857667E-01 a       154     0     8     1    14
  2.3519050183626473E+00 a       155     0     8     1    15
 -8.3848267119886755E-01 a       156     0     8     1    16
  8.2736660122533848E-02 a       157     0     8     1    17
 -4.8413548432598674E-01 a       158     0     8     1    18
 -7.0932141953842653E-01 a       159     0     8     1    19
  2.7709591365959424E-01 a       160     0     8     1    20
 -6.1675895484836166E-02 a       161     0     9     1     1
 -2.1408772962251361E-02 a       162     0     9     1     2
 -1.5064141813370402E-01 a       163     0     9     1     3
  7.8668111528098050E-01 a       164     0     9     1     4
 -7.7696210265117194E-01 a       165     0     9     1     5
  4.7615149104049082E-01 a       166     0     9     1     6
  1.8744190383365819E-01 a       167     0     9     1     7
  6.1535526677617014E-01 a       168     0     9     1     8
  9.8943379875640758E-01 a       169     0     9     1     9
 -1.6755688634473731E-01 a       170     0     9     1    10
 -1.2365367437679537E+00 a       171     0     9     1    11
 -1.8767361453156886E-01 a       172     0     9     1    12
 -3.9422029094027955E-01 a       173     0     9     1    13
  1.2617727218448790E-01 a       174     0     9     1    14
  1.0214774968034279E+00 a       175     0     9     1    15
 -6.0186363136921739E-01 a       176     0     9     1    16
 -3.0403002347437347E-01 a       177     0     9     1    17
  5.3420236172448998E-01 a       178     0     9     1    18
  4.1543842997250951E-03 a       179     0     9     1    19
 -1.5602054846894831E-01 a       180     0     9     1    20
  8.3385655044464213E-01 a       181     0    10     1     1
 -1.4941408596906511E-01 a       182     0    10     1     2
  4.9587773945150619E-02 a       183     0    10     1     3
  1.1902347964689552E+00 a       184     0    10     1     4
 -6.9186985249724567E-02 a       185     0    10     1     5
 -1.2898424825954871E-01 a       186     0    10     1     6
  1.2258801335526102E+00 a       187     0    10     1     7
  1.3165324637836892E-01 a       188     0    10     1     8
  2.2212662884245900E+00 a       189     0    10     1     9
 -1.0306765767969669E-02 a       190     0    10     1    10
 -6.4200634828906167E-01 a       191     0    10     1    11
  4.2690815124403997E-01 a       192     0    10     1    12
 -2.6983338415618496E-01 a       193     0    10     1    13
 -6.5692954304922369E-01 a       194     0    10     1    14
 -5.1605493735110808E-01 a       195     0    10     1    15
 -1.9981400739192615E-01 a       196     0    10     1    16
 -1.3160861562235677E+00 a       197     0    10     1    17
  6.1448859169599290E-01 a       198     0    10     1    18
 -4.0648079229908607E-01 a       199     0    10     1    19
  3.8637242277639666E-01 a       200     0    10     1    20
  2.7371795270381655E-01 a       201     0    11     1     1
  1.6896137202356745E+00 a       202     0    11     1     2
 -5.4282095024330856E-01 a       203     0    11     1     3
  1.1367970209973781E+00 a       204     0    11     1     4
 -1.8270707626942209E+00 a       205     0    11     1     5
  4.7234604781907941E-01 a       206     0    11     1     6
  1.7464018066856908E+00 a       207     0    11     1     7
 -7.3747635361434782E-01 a       208     0    11     1     8
  3.4654283016198848E+00 a       209     0    11     1     9
  1.3721541455774848E+00 a       210     0    11     1    10
 -2.0581468218697792E+00 a       211     0    11     1    11
 -1.2635652325986191E+00 a       212     0    11     1    12
  1.6763321377773057E+00 a       213     0    11     1    13
 -1.1226073552694642E+00 a       214     0    11     1    14
 -7.8372805987554850E-01 a       215     0    11     1    15
  7.1459873380247341E-01 a       216     0    11     1    16
  6.0217106681786847E-01 a       217     0    11     1    17
  3.3417832495039095E+00 a       218     0    11     1    18
 -4.9885987895489908E-01 a       219     0    11     1    19
  7.9959820340386623E-02 a       220     0    11     1    20
 -3.0878517245813686E-01 a       221     0    12     1     1
  2.1018600816293909E-01 a       222     0    12     1     2
 -4.7609999342557840E-01 a       223     0    12     1     3
  1.1325513486400558E+00 a       224     0    12     1     4
 -3.0128919771055362E-01 a       225     0    12     1     5
 -3.2753891185502643E-01 a       226     0    12     1     6
 -1.5407971698290683E+00 a       227     0    12     1     7
 -9.8590437158212585E-01 a       228     0    12     1     8
 -1.5235654509361476E+00 a       229     0    12     1     9
  1.4488912619216840E-01 a       230     0    12     1    10
  4.3762520154699880E-01 a       231     0    12     1    11
 -3.5869310518360770E-01 a       232     0    12     1    12
 -9.7935630159639664E-01 a       233     0    12     1    13
  4.5118302983387426E-01 a       234     0    12     1    14
  3.7744324269160395E-01 a       235     0    12     1    15
 -3.3363540035317836E-02 a       236     0    12     1    16
  3.5262722408965095E+00 a       237     0    12     1    17
 -1.2534044866875469E+00 a       238     0    12     1    18
  5.7490663935205599E-01 a       239     0    12     1    19
 -1.7765495167117926E+00 a       240     0    12     1    20
  3.7884132515447861E+00 a       241     0    13     1     1
 -1.0804279998715722E+00 a       242     0    13     1     2
 -6.5026610808802698E-01 a       243     0    13     1     3
  8.1967871858984931E-01 a       244     0    13     1     4
  4.5206995588689236E-01 a       245     0    13     1     5
  1.5171953859267391E+00 a       246     0    13     1     6
 -5.9497401953940188E-01 a       247     0    13     1     7
 -1.0411399188204276E+00 a       248     0    13     1     8
  1.1100114481546741E+00 a       249     0    13     1     9
 -1.8170580656444308E+00 a       250     0    13     1    10
 -2.2911267253283690E-01 a       251     0    13     1    11
  3.7241234713151827E-01 a       252     0    13     1    12
 -2.7180117399109721E-01 a       253     0    13     1    13
  8.0404409388308992E-02 a       254     0    13     1    14
  3.8272018430443866E-01 a       255     0    13     1    15
 -5.1431695018658341E-01 a       256     0    13     1    16
  4.4424180424896342E-01 a       257     0    13     1    17
 -3.8292141153863892E+00 a       258     0    13     1    18
 -1.3042156882166991E+00 a       259     0    13     1    19
 -1.5841703618945564E+00 a       260     0    13     1    20
  1.1095831684882886E+00 a       261     0    14     1     1
 -3.7699253548857836E-01 a       262     0    14     1     2
 -6.4831397817538094E-01 a       263     0    14     1     3
  1.5764631810235974E+00 a       264     0    14     1     4
 -1.1602515816871810E+00 a       265     0    14     1     5
  1.1275633736724440E+00 a       266     0    14     1     6
  2.2075637434099674E-01 a       267     0    14     1     7
 -3.4948681703621470E-01 a       268     0    14     1     8
  1.4879041175090804E+00 a       269     0    14     1     9
 -5.6315468945325708E-01 a       270     0    14     1    10
 -1.1836261224539892E+00 a       271     0    14     1    11
 -7.1901111075664204E-01 a       272     0    14     1    12
  7.0387301259990753E-01 a       273     0    14     1    13
 -6.7265745539877730E-01 a       274     0    14     1    14
  1.9769430111967852E+00 a       275     0    14     1    15
 -9.8783031906006291E-01 a       276     0    14     1    16
  2.3593518674203826E-01 a       277     0    14     1    17
 -9.9033382968425593E-02 a       278     0    14     1    18
 -6.9328088920480180E-01 a       279     0    14     1    19
  1.8861876260764879E-01 a       280     0    14     1    20
  1.6101187866140823E-01 a       281     0    15     1     1
  1.4189339448761387E-01 a       282     0    15     1     2
  1.8599641602250958E-01 a       283     0    15     1     3
  7.0702798571766645E-01 a       284     0    15     1     4
 -5.5615922451345101E-01 a       285     0    15     1     5
  1.8048699744826990E-01 a       286     0    15     1     6
  4.8129275075527383E-01 a       287     0    15     1     7
  2.7864609835510518E-01 a       288     0    15     1     8
  9.9775047556207241E-01 a       289     0    15     1     9
 -3.3929271840613728E-01 a       290     0    15     1    10
 -1.0416424425328070E+00 a       291     0    15     1    11
 -1.6887777575532609E-01 a       292     0    15     1    12
 -4.2455479556493492E-01 a       293     0    15     1    13
  8.7801046626053897E-02 a       294     0    15     1    14
  9.1341252303204123E-01 a       295     0    15     1    15
 -5.0387015278932223E-01 a       296     0    15     1    16
 -3.6521350748130711E-02 a       297     0    15     1    17
  6.7719870528219950E-01 a       298     0    15     1    18
  1.9659648892971415E-01 a       299     0    15     1    19
 -5.9439349734865574E-02 a       300     0    15     1    20
 -1.2292791437325334E+00 a       301     0    16     1     1
  1.9210580790929355E-01 a       302     0    16     1     2
  1.7127718672533734E-01 a       303     0    16     1     3
  3.5793961167568522E-01 a       304     0    16     1     4
 -4.5735275392959296E-01 a       305     0    16     1     5
 -3.3354425869486659E-01 a       306     0    16     1     6
  4.2790186773267341E-01 a       307     0    16     1     7
 -1.0191011270024741E+00 a       308     0    16     1     8
  2.4256789362088753E+00 a       309     0    16     1     9
  1.4834907222021976E+00 a       310     0    16     1    10
 -1.2628016418011161E+00 a       311     0    16     1    11
 -7.4846374528663817E-01 a       312     0    16     1    12
  9.2618067158896578E-01 a       313     0    16     1    13
 -5.9155330030872526E-02 a       314     0    16     1    14
 -8.3386635181128277E-01 a       315     0    16     1    15
  1.2906953286402494E+00 a       316     0    16     1    16
  1.1318184746435827E+00 a       317     0    16     1    17
  4.8687188441796359E+00 a       318     0    16     1    18
 -3.4257655708759166E-01 a       319     0    16     1    19
  4.0618542602103791E-01 a       320     0    16     1    20
 -2.1261509343465415E-01 a       321     0    17     1     1
  9.3416422291474310E-01 a       322     0    17     1     2
  4.6819232485826201E-01 a       323     0    17     1     3
  1.4546347756846176E+00 a       324     0    17     1     4
 -7.1965109877946010E-01 a       325     0    17     1     5
  5.9912244311219398E-01 a       326     0    17     1     6
 -5.5744012928761366E-01 a       327     0    17     1     7
  9.3869928985987394E-01 a       328     0    17     1     8
  4.3046358319495853E-01 a       329     0    17     1     9
  2.5122948832478981E-01 a       330     0    17     1    10
  7.7993435195822844E-02 a       331     0    17     1    11
 -4.8595995378302737E-01 a       332     0    17     1    12
 -6.9642746395519584E-01 a       333     0    17     1    13
  2.9927434892009475E-01 a       334     0    17     1    14
  1.8952070391951865E+00 a       335     0    17     1    15
 -4.0580101340272801E-01 a       336     0    17     1    16
  1.7904895711635678E+00 a       337     0    17     1    17
  1.8153538541713390E-01 a       338     0    17     1    18
  5.7057490266170741E-01 a       339     0    17     1    19
 -1.7636249398182515E+00 a       340     0    17     1    20
 -3.0124825927741687E+00 a       341     0    18     1     1
  6.9018306038511867E-01 a       342     0    18     1     2
 -2.7568484080298894E-01 a       343     0    18     1     3
  3.3787837403076693E-01 a       344     0    18     1     4
 -4.1057658882704945E-01 a       345     0    18     1     5
 -1.1316966845518677E+00 a       346     0    18     1     6
  1.5324062392337723E+00 a       347     0    18     1     7
 -1.1368048187729201E+00 a       348     0    18     1     8
 -3.7592289408244378E-01 a       349     0    18     1     9
  1.6350182964667779E+00 a       350     0    18     1    10
  7.3120838681906375E-01 a       351     0    18     1    11
 -8.2535584585619395E-02 a       352     0    18     1    12
 -5.1566365267493841E-01 a       353     0    18     1    13
  2.3168083919138698E-02 a       354     0    18     1    14
 -2.0763331744744349E+00 a       355     0    18     1    15
  1.2929356335139497E+00 a       356     0    18     1    16
  2.3833684201677432E+00 a       357     0    18     1    17
  2.1449799410931041E+00 a       358     0    18     1    18
  9.4371802326177434E-01 a       359     0    18     1    19
 -5.4166551083557302E-01 a       360     0    18     1    20
 -2.0766956826399072E+00 a       361     0    19     1     1
 -4.6642428145989490E-01 a       362     0    19     1     2
  2.8695570056596587E-01 a       363     0    19     1     3
  5.3557960351942331E-02 a       364     0    19     1     4
  6.2167351732745391E-01 a       365     0    19     1     5
 -1.0643910373864653E+00 a       366     0    19     1     6
  2.4571421282678485E+00 a       367     0    19     1     7
 -1.1719383707413642E+00 a       368     0    19     1     8
  1.1507584697071547E+00 a       369     0    19     1     9
  1.1505552909895504E+00 a       370     0    19     1    10
  3.2448210932355304E-01 a       371     0    19     1    11
  4.0202356091512303E-01 a       372     0    19     1    12
  5.0702421833068179E-01 a       373     0    19     1    13
 -4.0369051128730910E-01 a       374     0    19     1    14
 -1.9522873656173443E+00 a       375     0    19     1    15
  1.6224154741546779E+00 a       376     0    19     1    16
  7.7449355432345668E-01 a       377     0    19     1    17
  2.9719162244745454E+00 a       378     0    19     1    18
  5.2679910493141890E-01 a       379     0    19     1    19
 -5.7994869767253820E-01 a       380     0    19     1    20
 -1.6686840415130224E+00 a       381     0    20     1     1
  2.3588225784575795E-01 a       382     0    20     1     2
 -1.1470720535820639E-01 a       383     0    20     1     3
  3.7493747536207356E-01 a       384     0    20     1     4
 -9.8616020542934668E-02 a       385     0    20     1     5
 -3.5718184372305378E-01 a       386     0    20     1     6
  1.6946905032975548E+00 a       387     0    20     1     7
 -8.0737697095875538E-01 a       388     0    20     1     8
  1.2148344505250475E+00 a       389     0    20     1     9
  1.1050204913523676E+00 a       390     0    20     1    10
  1.1184237882385355E-01 a       391     0    20     1    11
 -3.1063233076482422E-01 a       392     0    20     1    12
  3.1824063728264274E-01 a       393     0    20     1    13
 -6.4912504357274181E-01 a       394     0    20     1    14
 -4.0546826714133433E-01 a       395     0    20     1    15
  7.0755762797040100E-01 a       396     0    20     1    16
  1.1864019483612080E+00 a       397     0    20     1    17
  3.1726043179636241E+00 a       398     0    20     1    18
  2.5845746939809566E-01 a       399     0    20     1    19
 -4.6173801183878183E-01 a       400     0    20     1    20
  1.0056015994677132E+00 a       401     0    21     1     1
  1.0251307306515191E-01 a       402     0    21     1     2
  3.9504893080822379E-01 a       403     0    21     1     3
 -4.9680178366108335E-01 a       404     0    21     1     4
  7.0488328669029443E-01 a       405     0    21     1     5
  1.5136727108670836E-01 a       406     0    21     1     6
 -5.9304694778815381E-01 a       407     0    21     1     7
 -1.7548620267130421E+00 a       408     0    21     1     8
  8.8675086314794005E-01 a       409     0    21     1     9
  5.1224710586396083E-01 a       410     0    21     1    10
 -5.2664317044685782E-01 a       411     0    21     1    11
 -7.7865028208203457E-01 a       412     0    21     1    12
  3.3954089250035147E-01 a       413     0    21     1    13
  9.0690135813692799E-02 a       414     0    21     1    14
 -2.5352686690262061E-01 a       415     0    21     1    15
  1.1642634683446620E+00 a       416     0    21     1    16
  1.7841090082731329E-03 a       417     0    21     1    17
  6.5708710538486292E-01 a       418     0    21     1    18
  9.7524289469228875E-01 a       419     0    21     1    19
  1.6890764019776311E-01 a       420     0    21     1    20
  2.8166611946264939E+00 a       421     0    22     1     1
  2.3006306815744179E-01 a       422     0    22     1     2
 -7.7783642281863763E-01 a       423     0    22     1     3
  3.1049731109533590E-01 a       424     0    22     1     4
 -6.2924014896463965E-01 a       425     0    22     1     5
  3.4366206306429947E-01 a       426     0    22     1     6
 -7.0057057379967799E-02 a       427     0    22     1     7
 -1.6867972981720949E+00 a       428     0    22     1     8
 -2.6332417668896085E-01 a       429     0    22     1     9
 -4.3511935093367832E-01 a       430     0    22     1    10
 -9.0033696377352779E-01 a       431     0    22     1    11
 -7.7242954450013890E-01 a       432     0    22     1    12
  3.8788714161598531E-01 a       433     0    22     1    13
 -1.0767534911010137E+00 a       434     0    22     1    14
 -2.2429137343551198E-01 a       435     0    22     1    15
 -2.0191538536084644E-01 a       436     0    22     1    16
 -8.2261124417229559E-01 a       437     0    22     1    17
 -3.5421719159606191E+00 a       438     0    22     1    18
 -2.3730022289563385E-01 a       439     0    22     1    19
  1.6640591932100894E+00 a       440     0    22     1    20
 -2.6679695280271742E+00 a       441     0    23     1     1
  7.7101589203026644E-01 a       442     0    23     1     2
  1.4468970991186395E-01 a       443     0    23     1     3
 -6.4357239443230474E-01 a       444     0    23     1     4
 -4.3776405675743163E-01 a       445     0    23     1     5
 -6.3409678975939232E-01 a       446     0    23     1     6
  1.9488200864175664E+00 a       447     0    23     1     7
 -1.5509336641795071E+00 a       448     0    23     1     8
 -2.1581427253944286E-02 a       449     0    23     1     9
  1.5628153475037048E+00 a       450     0    23     1    10
  4.2340352312033697E-01 a       451     0    23     1    11
 -2.7906038018614732E-02 a       452     0    23     1    12
 -3.2094128641869701E-01 a       453     0    23     1    13
 -3.5949709487072927E-02 a       454     0    23     1    14
 -3.4595457471424709E+00 a       455     0    23     1    15
  1.2216022339650523E+00 a       456     0    23     1    16
  1.4275144797713206E+00 a       457     0    23     1    17
  2.4894781403105095E+00 a       458     0    23     1    18
  5.7595356676091025E-01 a       459     0    23     1    19
  6.9149841341270379E-01 a       460     0    23     1    20
  6.1052931465910554E-01 a       461     0    24     1     1
 -9.5700195712246361E-01 a       462     0    24     1     2
  1.6199062270335876E+00 a       463     0    24     1     3
  1.3995044714944895E+00 a       464     0    24     1     4
 -1.1558328332041010E+00 a       465     0    24     1     5
 -1.0992178005816791E+00 a       466     0    24     1     6
 -2.3962142788486820E+00 a       467     0    24     1     7
  2.8007274913545588E-01 a       468     0    24     1     8
 -1.7822715897379808E+00 a       469     0    24     1     9
 -8.6534437153868760E-01 a       470     0    24     1    10
 -3.4421979227165034E-01 a       471     0    24     1    11
  1.2060176960857054E+00 a       472     0    24     1    12
  6.6329485711294511E-01 a       473     0    24     1    13
 -2.4710467448080897E-01 a       474     0    24     1    14
  5.3054735850994241E+00 a       475     0    24     1    15
 -1.5390432689264160E+00 a       476     0    24     1    16
  1.2319519289830179E+00 a       477     0    24     1    17
  1.4399195706854018E+00 a       478     0    24     1    18
  1.0421624787535710E+00 a       479     0    24     1    19
  7.4919903881373506E-01 a       480     0    24     1    20
 -2.3521340962964561E+00 a       481     0    25     1     1
 -1.0247316564209369E-01 a       482     0    25     1     2
  1.4228680073252173E+00 a       483     0    25     1     3
 -7.6820961252873865E-01 a       484     0    25     1     4
  5.4742221378139100E-01 a       485     0    25     1     5
 -1.2170679282659014E+00 a       486     0    25     1     6
  2.3293411283144723E+00 a       487     0    25     1     7
 -1.3536472738162613E+00 a       488     0    25     1     8
  7.6711409986875501E-01 a       489     0    25     1     9
  1.5785784731846093E+00 a       490     0    25     1    10
  4.4113414884271990E-01 a       491     0    25     1    11
  5.5070137760281046E-01 a       492     0    25     1    12
  8.0611582334361553E-01 a       493     0    25     1    13
 -4.1125752093296906E-02 a       494     0    25     1    14
 -2.5033547192620906E+00 a       495     0    25     1    15
  1.9045389992401487E+00 a       496     0    25     1    16
  5.7504407166488181E-01 a       497     0    25     1    17
  4.3699968513831351E+00 a       498     0    25     1    18
  1.0071436714858082E+00 a       499     0    25     1    19
  5.0630236991104471E-01 a       500     0    25     1    20
 -1.1793088571071721E+00 a       501     0    26     1     1
  7.8779625632883810E-01 a       502     0    26     1     2
  1.0666324800082928E-01 a       503     0    26     1     3
 -5.2631258242586798E-01 a       504     0    26     1     4
  9.0672690129927391E-01 a       505     0    26     1     5
 -8.1336482515136155E-01 a       506     0    26     1     6
  1.0598569385527852E+00 a       507     0    26     1     7
 -1.2359731261020062E+00 a       508     0    26     1     8
 -1.0427557425732131E-01 a       509     0    26     1     9
  1.6579767926043618E+00 a       510     0    26     1    10
  1.2709993192497584E+00 a       511     0    26     1    11
 -5.0729844844961014E-01 a       512     0    26     1    12
  7.3599893763483845E-02 a       513     0    26     1    13
 -1.2342766873417527E-01 a       514     0    26     1    14
 -1.5146238026035341E+00 a       515     0    26     1    15
  1.4202267425640687E+00 a       516     0    26     1    16
  1.4867567978812197E+00 a       517     0    26     1    17
  2.3501725681442660E+00 a       518     0    26     1    18
  7.0283583415194684E-01 a       519     0    26     1    19
 -1.1402705607973884E+00 a       520     0    26     1    20
 -3.5307477760808836E-01 a       521     0    27     1     1
 -2.1162330720132034E-02 a       522     0    27     1     2
 -4.1693268715916548E-01 a       523     0    27     1     3
  2.7233471081643656E-01 a       524     0    27     1     4
  7.7333799291275329E-01 a       525     0    27     1     5
 -1.1549728026523602E+00 a       526     0    27     1     6
  1.0224587545820065E+00 a       527     0    27     1     7
 -9.8922545017949037E-01 a       528     0    27     1     8
  5.6077862830764302E-01 a       529     0    27     1     9
  6.0304988258103209E-01 a       530     0    27     1    10
  9.9506978949245373E-01 a       531     0    27     1    11
  8.9158261064040067E-01 a       532     0    27     1    12
 -1.2562171585977222E-02 a       533     0    27     1    13
 -7.5697502919505566E-01 a       534     0    27     1    14
 -1.2226061329833029E+00 a       535     0    27     1    15
  3.8293110262278690E-01 a       536     0    27     1    16
  3.9382610575381710E-01 a       537     0    27     1    17
 -5.3461250301269558E-01 a       538     0    27     1    18
 -8.1773328044609561E-01 a       539     0    27     1    19
 -7.4949561569175160E-01 a       540     0    27     1    20
 -8.8146993548577235E-01 a       541     0    28     1     1
 -4.3180291525352432E-01 a       542     0    28     1     2
  2.6104820178357369E-01 a       543     0    28     1     3
 -1.7530267411741256E+00 a       544     0    28     1     4
  1.5171205061052793E+00 a       545     0    28     1     5
 -2.5552661949718969E-01 a       546     0    28     1     6
 -2.1585541644662141E+00 a       547     0    28     1     7
 -6.1462110757128907E-01 a       548     0    28     1     8
 -2.9186287894357177E+00 a       549     0    28     1     9
 -2.0467375915123873E-01 a       550     0    28     1    10
  1.2329162582918969E+00 a       551     0    28     1    11
  9.3489266173522789E-01 a       552     0    28     1    12
 -2.5533562649915820E-01 a       553     0    28     1    13
  9.0541682402975374E-02 a       554     0    28     1    14
 -2.4883188141882528E-01 a       555     0    28     1    15
 -6.5501964984841399E-01 a       556     0    28     1    16
  7.1825731720916930E-01 a       557     0    28     1    17
 -4.7292531137152516E-01 a       558     0    28     1    18
  8.3835556535190237E-01 a       559     0    28     1    19
 -4.6022005099793278E-01 a       560     0    28     1    20
  3.0719050734580451E+00 a       561     0    29     1     1
  5.1332695705891129E-01 a       562     0    29     1     2
  7.3897171014800633E-01 a       563     0    29     1     3
 -1.9923465138364198E+00 a       564     0    29     1     4
  3.1853688430106795E-02 a       565     0    29     1     5
  2.5643896670564637E+00 a       566     0    29     1     6
 -8.4494881098027741E-01 a       567     0    29     1     7
 -1.7193527578891259E+00 a       568     0    29     1     8
 -1.2719638378208533E+00 a       569     0    29     1     9
 -1.1964082864961949E+00 a       570     0    29     1    10
 -4.1313977446483613E-01 a       571     0    29     1    11
  3.4730011984858439E-01 a       572     0    29     1    12
 -9.2308055416696144E-01 a       573     0    29     1    13
  1.2122269749517502E+00 a       574     0    29     1    14
 -2.6556033304239697E+00 a       575     0    29     1    15
 -9.6075389009785694E-01 a       576     0    29     1    16
  4.3408880036024339E-01 a       577     0    29     1    17
 -1.6072821866320637E+00 a       578     0    29     1    18
  1.4578749826640511E-01 a       579     0    29     1    19
  2.0804054818625541E+00 a       580     0    29     1    20
  5.5853570173666023E-01 a       581     0    30     1     1
  1.2275552450206300E+00 a       582     0    30     1     2
  5.3676564193598932E-02 a       583     0    30     1     3
 -6.8635775987443903E-01 a       584     0    30     1     4
 -4.0123268578548515E-01 a       585     0    30     1     5
  7.3733048030863990E-01 a       586     0    30     1     6
  7.5554593981561191E-01 a       587     0    30     1     7
 -1.8412193353828643E+00 a       588     0    30     1     8
  9.3545623153869717E-01 a       589     0    30     1     9
  5.3227451914364887E-01 a       590     0    30     1    10
  2.4494449298337853E+00 a       591     0    30     1    11
 -2.2286951980521980E-01 a       592     0    30     1    12
 -1.7082089062679826E+00 a       593     0    30     1    13
  8.5151949946625083E-01 a       594     0    30     1    14
 -1.8807379466827137E+00 a       595     0    30     1    15
  4.4960079736496955E-01 a       596     0    30     1    16
  1.3037864628236822E+00 a       597     0    30     1    17
 -1.3673622606576104E+00 a       598     0    30     1    18
 -1.9350092319732255E+00 a       599     0    30     1    19
  3.8498284387002435E-01 a       600     0    30     1    20
 -7.1043726106925154E-01 a       601     0    31     1     1
  1.2903119545063004E+00 a       602     0    31     1     2
 -7.6738210633092649E-02 a       603     0    31     1     3
  1.1001298846637937E+00 a       604     0    31     1     4
 -7.3776574049242827E-01 a       605     0    31     1     5
  1.0282796264165672E-01 a       606     0    31     1     6
  1.8506397541036042E+00 a       607     0    31     1     7
  1.0441514319954541E+00 a       608     0    31     1     8
  4.7260682583529077E+00 a       609     0    31     1     9
  3.0167971735468395E+00 a       610     0    31     1    10
  2.0083941306785746E+00 a       611     0    31     1    11
 -5.1036849472505297E-01 a       612     0    31     1    12
 -8.2530308005321584E-01 a       613     0    31     1    13
  1.8771058785848120E+00 a       614     0    31     1    14
 -1.6037953505618857E-01 a       615     0    31     1    15
  1.6176812168270840E+00 a       616     0    31     1    16
 -1.0823096607553728E+00 a       617     0    31     1    17
 -8.7434766123843294E-02 a       618     0    31     1    18
 -3.3455253068817997E-01 a       619     0    31     1    19
 -3.4040631242208437E+00 a       620     0    31     1    20
  5.7921550026649253E+00 a       621     0    32     1     1
  2.1904529343275003E-01 a       622     0    32     1     2
  1.4108719697722885E+00 a       623     0    32     1     3
 -1.3163102330299365E+00 a       624     0    32     1     4
 -5.4335495606824991E-02 a       625     0    32     1     5
  2.6721919034343329E+00 a       626     0    32     1     6
 -3.0364001330137200E+00 a       627     0    32     1     7
 -1.6612129730172340E+00 a       628     0    32     1     8
 -3.1521982117528002E-01 a       629     0    32     1     9
 -1.7350050695046955E+00 a       630     0    32     1    10
 -2.2197942703248050E-01 a       631     0    32     1    11
  8.2155930154907172E-02 a       632     0    32     1    12
  4.1358559101800413E-01 a       633     0    32     1    13
  1.7611200080944669E+00 a       634     0    32     1    14
 -3.6157903711354455E-01 a       635     0    32     1    15
 -1.3709120934012637E+00 a       636     0    32     1    16
 -1.7733164525858363E+00 a       637     0    32     1    17
 -3.0910029556854313E+00 a       638     0    32     1    18
 -8.6119693568786526E-01 a       639     0    32     1    19
  2.1801450106422555E+00 a       640     0    32     1    20
  4.3132726459747026E+00 a       641     0    33     1     1
 -2.0250981778050212E-01 a       642     0    33     1     2
  1.1509515068022463E-01 a       643     0    33     1     3
 -9.6419474760395940E-01 a       644     0    33     1     4
  2.6495076616190798E+00 a       645     0    33     1     5
 -1.5023261817722144E-01 a       646     0    33     1     6
 -2.2663914703189842E+00 a       647     0    33     1     7
 -2.2218766748667855E+00 a       648     0    33     1     8
 -3.3191298620803984E+00 a       649     0    33     1     9
 -2.9483934237318371E-01 a       650     0    33     1    10
  1.1994897874302977E+00 a       651     0    33     1    11
 -2.5534579117997053E-01 a       652     0    33     1    12
 -1.2034901173075050E+00 a       653     0    33     1    13
  5.9267060210947753E-01 a       654     0    33     1    14
 -6.7179050300797105E-01 a       655     0    33     1    15
  1.2766775856825865E-01 a       656     0    33     1    16
  4.0727274957878623E-01 a       657     0    33     1    17
 -5.0911031104968840E+00 a       658     0    33     1    18
  1.5669829247737197E+00 a       659     0    33     1    19
 -4.8728060669315393E-01 a       660     0    33     1    20
  3.9878919830124965E-01 a       661     0    34     1     1
 -5.1536438392460422E-02 a       662     0    34     1     2
 -2.2989993839969730E-01 a       663     0    34     1     3
 -1.5774967784923949E-01 a       664     0    34     1     4
  6.4042360301691004E-01 a       665     0    34     1     5
 -3.4769037040451284E-02 a       666     0    34     1     6
 -2.2367157868562415E-01 a       667     0    34     1     7
  2.4944230691463262E-01 a       668     0    34     1     8
  2.5548075669117465E-01 a       669     0    34     1     9
  2.0383721777263314E-01 a       670     0    34     1    10
  2.4611961017688985E-01 a       671     0    34     1    11
 -1.9031540255333723E-01 a       672     0    34     1    12
  1.0684751219573410E+00 a       673     0    34     1    13
 -7.1629467701910965E-01 a       674     0    34     1    14
 -8.5716479096671427E-01 a       675     0    34     1    15
 -3.2074463561457089E-01 a       676     0    34     1    16
  7.9472131526554343E-02 a       677     0    34     1    17
  2.4844205827428162E-02 a       678     0    34     1    18
 -1.4947511560473282E-02 a       679     0    34     1    19
 -3.2110673312475135E-01 a       680     0    34     1    20
  1.8398621378634568E+00 a       681     0    35     1     1
  6.2356615970839702E-01 a       682     0    35     1     2
 -8.1576049779915205E-01 a       683     0    35     1     3
 -1.7929731098412209E+00 a       684     0    35     1     4
 -9.5685571339622744E-01 a       685     0    35     1     5
 -1.3157687393413362E+00 a       686     0    35     1     6
  1.7354603527772212E+00 a       687     0    35     1     7
  5.1568780751975618E-01 a       688     0    35     1     8
  2.7691295431927228E+00 a       689     0    35     1     9
  6.5999295423904047E-01 a       690     0    35     1    10
 -3.5735280846402713E+00 a       691     0    35     1    11
  1.3956674399419791E+00 a       692     0    35     1    12
  3.3226296488734817E+00 a       693     0    35     1    13
 -2.5100585371607043E-01 a       694     0    35     1    14
 -7.0046597898870500E-01 a       695     0    35     1    15
 -1.7042749778602917E-01 a       696     0    35     1    16
 -5.2869378349359524E+00 a       697     0    35     1    17
 -1.5327244140803606E+00 a       698     0    35     1    18
 -2.5214280262930657E+00 a       699     0    35     1    19
  2.9889200874401589E+00 a       700     0    35     1    20
  1.6756368344236428E-01 a       701     0    36     1     1
 -7.9419336518756389E-01 a       702     0    36     1     2
 -1.5300779300964344E+00 a       703     0    36     1     3
 -2.0599537909082641E-01 a       704     0    36     1     4
  1.2918058651024602E+00 a       705     0    36     1     5
 -1.2329384947118685E-01 a       706     0    36     1     6
  7.9651763408994214E-01 a       707     0    36     1     7
 -1.3748536310043489E+00 a       708     0    36     1     8
 -3.0449448307776839E-01 a       709     0    36     1     9
 -5.8272269282975309E-01 a       710     0    36     1    10
  1.0534475036251592E+00 a       711     0    36     1    11
  1.2263936341588733E+00 a       712     0    36     1    12
  1.2298437710700030E+00 a       713     0    36     1    13
 -6.0380769889270181E-01 a       714     0    36     1    14
 -1.8595099786274951E+00 a       715     0    36     1    15
  3.0745254252979287E-01 a       716     0    36     1    16
 -8.6465332530398797E-01 a       717     0    36     1    17
 -1.5245158263435936E+00 a       718     0    36     1    18
 -2.2600238334074296E+00 a       719     0    36     1    19
  2.9507877109294417E-01 a       720     0    36     1    20
  3.2303016221180408E-01 a       721     0    37     1     1
  1.3223723749296159E+00 a       722     0    37     1     2
 -1.3268345758519220E-01 a       723     0    37     1     3
 -1.7008456569366113E+00 a       724     0    37     1     4
  2.8612264248305479E+00 a       725     0    37     1     5
 -7.2675429238507550E-01 a       726     0    37     1     6
  6.6474904989866446E-01 a       727     0    37     1     7
 -1.9164338402165462E+00 a       728     0    37     1     8
 -4.3779076153545393E-01 a       729     0    37     1     9
  5.1679575394337887E-02 a       730     0    37     1    10
 -4.7692857027509794E-01 a       731     0    37     1    11
 -1.2107454124993543E-01 a       732     0    37     1    12
  1.3507861936588561E+00 a       733     0    37     1    13
 -8.1660265597680012E-02 a       734     0    37     1    14
 -2.1696308078267230E+00 a       735     0    37     1    15
  1.0265337361226194E+00 a       736     0    37     1    16
 -3.6334875634159305E+00 a       737     0    37     1    17
 -1.9207665957241529E+00 a       738     0    37     1    18
 -3.0134377377629157E-01 a       739     0    37     1    19
 -5.0210558158384966E-01 a       740     0    37     1    20
  4.6525590294482644E-01 a       741     0    38     1     1
 -1.2441824861555234E-02 a       742     0    38     1     2
 -1.2450155897902254E-01 a       743     0    38     1     3
  2.1889226098858716E-01 a       744     0    38     1     4
 -1.3693293535423887E+00 a       745     0    38     1     5
 -8.4904100127991955E-01 a       746     0    38     1     6
  3.2564095909268431E-01 a       747     0    38     1     7
 -1.9845121259972274E+00 a       748     0    38     1     8
  1.8238933019349564E+00 a       749     0    38     1     9
  3.5781843284952253E-01 a       750     0    38     1    10
  1.2594614317837365E+00 a       751     0    38     1    11
 -1.2509258120266058E+00 a       752     0    38     1    12
 -6.6292038558127808E-01 a       753     0    38     1    13
 -1.0529454344309186E+00 a       754     0    38     1    14
  5.2864359377197676E-02 a       755     0    38     1    15
  4.9506908483549389E-01 a       756     0    38     1    16
  1.1121519459472888E+00 a       757     0    38     1    17
 -5.3337618906853512E-01 a       758     0    38     1    18
 -1.6811174346561506E+00 a       759     0    38     1    19
  1.7160917637949054E+00 a       760     0    38     1    20
  1.0366356230148690E-02 a       761     0    39     1     1
  6.6393017671980858E-01 a       762     0    39     1     2
 -7.3765128464946961E-01 a       763     0    39     1     3
  8.8002919644396593E-01 a       764     0    39     1     4
 -1.4353973988284878E+00 a       765     0    39     1     5
  1.2902020761063395E-02 a       766     0    39     1     6
  6.3967179254650941E-01 a       767     0    39     1     7
  7.7247683288089575E-01 a       768     0    39     1     8
  6.7291748770026383E-01 a       769     0    39     1     9
  1.7600922394073087E-01 a       770     0    39     1    10
 -5.7455067044092156E-01 a       771     0    39     1    11
 -9.1234461956345950E-02 a       772     0    39     1    12
 -2.9905976778107329E-01 a       773     0    39     1    13
  2.0514103749328980E-01 a       774     0    39     1    14
 -6.1514470089361652E-03 a       775     0    39     1    15
  2.1311445999442551E-02 a       776     0    39     1    16
 -3.4403916531226059E-01 a       777     0    39     1    17
  2.1313761591336169E-01 a       778     0    39     1    18
 -4.4834979519096502E-01 a       779     0    39     1    19
  4.5835994331650148E-01 a       780     0    39     1    20
 -2.3908395259794699E+00 a       781     0    40     1     1
 -1.2639690940802140E+00 a       782     0    40     1     2
  1.0151066188623532E+00 a       783     0    40     1     3
 -1.5714467488492039E+00 a       784     0    40     1     4
  4.5906957437538848E-01 a       785     0    40     1     5
 -1.8855445370267319E+00 a       786     0    40     1     6
  5.9119955217934306E-01 a       787     0    40     1     7
  1.8554175568700734E-01 a       788     0    40     1     8
 -4.1277774608359676E+00 a       789     0    40     1     9
  8.3179525557976708E-01 a       790     0    40     1    10
  9.6224361330927499E-01 a       791     0    40     1    11
  6.5668196469526641E-01 a       792     0    40     1    12
 -1.1695385008516064E+00 a       793     0    40     1    13
 -1.3460893375786522E+00 a       794     0    40     1    14
 -2.0703946922181218E+00 a       795     0    40     1    15
  1.7585474952184671E-01 a       796     0    40     1    16
 -5.1483728775755355E-01 a       797     0    40     1    17
 -7.9725330810525419E-01 a       798     0    40     1    18
  1.2461561148025428E+00 a       799     0    40     1    19
  3.8948831739864391E+00 a       800     0    40     1    20
 -3.8284564378118553E+00 a       801     0    41     1     1
 -8.8895976817945666E-01 a       802     0    41     1     2
  1.5772014490692812E+00 a       803     0    41     1     3
 -8.1351546734232327E-01 a       804     0    41     1     4
  1.0275292374726062E+00 a       805     0    41     1     5
 -1.6395073139948093E+00 a       806     0    41     1     6
  1.8172738202476530E+00 a       807     0    41     1     7
 -3.5750123026857111E-01 a       808     0    41     1     8
 -6.3583263506154202E+00 a       809     0    41     1     9
  1.8950934517838467E+00 a       810     0    41     1    10
 -1.3244069474596432E+00 a       811     0    41     1    11
  2.7033818925460190E-01 a       812     0    41     1    12
 -4.4226152259581047E-01 a       813     0    41     1    13
 -1.7809120778581555E+00 a       814     0    41     1    14
 -5.3132810817354270E-01 a       815     0    41     1    15
  7.0171900022406897E-01 a       816     0    41     1    16
  2.8420778702428713E+00 a       817     0    41     1    17
  5.1818821779462843E+00 a       818     0    41     1    18
  5.4161759519352612E+00 a       819     0    41     1    19
  1.8844917445433387E-01 a       820     0    41     1    20
 -1.9120204801835459E+00 a       821     0    42     1     1
 -8.8176744961510811E-01 a       822     0    42     1     2
  2.7076025544684451E-01 a       823     0    42     1     3
 -1.1707788884859527E+00 a       824     0    42     1     4
  1.7956973990693170E+00 a       825     0    42     1     5
  6.9853727307155811E-01 a       826     0    42     1     6
  2.9951795319367913E+00 a       827     0    42     1     7
 -4.5952768205050301E-02 a       828     0    42     1     8
 -3.2843768946164542E+00 a       829     0    42     1     9
  1.3530435442546858E+00 a       830     0    42     1    10
 -1.2272359206513912E+00 a       831     0    42     1    11
  6.7303891489455414E-01 a       832     0    42     1    12
 -5.1817979864690056E-01 a       833     0    42     1    13
 -6.2397828118451337E-01 a       834     0    42     1    14
 -8.8489431542997121E-01 a       835     0    42     1    15
  6.5251856021212506E-01 a       836     0    42     1    16
  2.2712716516141516E+00 a       837     0    42     1    17
  2.8658508261515743E+00 a       838     0    42     1    18
  2.9714434306583182E+00 a       839     0    42     1    19
 -1.0184090946647903E+00 a       840     0    42     1    20
  1.5392422704857059E-02 a       841     0    43     1     1
 -5.3420099767517804E-01 a       842     0    43     1     2
 -3.7090921636683416E-01 a       843     0    43     1     3
 -4.4924956270373906E-01 a       844     0    43     1     4
 -2.7835830638910702E-01 a       845     0    43     1     5
 -7.1145318541490810E-01 a       846     0    43     1     6
 -9.7375199740974944E-02 a       847     0    43     1     7
 -1.5666145518936744E-01 a       848     0    43     1     8
 -1.7112618801874870E+00 a       849     0    43     1     9
 -3.0032605031331361E-01 a       850     0    43     1    10
  7.6705497553898794E-01 a       851     0    43     1    11
 -8.3557444351087418E-01 a       852     0    43     1    12
 -6.5816897803642938E-01 a       853     0    43     1    13
 -2.0730803786403382E-01 a       854     0    43     1    14
 -2.2201665721321819E+00 a       855     0    43     1    15
 -7.5141374542091888E-01 a       856     0    43     1    16
  7.6317998649538787E-01 a       857     0    43     1    17
 -8.2118408712244795E-01 a       858     0    43     1    18
  2.6968601876398851E-01 a       859     0    43     1    19
  1.4650209494483295E+00 a       860     0    43     1    20
 -4.1252447180842164E+00 a       861     0    44     1     1
  4.3991499873447892E-01 a       862     0    44     1     2
  1.5340243220760661E+00 a       863     0    44     1     3
 -2.5845121601287235E-01 a       864     0    44     1     4
  4.0085253378391489E-01 a       865     0    44     1     5
 -1.5138486784180467E+00 a       866     0    44     1     6
  1.9311180557585670E+00 a       867     0    44     1     7
  5.5190243228085611E-01 a       868     0    44     1     8
 -2.6325769761684392E+00 a       869     0    44     1     9
  1.8642124624717815E+00 a       870     0    44     1    10
 -4.1020822598386819E-01 a       871     0    44     1    11
  3.6580407125936643E-01 a       872     0    44     1    12
  1.5829783425417394E+00 a       873     0    44     1    13
 -1.1499300225893752E+00 a       874     0    44     1    14
 -5.8268780426692757E-01 a       875     0    44     1    15
  7.1141067783452450E-01 a       876     0    44     1    16
 -4.8825331317066477E-02 a       877     0    44     1    17
  5.3644375092704495E+00 a       878     0    44     1    18
  2.6703380000609087E+00 a       879     0    44     1    19
  3.4511428180090697E-01 a       880     0    44     1    20
 -1.4441794410716167E+00 a       881     0    45     1     1
 -3.6551672750418074E-01 a       882     0    45     1     2
  6.2989250572655997E-01 a       883     0    45     1     3
 -7.3311880547569275E-01 a       884     0    45     1     4
 -5.0695669618063710E-01 a       885     0    45     1     5
  1.4781187019755897E+00 a       886     0    45     1     6
 -5.2029708975096689E-01 a       887     0    45     1     7
  4.4122018016926046E-01 a       888     0    45     1     8
 -1.0552350107427892E+00 a       889     0    45     1     9
 -6.6004872271299864E-01 a       890     0    45     1    10
 -3.0825027503419555E-01 a       891     0    45     1    11
 -1.0227007017128657E-01 a       892     0    45     1    12
 -1.6669114542586168E+00 a       893     0    45     1    13
  2.5798844457311221E-01 a       894     0    45     1    14
 -1.6723551719549543E+00 a       895     0    45     1    15
  5.0690036141777484E-01 a       896     0    45     1    16
  2.7949781752383265E+00 a       897     0    45     1    17
  4.1282415198919988E+00 a       898     0    45     1    18
  7.1083304353466525E-01 a       899     0    45     1    19
  1.4522469896461097E+00 a       900     0    45     1    20
 -1.3919957380454015E-01 a       901     0    46     1     1
 -3.2561364754209947E-02 a       902     0    46     1     2
  3.1875869191817541E-01 a       903     0    46     1     3
 -9.5600006522053166E-02 a       904     0    46     1     4
 -8.6565070738880090E-01 a       905     0    46     1     5
 -1.3165044160557443E-01 a       906     0    46     1     6
 -3.8398513550238966E-01 a       907     0    46     1     7
  1.9323660519231556E+00 a       908     0    46     1     8
  9.3729522355569528E-02 a       909     0    46     1     9
 -2.7870031430993464E-01 a       910     0    46     1    10
 -7.9156650099943593E-01 a       911     0    46     1    11
  7.9705363373817020E-02 a       912     0    46     1    12
  3.7586043729930413E-01 a       913     0    46     1    13
 -2.2566792173987013E-01 a       914     0    46     1    14
 -3.3694776387251063E-01 a       915     0    46     1    15
 -4.5293421319367831E-02 a       916     0    46     1    16
 -6.5958106434477615E-01 a       917     0    46     1    17
  3.3671470701016548E-01 a       918     0    46     1    18
  6.8913950654242850E-01 a       919     0    46     1    19
  8.9223456873920992E-01 a       920     0    46     1    20
 -2.6880245618278392E-01 a       921     0    47     1     1
  2.1308621062711960E-01 a       922     0    47     1     2
  1.7405050766067376E-01 a       923     0    47     1     3
 -1.4090914358319127E+00 a       924     0    47     1     4
  2.2727003023671681E+00 a       925     0    47     1     5
 -4.0808882835165879E-02 a       926     0    47     1     6
  3.7310525752942638E+00 a       927     0    47     1     7
  1.1972964330398661E-01 a       928     0    47     1     8
 -1.3257278651956406E+00 a       929     0    47     1     9
  2.1701735295832900E-01 a       930     0    47     1    10
  2.3735928597938663E-01 a       931     0    47     1    11
  9.9918608560137545E-01 a       932     0    47     1    12
 -6.6318867762185352E-01 a       933     0    47     1    13
 -4.9377210268387300E-01 a       934     0    47     1    14
 -2.3223035489824819E+00 a       935     0    47     1    15
  3.7784893812493364E-01 a       936     0    47     1    16
 -2.5001293635201755E-01 a       937     0    47     1    17
  1.3394773250884577E+00 a       938     0    47     1    18
  8.4458675701963570E-01 a       939     0    47     1    19
  2.6360680594488828E-01 a       940     0    47     1    20
  4.7592160862365651E-01 a       941     0    48     1     1
  1.1300802261935041E+00 a       942     0    48     1     2
  4.9260230509961223E-01 a       943     0    48     1     3
  1.6693252775279068E+00 a       944     0    48     1     4
 -1.6635266783935656E+00 a       945     0    48     1     5
  8.2563271446486119E-02 a       946     0    48     1     6
 -6.1264448226983959E-01 a       947     0    48     1     7
  3.3463706412271681E+00 a       948     0    48     1     8
  2.1153717882843233E+00 a       949     0    48     1     9
  7.4391073643437955E-01 a       950     0    48     1    10
 -1.2380991427217476E+00 a       951     0    48     1    11
  4.9260231542761823E-01 a       952     0    48     1    12
 -1.9167437051075231E+00 a       953     0    48     1    13
 -2.9409249878677596E-01 a       954     0    48     1    14
 -1.1295372767882639E+00 a       955     0    48     1    15
 -1.6532575733144454E+00 a       956     0    48     1    16
 -1.4338826371134330E+00 a       957     0    48     1    17
 -3.1321870942729493E-02 a       958     0    48     1    18
 -9.5203107495399653E-01 a       959     0    48     1    19
 -3.5207977841527689E-02 a       960     0    48     1    20
 -3.2005869060507837E+00 a       961     0    49     1     1
  6.1202468117642073E-01 a       962     0    49     1     2
  1.0416557205961749E+00 a       963     0    49     1     3
 -1.1592648613594301E+00 a       964     0    49     1     4
 -5.1181656605433667E-01 a       965     0    49     1     5
 -1.1202773996984592E+00 a       966     0    49     1     6
  2.7868620940984048E+00 a       967     0    49     1     7
  2.5726501100027419E+00 a       968     0    49     1     8
  1.1524533666967141E+00 a       969     0    49     1     9
  1.6096724530186584E+00 a       970     0    49     1    10
  4.9102189169549904E-01 a       971     0    49     1    11
  7.9618119361050466E-01 a       972     0    49     1    12
 -5.0205080889350362E-01 a       973     0    49     1    13
 -5.8470754390150526E-01 a       974     0    49     1    14
  8.9572830173268037E-01 a       975     0    49     1    15
  8.9035173978959259E-01 a       976     0    49     1    16
  3.4218529713106389E+00 a       977     0    49     1    17
  4.6541947512919029E+00 a       978     0    49     1    18
  5.2100502317982100E-01 a       979     0    49     1    19
 -2.3116654524042719E+00 a       980     0    49     1    20
 -1.0028946494413611E+00 a       981     0    50     1     1
  2.1148722626712976E-01 a       982     0    50     1     2
 -1.1899173971168715E-01 a       983     0    50     1     3
 -3.2337728001709531E-01 a       984     0    50     1     4
  1.2184545148832475E+00 a       985     0    50     1     5
 -1.6810984996661446E-01 a       986     0    50     1     6
 -2.5803537294468820E-01 a       987     0    50     1     7
 -7.2889903974985371E-01 a       988     0    50     1     8
 -5.1461246246332548E-01 a       989     0    50     1     9
  3.7442902937034189E-01 a       990     0    50     1    10
  7.4744930762124373E-01 a       991     0    50     1    11
 -3.1237505910310559E-01 a       992     0    50     1    12
 -1.1557400740912810E-01 a       993     0    50     1    13
  3.8687182419931222E-02 a       994     0    50     1    14
 -3.0827872461039657E-01 a       995     0    50     1    15
  5.1387722856470563E-01 a       996     0    50     1    16
  1.2523963411623482E+00 a       997     0    50     1    17
  1.5528251026570388E+00 a       998     0    50     1    18
  2.5591342243014836E-01 a       999     0    50     1    19
 -2.0503428234045426E-01 a      1000     0    50     1    20
  2.8407175988526262E-01 a      1001     0    51     1     1
 -3.2473229016006550E-02 a      1002     0    51     1     2
  6.8299606491516382E-02 a      1003     0    51     1     3
 -4.3837598030085467E-01 a      1004     0    51     1     4
 -3.6593607872381351E-01 a      1005     0    51     1     5
 -3.7418805203981276E-02 a      1006     0    51     1     6
  5.3516244573009797E-01 a      1007     0    51     1     7
 -5.1052797484708012E-01 a      1008     0    51     1     8
 -1.1362227243134947E-01 a      1009     0    51     1     9
  2.5483730633430479E-01 a      1010     0    51     1    10
  4.6895087538987351E-01 a      1011     0    51     1    11
 -2.1913444890275910E-01 a      1012     0    51     1    12
 -1.8333688841540224E-01 a      1013     0    51     1    13
 -1.9487945341254231E-01 a      1014     0    51     1    14
  7.2203895377601568E-01 a      1015     0    51     1    15
 -2.3291257126656950E-01 a      1016     0    51     1    16
 -5.0742028484898345E-02 a      1017     0    51     1    17
 -8.2159905558806534E-01 a      1018     0    51     1    18
  3.1798198778147241E-01 a      1019     0    51     1    19
  6.9160921145713830E-02 a      1020     0    51     1    20
 -1.9751628621539705E-01 a      1021     0    52     1     1
  1.0413051053526694E+00 a      1022     0    52     1     2
  4.1676782863556228E-01 a      1023     0    52     1     3
 -8.0648795401650875E-01 a      1024     0    52     1     4
 -1.1648920723466039E-01 a      1025     0    52     1     5
  4.1182599842538142E-01 a      1026     0    52     1     6
  5.3547245694624990E-01 a      1027     0    52     1     7
  1.4288154635937542E-01 a      1028     0    52     1     8
  9.6757214093528898E-01 a      1029     0    52     1     9
  3.1876817426314308E-01 a      1030     0    52     1    10
 -6.0046927198731082E-01 a      1031     0    52     1    11
 -4.6845854618358035E-01 a      1032     0    52     1    12
  1.0910840668781631E-01 a      1033     0    52     1    13
  6.1504867587717316E-01 a      1034     0    52     1    14
 -2.1333027118803100E-01 a      1035     0    52     1    15
 -1.4258245295841357E-01 a      1036     0    52     1    16
 -1.3261184668199591E-01 a      1037     0    52     1    17
  3.6659487709214972E-01 a      1038     0    52     1    18
 -2.8169567443172766E-01 a      1039     0    52     1    19
  4.8152661794840179E-01 a      1040     0    52     1    20
 -5.6261347086743718E-01 a      1041     0    53     1     1
  7.1817001445641282E-01 a      1042     0    53     1     2
 -7.7745471967674007E-03 a      1043     0    53     1     3
 -3.1361218048715944E-02 a      1044     0    53     1     4
  8.4216545034974236E-02 a      1045     0    53     1     5
 -1.1612409564137353E-01 a      1046     0    53     1     6
  1.5576024038805009E-01 a      1047     0    53     1     7
 -5.9253426768198048E-01 a      1048     0    53     1     8
 -9.6189020653009383E-02 a      1049     0    53     1     9
  1.3552644624050750E-01 a      1050     0    53     1    10
  3.0616071609691364E-01 a      1051     0    53     1    11
  1.6191334574075208E-01 a      1052     0    53     1    12
 -2.5785283783811858E-01 a      1053     0    53     1    13
  8.8342689721198395E-02 a      1054     0    53     1    14
  5.1729287190528050E-01 a      1055     0    53     1    15
  3.1676382899828831E-01 a      1056     0    53     1    16
  1.6930949744724311E+00 a      1057     0    53     1    17
  1.6285394293058075E-01 a      1058     0    53     1    18
  6.5108710550165400E-02 a      1059     0    53     1    19
 -3.5737097682511176E-01 a      1060     0    53     1    20
  3.9658095016500111E-02 a      1061     0    54     1     1
 -1.5402102659464631E-01 a      1062     0    54     1     2
 -3.5011807685833635E-01 a      1063     0    54     1     3
 -1.3358037157843636E-01 a      1064     0    54     1     4
  5.7198769894414603E-01 a      1065     0    54     1     5
  1.3023884275349415E-01 a      1066     0    54     1     6
  7.5432765753510725E-02 a      1067     0    54     1     7
 -7.1813251213154072E-01 a      1068     0    54     1     8
  9.6631878692636203E-02 a      1069     0    54     1     9
 -1.3577188354761502E-01 a      1070     0    54     1    10
  1.3626625005002524E-01 a      1071     0    54     1    11
  4.9236140723289706E-01 a      1072     0    54     1    12
  5.5331397271316596E-01 a      1073     0    54     1    13
  1.3042700454226464E-01 a      1074     0    54     1    14
  1.2097206750648319E+00 a      1075     0    54     1    15
  5.2728561235321891E-01 a      1076     0    54     1    16
  4.4439793808896288E-01 a      1077     0    54     1    17
  3.3220181036847402E-01 a      1078     0    54     1    18
  1.8357783824838300E-01 a      1079     0    54     1    19
 -3.0950616030706946E-01 a      1080     0    54     1    20
 -1.1829537977557811E+00 a      1081     0    55     1     1
  3.8000841121666301E-01 a      1082     0    55     1     2
  7.6615070698280219E-01 a      1083     0    55     1     3
  4.9427424459992514E-01 a      1084     0    55     1     4
  8.4248320928726306E-01 a      1085     0    55     1     5
 -4.7445088316059014E-01 a      1086     0    55     1     6
 -6.3253027060369482E-01 a      1087     0    55     1     7
 -8.9404349095915867E-03 a      1088     0    55     1     8
 -4.7961796756216291E-01 a      1089     0    55     1     9
  4.2974939422814645E-01 a      1090     0    55     1    10
  4.4119854362780075E-01 a      1091     0    55     1    11
  2.6701017015106654E-01 a      1092     0    55     1    12
  7.9282630188687711E-02 a      1093     0    55     1    13
 -4.7109402993318096E-02 a      1094     0    55     1    14
 -1.7318653773995416E+00 a      1095     0    55     1    15
  5.2340206899369568E-01 a      1096     0    55     1    16
  7.9685066921228243E-01 a      1097     0    55     1    17
  1.6461887742831862E+00 a      1098     0    55     1    18
  7.6091948425054556E-01 a      1099     0    55     1    19
 -8.7097414913104687E-02 a      1100     0    55     1    20
  6.4500763085523005E-01 a      1101     0    56     1     1
  3.9718300263798151E-01 a      1102     0    56     1     2
  8.8140118835068360E-01 a      1103     0    56     1     3
 -3.5686563289402706E-01 a      1104     0    56     1     4
 -2.5240809754277282E-01 a      1105     0    56     1     5
 -1.2277479419301794E-01 a      1106     0    56     1     6
 -5.4493236828823377E-01 a      1107     0    56     1     7
 -4.8955138588820857E-01 a      1108     0    56     1     8
 -5.1431409156190766E-01 a      1109     0    56     1     9
 -4.6008260787462057E-01 a      1110     0    56     1    10
 -4.9977496984166919E-01 a      1111     0    56     1    11
  6.1735233789447619E-01 a      1112     0    56     1    12
 -2.5285905197583175E-01 a      1113     0    56     1    13
  4.3033932299645689E-01 a      1114     0    56     1    14
 -1.0854223017681482E-01 a      1115     0    56     1    15
 -3.4664907540253304E-01 a      1116     0    56     1    16
  2.2908572256887419E-01 a      1117     0    56     1    17
 -6.5666112103573182E-01 a      1118     0    56     1    18
 -2.7172940212396285E-01 a      1119     0    56     1    19
  6.6664242377680405E-01 a      1120     0    56     1    20
  2.4800738654572180E-01 a      1121     0    57     1     1
 -1.5279116488002749E+00 a      1122     0    57     1     2
  3.0435210045698980E-02 a      1123     0    57     1     3
  1.5272136956337832E+00 a      1124     0    57     1     4
 -1.0186394280852888E+00 a      1125     0    57     1     5
 -1.9573583731523476E+00 a      1126     0    57     1     6
 -8.9348378836287667E-01 a      1127     0    57     1     7
 -2.7660174363334709E+00 a      1128     0    57     1     8
 -5.3572590290190014E+00 a      1129     0    57     1     9
 -1.1521064682724420E+00 a      1130     0    57     1    10
 -1.7627963240679279E+00 a      1131     0    57     1    11
  5.4553813312568741E-02 a      1132     0    57     1    12
  2.1982386336393480E+00 a      1133     0    57     1    13
  6.7143037823139007E-01 a      1134     0    57     1    14
 -5.6817521394145620E-01 a      1135     0    57     1    15
 -1.2785841875430917E+00 a      1136     0    57     1    16
  1.9817707452324858E+00 a      1137     0    57     1    17
 -5.6799778713971805E-01 a      1138     0    57     1    18
  2.4475565437010554E+00 a      1139     0    57     1    19
  3.1046173607073664E+00 a      1140     0    57     1    20
  1.4499198036271015E+00 a      1141     0    58     1     1
  3.0551630450305234E-01 a      1142     0    58     1     2
  1.0437554010129328E+00 a      1143     0    58     1     3
  3.1884751974525233E-01 a      1144     0    58     1     4
 -4.4380714793477175E-02 a      1145     0    58     1     5
 -1.3113328106422181E-01 a      1146     0    58     1     6
  1.2122841729909855E+00 a      1147     0    58     1     7
  2.6692659233086607E-01 a      1148     0    58     1     8
 -4.3410564055579731E-01 a      1149     0    58     1     9
  8.0508101041941604E-01 a      1150     0    58     1    10
 -6.1114273614799652E-01 a      1151     0    58     1    11
 -5.6507031431846366E-01 a      1152     0    58     1    12
  1.0808289306678007E+00 a      1153     0    58     1    13
 -4.0043737739709306E-01 a      1154     0    58     1    14
  6.3799838282913879E-01 a      1155     0    58     1    15
  5.4045366451393317E-01 a      1156     0    58     1    16
  6.0508390054521888E-01 a      1157     0    58     1    17
  2.0359489703336755E+00 a      1158     0    58     1    18
  3.7148694429423090E-01 a      1159     0    58     1    19
 -1.0115859967329802E-01 a      1160     0    58     1    20
  1.4917438644228684E+00 a      1161     0    59     1     1
 -7.9707446135096061E-01 a      1162     0    59     1     2
 -5.1735860106566012E-01 a      1163     0    59     1     3
  1.7110120458137321E+00 a      1164     0    59     1     4
  2.1383758327497004E-01 a      1165     0    59     1     5
  2.8412441017035133E+00 a      1166     0    59     1     6
 -2.7118195357391539E-01 a      1167     0    59     1     7
  2.0021919705952680E+00 a      1168     0    59     1     8
 -2.1199213781272236E-01 a      1169     0    59     1     9
 -2.3736762521624137E+00 a      1170     0    59     1    10
  1.7137919992944874E+00 a      1171     0    59     1    11
 -2.0187311147769775E+00 a      1172     0    59     1    12
 -1.3548243099481387E+00 a      1173     0    59     1    13
 -3.7101719330205551E-01 a      1174     0    59     1    14
 -2.6344955426390715E-01 a      1175     0    59     1    15
 -5.6822902043134882E-01 a      1176     0    59     1    16
  2.7512005904279784E+00 a      1177     0    59     1    17
 -9.1774606428539895E-01 a      1178     0    59     1    18
 -4.8779463430837749E-01 a      1179     0    59     1    19
 -1.8042494113360861E+00 a      1180     0    59     1    20
 -2.8013766588639966E-01 a      1181     0    60     1     1
  9.4431006505607540E-01 a      1182     0    60     1     2
 -7.8080136778114106E-01 a      1183     0    60     1     3
  1.1163155284901185E+00 a      1184     0    60     1     4
  8.4824682349994451E-01 a      1185     0    60     1     5
  1.5006239171279896E+00 a      1186     0    60     1     6
  2.3871865677079738E+00 a      1187     0    60     1     7
  2.5140664933552476E-01 a      1188     0    60     1     8
 -1.1544546792579162E+00 a      1189     0    60     1     9
 -2.3370452429808175E+00 a      1190     0    60     1    10
 -2.3139740640183066E+00 a      1191     0    60     1    11
 -4.8484668032234179E-01 a      1192     0    60     1    12
 -1.0287315820391964E-01 a      1193     0    60     1    13
 -1.3455359651805596E+00 a      1194     0    60     1    14
  6.2517022932897737E-01 a      1195     0    60     1    15
 -2.6451283611103382E-01 a      1196     0    60     1    16
  1.0618931060392474E+00 a      1197     0    60     1    17
  1.1473003172779730E-02 a      1198     0    60     1    18
  6.4357753877913412E-02 a      1199     0    60     1    19
 -6.3309948884108591E-01 a      1200     0    60     1    20
  2.1875554351246422E+00 a      1201     0    61     1     1
  1.1968719640399827E+00 a      1202     0    61     1     2
  1.9979552558381000E-01 a      1203     0    61     1     3
  2.5410190733256383E-01 a      1204     0    61     1     4
  1.1716522443750166E+00 a      1205     0    61     1     5
  2.1984011631571700E+00 a      1206     0    61     1     6
 -1.0365557103665766E+00 a      1207     0    61     1     7
  2.3653707522088574E-01 a      1208     0    61     1     8
 -7.8556121676424884E-01 a      1209     0    61     1     9
 -9.1920794748848400E-01 a      1210     0    61     1    10
 -7.0797475681708621E-01 a      1211     0    61     1    11
 -7.4100189771417913E-01 a      1212     0    61     1    12
 -1.4499752872331249E+00 a      1213     0    61     1    13
  9.1135566581064209E-01 a      1214     0    61     1    14
 -1.7503168941541042E-01 a      1215     0    61     1    15
 -3.0703877798493273E-01 a      1216     0    61     1    16
  2.2365013549167481E+00 a      1217     0    61     1    17
 -7.5210561859083713E-01 a      1218     0    61     1    18
  1.4035324998278997E+00 a      1219     0    61     1    19
 -3.2898085527019649E+00 a      1220     0    61     1    20
  6.9553634870207082E-01 a      1221     0    62     1     1
  1.0017110779084740E-01 a      1222     0    62     1     2
  3.8361096942164652E-01 a      1223     0    62     1     3
  8.7930959165224387E-01 a      1224     0    62     1     4
 -6.0921169190098094E-02 a      1225     0    62     1     5
 -1.6503775806660259E+00 a      1226     0    62     1     6
 -7.6937442476881368E-01 a      1227     0    62     1     7
 -2.4848884272827760E+00 a      1228     0    62     1     8
  8.3887366371000560E-01 a      1229     0    62     1     9
  2.4308565433833986E+00 a      1230     0    62     1    10
  2.4313392862978751E+00 a      1231     0    62     1    11
 -3.8637023983961022E-01 a      1232     0    62     1    12
 -1.5545033573629174E+00 a      1233     0    62     1    13
  4.5156571813560803E-01 a      1234     0    62     1    14
  5.0178260360203639E+00 a      1235     0    62     1    15
  2.2618889688378050E+00 a      1236     0    62     1    16
  1.3165527228432281E+00 a      1237     0    62     1    17
  3.5676951572819604E-01 a      1238     0    62     1    18
  1.5141639572523506E+00 a      1239     0    62     1    19
 -8.1290022549477448E-01 a      1240     0    62     1    20
  1.2883178370234758E+00 a      1241     0    63     1     1
  1.3066660847196679E-01 a      1242     0    63     1     2
  1.0744405503183072E+00 a      1243     0    63     1     3
 -3.3954942368926634E-02 a      1244     0    63     1     4
 -4.0720052975256560E-01 a      1245     0    63     1     5
 -4.1531295305775018E-01 a      1246     0    63     1     6
  1.0728194397849378E+00 a      1247     0    63     1     7
  4.4049111278565017E-01 a      1248     0    63     1     8
 -2.5525766251440640E-01 a      1249     0    63     1     9
  7.2871096196509666E-01 a      1250     0    63     1    10
 -5.2245383263407630E-01 a      1251     0    63     1    11
 -2.1405910189016089E-01 a      1252     0    63     1    12
  1.1610244883881566E+00 a      1253     0    63     1    13
 -4.1267810316631565E-01 a      1254     0    63     1    14
  2.9349127516158063E-01 a      1255     0    63     1    15
  6.5736538014692847E-01 a      1256     0    63     1    16
  4.3101012448869269E-01 a      1257     0    63     1    17
  1.8455293879510777E+00 a      1258     0    63     1    18
  2.4601690421322520E-01 a      1259     0    63     1    19
  3.0555754901840076E-01 a      1260     0    63     1    20
  7.1279168922277569E-01 a      1261     0    64     1     1
 -4.8348705995318919E-01 a      1262     0    64     1     2
 -8.2868090529740690E-01 a      1263     0    64     1     3
  1.8102133156575511E+00 a      1264     0    64     1     4
  2.4431860213163695E-01 a      1265     0    64     1     5
  2.5271957464776356E+00 a      1266     0    64     1     6
  4.5954390778820742E-01 a      1267     0    64     1     7
  1.6233557296530055E+00 a      1268     0    64     1     8
  1.4823116200681569E-01 a      1269     0    64     1     9
 -2.0456939028163692E+00 a      1270     0    64     1    10
  1.7261979158763614E+00 a      1271     0    64     1    11
 -2.0444515474938090E+00 a      1272     0    64     1    12
 -1.1254537117545389E+00 a      1273     0    64     1    13
 -6.5791576482031633E-01 a      1274     0    64     1    14
 -7.1569428644585509E-01 a      1275     0    64     1    15
 -4.7458827950640792E-01 a      1276     0    64     1    16
  2.2552051490712421E+00 a      1277     0    64     1    17
 -9.5472672239338877E-02 a      1278     0    64     1    18
 -5.0877638050312557E-01 a      1279     0    64     1    19
 -1.3433040217929846E+00 a      1280     0    64     1    20
  1.2667139265362743E+00 a      1281     0    65     1     1
  1.3057857000885551E+00 a      1282     0    65     1     2
  3.6862175715642531E-01 a      1283     0    65     1     3
  1.3354669848010664E-01 a      1284     0    65     1     4
  1.1258379798795659E+00 a      1285     0    65     1     5
  1.7575073245880950E+00 a      1286     0    65     1     6
 -5.2817463690201027E-01 a      1287     0    65     1     7
  2.7098968196542705E-01 a      1288     0    65     1     8
 -6.7171567955198541E-01 a      1289     0    65     1     9
 -9.3699125174774633E-01 a      1290     0    65     1    10
 -8.4639912761179381E-01 a      1291     0    65     1    11
 -5.3239629892234130E-01 a      1292     0    65     1    12
 -1.0290327713398526E+00 a      1293     0    65     1    13
  7.0360212023821589E-01 a      1294     0    65     1    14
 -6.6060915666128883E-01 a      1295     0    65     1    15
 -4.5616134338533919E-02 a      1296     0    65     1    16
  1.4573526495579086E+00 a      1297     0    65     1    17
 -6.5360985770814811E-02 a      1298     0    65     1    18
  1.1466790887504410E+00 a      1299     0    65     1    19
 -2.4226290381805380E+00 a      1300     0    65     1    20
  1.2550677780976502E-01 a      1301     0    66     1     1
  3.5547498239172798E-01 a      1302     0    66     1     2
  9.6987405145851940E-02 a      1303     0    66     1     3
  7.2885183864415704E-01 a      1304     0    66     1     4
  4.1405989410120692E-01 a      1305     0    66     1     5
 -1.7393971550101486E+00 a      1306     0    66     1     6
 -4.1368733168665106E-01 a      1307     0    66     1     7
 -2.4867277301163413E+00 a      1308     0    66     1     8
  5.1331099787989198E-01 a      1309     0    66     1     9
  2.5166910250947025E+00 a      1310     0    66     1    10
  1.9858479398798217E+00 a      1311     0    66     1    11
  2.1639533209085571E-01 a      1312     0    66     1    12
 -1.2684232129165331E+00 a      1313     0    66     1    13
  6.1256192923695085E-01 a      1314     0    66     1    14
  4.7912969706813477E+00 a      1315     0    66     1    15
  2.0392434646504740E+00 a      1316     0    66     1    16
  5.0991208067854410E-01 a      1317     0    66     1    17
  1.6734634742157650E-01 a      1318     0    66     1    18
  1.8386408769594729E+00 a      1319     0    66     1    19
 -6.3235050931328385E-01 a      1320     0    66     1    20
  1.2806593164840148E+00 a      1321     0    67     1     1
  4.6692410258067313E-01 a      1322     0    67     1     2
  9.5537626808343101E-01 a      1323     0    67     1     3
 -1.5832878892728999E-01 a      1324     0    67     1     4
 -1.8970307170005443E-01 a      1325     0    67     1     5
 -2.4108729981644383E-01 a      1326     0    67     1     6
  1.3662505879514537E+00 a      1327     0    67     1     7
  3.8478844950201679E-01 a      1328     0    67     1     8
  1.1159800108079530E-01 a      1329     0    67     1     9
  9.0424452283134715E-01 a      1330     0    67     1    10
 -7.1046729232614558E-01 a      1331     0    67     1    11
  2.4432144331302589E-02 a      1332     0    67     1    12
  1.4604952334512324E+00 a      1333     0    67     1    13
 -2.8313571969412143E-01 a      1334     0    67     1    14
 -4.7816135684488996E-02 a      1335     0    67     1    15
  1.3779946261901058E-01 a      1336     0    67     1    16
 -5.1484414785372912E-01 a      1337     0    67     1    17
  1.6492414846626211E+00 a      1338     0    67     1    18
 -5.2061602707573207E-01 a      1339     0    67     1    19
  5.8893407779779061E-01 a      1340     0    67     1    20
  7.7113398951263001E-01 a      1341     0    68     1     1
  1.1426072464353871E+00 a      1342     0    68     1     2
  1.6650597641588425E+00 a      1343     0    68     1     3
 -3.8098843709085828E-01 a      1344     0    68     1     4
  8.9874459180584676E-01 a      1345     0    68     1     5
  2.3040040266020458E+00 a      1346     0    68     1     6
 -9.0532909326124245E-01 a      1347     0    68     1     7
  3.8813538527085574E+00 a      1348     0    68     1     8
  1.3960316675920798E-01 a      1349     0    68     1     9
  1.9058339301906824E+00 a      1350     0    68     1    10
  8.4348820422903828E-02 a      1351     0    68     1    11
 -1.0830380870093712E-01 a      1352     0    68     1    12
 -2.7017549280021007E+00 a      1353     0    68     1    13
 -2.1983333336519788E+00 a      1354     0    68     1    14
 -2.9834232004473629E+00 a      1355     0    68     1    15
 -5.0788473820960500E-01 a      1356     0    68     1    16
  1.1390663470944500E+00 a      1357     0    68     1    17
 -7.3346521195346570E-01 a      1358     0    68     1    18
  8.1252721994661858E-01 a      1359     0    68     1    19
 -2.1565894027258130E+00 a      1360     0    68     1    20
 -1.3104435897781275E+00 a      1361     0    69     1     1
 -6.6358435346069222E-01 a      1362     0    69     1     2
 -1.0050928603981446E+00 a      1363     0    69     1     3
  1.6146533522651119E+00 a      1364     0    69     1     4
  9.6499267552306329E-03 a      1365     0    69     1     5
  1.0664068481402194E+00 a      1366     0    69     1     6
  1.4712397733782030E+00 a      1367     0    69     1     7
  1.5354155655579309E+00 a      1368     0    69     1     8
  2.8021639964623729E-01 a      1369     0    69     1     9
 -1.0845657154219326E+00 a      1370     0    69     1    10
  1.8412965642967016E+00 a      1371     0    69     1    11
 -1.3514125230018761E+00 a      1372     0    69     1    12
 -4.5747230773226844E-01 a      1373     0    69     1    13
 -1.0631153371844499E+00 a      1374     0    69     1    14
 -1.6534481838248289E+00 a      1375     0    69     1    15
 -1.7563325916196693E-01 a      1376     0    69     1    16
  1.1099219360168433E+00 a      1377     0    69     1    17
  1.0217890053334546E+00 a      1378     0    69     1    18
 -1.1365556829660295E+00 a      1379     0    69     1    19
 -6.2801225429175667E-01 a      1380     0    69     1    20
 -6.2069403060903403E-02 a      1381     0    70     1     1
  9.1134472206757422E-01 a      1382     0    70     1     2
 -5.3596448738761494E-02 a      1383     0    70     1     3
  2.9456942607124503E-01 a      1384     0    70     1     4
  8.5859371449575428E-01 a      1385     0    70     1     5
  6.2658272475778864E-01 a      1386     0    70     1     6
  9.5013864503500564E-02 a      1387     0    70     1     7
 -1.6574599896849138E-01 a      1388     0    70     1     8
 -6.7306007382430433E-01 a      1389     0    70     1     9
 -2.4560889842525832E-01 a      1390     0    70     1    10
 -7.1774970769303814E-01 a      1391     0    70     1    11
 -3.6035497995712601E-01 a      1392     0    70     1    12
 -8.6526889680892038E-01 a      1393     0    70     1    13
 -1.0495684891236977E-01 a      1394     0    70     1    14
 -8.8838630650178529E-01 a      1395     0    70     1    15
  1.0680559597261044E-01 a      1396     0    70     1    16
  4.8759936218501482E-01 a      1397     0    70     1    17
  8.9529274844118256E-01 a      1398     0    70     1    18
  5.1159911407940484E-01 a      1399     0    70     1    19
 -1.4060561317434395E+00 a      1400     0    70     1    20
 -9.0091206726504802E-01 a      1401     0    71     1     1
 -6.6334312501990345E-02 a      1402     0    71     1     2
 -3.3439231131927671E-01 a      1403     0    71     1     3
  5.3415630873728059E-01 a      1404     0    71     1     4
  1.1476624389034040E+00 a      1405     0    71     1     5
 -2.3932971044843305E+00 a      1406     0    71     1     6
  6.6006982614417309E-01 a      1407     0    71     1     7
 -2.0604683181057735E+00 a      1408     0    71     1     8
 -7.1634283315952940E-01 a      1409     0    71     1     9
  2.2271387848353377E+00 a      1410     0    71     1    10
  1.6747940988243080E+00 a      1411     0    71     1    11
  4.6023350294962284E-01 a      1412     0    71     1    12
 -8.1019609968608086E-01 a      1413     0    71     1    13
  1.3147502730314833E-01 a      1414     0    71     1    14
  4.6293166959535084E+00 a      1415     0    71     1    15
  1.9739745365937589E+00 a      1416     0    71     1    16
 -4.7857180053678577E-01 a      1417     0    71     1    17
 -5.8695436530982459E-01 a      1418     0    71     1    18
  2.3355709060884995E+00 a      1419     0    71     1    19
 -6.5665188850907541E-01 a      1420     0    71     1    20
  1.7013459828130200E+00 a      1421     0    72     1     1
  3.2375524889835061E-01 a      1422     0    72     1     2
  1.1180595278210256E-01 a      1423     0    72     1     3
 -4.7538905464467640E-01 a      1424     0    72     1     4
 -2.1194659127813861E-01 a      1425     0    72     1     5
 -1.5306667788968270E-02 a      1426     0    72     1     6
  1.8498726038677904E+00 a      1427     0    72     1     7
  7.7548246229346351E-01 a      1428     0    72     1     8
  3.1944253103388609E-01 a      1429     0    72     1     9
  3.2985425687193426E-01 a      1430     0    72     1    10
 -5.6092521814429330E-01 a      1431     0    72     1    11
  6.9062438991787933E-01 a      1432     0    72     1    12
  1.8471451052112045E+00 a      1433     0    72     1    13
  8.3292158674283440E-02 a      1434     0    72     1    14
 -3.4926253421030556E-01 a      1435     0    72     1    15
 -1.2018538250111779E-01 a      1436     0    72     1    16
 -1.8092915367598730E+00 a      1437     0    72     1    17
  3.1720916347074873E-01 a      1438     0    72     1    18
 -1.7025162264257250E+00 a      1439     0    72     1    19
  1.1129291152932643E+00 a      1440     0    72     1    20
 -1.2322254244894857E+00 a      1441     0    73     1     1
  4.7489939573177942E-01 a      1442     0    73     1     2
  9.9303197807812882E-01 a      1443     0    73     1     3
  1.7874307517707755E-01 a      1444     0    73     1     4
  2.0313376078225290E-01 a      1445     0    73     1     5
  3.9577238969346890E-01 a      1446     0    73     1     6
  5.0717124470714248E-01 a      1447     0    73     1     7
  2.5408969420140997E+00 a      1448     0    73     1     8
 -4.1777180361356109E-01 a      1449     0    73     1     9
  1.4987106417802405E+00 a      1450     0    73     1    10
  2.9405096147178189E-01 a      1451     0    73     1    11
  6.2913866941669905E-01 a      1452     0    73     1    12
 -1.3731660216115211E+00 a      1453     0    73     1    13
 -3.0883707141464303E+00 a      1454     0    73     1    14
 -3.4232012489372670E+00 a      1455     0    73     1    15
 -2.7207529304585986E-02 a      1456     0    73     1    16
 -1.2771597086010293E+00 a      1457     0    73     1    17
 -1.2637946421731190E+00 a      1458     0    73     1    18
 -3.5346888926228021E-01 a      1459     0    73     1    19
  4.0449409684838999E-01 a      1460     0    73     1    20
 -2.0979604257853404E+00 a      1461     0    74     1     1
  3.0283904845544457E-01 a      1462     0    74     1     2
 -2.4454454336403481E-01 a      1463     0    74     1     3
 -7.3031394052720106E-02 a      1464     0    74     1     4
 -1.6540554857761500E-01 a      1465     0    74     1     5
 -1.1560942728541432E+00 a      1466     0    74     1     6
  9.4229454441859439E-01 a      1467     0    74     1     7
 -1.0974417679084161E+00 a      1468     0    74     1     8
 -5.1185816652983995E-01 a      1469     0    74     1     9
  7.1512832201955445E-01 a      1470     0    74     1    10
 -4.8533997355028968E-01 a      1471     0    74     1    11
  4.6356201752005616E-01 a      1472     0    74     1    12
  3.4304344910650980E-01 a      1473     0    74     1    13
 -7.4953497453770546E-01 a      1474     0    74     1    14
 -2.0051796350172055E+00 a      1475     0    74     1    15
  4.4580706150357852E-01 a      1476     0    74     1    16
 -1.3246865393509220E+00 a      1477     0    74     1    17
  1.6631776372940268E+00 a      1478     0    74     1    18
 -5.3426680439699847E-01 a      1479     0    74     1    19
  1.2743707879692110E+00 a      1480     0    74     1    20
  3.9966412294707854E-01 a      1481     0    75     1     1
  2.5563631741453743E+00 a      1482     0    75     1     2
 -4.8365404241060933E-01 a      1483     0    75     1     3
  3.0185522572363926E-02 a      1484     0    75     1     4
 -1.7526828981510742E-01 a      1485     0    75     1     5
  1.0026455253458562E+00 a      1486     0    75     1     6
  1.0621002194864946E+00 a      1487     0    75     1     7
  3.7856512148329052E-01 a      1488     0    75     1     8
  6.8739021060360486E+00 a      1489     0    75     1     9
  3.0051429299876098E+00 a      1490     0    75     1    10
  2.0432689115374285E+00 a      1491     0    75     1    11
 -4.3857481369553070E-01 a      1492     0    75     1    12
 -8.0383366148104662E-01 a      1493     0    75     1    13
  3.7020562860111279E+00 a      1494     0    75     1    14
 -2.0927367851374803E+00 a      1495     0    75     1    15
  2.4017815096165829E+00 a      1496     0    75     1    16
 -5.8886306208910344E-01 a      1497     0    75     1    17
 -9.5856495410680365E-02 a      1498     0    75     1    18
 -2.6555490973071358E+00 a      1499     0    75     1    19
 -3.6419260972290841E+00 a      1500     0    75     1    20
  3.2866355285391702E+00 a      1501     0    76     1     1
  6.2485228306979668E-01 a      1502     0    76     1     2
 -2.2060022863830081E-01 a      1503     0    76     1     3
 -1.6563534639055324E+00 a      1504     0    76     1     4
 -1.6123283172014968E-01 a      1505     0    76     1     5
  8.7494635978262880E-01 a      1506     0    76     1     6
  9.7647026686009508E-01 a      1507     0    76     1     7
  1.2094456921026140E+00 a      1508     0    76     1     8
  6.1152767007218878E-01 a      1509     0    76     1     9
 -9.4841183471018975E-01 a      1510     0    76     1    10
 -1.3571532992963038E+00 a      1511     0    76     1    11
  1.6681844000405055E+00 a      1512     0    76     1    12
  1.4943347452674063E+00 a      1513     0    76     1    13
  6.1872031956873996E-01 a      1514     0    76     1    14
 -5.6860978363122050E-01 a      1515     0    76     1    15
 -1.5639480822974838E+00 a      1516     0    76     1    16
 -3.2827128001578108E+00 a      1517     0    76     1    17
 -1.8508721605057279E+00 a      1518     0    76     1    18
 -3.1338395950785563E+00 a      1519     0    76     1    19
  1.8519021162062212E+00 a      1520     0    76     1    20
 -2.5316572729180966E+00 a      1521     0    77     1     1
 -2.4544843246811338E-01 a      1522     0    77     1     2
 -5.6156560316482296E-01 a      1523     0    77     1     3
 -1.8100487489102918E-01 a      1524     0    77     1     4
 -1.2673527722709543E+00 a      1525     0    77     1     5
 -2.8121349869857317E+00 a      1526     0    77     1     6
  8.7762091222296046E-01 a      1527     0    77     1     7
 -2.4639275404580911E+00 a      1528     0    77     1     8
  9.6851696945568527E-02 a      1529     0    77     1     9
  9.5013646959541609E-01 a      1530     0    77     1    10
 -3.8619299115313210E-01 a      1531     0    77     1    11
  1.3993877215167614E+00 a      1532     0    77     1    12
  1.4171563919942654E+00 a      1533     0    77     1    13
 -1.5188654905541576E+00 a      1534     0    77     1    14
 -2.1943297309903276E+00 a      1535     0    77     1    15
  5.0107418886428401E-01 a      1536     0    77     1    16
 -4.0333312432628290E+00 a      1537     0    77     1    17
  7.0822562404333578E-01 a      1538     0    77     1    18
 -1.6477393837248397E+00 a      1539     0    77     1    19
  4.6426645277193828E+00 a      1540     0    77     1    20
 -1.7050648450840727E-01 a      1541     0    78     1     1
 -8.6316679389269713E-01 a      1542     0    78     1     2
 -6.3997961853155305E-01 a      1543     0    78     1     3
  1.7336676704985368E+00 a      1544     0    78     1     4
 -8.8435432553268756E-01 a      1545     0    78     1     5
 -5.7073668126695210E-01 a      1546     0    78     1     6
 -1.0682870771995407E+00 a      1547     0    78     1     7
 -1.4894851736165298E+00 a      1548     0    78     1     8
 -4.4885631340593213E-01 a      1549     0    78     1     9
 -1.2193600369545272E-01 a      1550     0    78     1    10
 -9.2491657376702854E-02 a      1551     0    78     1    11
 -4.8991005932352366E-01 a      1552     0    78     1    12
  3.6147181154287977E-01 a      1553     0    78     1    13
  3.5245642033814280E+00 a      1554     0    78     1    14
 -3.6007321137594901E+00 a      1555     0    78     1    15
 -1.1308601662767104E+00 a      1556     0    78     1    16
  2.6543292339752185E+00 a      1557     0    78     1    17
 -1.0384407520982972E+00 a      1558     0    78     1    18
  9.2847239321558594E-01 a      1559     0    78     1    19
  1.2750588199252859E+00 a      1560     0    78     1    20
  5.3727681043142033E+00 a      1561     0    79     1     1
  7.2169761520361742E-01 a      1562     0    79     1     2
 -1.8913513602501406E-01 a      1563     0    79     1     3
 -2.8616931102805654E+00 a      1564     0    79     1     4
  1.6827183760067776E-01 a      1565     0    79     1     5
  2.7114759460127682E+00 a      1566     0    79     1     6
 -2.0300013924118820E+00 a      1567     0    79     1     7
  2.0931510599727887E+00 a      1568     0    79     1     8
 -5.4323057323864210E-01 a      1569     0    79     1     9
 -3.6128980657562577E+00 a      1570     0    79     1    10
 -2.3326542991965935E+00 a      1571     0    79     1    11
  2.3882021944541556E+00 a      1572     0    79     1    12
  7.2078633988413021E-01 a      1573     0    79     1    13
  1.6137738343265213E+00 a      1574     0    79     1    14
  7.6116838731559244E-01 a      1575     0    79     1    15
 -3.7062511978259955E+00 a      1576     0    79     1    16
 -1.6399599223135148E+00 a      1577     0    79     1    17
 -4.2301048104363783E+00 a      1578     0    79     1    18
 -3.5066399364302452E+00 a      1579     0    79     1    19
  1.2056465183482545E+00 a      1580     0    79     1    20
  6.7282498588941442E-01 a      1581     0    80     1     1
  1.7536975903749649E-01 a      1582     0    80     1     2
 -1.2129900104534594E-01 a      1583     0    80     1     3
 -1.6169324873526306E-01 a      1584     0    80     1     4
 -1.5114094113347212E+00 a      1585     0    80     1     5
 -1.5912761562907671E+00 a      1586     0    80     1     6
 -5.5351262944900337E-01 a      1587     0    80     1     7
 -6.7482191209596731E-01 a      1588     0    80     1     8
  1.2242551161110764E+00 a      1589     0    80     1     9
  6.1784463082393815E-01 a      1590     0    80     1    10
  1.2441930617220467E+00 a      1591     0    80     1    11
 -1.5724649748793512E-01 a      1592     0    80     1    12
 -2.8937298926255578E-01 a      1593     0    80     1    13
  6.2351958868905344E-01 a      1594     0    80     1    14
  1.4658182107701250E+00 a      1595     0    80     1    15
 -2.3905566701970088E-01 a      1596     0    80     1    16
  5.8156276039009336E-01 a      1597     0    80     1    17
  9.7192546827681192E-01 a      1598     0    80     1    18
 -1.3140588943063134E+00 a      1599     0    80     1    19
  1.4235948242540621E+00 a      1600     0    80     1    20
  2.2426137370307166E-02 a      1601     0    81     1     1
 -4.9731370729381830E-02 a      1602     0    81     1     2
 -1.7120601622724094E+00 a      1603     0    81     1     3
  1.5101390846207881E+00 a      1604     0    81     1     4
  4.0381016726314084E-02 a      1605     0    81     1     5
  4.0102808080450646E-03 a      1606     0    81     1     6
  2.0118932249122339E+00 a      1607     0    81     1     7
 -1.2302098657835756E-01 a      1608     0    81     1     8
  2.0358534241569332E-01 a      1609     0    81     1     9
 -2.4808899531145462E-01 a      1610     0    81     1    10
 -1.2373458770945138E+00 a      1611     0    81     1    11
  5.3133689700056475E-01 a      1612     0    81     1    12
 -4.0224267496098298E-01 a      1613     0    81     1    13
  2.5883956532490067E+00 a      1614     0    81     1    14
  7.7194367101699279E-01 a      1615     0    81     1    15
 -1.1078867062168642E+00 a      1616     0    81     1    16
  2.5776549648453826E+00 a      1617     0    81     1    17
 -2.0025226765102766E-01 a      1618     0    81     1    18
 -2.4222973415566038E-01 a      1619     0    81     1    19
  1.3530273787734164E+00 a      1620     0    81     1    20
 -1.0882868437961333E+00 a      1621     0    82     1     1
 -1.8584112371829948E+00 a      1622     0    82     1     2
  3.9270667946032733E-01 a      1623     0    82     1     3
