################################################################################
# Neural network connection values (weights and biases).
################################################################################
# Col  Name       Description
################################################################################
# 1    connection Neural network connection value.
# 2    t          Connection type (a = weight, b = bias).
# 3    index      Index enumerating weights.
# 4    l_s        Starting point layer (end point layer for biases).
# 5    n_s        Starting point neuron in starting layer (end point neuron for biases).
# 6    l_e        End point layer.
# 7    n_e        End point neuron in end layer.
################################################################################
#                      1 2         3     4     5     6     7
#             connection t     index   l_s   n_s   l_e   n_e
############################################################
  3.2414780193235587E-01 a         1     0     1     1     1
 -5.6280206560341939E-01 a         2     0     1     1     2
  2.7473092575129587E-01 a         3     0     1     1     3
  1.7986783003933213E+00 a         4     0     1     1     4
  1.9442619554150492E-01 a         5     0     1     1     5
  1.0786199300750205E+00 a         6     0     1     1     6
  8.8651494829981314E-01 a         7     0     1     1     7
  1.1238382658862546E-01 a         8     0     1     1     8
  1.1073111854465935E-01 a         9     0     1     1     9
 -1.9013659296946991E-01 a        10     0     1     1    10
  9.6108055379234580E-01 a        11     0     1     1    11
 -1.0309860495613223E+00 a        12     0     1     1    12
 -1.6626223254511194E+00 a        13     0     1     1    13
  5.7183049863763580E-01 a        14     0     1     1    14
  1.1722892943242986E+00 a        15     0     1     1    15
 -6.1189329045376051E-01 a        16     0     1     1    16
  6.2498948305380897E-01 a        17     0     1     1    17
  6.8626907570714035E-01 a        18     0     1     1    18
 -1.4097886189398678E+00 a        19     0     1     1    19
  6.6371968172528595E-01 a        20     0     1     1    20
  1.5688742163933160E+00 a        21     0     2     1     1
  1.4930010440961088E+00 a        22     0     2     1     2
  9.1389141314215250E-01 a        23     0     2     1     3
 -1.1363090966256801E+00 a        24     0     2     1     4
 -3.1955700604806153E-01 a        25     0     2     1     5
 -5.8454230524114581E-01 a        26     0     2     1     6
 -5.4252563211709859E-01 a        27     0     2     1     7
  1.4140162554667233E+00 a        28     0     2     1     8
  7.8095882273842565E-01 a        29     0     2     1     9
 -2.5792934892543357E-01 a        30     0     2     1    10
 -2.8232343428553186E-01 a        31     0     2     1    11
  1.7273863452732521E+00 a        32     0     2     1    12
 -3.2186120038746366E-02 a        33     0     2     1    13
 -6.3855910009602057E-01 a        34     0     2     1    14
  4.8585976076976112E-01 a        35     0     2     1    15
  6.5176576484956306E-01 a        36     0     2     1    16
  9.3141521570293040E-02 a        37     0     2     1    17
  2.6778472251916801E-03 a        38     0     2     1    18
 -2.5828169283108249E-01 a        39     0     2     1    19
 -3.7362922671749027E-01 a        40     0     2     1    20
 -2.4574215230375890E-01 a        41     0     3     1     1
 -2.0512180096363299E+00 a        42     0     3     1     2
 -1.0903147681294011E-01 a        43     0     3     1     3
  1.3168120069365326E+00 a        44     0     3     1     4
  2.0340981099459993E-01 a        45     0     3     1     5
  1.4163406330782073E+00 a        46     0     3     1     6
  3.7917184324425429E-01 a        47     0     3     1     7
 -1.4109530762892761E+00 a        48     0     3     1     8
 -6.9474384589893579E-02 a        49     0     3     1     9
 -3.3348239849587130E-01 a        50     0     3     1    10
  5.2607819526936428E-01 a        51     0     3     1    11
 -2.5377129242423440E+00 a        52     0     3     1    12
 -1.5466661434958815E+00 a        53     0     3     1    13
  1.4594718646611923E-01 a        54     0     3     1    14
  1.1417570775718917E+00 a        55     0     3     1    15
 -7.1967597306131770E-01 a        56     0     3     1    16
 -3.7118094611846825E-01 a        57     0     3     1    17
  1.0199826099264878E-02 a        58     0     3     1    18
 -4.7944326425212194E-02 a        59     0     3     1    19
 -4.7652635794731663E-01 a        60     0     3     1    20
  3.5936590349538472E-01 a        61     0     4     1     1
 -1.1660663469504242E+00 a        62     0     4     1     2
  9.1375848553201122E-01 a        63     0     4     1     3
 -1.2947029187977983E+00 a        64     0     4     1     4
  2.6945819636584399E-02 a        65     0     4     1     5
  4.8489726363661523E-01 a        66     0     4     1     6
 -1.1643074487643919E+00 a        67     0     4     1     7
 -3.1465257390153994E-01 a        68     0     4     1     8
  8.9387730685469402E-01 a        69     0     4     1     9
 -7.8371061773745990E-02 a        70     0     4     1    10
 -1.4856298936048007E+00 a        71     0     4     1    11
 -8.7006655142504319E-01 a        72     0     4     1    12
 -3.9839898247004768E-01 a        73     0     4     1    13
 -6.2890416443255093E-01 a        74     0     4     1    14
 -8.0690492936171265E-01 a        75     0     4     1    15
 -1.2313305402718679E-01 a        76     0     4     1    16
 -9.5496334151772178E-01 a        77     0     4     1    17
 -3.9727482151514754E-01 a        78     0     4     1    18
  2.1335514139742973E+00 a        79     0     4     1    19
 -9.8441002452698934E-01 a        80     0     4     1    20
 -1.0103801862195214E+00 a        81     0     5     1     1
  1.6196959528971616E-01 a        82     0     5     1     2
 -1.0920065569244368E+00 a        83     0     5     1     3
 -8.2483435111208703E-02 a        84     0     5     1     4
 -2.8735301242517663E-01 a        85     0     5     1     5
 -2.1308158257505663E-01 a        86     0     5     1     6
  9.9483935035288951E-01 a        87     0     5     1     7
 -6.2639181464345273E-02 a        88     0     5     1     8
  2.5600756823899024E-01 a        89     0     5     1     9
 -3.2447228369407866E-01 a        90     0     5     1    10
  5.9092865328656215E-02 a        91     0     5     1    11
  7.5890623664197715E-02 a        92     0     5     1    12
  1.4820855614480058E-01 a        93     0     5     1    13
  6.0498381160019127E-02 a        94     0     5     1    14
  1.8437972095616431E-01 a        95     0     5     1    15
 -3.0102997482619581E-01 a        96     0     5     1    16
  6.7090888207604360E-01 a        97     0     5     1    17
 -7.9027915018391653E-02 a        98     0     5     1    18
 -4.2773573598477610E-01 a        99     0     5     1    19
  8.0268700073911581E-01 a       100     0     5     1    20
  4.6693726766960653E-01 a       101     0     6     1     1
 -4.6669713466295226E-01 a       102     0     6     1     2
 -1.0963606391800982E+00 a       103     0     6     1     3
  4.3810656478179066E-01 a       104     0     6     1     4
  1.1399964201175543E+00 a       105     0     6     1     5
 -3.5622257391260287E-01 a       106     0     6     1     6
  1.6881425733940114E+00 a       107     0     6     1     7
 -3.6587694404019810E-01 a       108     0     6     1     8
 -8.3263167309971886E-01 a       109     0     6     1     9
  8.4390088089318349E-01 a       110     0     6     1    10
 -1.1123450866477813E+00 a       111     0     6     1    11
 -1.3434311104923480E+00 a       112     0     6     1    12
  1.0754752632403800E-01 a       113     0     6     1    13
 -9.6276269086160715E-01 a       114     0     6     1    14
 -1.0079583000739927E-02 a       115     0     6     1    15
  6.0588276245578021E-01 a       116     0     6     1    16
  1.1529497420598562E+00 a       117     0     6     1    17
 -1.1537575744331034E-01 a       118     0     6     1    18
  9.7538315135392051E-01 a       119     0     6     1    19
 -3.0367527834733182E-01 a       120     0     6     1    20
 -2.0847344902732931E-01 a       121     0     7     1     1
 -2.4302687007879370E-01 a       122     0     7     1     2
 -1.4347359998232787E-01 a       123     0     7     1     3
 -7.7073254294570137E-01 a       124     0     7     1     4
 -1.5141791775029953E-01 a       125     0     7     1     5
 -6.9549397712882055E-01 a       126     0     7     1     6
  9.8036021294035391E-01 a       127     0     7     1     7
  9.4218369932842627E-01 a       128     0     7     1     8
  5.3763804147443461E-01 a       129     0     7     1     9
  3.9005193063213600E-01 a       130     0     7     1    10
  1.8651427319021707E-01 a       131     0     7     1    11
  1.1000719063153670E+00 a       132     0     7     1    12
 -1.6703832978245109E-01 a       133     0     7     1    13
  4.6586876912729486E-01 a       134     0     7     1    14
  3.2162873468785541E-01 a       135     0     7     1    15
  1.1229921062717547E+00 a       136     0     7     1    16
 -8.5424456088450851E-01 a       137     0     7     1    17
  5.8364279999065760E-01 a       138     0     7     1    18
  7.3341962466196353E-01 a       139     0     7     1    19
  6.8410942539106345E-01 a       140     0     7     1    20
 -8.5754441850860774E-01 a       141     0     8     1     1
 -4.0141374700514199E-01 a       142     0     8     1     2
  3.1905880635585826E-01 a       143     0     8     1     3
 -1.4281503977380983E+00 a       144     0     8     1     4
 -2.9409436540529621E-01 a       145     0     8     1     5
 -1.1846245499544206E-01 a       146     0     8     1     6
  9.6391946729244438E-01 a       147     0     8     1     7
  1.1190197737926610E+00 a       148     0     8     1     8
 -5.1749289633958262E-01 a       149     0     8     1     9
  1.0350098456222845E+00 a       150     0     8     1    10
 -1.1158215750550597E+00 a       151     0     8     1    11
  7.0924305595076453E-01 a       152     0     8     1    12
 -8.6619235956351437E-01 a       153     0     8     1    13
 -4.2413087698516866E-01 a       154     0     8     1    14
 -8.5434807613257591E-01 a       155     0     8     1    15
  3.8462822269184571E-01 a       156     0     8     1    16
  4.5303073596130621E-04 a       157     0     8     1    17
 -2.6048653457924853E-01 a       158     0     8     1    18
  6.0340627886637577E-01 a       159     0     8     1    19
  4.2636869758230073E-01 a       160     0     8     1    20
 -7.3220016205214411E-01 a       161     0     9     1     1
  3.2045520006243550E-01 a       162     0     9     1     2
 -9.9152652727318846E-01 a       163     0     9     1     3
 -2.6892522642759070E-01 a       164     0     9     1     4
 -4.0035985274969782E-01 a       165     0     9     1     5
 -1.6503248522534519E-01 a       166     0     9     1     6
  5.2641752080444804E-01 a       167     0     9     1     7
  1.5330862066419687E-01 a       168     0     9     1     8
  4.0927986636413161E-01 a       169     0     9     1     9
 -6.7717542324547200E-02 a       170     0     9     1    10
  5.1109034659680599E-02 a       171     0     9     1    11
  1.8337855827937538E-02 a       172     0     9     1    12
  2.3540804420418622E-02 a       173     0     9     1    13
  3.1639677114235187E-01 a       174     0     9     1    14
  2.5782030118979399E-01 a       175     0     9     1    15
 -2.3656748648148559E-01 a       176     0     9     1    16
  3.8181177504254737E-01 a       177     0     9     1    17
 -2.9865975426427799E-01 a       178     0     9     1    18
 -2.6462918529306478E-01 a       179     0     9     1    19
  8.1001150516378739E-01 a       180     0     9     1    20
 -1.1796392850603132E+00 a       181     0    10     1     1
 -1.4273500891141679E-02 a       182     0    10     1     2
 -5.2845146665386900E-01 a       183     0    10     1     3
  2.2728593926628610E-01 a       184     0    10     1     4
  1.0790699908373740E-01 a       185     0    10     1     5
  3.7781992297129319E-01 a       186     0    10     1     6
 -3.4262228903125297E-01 a       187     0    10     1     7
  7.0712703245037933E-01 a       188     0    10     1     8
 -5.1947888685904242E-01 a       189     0    10     1     9
  8.8137301991401129E-01 a       190     0    10     1    10
 -8.0057188975596882E-01 a       191     0    10     1    11
  4.3457317495564536E-02 a       192     0    10     1    12
 -1.3279915107428362E+00 a       193     0    10     1    13
  7.4397837156632074E-01 a       194     0    10     1    14
  6.5415687418657231E-01 a       195     0    10     1    15
 -2.4858760994629438E-02 a       196     0    10     1    16
  2.3617335422527097E-01 a       197     0    10     1    17
 -2.2843216472384623E-01 a       198     0    10     1    18
 -7.6162386518126279E-01 a       199     0    10     1    19
  9.3149542482260850E-01 a       200     0    10     1    20
  1.7681368501733928E-02 a       201     0    11     1     1
 -9.4479784090935645E-02 a       202     0    11     1     2
 -2.1169318558571437E-01 a       203     0    11     1     3
 -7.1220510058183151E-01 a       204     0    11     1     4
 -4.2369458563274442E-01 a       205     0    11     1     5
 -8.9103130198645208E-01 a       206     0    11     1     6
  7.0040324029968504E-01 a       207     0    11     1     7
  5.6722133223891047E-01 a       208     0    11     1     8
  6.7049733703137115E-01 a       209     0    11     1     9
  3.7289680765185912E-01 a       210     0    11     1    10
  2.6832206735356678E-01 a       211     0    11     1    11
  9.1629676190721476E-01 a       212     0    11     1    12
  1.7814393273520826E-01 a       213     0    11     1    13
  5.3431666521215204E-01 a       214     0    11     1    14
 -4.8238357311008603E-02 a       215     0    11     1    15
  1.1634128163851813E+00 a       216     0    11     1    16
 -6.2095961306704450E-01 a       217     0    11     1    17
  4.0639330669982582E-01 a       218     0    11     1    18
  7.3290357863469169E-01 a       219     0    11     1    19
  6.2513854993469509E-01 a       220     0    11     1    20
 -8.3404697541321482E-01 a       221     0    12     1     1
  7.4921595386712059E-02 a       222     0    12     1     2
 -5.9131316782984866E-01 a       223     0    12     1     3
 -3.6219175423874200E-01 a       224     0    12     1     4
 -6.8774780649926859E-01 a       225     0    12     1     5
 -1.5279285312355220E-01 a       226     0    12     1     6
  2.7894004534274092E-01 a       227     0    12     1     7
  2.7669123082702046E-01 a       228     0    12     1     8
  2.0697986169543117E-01 a       229     0    12     1     9
  1.0297581778321420E-01 a       230     0    12     1    10
  2.3287548554310733E-01 a       231     0    12     1    11
  6.9963966405230379E-02 a       232     0    12     1    12
  3.6220819366806550E-01 a       233     0    12     1    13
  3.0399692117794619E-01 a       234     0    12     1    14
  2.0564252885741727E-01 a       235     0    12     1    15
 -2.9595058787866479E-01 a       236     0    12     1    16
 -5.1435287611030665E-03 a       237     0    12     1    17
 -3.5125919066362546E-02 a       238     0    12     1    18
 -3.0922792153486783E-01 a       239     0    12     1    19
  8.7997272792698022E-01 a       240     0    12     1    20
 -5.0461261552931813E-01 a       241     0    13     1     1
 -3.7485074426771986E-01 a       242     0    13     1     2
  6.4726462856655520E-01 a       243     0    13     1     3
 -1.3664917340837462E-01 a       244     0    13     1     4
 -4.4091723411682840E-03 a       245     0    13     1     5
  8.7688423765216683E-02 a       246     0    13     1     6
  1.0077645173167773E+00 a       247     0    13     1     7
 -1.3927711158238609E-01 a       248     0    13     1     8
 -4.2685529039511105E-01 a       249     0    13     1     9
  6.7278743304911814E-01 a       250     0    13     1    10
 -2.3518854160500632E-01 a       251     0    13     1    11
  2.2879472254479180E-01 a       252     0    13     1    12
 -1.2988928075082240E+00 a       253     0    13     1    13
 -4.3320662398004300E-01 a       254     0    13     1    14
  4.3956114943458591E-01 a       255     0    13     1    15
 -7.1702557561851551E-02 a       256     0    13     1    16
  8.1514069811198617E-02 a       257     0    13     1    17
  2.3879863790267020E-01 a       258     0    13     1    18
 -1.1167045720751025E-01 a       259     0    13     1    19
 -1.4798628194778771E-02 a       260     0    13     1    20
  5.0720916001679620E-02 a       261     0    14     1     1
 -3.4959469748148819E-01 a       262     0    14     1     2
 -2.0669860864871184E-01 a       263     0    14     1     3
 -4.0118315293041745E-01 a       264     0    14     1     4
 -1.7773556194057910E-01 a       265     0    14     1     5
 -7.5455581360973811E-01 a       266     0    14     1     6
  7.0866043206854890E-01 a       267     0    14     1     7
  6.7457923623292482E-01 a       268     0    14     1     8
  4.3788599876424406E-01 a       269     0    14     1     9
  5.3732089027632068E-01 a       270     0    14     1    10
  1.2250120096120123E-01 a       271     0    14     1    11
  8.8418811323655622E-01 a       272     0    14     1    12
  9.9121750577217435E-02 a       273     0    14     1    13
  4.0144074916288136E-01 a       274     0    14     1    14
  1.3860831434780335E-01 a       275     0    14     1    15
  9.2369834671060358E-01 a       276     0    14     1    16
 -9.0094402978603083E-01 a       277     0    14     1    17
  4.8919710247417492E-01 a       278     0    14     1    18
  4.5687264537992411E-01 a       279     0    14     1    19
  3.9917539317022505E-01 a       280     0    14     1    20
 -3.2049530312555163E-01 a       281     0    15     1     1
 -4.0708119269136689E-01 a       282     0    15     1     2
  1.2348722087058208E+00 a       283     0    15     1     3
 -5.8446756848846459E-01 a       284     0    15     1     4
 -4.3541093308282430E-01 a       285     0    15     1     5
 -4.0469576175403782E-01 a       286     0    15     1     6
 -5.9488728914222810E-01 a       287     0    15     1     7
  1.3321030906475320E+00 a       288     0    15     1     8
  7.3461685159407389E-02 a       289     0    15     1     9
  1.2053507566778316E+00 a       290     0    15     1    10
  1.2887493187037513E+00 a       291     0    15     1    11
  1.1649069790991182E+00 a       292     0    15     1    12
  4.4776080339950480E-01 a       293     0    15     1    13
  9.0126254301081354E-01 a       294     0    15     1    14
  1.6989717730292839E+00 a       295     0    15     1    15
 -1.5015437658569266E+00 a       296     0    15     1    16
 -1.6442485690249984E+00 a       297     0    15     1    17
 -1.5312803036668798E-01 a       298     0    15     1    18
  4.2199515998912929E-01 a       299     0    15     1    19
  2.1522447644015790E+00 a       300     0    15     1    20
  2.3328333058093925E-01 a       301     0    16     1     1
 -1.3732476380599743E+00 a       302     0    16     1     2
  1.5070254447175901E-01 a       303     0    16     1     3
  1.1453070973183999E-01 a       304     0    16     1     4
  6.3471275815140715E-01 a       305     0    16     1     5
 -3.3096009950686384E-01 a       306     0    16     1     6
  4.4287026039022230E-03 a       307     0    16     1     7
  7.9507779385772234E-02 a       308     0    16     1     8
 -3.0766172553157467E-01 a       309     0    16     1     9
  5.1441160919157269E-01 a       310     0    16     1    10
 -6.7325283119123547E-01 a       311     0    16     1    11
  1.4354445437287561E-01 a       312     0    16     1    12
  1.1397923437124500E+00 a       313     0    16     1    13
 -1.0599208120246058E-01 a       314     0    16     1    14
 -2.6115287921715741E-01 a       315     0    16     1    15
 -4.9222221697892327E-01 a       316     0    16     1    16
 -4.0106078320642016E-02 a       317     0    16     1    17
 -3.3645642610442356E-01 a       318     0    16     1    18
  1.3140361846365145E-01 a       319     0    16     1    19
 -2.6028953824831774E-01 a       320     0    16     1    20
 -3.3178407558643590E-02 a       321     0    17     1     1
 -4.7705413905287203E-01 a       322     0    17     1     2
 -7.5448781226783640E-02 a       323     0    17     1     3
 -3.5442345531702169E-01 a       324     0    17     1     4
 -2.7966926940248032E-01 a       325     0    17     1     5
 -5.4488112851649440E-01 a       326     0    17     1     6
  8.0634751385045911E-01 a       327     0    17     1     7
  5.1904477692357487E-01 a       328     0    17     1     8
  6.1817797485744219E-01 a       329     0    17     1     9
  4.6275554552625259E-01 a       330     0    17     1    10
  4.3652739850533878E-01 a       331     0    17     1    11
  6.9045591916800875E-01 a       332     0    17     1    12
  3.7543657213641263E-01 a       333     0    17     1    13
  5.4237583122902377E-01 a       334     0    17     1    14
  1.1699903579814162E-01 a       335     0    17     1    15
  6.8276619800715144E-01 a       336     0    17     1    16
 -5.6156053995597655E-01 a       337     0    17     1    17
  5.7561329066475997E-01 a       338     0    17     1    18
  5.3507485524268006E-01 a       339     0    17     1    19
  3.3860716136389357E-01 a       340     0    17     1    20
 -4.0389533694219215E-01 a       341     0    18     1     1
 -2.8579413265353421E-01 a       342     0    18     1     2
  2.9615354633095514E-01 a       343     0    18     1     3
 -1.2455363090899181E+00 a       344     0    18     1     4
 -8.2518902446222697E-01 a       345     0    18     1     5
 -8.9741915082344081E-01 a       346     0    18     1     6
  8.0828131527167690E-01 a       347     0    18     1     7
  2.4683181143433428E+00 a       348     0    18     1     8
 -4.5969972264591569E-01 a       349     0    18     1     9
  1.3841898430457233E+00 a       350     0    18     1    10
 -3.2080339498623939E-01 a       351     0    18     1    11
 -4.3199165425928182E-01 a       352     0    18     1    12
  4.6613153819993419E-01 a       353     0    18     1    13
  7.5485044836480630E-01 a       354     0    18     1    14
  6.1488162694070980E-01 a       355     0    18     1    15
  7.0275979796785992E-01 a       356     0    18     1    16
 -7.2155101082034334E-01 a       357     0    18     1    17
 -7.8251085370704265E-01 a       358     0    18     1    18
  8.8751730860547784E-01 a       359     0    18     1    19
  7.9465271171594398E-01 a       360     0    18     1    20
 -1.5115387934057672E-01 a       361     0    19     1     1
 -1.1799631679493505E+00 a       362     0    19     1     2
  1.2061934705577899E+00 a       363     0    19     1     3
  3.1711026712439805E-01 a       364     0    19     1     4
  4.7341216686177406E-01 a       365     0    19     1     5
 -2.2314305573859153E-01 a       366     0    19     1     6
 -1.9098419056653302E+00 a       367     0    19     1     7
 -4.2920892184435189E-01 a       368     0    19     1     8
  4.5522154544778121E-01 a       369     0    19     1     9
 -6.7984806890854621E-01 a       370     0    19     1    10
 -2.2518181857075825E-01 a       371     0    19     1    11
  1.5323302597599449E+00 a       372     0    19     1    12
  1.2626413421561382E+00 a       373     0    19     1    13
  1.1126453404767035E-01 a       374     0    19     1    14
 -8.4545068990397176E-01 a       375     0    19     1    15
 -1.3036752420363824E+00 a       376     0    19     1    16
 -5.2914432317778037E-01 a       377     0    19     1    17
 -5.3311652433446721E-01 a       378     0    19     1    18
 -3.4310024364279906E-01 a       379     0    19     1    19
 -1.0748040731212213E-01 a       380     0    19     1    20
 -1.7530654812661478E-01 a       381     0    20     1     1
  5.6883930422510898E-01 a       382     0    20     1     2
  9.4303344016003904E-02 a       383     0    20     1     3
  6.9638059917827788E-02 a       384     0    20     1     4
 -9.3046459735799100E-02 a       385     0    20     1     5
 -3.7872815982637986E-01 a       386     0    20     1     6
 -4.3265173096637632E-01 a       387     0    20     1     7
  4.7340590609674010E-01 a       388     0    20     1     8
  1.3527908771160263E-01 a       389     0    20     1     9
  5.7555793981010184E-01 a       390     0    20     1    10
  1.0883244742152474E+00 a       391     0    20     1    11
  5.1629922622635527E-01 a       392     0    20     1    12
  1.5573452476449998E-01 a       393     0    20     1    13
  3.5250911081008252E-01 a       394     0    20     1    14
  1.1556790096649019E+00 a       395     0    20     1    15
 -1.0098478590908160E+00 a       396     0    20     1    16
 -2.7661049834335805E-01 a       397     0    20     1    17
 -4.6911227709088933E-02 a       398     0    20     1    18
  1.5454488908819072E-01 a       399     0    20     1    19
  1.0007151958356275E+00 a       400     0    20     1    20
 -1.3124938674872342E+00 a       401     0    21     1     1
  3.1312098283416662E-01 a       402     0    21     1     2
 -1.0972097811013182E+00 a       403     0    21     1     3
  7.9711991813922467E-01 a       404     0    21     1     4
  2.1624711947894873E-01 a       405     0    21     1     5
  4.9058992016197239E-01 a       406     0    21     1     6
  5.2743213920074916E-01 a       407     0    21     1     7
  2.6948907695360858E-01 a       408     0    21     1     8
 -3.2704709183660030E-01 a       409     0    21     1     9
 -3.1636884334255662E-02 a       410     0    21     1    10
  9.1285096021382139E-01 a       411     0    21     1    11
 -1.0003313718970526E+00 a       412     0    21     1    12
 -5.5145605230146826E-02 a       413     0    21     1    13
  2.2881800339170318E-02 a       414     0    21     1    14
 -3.6836300861446786E-01 a       415     0    21     1    15
 -7.4175284008273956E-01 a       416     0    21     1    16
  2.0713477628501828E-01 a       417     0    21     1    17
  4.9579585867161852E-01 a       418     0    21     1    18
 -1.9128674748060889E-01 a       419     0    21     1    19
  3.8761920515938614E-01 a       420     0    21     1    20
 -3.9962035865902235E-01 a       421     0    22     1     1
  5.2357964170817761E-01 a       422     0    22     1     2
  1.2906153734869312E+00 a       423     0    22     1     3
 -4.2081077034916381E-01 a       424     0    22     1     4
 -4.9719313031855239E-01 a       425     0    22     1     5
  5.6323075077265761E-01 a       426     0    22     1     6
 -2.2913473982091199E+00 a       427     0    22     1     7
  7.5641914511842201E-01 a       428     0    22     1     8
  5.1577801302130499E-01 a       429     0    22     1     9
 -3.8159765284979019E-01 a       430     0    22     1    10
  3.8231889087739623E-01 a       431     0    22     1    11
  7.4972596384511780E-01 a       432     0    22     1    12
 -8.8328093144921860E-01 a       433     0    22     1    13
  3.4627348500660005E-01 a       434     0    22     1    14
 -1.2355032834857809E+00 a       435     0    22     1    15
 -1.5957138424492431E-01 a       436     0    22     1    16
 -1.4446083207101097E+00 a       437     0    22     1    17
 -1.8050446594492722E-01 a       438     0    22     1    18
 -2.7521002314577442E-01 a       439     0    22     1    19
  6.5792818664971175E-01 a       440     0    22     1    20
 -1.7283515824534146E+00 a       441     0    23     1     1
  1.6260136073569742E-01 a       442     0    23     1     2
 -4.5783782261572947E-01 a       443     0    23     1     3
  4.7133964942893430E-01 a       444     0    23     1     4
 -1.8196291936058220E-01 a       445     0    23     1     5
 -4.6920286416371537E-01 a       446     0    23     1     6
 -6.2399975168074584E-01 a       447     0    23     1     7
 -1.9798148367848545E+00 a       448     0    23     1     8
  1.5677216346697400E+00 a       449     0    23     1     9
 -1.7039417358999240E+00 a       450     0    23     1    10
  3.0509224641494531E-01 a       451     0    23     1    11
  1.4938289746900577E+00 a       452     0    23     1    12
  2.3058263186089673E-01 a       453     0    23     1    13
 -1.5123054242202760E+00 a       454     0    23     1    14
 -3.8966640435111177E-01 a       455     0    23     1    15
 -4.8309777488099853E-01 a       456     0    23     1    16
  8.2295518668297651E-01 a       457     0    23     1    17
 -2.6434140983902871E-01 a       458     0    23     1    18
 -2.5132707460737341E-01 a       459     0    23     1    19
 -5.9565488784129994E-01 a       460     0    23     1    20
 -2.8479826083883397E-01 a       461     0    24     1     1
 -1.1504302585846775E-01 a       462     0    24     1     2
  3.5235988163159010E-02 a       463     0    24     1     3
 -6.6473992900240197E-02 a       464     0    24     1     4
 -8.1101434328205643E-02 a       465     0    24     1     5
  1.7163162299935120E-01 a       466     0    24     1     6
 -3.5950611928480930E-01 a       467     0    24     1     7
 -4.2345881144690362E-01 a       468     0    24     1     8
  2.8608075445133430E-01 a       469     0    24     1     9
 -2.6103793061820457E-01 a       470     0    24     1    10
 -3.5174060486891640E-01 a       471     0    24     1    11
  3.8831782365083350E-01 a       472     0    24     1    12
 -1.6260017797575144E-01 a       473     0    24     1    13
 -2.0366859270066406E-01 a       474     0    24     1    14
  4.5559270668603415E-02 a       475     0    24     1    15
 -2.6341684274213467E-01 a       476     0    24     1    16
  3.7332632787877357E-01 a       477     0    24     1    17
  3.0840577382655321E-01 a       478     0    24     1    18
  4.1819394489120889E-03 a       479     0    24     1    19
  1.2918510748829042E-02 a       480     0    24     1    20
 -1.2917492662863192E-01 a       481     0    25     1     1
 -3.4273426057421841E-01 a       482     0    25     1     2
 -1.3626644600632090E-01 a       483     0    25     1     3
  4.9314296580426525E-01 a       484     0    25     1     4
 -1.4337374391086627E-01 a       485     0    25     1     5
 -4.1263278779835039E-01 a       486     0    25     1     6
  2.1168140163556004E-01 a       487     0    25     1     7
 -7.3852798356970084E-01 a       488     0    25     1     8
 -5.8209422935659338E-01 a       489     0    25     1     9
  9.4847747578531941E-02 a       490     0    25     1    10
 -4.9628746345230068E-01 a       491     0    25     1    11
 -3.3564620824790348E-01 a       492     0    25     1    12
  1.5492956963129911E+00 a       493     0    25     1    13
  5.9243312000847570E-01 a       494     0    25     1    14
 -4.5391208247198417E-01 a       495     0    25     1    15
  7.5871567541714965E-02 a       496     0    25     1    16
  4.7271175145018279E-01 a       497     0    25     1    17
 -5.7274110760567609E-01 a       498     0    25     1    18
  2.2514921767164403E-01 a       499     0    25     1    19
 -2.5490660299375013E-02 a       500     0    25     1    20
 -9.0164771689591572E-01 a       501     0    26     1     1
  1.7362895437617328E-02 a       502     0    26     1     2
 -8.5421784412412050E-02 a       503     0    26     1     3
  1.9428679375290578E-01 a       504     0    26     1     4
 -4.1142575251659735E-01 a       505     0    26     1     5
 -3.3294453033348104E-01 a       506     0    26     1     6
 -3.6809541007227176E-01 a       507     0    26     1     7
 -8.6821950609962695E-01 a       508     0    26     1     8
  7.2900172083852399E-01 a       509     0    26     1     9
 -5.0534430071367364E-01 a       510     0    26     1    10
 -4.5054092730475770E-01 a       511     0    26     1    11
  1.2669217081290221E+00 a       512     0    26     1    12
 -2.7154647294794226E-01 a       513     0    26     1    13
 -1.1501435788015197E-02 a       514     0    26     1    14
 -8.7623658469824228E-01 a       515     0    26     1    15
 -1.2475677671282677E+00 a       516     0    26     1    16
  2.9315992030787641E-01 a       517     0    26     1    17
 -3.1486945592047300E-01 a       518     0    26     1    18
 -6.4157627531152728E-01 a       519     0    26     1    19
 -1.9759239585117222E-01 a       520     0    26     1    20
  5.4669274673048307E-01 a       521     0    27     1     1
  4.3028632446750453E-01 a       522     0    27     1     2
  7.6473884977652207E-01 a       523     0    27     1     3
  1.3777077611328350E+00 a       524     0    27     1     4
  1.4433170720429893E+00 a       525     0    27     1     5
  4.7670656067876072E-01 a       526     0    27     1     6
 -8.0317829218864523E-01 a       527     0    27     1     7
 -9.5453611481102207E-01 a       528     0    27     1     8
  6.9344664864275618E-01 a       529     0    27     1     9
 -9.5187376318240113E-01 a       530     0    27     1    10
  4.8507013816689964E-01 a       531     0    27     1    11
  1.0584006929688687E+00 a       532     0    27     1    12
  4.1641641497307445E-02 a       533     0    27     1    13
  3.0796793222568586E-01 a       534     0    27     1    14
  3.0918534309402903E-03 a       535     0    27     1    15
 -2.4164905147557228E-01 a       536     0    27     1    16
 -6.9871194522608437E-01 a       537     0    27     1    17
 -6.7853265622577388E-02 a       538     0    27     1    18
  1.0438041434011620E+00 a       539     0    27     1    19
 -3.6063267757660233E-01 a       540     0    27     1    20
  1.3882331800638137E+00 a       541     0    28     1     1
  7.4268598258514773E-01 a       542     0    28     1     2
  3.4216075829495796E-01 a       543     0    28     1     3
  2.4880215760274471E-01 a       544     0    28     1     4
  6.5449907960520248E-01 a       545     0    28     1     5
  1.0001471655670022E+00 a       546     0    28     1     6
 -2.7338592611181278E-01 a       547     0    28     1     7
 -4.9194766524455219E-01 a       548     0    28     1     8
  4.9064464576789857E-01 a       549     0    28     1     9
  2.3288577182656245E-01 a       550     0    28     1    10
  1.0271919391755520E+00 a       551     0    28     1    11
 -1.0946383185019729E-01 a       552     0    28     1    12
 -8.6316474582929259E-01 a       553     0    28     1    13
 -1.2175175361183656E-02 a       554     0    28     1    14
  6.6815471857282982E-01 a       555     0    28     1    15
  4.3993677003982035E-01 a       556     0    28     1    16
 -1.2751331435220243E+00 a       557     0    28     1    17
  6.2350572225577960E-01 a       558     0    28     1    18
  2.6355958944019203E-01 a       559     0    28     1    19
 -4.1159334899964112E-01 a       560     0    28     1    20
  2.6589047977263719E-01 a       561     0    29     1     1
  1.3861670304028957E+00 a       562     0    29     1     2
 -5.8307322022014541E-01 a       563     0    29     1     3
  6.8296023279995829E-02 a       564     0    29     1     4
  5.3275852013455760E-01 a       565     0    29     1     5
 -7.3822313881067658E-01 a       566     0    29     1     6
  2.0254027087651322E-01 a       567     0    29     1     7
  5.2812667963811921E-01 a       568     0    29     1     8
 -6.0727949858794816E-03 a       569     0    29     1     9
  1.2622508536166832E-01 a       570     0    29     1    10
  7.7683370075654934E-01 a       571     0    29     1    11
 -2.5316885824573065E-01 a       572     0    29     1    12
 -1.7909709702373308E-01 a       573     0    29     1    13
  1.5426630754235710E-01 a       574     0    29     1    14
  6.5287972098100844E-01 a       575     0    29     1    15
 -1.2190498673675690E-01 a       576     0    29     1    16
  9.2589182447735396E-01 a       577     0    29     1    17
  2.3664772785318555E-01 a       578     0    29     1    18
 -2.7534870300074055E-02 a       579     0    29     1    19
  4.1185763718479768E-01 a       580     0    29     1    20
 -1.0683883956135460E+00 a       581     0    30     1     1
  1.9898264060871711E+00 a       582     0    30     1     2
 -4.7619086391617377E-01 a       583     0    30     1     3
  6.9171703917382021E-01 a       584     0    30     1     4
  4.8879588687315123E-01 a       585     0    30     1     5
  5.0494779785271826E-01 a       586     0    30     1     6
 -2.6579869901878146E+00 a       587     0    30     1     7
 -1.7252605418273383E+00 a       588     0    30     1     8
  8.0962298918761144E-01 a       589     0    30     1     9
 -1.6062847779532630E+00 a       590     0    30     1    10
 -1.2930241418632291E-01 a       591     0    30     1    11
  6.0539156386044823E-01 a       592     0    30     1    12
 -2.8908653007765626E+00 a       593     0    30     1    13
 -2.2683738558588336E+00 a       594     0    30     1    14
 -3.0446116374368990E+00 a       595     0    30     1    15
  1.0068723228114602E+00 a       596     0    30     1    16
  5.8844087279169954E-01 a       597     0    30     1    17
  1.0346059246959232E+00 a       598     0    30     1    18
 -1.8799870853401385E-01 a       599     0    30     1    19
 -1.5383320648551477E+00 a       600     0    30     1    20
  6.3742752244133316E-01 a       601     0    31     1     1
 -1.7283769272544974E-01 a       602     0    31     1     2
  2.7768298963256027E-01 a       603     0    31     1     3
 -2.9365187583089769E-01 a       604     0    31     1     4
  1.8805615671613121E-01 a       605     0    31     1     5
  3.0345644051953102E-01 a       606     0    31     1     6
 -2.7119337705869040E-01 a       607     0    31     1     7
  7.4022957772050524E-01 a       608     0    31     1     8
 -7.9348518565070891E-01 a       609     0    31     1     9
  5.1287511672060759E-01 a       610     0    31     1    10
  1.4021868284624037E-01 a       611     0    31     1    11
 -1.0860487657459030E+00 a       612     0    31     1    12
 -2.0019648199866680E-01 a       613     0    31     1    13
 -1.2455849723673755E-01 a       614     0    31     1    14
  3.8606145279637752E-02 a       615     0    31     1    15
  1.8625128604507732E-01 a       616     0    31     1    16
 -1.0326867370645162E-01 a       617     0    31     1    17
  3.0381590384749940E-01 a       618     0    31     1    18
  5.3819737815542008E-02 a       619     0    31     1    19
 -1.5309762412362823E-01 a       620     0    31     1    20
  8.2593937868923384E-01 a       621     0    32     1     1
  2.3086459715445434E-01 a       622     0    32     1     2
  9.9856249957342202E-01 a       623     0    32     1     3
 -8.2764111152670206E-01 a       624     0    32     1     4
 -5.4814836987164983E-01 a       625     0    32     1     5
 -3.5055766502762931E-01 a       626     0    32     1     6
 -2.2128925866192017E-01 a       627     0    32     1     7
 -1.8405822298755722E-01 a       628     0    32     1     8
  7.7676655515595039E-01 a       629     0    32     1     9
 -3.4859447062801002E-01 a       630     0    32     1    10
 -3.1278472490560805E-01 a       631     0    32     1    11
  4.2037269118026993E-01 a       632     0    32     1    12
  1.1973249611341208E+00 a       633     0    32     1    13
 -4.6599700395689458E-01 a       634     0    32     1    14
 -8.8729942813004370E-01 a       635     0    32     1    15
 -2.8272887377436207E-01 a       636     0    32     1    16
  6.3079187043794915E-01 a       637     0    32     1    17
  4.0786100765592546E-02 a       638     0    32     1    18
  9.9102618840236845E-01 a       639     0    32     1    19
  4.5297723814988686E-03 a       640     0    32     1    20
  1.5463057101710781E-01 a       641     0    33     1     1
 -2.0378546358114408E-01 a       642     0    33     1     2
  2.3887483822359445E-01 a       643     0    33     1     3
  9.1665242110688394E-01 a       644     0    33     1     4
  2.7905333402205662E-01 a       645     0    33     1     5
 -2.8945069416788927E-01 a       646     0    33     1     6
  3.2002156132027132E-01 a       647     0    33     1     7
 -1.0819195139459818E+00 a       648     0    33     1     8
  9.5389041041742473E-01 a       649     0    33     1     9
 -6.5854136816571096E-01 a       650     0    33     1    10
  1.1025465558152334E+00 a       651     0    33     1    11
 -1.9961421445237412E-01 a       652     0    33     1    12
  1.0026044186884777E+00 a       653     0    33     1    13
  5.8490367317282954E-01 a       654     0    33     1    14
  2.2887552078889928E-01 a       655     0    33     1    15
 -1.0430501961243344E+00 a       656     0    33     1    16
  2.1083537345433136E-02 a       657     0    33     1    17
  2.4992103020175091E-01 a       658     0    33     1    18
 -5.9763326379996162E-01 a       659     0    33     1    19
 -1.9330203487899417E-01 a       660     0    33     1    20
  1.0197174614803628E-01 a       661     0    34     1     1
  1.1174737890804562E-01 a       662     0    34     1     2
 -2.3389499090372679E-02 a       663     0    34     1     3
  8.7412944940519821E-01 a       664     0    34     1     4
 -1.6641407667045044E-01 a       665     0    34     1     5
 -4.2173662966130065E-02 a       666     0    34     1     6
 -5.2907458209359226E-01 a       667     0    34     1     7
 -1.1350968047236085E+00 a       668     0    34     1     8
  9.5788451281371556E-01 a       669     0    34     1     9
 -6.9328098414109374E-01 a       670     0    34     1    10
  3.8532684033709491E-02 a       671     0    34     1    11
  8.6747543236199620E-01 a       672     0    34     1    12
  2.3290286644233343E-01 a       673     0    34     1    13
  7.5747730326842366E-01 a       674     0    34     1    14
  1.1878658097717175E-01 a       675     0    34     1    15
 -1.4025610978563776E+00 a       676     0    34     1    16
  8.0665863434701654E-02 a       677     0    34     1    17
 -5.2308821225325719E-01 a       678     0    34     1    18
 -7.6990636959162673E-01 a       679     0    34     1    19
 -2.1895945434936873E-01 a       680     0    34     1    20
  6.2378168839334724E-01 a       681     0    35     1     1
  1.2710123543182256E-01 a       682     0    35     1     2
  6.7219124698610988E-01 a       683     0    35     1     3
 -8.0107223451562459E-02 a       684     0    35     1     4
  1.2360670176919142E-01 a       685     0    35     1     5
 -1.5505305083423163E-01 a       686     0    35     1     6
 -2.5605759499347354E+00 a       687     0    35     1     7
  5.4483316852533215E-01 a       688     0    35     1     8
  2.9494933945565538E-01 a       689     0    35     1     9
  2.5479617285820960E-01 a       690     0    35     1    10
 -6.3667225229823865E-01 a       691     0    35     1    11
  1.1565181176631847E-01 a       692     0    35     1    12
 -9.9290468079240746E-01 a       693     0    35     1    13
 -7.1317489620658781E-01 a       694     0    35     1    14
 -2.0311072667873837E+00 a       695     0    35     1    15
  2.2418202699499812E-01 a       696     0    35     1    16
 -2.0585272194873303E+00 a       697     0    35     1    17
 -5.7040413084265318E-01 a       698     0    35     1    18
  6.1070768453007573E-01 a       699     0    35     1    19
  1.1495858464703816E+00 a       700     0    35     1    20
  2.4803877001904300E+00 a       701     0    36     1     1
 -8.2116511151066296E-01 a       702     0    36     1     2
  1.4419914973301542E+00 a       703     0    36     1     3
 -5.3717539036688278E-01 a       704     0    36     1     4
  6.2824320415779011E-01 a       705     0    36     1     5
  1.9292559157597209E+00 a       706     0    36     1     6
  1.5299489284796701E+00 a       707     0    36     1     7
  4.6102029606378936E-01 a       708     0    36     1     8
 -1.1833896300547706E+00 a       709     0    36     1     9
  9.1717287335503905E-01 a       710     0    36     1    10
  2.5521311840783438E+00 a       711     0    36     1    11
 -2.1173088872290990E+00 a       712     0    36     1    12
  2.2722980754438407E+00 a       713     0    36     1    13
  3.4763754149161818E+00 a       714     0    36     1    14
  1.2264908150772209E+00 a       715     0    36     1    15
  7.4551145213075765E-01 a       716     0    36     1    16
 -6.0520461488805521E-01 a       717     0    36     1    17
 -6.4600752729063571E-01 a       718     0    36     1    18
  8.2313590359253941E-01 a       719     0    36     1    19
  5.4099555194617462E-02 a       720     0    36     1    20
  1.6708553005613915E+00 a       721     0    37     1     1
  5.0691575688420798E-01 a       722     0    37     1     2
 -1.3038473316632443E-01 a       723     0    37     1     3
 -5.5092012015175140E-01 a       724     0    37     1     4
  4.7027551752379831E-01 a       725     0    37     1     5
  1.0295224379143959E-01 a       726     0    37     1     6
  7.8606926702607749E-01 a       727     0    37     1     7
  1.0946879818912421E+00 a       728     0    37     1     8
 -3.9641618449237909E-01 a       729     0    37     1     9
  9.8011366484763440E-01 a       730     0    37     1    10
 -3.8000033669999433E-01 a       731     0    37     1    11
 -7.9238772709192329E-01 a       732     0    37     1    12
 -1.3046159587506254E-01 a       733     0    37     1    13
 -2.9413633201201567E-01 a       734     0    37     1    14
  5.3614544523386454E-01 a       735     0    37     1    15
  1.0213450174073730E+00 a       736     0    37     1    16
 -6.3080291021081036E-01 a       737     0    37     1    17
 -2.7825512495061305E-01 a       738     0    37     1    18
  8.8571222613997069E-01 a       739     0    37     1    19
 -3.0269938558235771E-01 a       740     0    37     1    20
 -6.9296134082677718E-01 a       741     0    38     1     1
 -9.5068798715751890E-01 a       742     0    38     1     2
 -1.3893281904875141E+00 a       743     0    38     1     3
  1.8891424134421952E-01 a       744     0    38     1     4
 -1.8017668080241692E-01 a       745     0    38     1     5
 -1.5383801136160733E+00 a       746     0    38     1     6
  2.3694410016830547E-01 a       747     0    38     1     7
  6.1771486552039612E-01 a       748     0    38     1     8
 -2.5405167450205435E-01 a       749     0    38     1     9
  4.6744245183584865E-01 a       750     0    38     1    10
 -7.0638413873854589E-01 a       751     0    38     1    11
  6.1384894739833629E-01 a       752     0    38     1    12
  1.0989635399916007E+00 a       753     0    38     1    13
  5.3917063159901010E-02 a       754     0    38     1    14
 -5.3589144458891236E-01 a       755     0    38     1    15
 -3.0892432721256641E-01 a       756     0    38     1    16
  1.0775668411208281E+00 a       757     0    38     1    17
 -4.7492394428545243E-01 a       758     0    38     1    18
 -1.9497465328282493E-02 a       759     0    38     1    19
  1.7387201972364888E-01 a       760     0    38     1    20
  8.8832204847242013E-01 a       761     0    39     1     1
 -1.2749972130058675E+00 a       762     0    39     1     2
  1.0385389428352871E+00 a       763     0    39     1     3
  6.8260313954345986E-01 a       764     0    39     1     4
  6.8671222092206796E-01 a       765     0    39     1     5
  1.4839778749287219E-01 a       766     0    39     1     6
 -1.3485551454501097E+00 a       767     0    39     1     7
 -1.4292444054810496E+00 a       768     0    39     1     8
  1.6211912939364876E+00 a       769     0    39     1     9
  3.6703744836120150E-01 a       770     0    39     1    10
  6.0620925040059592E-01 a       771     0    39     1    11
  1.0179567001348793E+00 a       772     0    39     1    12
  1.2584056417895655E+00 a       773     0    39     1    13
  7.1901124932026983E-01 a       774     0    39     1    14
  5.2438433119208361E-01 a       775     0    39     1    15
 -1.2251027157244172E+00 a       776     0    39     1    16
 -1.0285111458099658E+00 a       777     0    39     1    17
  1.5761509393157347E-01 a       778     0    39     1    18
 -6.5698378694313508E-01 a       779     0    39     1    19
 -2.5345996659301717E-01 a       780     0    39     1    20
 -4.4404025081426418E-01 a       781     0    40     1     1
 -4.2649472261278426E-01 a       782     0    40     1     2
  6.3592404672125724E-01 a       783     0    40     1     3
  9.4567033501051090E-01 a       784     0    40     1     4
 -6.5807636772069078E-02 a       785     0    40     1     5
 -4.8028668998127538E-01 a       786     0    40     1     6
 -2.9758090765971468E-01 a       787     0    40     1     7
 -4.4788718094139313E-01 a       788     0    40     1     8
  1.5735518186658346E+00 a       789     0    40     1     9
 -6.0506040196751876E-01 a       790     0    40     1    10
  9.6676352963473355E-01 a       791     0    40     1    11
  8.9005451680225511E-01 a       792     0    40     1    12
  1.1039128837072769E+00 a       793     0    40     1    13
  4.6804668007607980E-01 a       794     0    40     1    14
  4.5687014735353859E-01 a       795     0    40     1    15
 -1.4020540486038835E+00 a       796     0    40     1    16
 -2.9727894572844871E-01 a       797     0    40     1    17
 -2.2958072928431533E-01 a       798     0    40     1    18
 -1.6202332289160708E+00 a       799     0    40     1    19
  2.0758030221532200E-01 a       800     0    40     1    20
  4.8704991633943165E-02 a       801     0    41     1     1
 -7.6822523888035277E-01 a       802     0    41     1     2
  4.4173423722543415E-01 a       803     0    41     1     3
  8.1395073209365687E-01 a       804     0    41     1     4
  3.4432503799312325E-01 a       805     0    41     1     5
  8.3144971484783581E-01 a       806     0    41     1     6
 -1.4973436562658633E+00 a       807     0    41     1     7
 -1.9382116740434951E+00 a       808     0    41     1     8
  1.6670346388870945E+00 a       809     0    41     1     9
 -1.0318059573456988E+00 a       810     0    41     1    10
  9.3340130453461922E-01 a       811     0    41     1    11
  1.2888560998591843E+00 a       812     0    41     1    12
  1.3015446690709893E+00 a       813     0    41     1    13
 -2.0104006936266010E-02 a       814     0    41     1    14
 -5.2655793868741599E-02 a       815     0    41     1    15
 -7.1717065827478410E-01 a       816     0    41     1    16
 -3.4390337690496098E-02 a       817     0    41     1    17
 -1.0754041053954996E-01 a       818     0    41     1    18
 -1.3084508994309976E+00 a       819     0    41     1    19
 -8.5947936119101243E-01 a       820     0    41     1    20
  5.4910691255039590E-01 a       821     0    42     1     1
  3.3125634343109589E-01 a       822     0    42     1     2
  1.0371473540673903E+00 a       823     0    42     1     3
  6.3015783777358825E-01 a       824     0    42     1     4
 -1.5146463282681957E-01 a       825     0    42     1     5
  2.3726814286193804E-01 a       826     0    42     1     6
 -4.5540201598455421E-01 a       827     0    42     1     7
 -1.5958306304928774E-01 a       828     0    42     1     8
  1.7033008649145398E-01 a       829     0    42     1     9
  2.2351768281696591E-01 a       830     0    42     1    10
  1.3716748941520045E-02 a       831     0    42     1    11
 -9.6885547908541214E-01 a       832     0    42     1    12
  9.1154295263540769E-02 a       833     0    42     1    13
 -6.3944559473985543E-02 a       834     0    42     1    14
 -5.6507343220649142E-01 a       835     0    42     1    15
 -6.8066251678413750E-02 a       836     0    42     1    16
  7.8559164238394069E-02 a       837     0    42     1    17
  1.2746589572886782E+00 a       838     0    42     1    18
  2.8025337982061843E-01 a       839     0    42     1    19
 -4.7885058566709514E-02 a       840     0    42     1    20
  4.1512368807431900E-02 a       841     0    43     1     1
  7.8946788965788856E-02 a       842     0    43     1     2
 -8.0186510665057761E-02 a       843     0    43     1     3
  5.4968660523634516E-01 a       844     0    43     1     4
  2.2840689374886972E-01 a       845     0    43     1     5
 -2.2514372473756514E-01 a       846     0    43     1     6
  2.5764114833784096E-01 a       847     0    43     1     7
  1.3870223965869799E-01 a       848     0    43     1     8
  4.5449664391974498E-01 a       849     0    43     1     9
 -7.2897368039318644E-03 a       850     0    43     1    10
 -1.3796832576115411E-01 a       851     0    43     1    11
 -6.7155126058765380E-01 a       852     0    43     1    12
  1.3397224698265664E-01 a       853     0    43     1    13
  3.3730363556780502E-01 a       854     0    43     1    14
 -4.1357728042838371E-01 a       855     0    43     1    15
 -2.6831026513287487E-01 a       856     0    43     1    16
 -1.9051368051444939E-01 a       857     0    43     1    17
  2.1001046026923142E-01 a       858     0    43     1    18
 -7.3392732725725551E-01 a       859     0    43     1    19
  1.1485773330577753E-01 a       860     0    43     1    20
  1.4095046828945774E+00 a       861     0    44     1     1
  8.1022912738473618E-01 a       862     0    44     1     2
 -3.6449124580772102E-01 a       863     0    44     1     3
  2.8144465917055739E-01 a       864     0    44     1     4
  3.8546627389666410E-01 a       865     0    44     1     5
  5.6783874502024623E-01 a       866     0    44     1     6
  1.2623824228705589E+00 a       867     0    44     1     7
  9.0212175436162079E-01 a       868     0    44     1     8
 -7.1110955805900844E-01 a       869     0    44     1     9
  6.0899219643003433E-01 a       870     0    44     1    10
 -1.1240507383715231E-01 a       871     0    44     1    11
 -2.2440381575364765E+00 a       872     0    44     1    12
 -7.4182898587831236E-01 a       873     0    44     1    13
  4.1703251891213827E-01 a       874     0    44     1    14
  8.3438592749390905E-01 a       875     0    44     1    15
  1.1472051456526640E+00 a       876     0    44     1    16
 -1.1490971804705447E-01 a       877     0    44     1    17
  2.1988214493795308E-01 a       878     0    44     1    18
  6.6257286860494102E-01 a       879     0    44     1    19
  1.0166079334493051E-01 a       880     0    44     1    20
  3.2270843272674550E-02 a       881     0    45     1     1
  6.4858661850556915E-02 a       882     0    45     1     2
 -2.0989535001211704E-01 a       883     0    45     1     3
  8.2146721194743033E-02 a       884     0    45     1     4
 -4.3515687746119397E-01 a       885     0    45     1     5
  1.0138076873985222E+00 a       886     0    45     1     6
  5.0907428910660546E-01 a       887     0    45     1     7
 -5.0133868254876118E-02 a       888     0    45     1     8
 -3.6551279068367037E-01 a       889     0    45     1     9
  7.4385276067548001E-01 a       890     0    45     1    10
  5.5391554572868185E-01 a       891     0    45     1    11
 -8.8467072749625986E-01 a       892     0    45     1    12
 -9.7125230113278638E-01 a       893     0    45     1    13
 -2.5093854249219361E-01 a       894     0    45     1    14
 -8.6049692383838672E-01 a       895     0    45     1    15
  2.9639626632080895E-01 a       896     0    45     1    16
  4.7466321195770961E-01 a       897     0    45     1    17
  4.1282985522772842E-01 a       898     0    45     1    18
  3.3685693983556314E-01 a       899     0    45     1    19
  1.4922598092018419E-01 a       900     0    45     1    20
 -3.9454548323649902E-01 a       901     0    46     1     1
  1.8569853255293403E-01 a       902     0    46     1     2
  4.5453192776920293E-01 a       903     0    46     1     3
 -6.9513952214735042E-01 a       904     0    46     1     4
 -6.6193360748975827E-01 a       905     0    46     1     5
 -4.1028265138779740E-01 a       906     0    46     1     6
  7.6736633473802074E-01 a       907     0    46     1     7
  9.0044440797211933E-01 a       908     0    46     1     8
 -7.8962679586324691E-01 a       909     0    46     1     9
  2.6653291512223271E-01 a       910     0    46     1    10
 -7.7250666708736548E-01 a       911     0    46     1    11
  3.0647263608431341E-01 a       912     0    46     1    12
  3.9405902327302172E-01 a       913     0    46     1    13
  3.6751061997481743E-01 a       914     0    46     1    14
  5.2901795204044710E-01 a       915     0    46     1    15
  5.8897320538088778E-02 a       916     0    46     1    16
  9.3556541516153863E-02 a       917     0    46     1    17
  1.4463922057469974E-02 a       918     0    46     1    18
 -1.5183459668302773E-01 a       919     0    46     1    19
  5.5690404284839262E-02 a       920     0    46     1    20
  1.8624151760321950E-01 a       921     0    47     1     1
 -1.3610578601992156E+00 a       922     0    47     1     2
  9.8699063732455949E-01 a       923     0    47     1     3
  2.6379079585989446E-01 a       924     0    47     1     4
  3.4562924035518000E-01 a       925     0    47     1     5
  6.4641342225566212E-01 a       926     0    47     1     6
 -4.5270142368513920E-02 a       927     0    47     1     7
  4.7694009270566318E-01 a       928     0    47     1     8
  9.5926703949571324E-01 a       929     0    47     1     9
  2.9710309007037750E-01 a       930     0    47     1    10
  1.4538068749366800E-01 a       931     0    47     1    11
 -6.5481107383560555E-02 a       932     0    47     1    12
  1.0329411479481236E+00 a       933     0    47     1    13
  2.6887179049942461E-01 a       934     0    47     1    14
  6.5670721038600333E-01 a       935     0    47     1    15
  2.3360626223800723E-01 a       936     0    47     1    16
 -7.4875129654031591E-01 a       937     0    47     1    17
  2.7752307548655897E-01 a       938     0    47     1    18
 -5.3698100550681771E-01 a       939     0    47     1    19
  1.0206857182130877E+00 a       940     0    47     1    20
 -6.9137984864351132E-01 a       941     0    48     1     1
  1.3033686004385414E-01 a       942     0    48     1     2
  6.0970528901399024E-01 a       943     0    48     1     3
 -2.0581111926948278E-01 a       944     0    48     1     4
 -4.7245881633313791E-01 a       945     0    48     1     5
 -2.0183403192577395E-01 a       946     0    48     1     6
  2.9238984721654665E-01 a       947     0    48     1     7
  4.3980362801865897E-01 a       948     0    48     1     8
 -1.9681962129283234E-01 a       949     0    48     1     9
 -9.5330037166243248E-02 a       950     0    48     1    10
  5.8482740292072004E-02 a       951     0    48     1    11
  9.8056796288403048E-01 a       952     0    48     1    12
  1.7417999227888148E-01 a       953     0    48     1    13
  4.2285580553465230E-01 a       954     0    48     1    14
  4.4711271688268117E-01 a       955     0    48     1    15
 -3.8746668816667690E-01 a       956     0    48     1    16
  1.4042511707012367E-01 a       957     0    48     1    17
  1.5667983111610392E-01 a       958     0    48     1    18
  7.6962312652416043E-02 a       959     0    48     1    19
  2.9644705215648048E-01 a       960     0    48     1    20
  1.6360111949464998E-01 a       961     0    49     1     1
 -5.7748268597242658E-01 a       962     0    49     1     2
  7.1093085578466597E-01 a       963     0    49     1     3
  7.2877208349337266E-02 a       964     0    49     1     4
  3.2918237610518697E-01 a       965     0    49     1     5
  4.8244286275762654E-01 a       966     0    49     1     6
  1.2603234204377900E-01 a       967     0    49     1     7
  9.6299997042356711E-01 a       968     0    49     1     8
  2.8277070586568809E-01 a       969     0    49     1     9
  3.2142063002168098E-01 a       970     0    49     1    10
 -4.2384175687920667E-01 a       971     0    49     1    11
 -1.1500516173249797E-01 a       972     0    49     1    12
  2.8519643895942948E-01 a       973     0    49     1    13
  4.9165677015526828E-02 a       974     0    49     1    14
 -1.6958154406039086E-01 a       975     0    49     1    15
  1.7372251375320932E-01 a       976     0    49     1    16
 -6.3442914475711010E-01 a       977     0    49     1    17
  3.3005886061027845E-01 a       978     0    49     1    18
 -6.0145086597110660E-02 a       979     0    49     1    19
  1.2156066821453457E+00 a       980     0    49     1    20
 -7.9450466345133408E-01 a       981     0    50     1     1
  5.1109160482573668E-01 a       982     0    50     1     2
 -1.5492592436783864E-01 a       983     0    50     1     3
  2.9876968385004449E-01 a       984     0    50     1     4
 -4.3809713455981342E-01 a       985     0    50     1     5
 -1.2776447856240289E-01 a       986     0    50     1     6
  8.5246846027498802E-01 a       987     0    50     1     7
 -2.5456189440284493E-01 a       988     0    50     1     8
 -3.2370247089948628E-01 a       989     0    50     1     9
 -6.4923115696654932E-01 a       990     0    50     1    10
  2.2630275798427230E-01 a       991     0    50     1    11
 -4.0778623156986610E-01 a       992     0    50     1    12
 -5.3459834945755003E-01 a       993     0    50     1    13
 -3.7848993197419484E-01 a       994     0    50     1    14
  5.1078768545779896E-01 a       995     0    50     1    15
  3.8534775179004155E-01 a       996     0    50     1    16
  9.1388325976996343E-01 a       997     0    50     1    17
  1.6079176821838184E-01 a       998     0    50     1    18
  6.9115731419745519E-01 a       999     0    50     1    19
  5.0347711088488423E-01 a      1000     0    50     1    20
  2.4456104433470172E-02 a      1001     0    51     1     1
  3.5187836261558880E-01 a      1002     0    51     1     2
 -4.2606614127387160E-01 a      1003     0    51     1     3
 -1.4170369515024850E-01 a      1004     0    51     1     4
 -5.6231379246374469E-01 a      1005     0    51     1     5
 -5.0435802775670047E-01 a      1006     0    51     1     6
 -3.0520617447924847E-01 a      1007     0    51     1     7
  1.2105759378823475E-01 a      1008     0    51     1     8
  1.1390983364951150E+00 a      1009     0    51     1     9
  2.0013629067702940E-01 a      1010     0    51     1    10
 -9.3636344830365692E-01 a      1011     0    51     1    11
  4.4676370455796399E-01 a      1012     0    51     1    12
  2.3292752736554084E-01 a      1013     0    51     1    13
 -8.5831345013707941E-02 a      1014     0    51     1    14
 -2.2154803240724169E-01 a      1015     0    51     1    15
 -8.2876194089312372E-01 a      1016     0    51     1    16
  3.4653169469634582E-01 a      1017     0    51     1    17
 -3.1526758634011026E-01 a      1018     0    51     1    18
 -3.7772161213491079E-01 a      1019     0    51     1    19
  5.2705053439578520E-01 a      1020     0    51     1    20
  1.3353542228132062E-01 a      1021     0    52     1     1
  7.7737625432435495E-02 a      1022     0    52     1     2
  6.4212983955115222E-01 a      1023     0    52     1     3
 -1.5036647395521591E-01 a      1024     0    52     1     4
  1.8458082476932280E-01 a      1025     0    52     1     5
 -3.4038051018219251E-01 a      1026     0    52     1     6
 -4.0489032112267626E-01 a      1027     0    52     1     7
  6.0704757281798571E-01 a      1028     0    52     1     8
 -2.8181675221867308E-01 a      1029     0    52     1     9
  1.2744167015938985E-02 a      1030     0    52     1    10
  3.1465357884339157E-02 a      1031     0    52     1    11
  4.3045839812505299E-01 a      1032     0    52     1    12
 -2.1909158813910540E-01 a      1033     0    52     1    13
  1.0300887562272900E+00 a      1034     0    52     1    14
  6.6514591073672058E-01 a      1035     0    52     1    15
 -8.9385914720946369E-01 a      1036     0    52     1    16
 -8.1902251262001646E-01 a      1037     0    52     1    17
 -4.2772249633099768E-01 a      1038     0    52     1    18
 -1.1440920507555138E-01 a      1039     0    52     1    19
 -3.9051010064409586E-02 a      1040     0    52     1    20
  1.8401393182975725E+00 a      1041     0    53     1     1
  1.1018633742397503E+00 a      1042     0    53     1     2
  1.6546487874849209E+00 a      1043     0    53     1     3
 -5.1362044853368449E-01 a      1044     0    53     1     4
  3.5534465672674875E-01 a      1045     0    53     1     5
 -1.5806765231032802E-01 a      1046     0    53     1     6
 -2.1098896832041323E+00 a      1047     0    53     1     7
  2.3043999809641806E+00 a      1048     0    53     1     8
 -3.5299837167092590E-02 a      1049     0    53     1     9
  1.6546518316533303E+00 a      1050     0    53     1    10
 -1.5725856094723809E+00 a      1051     0    53     1    11
  1.5915152884742931E+00 a      1052     0    53     1    12
 -3.7735340993539528E-02 a      1053     0    53     1    13
  1.7888751432267420E+00 a      1054     0    53     1    14
  1.9279629995818606E-01 a      1055     0    53     1    15
 -1.0148073030837443E-01 a      1056     0    53     1    16
 -1.6453918103191278E+00 a      1057     0    53     1    17
 -1.0979513861658070E+00 a      1058     0    53     1    18
 -2.5464108155613313E-01 a      1059     0    53     1    19
  6.8768547973984029E-01 a      1060     0    53     1    20
 -4.8385545061846891E+00 a      1061     0    54     1     1
 -3.5170872554370209E+00 a      1062     0    54     1     2
  1.8445536162820719E-01 a      1063     0    54     1     3
  1.5994975867475218E+00 a      1064     0    54     1     4
 -3.9215978824189164E+00 a      1065     0    54     1     5
 -9.1962605830332311E-01 a      1066     0    54     1     6
  2.5065544866071860E+00 a      1067     0    54     1     7
 -1.4477049499581796E-01 a      1068     0    54     1     8
  1.6214351925771835E+00 a      1069     0    54     1     9
  7.9130685947166857E-01 a      1070     0    54     1    10
  1.4634461839558628E+00 a      1071     0    54     1    11
  4.5562291633028167E+00 a      1072     0    54     1    12
  1.8222191456612093E+00 a      1073     0    54     1    13
 -3.8840684860059554E-01 a      1074     0    54     1    14
  1.2508882851402228E+00 a      1075     0    54     1    15
 -5.0521892698315529E+00 a      1076     0    54     1    16
 -3.8022843037442828E+00 a      1077     0    54     1    17
 -6.4208200264079407E-01 a      1078     0    54     1    18
 -8.3687586741253994E-01 a      1079     0    54     1    19
  3.9986717993326777E+00 a      1080     0    54     1    20
 -5.2221819197721775E-01 a      1081     0    55     1     1
  1.0750059940972232E+00 a      1082     0    55     1     2
  4.9947034668537782E-01 a      1083     0    55     1     3
 -1.7402212147410729E+00 a      1084     0    55     1     4
 -3.8717664435025401E-01 a      1085     0    55     1     5
 -1.7994783711550106E+00 a      1086     0    55     1     6
  1.6150129372148370E+00 a      1087     0    55     1     7
  2.1953603102644594E+00 a      1088     0    55     1     8
 -2.9382410086691596E-01 a      1089     0    55     1     9
  1.3967572445512988E+00 a      1090     0    55     1    10
 -1.9309364546717227E+00 a      1091     0    55     1    11
  8.9835055246961704E-01 a      1092     0    55     1    12
 -4.3402064568433463E-01 a      1093     0    55     1    13
  6.2415822633555973E-01 a      1094     0    55     1    14
 -3.1594791438888764E-01 a      1095     0    55     1    15
 -5.5457906186525396E-01 a      1096     0    55     1    16
  7.5273930977720094E-01 a      1097     0    55     1    17
 -2.8461751192582735E-01 a      1098     0    55     1    18
  1.0758480236543480E-01 a      1099     0    55     1    19
  1.2157381794005488E+00 a      1100     0    55     1    20
  1.7110067678512042E+00 a      1101     0    56     1     1
  1.0563967077967800E+00 a      1102     0    56     1     2
  1.7176543336268346E+00 a      1103     0    56     1     3
 -5.1178587989799906E-01 a      1104     0    56     1     4
  1.5009202435854263E-01 a      1105     0    56     1     5
 -5.0626214954851168E-01 a      1106     0    56     1     6
 -2.0380187273889647E+00 a      1107     0    56     1     7
  2.2968066510316185E+00 a      1108     0    56     1     8
 -1.4527566709252310E-01 a      1109     0    56     1     9
  1.6693469497857440E+00 a      1110     0    56     1    10
 -1.3392159254878493E+00 a      1111     0    56     1    11
  1.6435970372166018E+00 a      1112     0    56     1    12
  7.4968389633866157E-03 a      1113     0    56     1    13
  1.5822387344126008E+00 a      1114     0    56     1    14
  2.0067054078774013E-01 a      1115     0    56     1    15
 -2.2809769430111934E-01 a      1116     0    56     1    16
 -1.3446471626620018E+00 a      1117     0    56     1    17
 -1.1984372557561866E+00 a      1118     0    56     1    18
 -3.5044709646260713E-01 a      1119     0    56     1    19
  8.3914150464275161E-01 a      1120     0    56     1    20
 -1.0480636010726727E+00 a      1121     0    57     1     1
 -7.4602089681108474E-01 a      1122     0    57     1     2
 -2.0737734840786123E-01 a      1123     0    57     1     3
 -3.5609183261895183E-01 a      1124     0    57     1     4
 -1.4144353233540521E+00 a      1125     0    57     1     5
  3.1646619743803267E-01 a      1126     0    57     1     6
  1.1286640117076076E-01 a      1127     0    57     1     7
  1.9988140090069146E+00 a      1128     0    57     1     8
  2.4315068787420024E-01 a      1129     0    57     1     9
  1.1123126304047346E+00 a      1130     0    57     1    10
 -1.9031251656600726E-01 a      1131     0    57     1    11
  4.4760591895912211E-01 a      1132     0    57     1    12
 -1.2161115916227430E+00 a      1133     0    57     1    13
  1.1715893885780546E+00 a      1134     0    57     1    14
  3.2702680241979387E-01 a      1135     0    57     1    15
  5.1563917293571460E-02 a      1136     0    57     1    16
 -2.2010532684104156E+00 a      1137     0    57     1    17
 -1.4717956769560850E-01 a      1138     0    57     1    18
  5.1054840005712843E-01 a      1139     0    57     1    19
  9.2089674993122639E-01 a      1140     0    57     1    20
  5.6844768406553303E-01 a      1141     0    58     1     1
  1.0331460237960517E-01 a      1142     0    58     1     2
  3.7148054555650689E-01 a      1143     0    58     1     3
 -2.3244920156788798E-01 a      1144     0    58     1     4
  4.2928399013477031E-01 a      1145     0    58     1     5
 -9.8081391237410909E-01 a      1146     0    58     1     6
 -2.2526306644363642E-02 a      1147     0    58     1     7
  7.6815284635174180E-03 a      1148     0    58     1     8
 -7.7438452265685265E-01 a      1149     0    58     1     9
  9.0575492278395486E-01 a      1150     0    58     1    10
 -2.1585317518439212E-01 a      1151     0    58     1    11
  8.0921066960134691E-01 a      1152     0    58     1    12
  6.9231537986565811E-02 a      1153     0    58     1    13
 -1.1820992037224087E+00 a      1154     0    58     1    14
  7.3283683145279011E-01 a      1155     0    58     1    15
 -6.0776532440948217E-01 a      1156     0    58     1    16
  1.9304215923950774E-01 a      1157     0    58     1    17
  2.5747283026247175E-01 a      1158     0    58     1    18
  6.6684245570377965E-01 a      1159     0    58     1    19
  5.2699383941528621E-02 a      1160     0    58     1    20
 -1.0610487155594057E+00 a      1161     0    59     1     1
  1.4180708133928943E-01 a      1162     0    59     1     2
 -1.3331644592153016E+00 a      1163     0    59     1     3
  8.9774546533437943E-02 a      1164     0    59     1     4
 -4.7207805864573799E-01 a      1165     0    59     1     5
 -1.1471033446897836E+00 a      1166     0    59     1     6
  5.3326163422162498E-01 a      1167     0    59     1     7
 -5.9031496302962105E-01 a      1168     0    59     1     8
 -9.4390864793703344E-01 a      1169     0    59     1     9
 -4.9151123196611235E-01 a      1170     0    59     1    10
  2.3625574885991221E-01 a      1171     0    59     1    11
 -1.0169810315906069E-01 a      1172     0    59     1    12
 -1.1160805824772828E+00 a      1173     0    59     1    13
 -1.1361525144494673E+00 a      1174     0    59     1    14
 -4.7664895622668912E-01 a      1175     0    59     1    15
 -9.3568541612816331E-02 a      1176     0    59     1    16
  9.0750095361165461E-01 a      1177     0    59     1    17
 -1.2920896506542656E-01 a      1178     0    59     1    18
 -1.6655440996547846E-01 a      1179     0    59     1    19
 -3.0435424385208876E-01 a      1180     0    59     1    20
 -2.4496167664295632E+00 a      1181     0    60     1     1
 -2.8647853273681880E+00 a      1182     0    60     1     2
  7.4902238973888347E-01 a      1183     0    60     1     3
  2.2761935299514753E+00 a      1184     0    60     1     4
 -2.4300635856707345E-01 a      1185     0    60     1     5
  2.6865714726980544E-01 a      1186     0    60     1     6
 -7.1834442069450410E-01 a      1187     0    60     1     7
 -1.5820339464808850E+00 a      1188     0    60     1     8
  1.3469254510373325E+00 a      1189     0    60     1     9
 -1.2809420176583786E+00 a      1190     0    60     1    10
  6.2659512633011616E-01 a      1191     0    60     1    11
  1.7098092540543535E+00 a      1192     0    60     1    12
  1.3320771673460736E+00 a      1193     0    60     1    13
 -2.2814086064749510E+00 a      1194     0    60     1    14
 -3.2220217374989341E-01 a      1195     0    60     1    15
 -2.9208452587087939E+00 a      1196     0    60     1    16
 -1.8856246963969563E+00 a      1197     0    60     1    17
  1.0293173398539566E+00 a      1198     0    60     1    18
 -5.6670338370423545E-01 a      1199     0    60     1    19
 -1.4783153678844851E-01 a      1200     0    60     1    20
  1.6708096280115352E+00 a      1201     0    61     1     1
  1.0909570590250288E+00 a      1202     0    61     1     2
  3.9286777777425846E-01 a      1203     0    61     1     3
 -9.8229849363457922E-01 a      1204     0    61     1     4
 -3.3804655416098495E-01 a      1205     0    61     1     5
 -4.1267375844189574E-01 a      1206     0    61     1     6
 -2.0055639429377123E-01 a      1207     0    61     1     7
  2.3078409426777489E+00 a      1208     0    61     1     8
 -1.1775104521396325E+00 a      1209     0    61     1     9
  1.7586111465195131E+00 a      1210     0    61     1    10
 -8.6514695537773501E-01 a      1211     0    61     1    11
 -2.1867251385700217E+00 a      1212     0    61     1    12
 -1.8692237499064437E+00 a      1213     0    61     1    13
  8.2923143276403000E-01 a      1214     0    61     1    14
  1.9229853590714441E-01 a      1215     0    61     1    15
  1.7509999478278298E+00 a      1216     0    61     1    16
 -9.5922523352183953E-01 a      1217     0    61     1    17
 -4.7624763200895021E-01 a      1218     0    61     1    18
  1.3719808169098757E+00 a      1219     0    61     1    19
  6.1264496251044520E-01 a      1220     0    61     1    20
 -1.2941758573386770E+00 a      1221     0    62     1     1
 -1.6118750067558302E-01 a      1222     0    62     1     2
 -7.9945408881051094E-01 a      1223     0    62     1     3
  6.6794308389203139E-01 a      1224     0    62     1     4
 -5.8394206927950265E-01 a      1225     0    62     1     5
 -7.6883032142874697E-01 a      1226     0    62     1     6
  5.0348839548214352E-01 a      1227     0    62     1     7
 -1.0609629741388007E+00 a      1228     0    62     1     8
 -3.3742207924298806E-01 a      1229     0    62     1     9
 -6.2814783180148470E-01 a      1230     0    62     1    10
  1.3369375946619164E-01 a      1231     0    62     1    11
 -4.9965166827751366E-02 a      1232     0    62     1    12
 -7.0653332530702206E-01 a      1233     0    62     1    13
 -9.7172182688741116E-01 a      1234     0    62     1    14
 -3.4306399724018777E-01 a      1235     0    62     1    15
 -3.0578503615425134E-01 a      1236     0    62     1    16
  7.4091589757833787E-01 a      1237     0    62     1    17
 -1.7323377049215544E-01 a      1238     0    62     1    18
 -6.9923096888921163E-02 a      1239     0    62     1    19
 -2.8176400407539826E-01 a      1240     0    62     1    20
 -3.8314360363041550E-01 a      1241     0    63     1     1
  9.9774918370700649E-01 a      1242     0    63     1     2
  4.2305894450148479E-01 a      1243     0    63     1     3
  1.2703165898619622E+00 a      1244     0    63     1     4
 -4.9005126624883733E-01 a      1245     0    63     1     5
  2.0962630266574322E-01 a      1246     0    63     1     6
 -4.4071187191764716E-01 a      1247     0    63     1     7
 -8.4611344995496207E-01 a      1248     0    63     1     8
 -4.1706311100066112E-01 a      1249     0    63     1     9
  5.5231526781608731E-01 a      1250     0    63     1    10
 -8.4052933103986302E-02 a      1251     0    63     1    11
 -1.3582144401681751E+00 a      1252     0    63     1    12
 -4.8927526797995924E-01 a      1253     0    63     1    13
  5.3203486934419467E-02 a      1254     0    63     1    14
 -2.8413451009141699E-01 a      1255     0    63     1    15
 -3.1485118621636637E-01 a      1256     0    63     1    16
 -5.5485867997485616E-01 a      1257     0    63     1    17
 -2.8207270257628519E-01 a      1258     0    63     1    18
  5.6461525581138906E-02 a      1259     0    63     1    19
 -1.0837961710156720E+00 a      1260     0    63     1    20
  9.9203739338229779E-01 a      1261     0    64     1     1
  6.5702608596732603E-01 a      1262     0    64     1     2
  4.3601608006375264E-01 a      1263     0    64     1     3
 -6.7336879213129119E-01 a      1264     0    64     1     4
 -4.8106099980728062E-01 a      1265     0    64     1     5
 -3.9266090911182516E-01 a      1266     0    64     1     6
  1.9793609757310433E-02 a      1267     0    64     1     7
  1.1149413323244384E+00 a      1268     0    64     1     8
 -8.3850093730649677E-01 a      1269     0    64     1     9
  1.2365435641218463E+00 a      1270     0    64     1    10
 -3.3247867746804133E-01 a      1271     0    64     1    11
 -1.8843592003919918E+00 a      1272     0    64     1    12
 -1.3710902552396602E+00 a      1273     0    64     1    13
  5.3786134194882151E-01 a      1274     0    64     1    14
  3.9980619655385674E-01 a      1275     0    64     1    15
  1.1032364084320891E+00 a      1276     0    64     1    16
 -6.3073230071930253E-01 a      1277     0    64     1    17
 -4.9726458226082176E-01 a      1278     0    64     1    18
  9.0905001248903405E-01 a      1279     0    64     1    19
  2.7345093823058392E-01 a      1280     0    64     1    20
 -8.3948338563896963E-01 a      1281     0    65     1     1
 -9.3309411918217711E-01 a      1282     0    65     1     2
 -6.0261063271515825E-01 a      1283     0    65     1     3
  9.6145847026290621E-01 a      1284     0    65     1     4
 -4.3490621720468436E-01 a      1285     0    65     1     5
 -4.8512155595814643E-01 a      1286     0    65     1     6
  1.4740836389291104E-01 a      1287     0    65     1     7
 -1.5597493817904957E+00 a      1288     0    65     1     8
 -5.1394056353011038E-02 a      1289     0    65     1     9
 -8.5524567606151602E-01 a      1290     0    65     1    10
  6.0821774029739728E-01 a      1291     0    65     1    11
  6.9036028322902260E-02 a      1292     0    65     1    12
 -2.3955718078370995E-02 a      1293     0    65     1    13
 -4.7009822541473906E-01 a      1294     0    65     1    14
  3.1006974012768934E-01 a      1295     0    65     1    15
 -7.8621143476692945E-01 a      1296     0    65     1    16
  5.6901484911949396E-01 a      1297     0    65     1    17
 -3.6936720341724055E-01 a      1298     0    65     1    18
 -6.1233555102584769E-01 a      1299     0    65     1    19
 -3.2330110207792395E-01 a      1300     0    65     1    20
  4.0119504502170855E+00 a      1301     0    66     1     1
  6.4431531778974396E+00 a      1302     0    66     1     2
 -1.8636910892112173E+00 a      1303     0    66     1     3
 -1.6199853174884162E+00 a      1304     0    66     1     4
  2.5793111185983419E+00 a      1305     0    66     1     5
 -7.6406700282553475E-01 a      1306     0    66     1     6
  1.5014697205591823E-01 a      1307     0    66     1     7
  7.4007428211018611E-01 a      1308     0    66     1     8
 -3.5414161647716718E+00 a      1309     0    66     1     9
 -5.0173571297133368E-01 a      1310     0    66     1    10
 -1.8837915714760494E+00 a      1311     0    66     1    11
 -7.3850785464886002E+00 a      1312     0    66     1    12
 -3.1327495449979699E+00 a      1313     0    66     1    13
 -1.0251858405173750E+00 a      1314     0    66     1    14
 -3.9334864869227362E+00 a      1315     0    66     1    15
  5.3422806685487130E+00 a      1316     0    66     1    16
  4.2259878719969022E+00 a      1317     0    66     1    17
  9.2303701179969977E-01 a      1318     0    66     1    18
  2.8258022999511683E+00 a      1319     0    66     1    19
 -4.3419987769714234E+00 a      1320     0    66     1    20
  5.9493439447462559E-01 a      1321     0    67     1     1
  1.4352381382762694E-01 a      1322     0    67     1     2
  1.2970700682383829E+00 a      1323     0    67     1     3
  2.9126107812392088E-01 a      1324     0    67     1     4
 -1.1096938539386844E-01 a      1325     0    67     1     5
  2.2751223492456127E-01 a      1326     0    67     1     6
 -1.7716946105389848E+00 a      1327     0    67     1     7
  3.3554940247691317E-01 a      1328     0    67     1     8
  7.3493719344657882E-01 a      1329     0    67     1     9
  6.3242419893876545E-01 a      1330     0    67     1    10
 -3.9948838321598029E-01 a      1331     0    67     1    11
  1.5944777244475596E+00 a      1332     0    67     1    12
  8.0072946501161935E-01 a      1333     0    67     1    13
  9.9054919225125615E-01 a      1334     0    67     1    14
  6.4034870353357010E-01 a      1335     0    67     1    15
 -9.5760381415685658E-01 a      1336     0    67     1    16
 -8.9630154123797023E-01 a      1337     0    67     1    17
 -7.6540903913597158E-01 a      1338     0    67     1    18
 -4.0707928987518427E-01 a      1339     0    67     1    19
  3.3929657659784845E-01 a      1340     0    67     1    20
  1.8431572480079164E+00 a      1341     0    68     1     1
  1.9864729816973095E+00 a      1342     0    68     1     2
  3.7205193174037832E-01 a      1343     0    68     1     3
 -1.0274368420740085E+00 a      1344     0    68     1     4
  3.4546181755659744E-01 a      1345     0    68     1     5
 -2.5000639268530372E-01 a      1346     0    68     1     6
 -9.6586703576913513E-01 a      1347     0    68     1     7
  1.2886401641468133E+00 a      1348     0    68     1     8
  6.7433597288280112E-01 a      1349     0    68     1     9
 -1.1476137241164832E+00 a      1350     0    68     1    10
  3.6829289188800518E-02 a      1351     0    68     1    11
  9.3844116162339133E-03 a      1352     0    68     1    12
 -1.1936667072902318E+00 a      1353     0    68     1    13
  6.3170466330324859E-02 a      1354     0    68     1    14
 -1.3931385566783672E+00 a      1355     0    68     1    15
  6.3329226973592456E-01 a      1356     0    68     1    16
  1.1671937111428259E+00 a      1357     0    68     1    17
  1.0753051560498457E+00 a      1358     0    68     1    18
  9.4761914863290986E-01 a      1359     0    68     1    19
 -4.7920858477485406E-01 a      1360     0    68     1    20
  1.9359869568426150E-01 a      1361     0    69     1     1
  9.5978430652168351E-02 a      1362     0    69     1     2
  2.9467466793159158E-01 a      1363     0    69     1     3
  1.3051064636972917E-01 a      1364     0    69     1     4
 -5.9940959224967827E-01 a      1365     0    69     1     5
 -2.0407861585340586E-01 a      1366     0    69     1     6
 -1.0193701418208735E-01 a      1367     0    69     1     7
 -3.7297319371741189E-01 a      1368     0    69     1     8
  5.0012992514473491E-02 a      1369     0    69     1     9
  2.8211048291018076E-01 a      1370     0    69     1    10
  2.3037098944333634E-01 a      1371     0    69     1    11
 -6.5842656692596613E-01 a      1372     0    69     1    12
 -6.8628195968187389E-01 a      1373     0    69     1    13
 -4.8993050518823372E-01 a      1374     0    69     1    14
  2.1050302872468191E-01 a      1375     0    69     1    15
  8.0941462694711697E-01 a      1376     0    69     1    16
  3.4008517590952431E-01 a      1377     0    69     1    17
 -1.6153877484508783E-01 a      1378     0    69     1    18
  5.1450828357661293E-01 a      1379     0    69     1    19
 -1.3846539744479255E-01 a      1380     0    69     1    20
  1.4894698678343521E-01 a      1381     0    70     1     1
  3.0906655312281945E-02 a      1382     0    70     1     2
 -1.0658033690026170E+00 a      1383     0    70     1     3
  1.9833064563994623E-01 a      1384     0    70     1     4
  9.1968034596238857E-01 a      1385     0    70     1     5
  3.5442737178426192E-01 a      1386     0    70     1     6
 -1.8956124643582850E+00 a      1387     0    70     1     7
 -1.4307647366416347E+00 a      1388     0    70     1     8
  7.2450497135978853E-01 a      1389     0    70     1     9
 -7.0179019773637030E-01 a      1390     0    70     1    10
 -6.2696949044674166E-01 a      1391     0    70     1    11
  8.6366446658889429E-01 a      1392     0    70     1    12
 -2.7906064168981498E-01 a      1393     0    70     1    13
 -6.9859585686968417E-01 a      1394     0    70     1    14
  7.2551751335636805E-01 a      1395     0    70     1    15
  5.8558608361566566E-01 a      1396     0    70     1    16
  3.2408801028787065E-01 a      1397     0    70     1    17
 -2.2249263609694697E-01 a      1398     0    70     1    18
 -7.1016333862761571E-01 a      1399     0    70     1    19
 -5.5983395125696844E-01 a      1400     0    70     1    20
  6.4466362485729378E-01 a      1401     0    71     1     1
 -1.4170280806400222E+00 a      1402     0    71     1     2
 -1.7363448352905577E+00 a      1403     0    71     1     3
  1.2719997617179577E+00 a      1404     0    71     1     4
 -6.8327395318985029E-01 a      1405     0    71     1     5
  1.4490958875125715E+00 a      1406     0    71     1     6
  6.0047200973371895E-01 a      1407     0    71     1     7
  1.3017905469014230E+00 a      1408     0    71     1     8
  1.4690060412256772E-01 a      1409     0    71     1     9
  2.0421924461485039E+00 a      1410     0    71     1    10
 -1.2027751829754996E+00 a      1411     0    71     1    11
  3.9519593548466081E-01 a      1412     0    71     1    12
 -2.0263697450054932E+00 a      1413     0    71     1    13
 -5.7626833206295323E-02 a      1414     0    71     1    14
  1.0189888260676527E+00 a      1415     0    71     1    15
  3.4811726823390648E-01 a      1416     0    71     1    16
 -3.8992139758674975E+00 a      1417     0    71     1    17
  4.9349761447345658E-01 a      1418     0    71     1    18
  1.4221415436159117E+00 a      1419     0    71     1    19
  2.6374349588815407E+00 a      1420     0    71     1    20
  3.1877709705497476E-01 a      1421     0    72     1     1
  4.8773436417556926E-01 a      1422     0    72     1     2
  9.5619765696157133E-01 a      1423     0    72     1     3
  1.4080944351409168E+00 a      1424     0    72     1     4
  6.0422832673024485E-01 a      1425     0    72     1     5
  1.6550922114392108E-01 a      1426     0    72     1     6
  6.2249417301515109E-01 a      1427     0    72     1     7
  1.9043903602924017E+00 a      1428     0    72     1     8
 -8.0933908907355223E-01 a      1429     0    72     1     9
 -4.8502723671195080E-01 a      1430     0    72     1    10
 -7.1429720383646411E-01 a      1431     0    72     1    11
  7.8778158744573090E-01 a      1432     0    72     1    12
 -2.5981779479772038E-01 a      1433     0    72     1    13
  1.2764587814809869E+00 a      1434     0    72     1    14
 -2.8163590440267181E+00 a      1435     0    72     1    15
  1.7011226824706363E-01 a      1436     0    72     1    16
 -3.6087318625757431E-01 a      1437     0    72     1    17
  1.1629785920069440E+00 a      1438     0    72     1    18
  1.5478551341876745E+00 a      1439     0    72     1    19
 -2.0275508969607728E-01 a      1440     0    72     1    20
 -8.7711503247218547E-01 a      1441     0    73     1     1
 -1.8860139463227901E+00 a      1442     0    73     1     2
  2.1807851734858560E-01 a      1443     0    73     1     3
  1.3630701950066555E+00 a      1444     0    73     1     4
 -3.3172333944750561E-02 a      1445     0    73     1     5
 -2.1448162250818115E-01 a      1446     0    73     1     6
  1.4370532584953569E-01 a      1447     0    73     1     7
 -2.6477753397374264E+00 a      1448     0    73     1     8
  6.5783960092106886E-01 a      1449     0    73     1     9
 -1.4770769467388054E+00 a      1450     0    73     1    10
  1.4417816401221775E+00 a      1451     0    73     1    11
  2.2495246659969470E-01 a      1452     0    73     1    12
  1.2497020951598916E+00 a      1453     0    73     1    13
  2.4785840964587719E-01 a      1454     0    73     1    14
  8.1358321362332631E-01 a      1455     0    73     1    15
 -1.1703506887321777E+00 a      1456     0    73     1    16
  6.2224473600293029E-01 a      1457     0    73     1    17
 -4.9109181268417540E-01 a      1458     0    73     1    18
 -7.2423226202092639E-01 a      1459     0    73     1    19
 -3.8945269560880891E-01 a      1460     0    73     1    20
 -3.4916814834346921E-01 a      1461     0    74     1     1
 -3.8765960888785554E-02 a      1462     0    74     1     2
  5.0674824582198186E-02 a      1463     0    74     1     3
  1.0209914421000168E+00 a      1464     0    74     1     4
  7.1499182716425913E-01 a      1465     0    74     1     5
  1.9972521889545286E-01 a      1466     0    74     1     6
 -1.8452699826841104E-01 a      1467     0    74     1     7
 -1.7653838025728492E+00 a      1468     0    74     1     8
  5.4059732051397946E-01 a      1469     0    74     1     9
 -1.0905109971486893E+00 a      1470     0    74     1    10
  9.8782636070910024E-01 a      1471     0    74     1    11
  2.4208094485031822E-01 a      1472     0    74     1    12
  2.2243892612581126E-01 a      1473     0    74     1    13
 -1.3512670622219196E+00 a      1474     0    74     1    14
 -4.7173140416928677E-01 a      1475     0    74     1    15
 -4.7027223907003002E-01 a      1476     0    74     1    16
  7.3900407360242604E-01 a      1477     0    74     1    17
  3.0837827829071834E-01 a      1478     0    74     1    18
 -3.0884837012877125E-01 a      1479     0    74     1    19
 -3.4810719270182910E-01 a      1480     0    74     1    20
  7.5226351108481770E-01 a      1481     0    75     1     1
  4.1306856064383729E-01 a      1482     0    75     1     2
  7.5403399296395301E-01 a      1483     0    75     1     3
  1.0169061554676691E-01 a      1484     0    75     1     4
  6.7135493887153952E-02 a      1485     0    75     1     5
  1.6171026797946358E-01 a      1486     0    75     1     6
 -8.3839329450558997E-01 a      1487     0    75     1     7
  5.8826968654124812E-01 a      1488     0    75     1     8
  7.6643342397688941E-03 a      1489     0    75     1     9
  4.9219666174444915E-01 a      1490     0    75     1    10
  2.5287579199761462E-01 a      1491     0    75     1    11
  4.6695468933255141E-01 a      1492     0    75     1    12
  1.5160521031030982E+00 a      1493     0    75     1    13
  1.2078366665656817E+00 a      1494     0    75     1    14
  1.0754234588858929E+00 a      1495     0    75     1    15
 -4.3096831780081096E-01 a      1496     0    75     1    16
 -2.0136016995014980E-01 a      1497     0    75     1    17
 -3.3733644340380131E-01 a      1498     0    75     1    18
  1.4782112323441821E-01 a      1499     0    75     1    19
  9.0089117578657965E-02 a      1500     0    75     1    20
  7.1036826654003959E-01 a      1501     0    76     1     1
 -2.5664494991820930E-01 a      1502     0    76     1     2
 -2.5739170867682560E-02 a      1503     0    76     1     3
  1.6920119202938294E-01 a      1504     0    76     1     4
  2.4141893152040021E-02 a      1505     0    76     1     5
  3.2631590471955041E-01 a      1506     0    76     1     6
  2.1691924348241867E-01 a      1507     0    76     1     7
  7.2564285924380645E-01 a      1508     0    76     1     8
  5.2124245130697811E-01 a      1509     0    76     1     9
  4.9868375180636082E-01 a      1510     0    76     1    10
  1.3845641393838690E-01 a      1511     0    76     1    11
  8.8272167566788684E-01 a      1512     0    76     1    12
  2.3307448729649067E+00 a      1513     0    76     1    13
  1.8433794781249366E+00 a      1514     0    76     1    14
  1.9476100308248721E+00 a      1515     0    76     1    15
 -1.4349561720101289E+00 a      1516     0    76     1    16
 -3.7630070270918747E-01 a      1517     0    76     1    17
 -2.3205800447368308E-01 a      1518     0    76     1    18
 -6.9986828236972831E-01 a      1519     0    76     1    19
  7.0471165158716620E-01 a      1520     0    76     1    20
  1.9408716193356490E+00 a      1521     0    77     1     1
  2.0433148223136510E-01 a      1522     0    77     1     2
  5.7818805410710072E-01 a      1523     0    77     1     3
 -6.9347749798791047E-01 a      1524     0    77     1     4
  1.1167983277144218E+00 a      1525     0    77     1     5
 -1.3822229073109882E+00 a      1526     0    77     1     6
 -2.5052774974384788E+00 a      1527     0    77     1     7
  7.4132494029989671E-01 a      1528     0    77     1     8
 -5.3159960638550374E-01 a      1529     0    77     1     9
 -1.5807561318460612E+00 a      1530     0    77     1    10
 -4.1753407897242967E-02 a      1531     0    77     1    11
  1.4022479872658762E+00 a      1532     0    77     1    12
  1.3946402203723332E+00 a      1533     0    77     1    13
  9.1596367253455069E-01 a      1534     0    77     1    14
 -4.1909343585685560E-01 a      1535     0    77     1    15
  1.5148029783464063E+00 a      1536     0    77     1    16
  8.6972680447350814E-01 a      1537     0    77     1    17
 -7.3684098936636888E-01 a      1538     0    77     1    18
  3.1081091928302246E-01 a      1539     0    77     1    19
 -1.1449071037324803E+00 a      1540     0    77     1    20
 -7.5070543792607436E-01 a      1541     0    78     1     1
 -2.9736792284953190E-01 a      1542     0    78     1     2
 -9.4321504985700078E-01 a      1543     0    78     1     3
  3.5618763736034093E-01 a      1544     0    78     1     4
 -2.2685935216421510E-01 a      1545     0    78     1     5
 -9.2649922016212487E-04 a      1546     0    78     1     6
  1.1069865994680191E-01 a      1547     0    78     1     7
 -1.5992696433811791E+00 a      1548     0    78     1     8
  7.0328600015559894E-01 a      1549     0    78     1     9
 -5.9828470024930125E-01 a      1550     0    78     1    10
  7.2058090808700917E-02 a      1551     0    78     1    11
 -2.5358231757524219E-01 a      1552     0    78     1    12
 -2.3855294034248642E-01 a      1553     0    78     1    13
 -1.4642381495139427E+00 a      1554     0    78     1    14
 -1.2637659283972125E-01 a      1555     0    78     1    15
  9.0945398190452964E-01 a      1556     0    78     1    16
  1.3771274006423377E+00 a      1557     0    78     1    17
  3.4526535578776268E-01 a      1558     0    78     1    18
  3.5875817110082270E-01 a      1559     0    78     1    19
 -1.2231341340658168E+00 a      1560     0    78     1    20
  2.7338471992512664E-01 a      1561     0    79     1     1
  6.1546645183542514E-01 a      1562     0    79     1     2
 -1.3083938166266125E+00 a      1563     0    79     1     3
 -5.8597803917457436E-01 a      1564     0    79     1     4
  1.1786845913529453E+00 a      1565     0    79     1     5
 -2.5769578313785146E-01 a      1566     0    79     1     6
 -4.3702560834869442E-01 a      1567     0    79     1     7
 -4.4086359925606317E-01 a      1568     0    79     1     8
 -8.6337322732404354E-02 a      1569     0    79     1     9
  2.4154995062807944E-01 a      1570     0    79     1    10
 -9.0584428964433450E-01 a      1571     0    79     1    11
  5.5969742563555513E-01 a      1572     0    79     1    12
  1.3394174337302051E-01 a      1573     0    79     1    13
 -1.3601822210089705E+00 a      1574     0    79     1    14
  1.5874153875011050E+00 a      1575     0    79     1    15
  1.1854010296887940E+00 a      1576     0    79     1    16
  9.0969763064951636E-01 a      1577     0    79     1    17
 -2.0865563906389389E-01 a      1578     0    79     1    18
 -7.0253001129795001E-01 a      1579     0    79     1    19
  2.1528325046000582E-01 a      1580     0    79     1    20
  1.4541909451679744E+00 a      1581     0    80     1     1
  3.0922187421481961E-01 a      1582     0    80     1     2
 -1.8806662569385457E+00 a      1583     0    80     1     3
  1.5579597221040817E-01 a      1584     0    80     1     4
  1.2350763122307424E+00 a      1585     0    80     1     5
 -1.1842719886741425E-01 a      1586     0    80     1     6
 -9.6805606752833495E-01 a      1587     0    80     1     7
 -1.6813437293632116E+00 a      1588     0    80     1     8
  1.6271892273897777E+00 a      1589     0    80     1     9
  2.1621646038251402E-01 a      1590     0    80     1    10
 -1.8948294919403010E+00 a      1591     0    80     1    11
  1.3303579470509610E+00 a      1592     0    80     1    12
  1.2169867299178345E-01 a      1593     0    80     1    13
 -1.0276769318624692E+00 a      1594     0    80     1    14
  1.6622520018352351E+00 a      1595     0    80     1    15
  3.9257564799596062E-01 a      1596     0    80     1    16
  1.7254181917748086E+00 a      1597     0    80     1    17
  7.1108247390666346E-01 a      1598     0    80     1    18
 -1.6378292591347767E+00 a      1599     0    80     1    19
 -1.7936320760832742E+00 a      1600     0    80     1    20
 -8.9187723184759329E-02 a      1601     0    81     1     1
 -3.1641996018099533E-01 a      1602     0    81     1     2
  9.1072091779206055E-01 a      1603     0    81     1     3
 -6.8000872633938303E-01 a      1604     0    81     1     4
 -1.3226533113902266E+00 a      1605     0    81     1     5
 -1.3696090152524276E+00 a      1606     0    81     1     6
  1.2297545134335270E+00 a      1607     0    81     1     7
  1.6898805793971808E-01 a      1608     0    81     1     8
  6.6917517880342253E-02 a      1609     0    81     1     9
  3.4471183943362980E-02 a      1610     0    81     1    10
 -2.9661901604938395E-01 a      1611     0    81     1    11
  2.1621317411423027E+00 a      1612     0    81     1    12
  5.3713935060729245E-01 a      1613     0    81     1    13
 -8.7549642471514322E-01 a      1614     0    81     1    14
 -2.0165880884670675E+00 a      1615     0    81     1    15
  8.0346150836599989E-02 a      1616     0    81     1    16
  1.3383869863584183E-01 a      1617     0    81     1    17
  8.4076679883838143E-02 a      1618     0    81     1    18
  2.4257363146009661E-01 a      1619     0    81     1    19
 -6.1483340548554963E-02 a      1620     0    81     1    20
 -5.2141383992312851E-01 a      1621     0    82     1     1
 -2.8224602038903477E+00 a      1622     0    82     1     2
  5.9775972069577021E-01 a      1623     0    82     1     3
