################################################################################
# Neural network connection values (weights and biases).
################################################################################
# Col  Name       Description
################################################################################
# 1    connection Neural network connection value.
# 2    t          Connection type (a = weight, b = bias).
# 3    index      Index enumerating weights.
# 4    l_s        Starting point layer (end point layer for biases).
# 5    n_s        Starting point neuron in starting layer (end point neuron for biases).
# 6    l_e        End point layer.
# 7    n_e        End point neuron in end layer.
################################################################################
#                      1 2         3     4     5     6     7
#             connection t     index   l_s   n_s   l_e   n_e
############################################################
  3.5837813210186908E+00 a         1     0     1     1     1
 -3.9849872585634416E+00 a         2     0     1     1     2
 -3.9030957507995949E+00 a         3     0     1     1     3
  3.8661162628229451E+00 a         4     0     1     1     4
  5.8534261530626788E+00 a         5     0     1     1     5
 -1.6521539526839097E+00 a         6     0     1     1     6
 -6.2905054866837231E+00 a         7     0     1     1     7
 -1.6090673169301098E-01 a         8     0     1     1     8
  8.4562643748966000E+00 a         9     0     1     1     9
  2.3599306794960018E-01 a        10     0     1     1    10
 -7.5315777429105646E+00 a        11     0     1     1    11
 -4.4379400842943877E+00 a        12     0     1     1    12
 -7.3326350018701181E+00 a        13     0     1     1    13
  1.0853045355778903E+00 a        14     0     1     1    14
  8.7869017763541759E+00 a        15     0     1     1    15
 -6.5539165347357589E+00 a        16     0     1     1    16
 -9.1650566452693294E+00 a        17     0     1     1    17
 -1.5191806814756511E+01 a        18     0     1     1    18
 -1.1751890058233229E+01 a        19     0     1     1    19
 -2.2792108888943590E+00 a        20     0     1     1    20
 -1.6485094238426354E+00 a        21     0     2     1     1
  7.2567516059154045E+00 a        22     0     2     1     2
  3.8085970773826929E+00 a        23     0     2     1     3
 -2.5278068409824646E+00 a        24     0     2     1     4
 -3.6899765704850980E+00 a        25     0     2     1     5
  3.9627093593416522E+00 a        26     0     2     1     6
  8.6679234193303891E+00 a        27     0     2     1     7
  2.5180815026764090E+00 a        28     0     2     1     8
 -8.3395570450447831E+00 a        29     0     2     1     9
  1.7621967183342727E-01 a        30     0     2     1    10
  5.9834501645182385E+00 a        31     0     2     1    11
  4.9769735884492476E+00 a        32     0     2     1    12
  8.3694504014052988E+00 a        33     0     2     1    13
 -5.0735459035324553E+00 a        34     0     2     1    14
 -9.9727886180178018E+00 a        35     0     2     1    15
  9.8530962081911309E+00 a        36     0     2     1    16
  1.2644345108981893E+01 a        37     0     2     1    17
  1.6862806481385462E+01 a        38     0     2     1    18
  1.6460122889649551E+01 a        39     0     2     1    19
  2.4262451093158086E+00 a        40     0     2     1    20
  1.0186787305452185E+00 a        41     0     3     1     1
 -2.6706619008798307E+00 a        42     0     3     1     2
 -1.3346645179658774E+00 a        43     0     3     1     3
  3.3100800703383300E+00 a        44     0     3     1     4
  3.5905267347826020E+00 a        45     0     3     1     5
  2.7344698942673742E+00 a        46     0     3     1     6
 -4.0752449993816846E+00 a        47     0     3     1     7
 -2.9527467764271103E-02 a        48     0     3     1     8
 -6.5002957688324189E-02 a        49     0     3     1     9
 -1.2740263075169505E+00 a        50     0     3     1    10
 -1.8268215603086309E+00 a        51     0     3     1    11
 -6.7168094560313452E-01 a        52     0     3     1    12
 -9.3593346592286286E-01 a        53     0     3     1    13
 -2.0233996664273768E+00 a        54     0     3     1    14
  1.9329166135225815E-02 a        55     0     3     1    15
 -5.3072459253215065E-01 a        56     0     3     1    16
 -2.3518669842151354E+00 a        57     0     3     1    17
 -6.4925785388641293E+00 a        58     0     3     1    18
 -2.9700313564287231E+00 a        59     0     3     1    19
 -1.5477745586760658E+00 a        60     0     3     1    20
 -1.7885591479088825E+00 a        61     0     4     1     1
  2.9460946318974175E+00 a        62     0     4     1     2
  2.0589822819151729E+00 a        63     0     4     1     3
 -3.9357668881348817E+00 a        64     0     4     1     4
 -5.4551558232857431E+00 a        65     0     4     1     5
 -2.9965305452346405E+00 a        66     0     4     1     6
  4.8830126211992599E+00 a        67     0     4     1     7
 -3.1132256814962591E-02 a        68     0     4     1     8
 -6.3019297801772756E-01 a        69     0     4     1     9
  9.7891418823599274E-01 a        70     0     4     1    10
  2.8896733602516660E+00 a        71     0     4     1    11
  1.0148307673841774E+00 a        72     0     4     1    12
  1.6334959379264056E+00 a        73     0     4     1    13
  2.1919663750558649E+00 a        74     0     4     1    14
 -5.4112617990069811E-01 a        75     0     4     1    15
  9.1683004262045009E-02 a        76     0     4     1    16
  3.0439377088046302E+00 a        77     0     4     1    17
  8.1256807941700817E+00 a        78     0     4     1    18
  3.3869184442502567E+00 a        79     0     4     1    19
  2.6745870849754660E+00 a        80     0     4     1    20
 -3.5035053667722411E+00 a        81     0     5     1     1
 -1.6820571168870275E+00 a        82     0     5     1     2
 -3.8167751242079619E+00 a        83     0     5     1     3
  9.5198603667572823E-01 a        84     0     5     1     4
  1.0632067336526134E+00 a        85     0     5     1     5
 -4.5274785932155286E+00 a        86     0     5     1     6
 -5.5061407605248407E+00 a        87     0     5     1     7
 -7.9237148343419230E+00 a        88     0     5     1     8
  4.5037461930620815E+00 a        89     0     5     1     9
  3.6369476096192344E-01 a        90     0     5     1    10
 -1.9116134206258888E+00 a        91     0     5     1    11
 -3.0056477321538981E+00 a        92     0     5     1    12
 -4.8366846669507471E+00 a        93     0     5     1    13
  4.8399334843536082E+00 a        94     0     5     1    14
  1.0793567296579636E+00 a        95     0     5     1    15
 -6.0004097479365204E-01 a        96     0     5     1    16
 -3.3871704933961011E+00 a        97     0     5     1    17
 -2.9210937839261266E+00 a        98     0     5     1    18
 -5.1690029910901298E+00 a        99     0     5     1    19
  6.0720454459586723E-02 a       100     0     5     1    20
 -1.5347147413293905E-01 a       101     0     6     1     1
  1.7316133239810338E+00 a       102     0     6     1     2
  9.2007843120955546E-01 a       103     0     6     1     3
 -8.8496091563946377E-01 a       104     0     6     1     4
 -1.6974189183371733E+00 a       105     0     6     1     5
 -6.2068952828460566E-01 a       106     0     6     1     6
  1.4076045306002321E+00 a       107     0     6     1     7
 -1.5925638488531095E+00 a       108     0     6     1     8
 -2.6101231317988705E-01 a       109     0     6     1     9
  9.5750769750041465E-01 a       110     0     6     1    10
  1.4164613289165659E-01 a       111     0     6     1    11
  4.8504011632579884E-02 a       112     0     6     1    12
  7.2944992856757970E-02 a       113     0     6     1    13
 -8.9154629390143036E-01 a       114     0     6     1    14
  4.8872444187062275E-01 a       115     0     6     1    15
  9.4626186262694012E-01 a       116     0     6     1    16
  1.3584651191360473E+00 a       117     0     6     1    17
 -8.4567223800319308E-02 a       118     0     6     1    18
  2.1061052385373178E+00 a       119     0     6     1    19
  5.2756067365254100E-01 a       120     0     6     1    20
  6.5814108286563500E-01 a       121     0     7     1     1
  4.9745098888666979E+00 a       122     0     7     1     2
  4.0782844118162193E-01 a       123     0     7     1     3
  6.6719591946462509E-01 a       124     0     7     1     4
  8.1812452328298280E-01 a       125     0     7     1     5
 -1.2069542583709039E+00 a       126     0     7     1     6
 -2.2996889522975352E+00 a       127     0     7     1     7
  2.5340283571440034E+00 a       128     0     7     1     8
  1.0197112873967846E+00 a       129     0     7     1     9
 -1.9838139728313142E-01 a       130     0     7     1    10
  1.2206068912608568E+00 a       131     0     7     1    11
  1.8907332243381239E+00 a       132     0     7     1    12
 -2.4918288900344012E+00 a       133     0     7     1    13
 -5.7485275356896001E-02 a       134     0     7     1    14
 -2.6371002111051181E+00 a       135     0     7     1    15
 -1.5583975616645884E+00 a       136     0     7     1    16
 -6.7255760997993197E-01 a       137     0     7     1    17
  4.6050334586725414E+00 a       138     0     7     1    18
 -1.6476733677803639E+00 a       139     0     7     1    19
  1.8228103710308121E+00 a       140     0     7     1    20
 -8.4106932399694168E-01 a       141     0     8     1     1
  1.2361600655031280E+00 a       142     0     8     1     2
  8.2080946848342118E-01 a       143     0     8     1     3
 -7.8070568531481838E-02 a       144     0     8     1     4
 -4.1636996626479056E-01 a       145     0     8     1     5
 -2.9232911293261438E-01 a       146     0     8     1     6
 -1.1112676264139099E+00 a       147     0     8     1     7
 -1.3477983763953469E-01 a       148     0     8     1     8
 -1.0427507550705208E+00 a       149     0     8     1     9
 -1.5023183852010253E+00 a       150     0     8     1    10
 -1.7621351430473182E+00 a       151     0     8     1    11
  3.7465086320532198E-01 a       152     0     8     1    12
  1.1557363684314131E-01 a       153     0     8     1    13
  1.0913821495568314E+00 a       154     0     8     1    14
  5.2070465639033869E-01 a       155     0     8     1    15
 -2.3787285420888105E+00 a       156     0     8     1    16
 -5.9216203024502101E-01 a       157     0     8     1    17
  4.2131656535167833E-01 a       158     0     8     1    18
 -4.5238305641473431E-01 a       159     0     8     1    19
  3.2869257239645833E-01 a       160     0     8     1    20
 -1.1061958421659348E+00 a       161     0     9     1     1
  1.1031119676434804E+00 a       162     0     9     1     2
 -5.2187098652991293E-01 a       163     0     9     1     3
  4.4301037698685576E-02 a       164     0     9     1     4
 -3.1211365174546968E-01 a       165     0     9     1     5
  8.7259897198856462E-01 a       166     0     9     1     6
  3.2006151212444511E-01 a       167     0     9     1     7
  1.1256831538742947E-01 a       168     0     9     1     8
  8.6836131792818283E-01 a       169     0     9     1     9
  3.3836233686402997E-02 a       170     0     9     1    10
 -1.2321983191742789E+00 a       171     0     9     1    11
  1.3697754466219195E-01 a       172     0     9     1    12
 -6.6130090977714440E-02 a       173     0     9     1    13
  2.7487533886253940E-01 a       174     0     9     1    14
  8.0840227255728120E-02 a       175     0     9     1    15
 -1.0180888188008090E+00 a       176     0     9     1    16
  8.7969231341361509E-01 a       177     0     9     1    17
 -3.9325314837715014E-01 a       178     0     9     1    18
 -2.1969385502106006E-01 a       179     0     9     1    19
 -5.1524868590744521E-01 a       180     0     9     1    20
  1.1491641938650775E-01 a       181     0    10     1     1
 -2.1273253696216843E-01 a       182     0    10     1     2
 -2.6506579860105575E+00 a       183     0    10     1     3
  1.8419185992039167E+00 a       184     0    10     1     4
  7.4704042138976010E-02 a       185     0    10     1     5
  1.2248375722180933E+00 a       186     0    10     1     6
 -2.5570536429472148E+00 a       187     0    10     1     7
  1.5565960378253081E+00 a       188     0    10     1     8
  1.7843500066453850E+00 a       189     0    10     1     9
 -1.1316635556222336E-02 a       190     0    10     1    10
 -3.3711222347602804E-01 a       191     0    10     1    11
  1.5998111250467781E-01 a       192     0    10     1    12
  1.0229884508958527E+00 a       193     0    10     1    13
  5.1120361846231743E-01 a       194     0    10     1    14
  5.5370595855408311E-01 a       195     0    10     1    15
  1.2536454162525629E-01 a       196     0    10     1    16
  1.1730483984287210E-01 a       197     0    10     1    17
 -1.1803111023048358E+00 a       198     0    10     1    18
 -8.9261133587914854E-01 a       199     0    10     1    19
  5.0064557362086903E-01 a       200     0    10     1    20
  2.2420154044650692E-01 a       201     0    11     1     1
 -4.1077442545807390E+00 a       202     0    11     1     2
 -2.0851997638706403E+00 a       203     0    11     1     3
  1.1089088023619611E+00 a       204     0    11     1     4
 -1.6220577887413596E+00 a       205     0    11     1     5
  2.3843613954260656E-01 a       206     0    11     1     6
 -1.8438874911427712E+00 a       207     0    11     1     7
  1.3064646315683701E+00 a       208     0    11     1     8
  3.1655357019383517E+00 a       209     0    11     1     9
 -1.2755241523129821E+00 a       210     0    11     1    10
  1.5419718612119931E-01 a       211     0    11     1    11
 -1.1970902064842537E+00 a       212     0    11     1    12
  5.2869197684510622E-02 a       213     0    11     1    13
  8.0131375935132121E-01 a       214     0    11     1    14
 -3.2239432927802114E-01 a       215     0    11     1    15
 -1.8011548853373327E+00 a       216     0    11     1    16
 -8.1091543869191507E-01 a       217     0    11     1    17
 -9.6725378122828343E-01 a       218     0    11     1    18
 -5.1245919674588225E-01 a       219     0    11     1    19
 -8.8634540792299932E-01 a       220     0    11     1    20
 -4.6622719166040244E-02 a       221     0    12     1     1
  1.7025251483928650E+00 a       222     0    12     1     2
  7.5755901057976216E-01 a       223     0    12     1     3
 -1.1557924073370960E+00 a       224     0    12     1     4
 -1.7615094691119986E+00 a       225     0    12     1     5
 -6.6585738855331145E-01 a       226     0    12     1     6
  1.2959083075078353E+00 a       227     0    12     1     7
 -1.9334572124122669E+00 a       228     0    12     1     8
 -2.2667929623241914E-01 a       229     0    12     1     9
  1.0384379156949497E+00 a       230     0    12     1    10
  2.1738791654031880E-01 a       231     0    12     1    11
 -1.7186838528899206E-01 a       232     0    12     1    12
  5.4005830166742014E-02 a       233     0    12     1    13
 -1.1329582647739183E+00 a       234     0    12     1    14
  5.1280211050087721E-01 a       235     0    12     1    15
  9.5176404907501322E-01 a       236     0    12     1    16
  1.5525119387530630E+00 a       237     0    12     1    17
 -1.9829446453562851E-02 a       238     0    12     1    18
  1.9408185336837294E+00 a       239     0    12     1    19
  6.7061672632723590E-01 a       240     0    12     1    20
  3.0783139493158157E-01 a       241     0    13     1     1
  4.4281114260204388E+00 a       242     0    13     1     2
  3.7044528651728448E-01 a       243     0    13     1     3
  6.0687859672315847E-01 a       244     0    13     1     4
  8.2622420307730071E-01 a       245     0    13     1     5
 -1.0584556629829172E+00 a       246     0    13     1     6
 -2.1176526721582327E+00 a       247     0    13     1     7
  1.8930417031236477E+00 a       248     0    13     1     8
  1.0639082126808499E+00 a       249     0    13     1     9
  5.4308208157475965E-03 a       250     0    13     1    10
  9.3063598843833772E-01 a       251     0    13     1    11
  1.5602360365271526E+00 a       252     0    13     1    12
 -2.2557695072216921E+00 a       253     0    13     1    13
 -1.2606700333334941E-01 a       254     0    13     1    14
 -2.6603442370854822E+00 a       255     0    13     1    15
 -1.5001115420267055E+00 a       256     0    13     1    16
 -3.8880000305095774E-01 a       257     0    13     1    17
  3.9962965860440987E+00 a       258     0    13     1    18
 -1.4543507455184774E+00 a       259     0    13     1    19
  1.6929292995972745E+00 a       260     0    13     1    20
 -7.4746521641586638E-01 a       261     0    14     1     1
  1.2284669241128245E+00 a       262     0    14     1     2
  6.3080979909397239E-01 a       263     0    14     1     3
  1.2642215201776616E-01 a       264     0    14     1     4
 -3.7549973444416945E-01 a       265     0    14     1     5
 -2.4394890869711908E-01 a       266     0    14     1     6
 -1.0036640541753079E+00 a       267     0    14     1     7
 -1.2911697040653300E-01 a       268     0    14     1     8
 -9.1701237714923556E-01 a       269     0    14     1     9
 -1.3299320023003873E+00 a       270     0    14     1    10
 -1.7287742588782236E+00 a       271     0    14     1    11
  3.3182371849796721E-01 a       272     0    14     1    12
  1.6334706156775852E-01 a       273     0    14     1    13
  9.3349695987860370E-01 a       274     0    14     1    14
  4.9034989193047196E-01 a       275     0    14     1    15
 -2.5484919300163167E+00 a       276     0    14     1    16
 -4.4495067189720544E-01 a       277     0    14     1    17
  6.3285400277707438E-01 a       278     0    14     1    18
 -3.5729168634529407E-01 a       279     0    14     1    19
  1.0453209118380670E-01 a       280     0    14     1    20
 -9.5660885706665955E-01 a       281     0    15     1     1
  1.2395832448241841E+00 a       282     0    15     1     2
 -7.2874946633858950E-01 a       283     0    15     1     3
  1.5845469720599244E-02 a       284     0    15     1     4
 -7.2779596454581519E-01 a       285     0    15     1     5
  6.8297704106489243E-01 a       286     0    15     1     6
  2.2080021105033693E-01 a       287     0    15     1     7
  2.8770991947734448E-01 a       288     0    15     1     8
  8.0287685688923172E-01 a       289     0    15     1     9
  1.9540406603003570E-02 a       290     0    15     1    10
 -1.3381550283147920E+00 a       291     0    15     1    11
  2.4048129297399100E-02 a       292     0    15     1    12
  2.3025499069308675E-02 a       293     0    15     1    13
  6.2406438550091425E-01 a       294     0    15     1    14
 -3.0438311858323241E-01 a       295     0    15     1    15
 -1.1016635296476238E+00 a       296     0    15     1    16
  5.7606062445921868E-01 a       297     0    15     1    17
 -5.4833782358037286E-01 a       298     0    15     1    18
 -2.9232066683379705E-02 a       299     0    15     1    19
 -6.9424381604397123E-01 a       300     0    15     1    20
  7.0911337149303733E-01 a       301     0    16     1     1
 -5.1087316837790853E-01 a       302     0    16     1     2
  2.8692943243709051E-02 a       303     0    16     1     3
  1.8252952520217915E+00 a       304     0    16     1     4
  2.7392485564241020E-01 a       305     0    16     1     5
 -2.0005905364604564E+00 a       306     0    16     1     6
 -5.8524141684868891E-01 a       307     0    16     1     7
 -2.4415410274434379E-01 a       308     0    16     1     8
  4.0859279932823576E+00 a       309     0    16     1     9
 -7.0392095689690271E-01 a       310     0    16     1    10
 -7.1217807801649158E-02 a       311     0    16     1    11
 -1.4788233051898771E+00 a       312     0    16     1    12
  1.2730476306142131E+00 a       313     0    16     1    13
  1.0599604657268268E-02 a       314     0    16     1    14
 -2.3148838162565052E-01 a       315     0    16     1    15
 -1.1260831224548986E+00 a       316     0    16     1    16
 -1.3918353209622123E+00 a       317     0    16     1    17
  7.5243086286095429E-01 a       318     0    16     1    18
  4.0719577230567838E-01 a       319     0    16     1    19
 -2.1121948558880956E+00 a       320     0    16     1    20
 -2.6182651673860926E+00 a       321     0    17     1     1
  1.7921307967469711E+00 a       322     0    17     1     2
  1.6186457275377981E+00 a       323     0    17     1     3
 -1.7694037357733994E+00 a       324     0    17     1     4
 -2.6778267604398889E+00 a       325     0    17     1     5
 -4.4627383024036521E-01 a       326     0    17     1     6
  5.1280505747549976E-01 a       327     0    17     1     7
 -1.7559507589046250E-01 a       328     0    17     1     8
 -4.4768853259037605E-01 a       329     0    17     1     9
  3.8424103637965897E-02 a       330     0    17     1    10
 -9.1001423151807193E-01 a       331     0    17     1    11
 -7.4928967034028304E-01 a       332     0    17     1    12
  4.4015008056649729E-01 a       333     0    17     1    13
  1.1874291684088247E+00 a       334     0    17     1    14
  2.3897447742322550E-01 a       335     0    17     1    15
 -3.1773657603882244E-01 a       336     0    17     1    16
  4.7409740945538192E-01 a       337     0    17     1    17
  1.3214554358381116E+00 a       338     0    17     1    18
  9.5575822918961162E-01 a       339     0    17     1    19
 -8.8514282137643452E-01 a       340     0    17     1    20
 -6.3132992180802505E-01 a       341     0    18     1     1
 -3.1659233533024844E-01 a       342     0    18     1     2
 -5.9395208517833076E-01 a       343     0    18     1     3
 -1.5473858499248230E+00 a       344     0    18     1     4
 -1.3081199663833711E+00 a       345     0    18     1     5
 -8.9285977634177793E-01 a       346     0    18     1     6
  1.0804352018250301E+00 a       347     0    18     1     7
 -2.8459198967827088E+00 a       348     0    18     1     8
  9.9051929059502983E-02 a       349     0    18     1     9
  1.4959798096094696E+00 a       350     0    18     1    10
  4.2097870622436512E-01 a       351     0    18     1    11
 -2.0323545635400966E+00 a       352     0    18     1    12
  1.5262079574812293E+00 a       353     0    18     1    13
 -1.1646428544967251E+00 a       354     0    18     1    14
  1.5217140028748586E+00 a       355     0    18     1    15
  1.0317034052367176E+00 a       356     0    18     1    16
  1.2823826118724138E+00 a       357     0    18     1    17
 -2.4000528434151720E+00 a       358     0    18     1    18
  3.0172152639546752E+00 a       359     0    18     1    19
 -8.9365619386141315E-01 a       360     0    18     1    20
 -4.9541834065679502E-01 a       361     0    19     1     1
  1.3246119864276570E-01 a       362     0    19     1     2
 -8.7702156471007497E-01 a       363     0    19     1     3
 -6.2856491810784698E-01 a       364     0    19     1     4
 -1.1434578859733928E+00 a       365     0    19     1     5
 -1.1544525066840379E+00 a       366     0    19     1     6
 -1.1208111292007006E+00 a       367     0    19     1     7
 -1.1086322020251165E+00 a       368     0    19     1     8
  1.3672426848199351E+00 a       369     0    19     1     9
  7.9709882471770166E-01 a       370     0    19     1    10
  1.8368566436602884E+00 a       371     0    19     1    11
 -9.7629973385830682E-01 a       372     0    19     1    12
  1.1917405541013841E+00 a       373     0    19     1    13
 -8.3505250054089020E-01 a       374     0    19     1    14
  5.3226568174552724E-01 a       375     0    19     1    15
  6.6954330318339333E-02 a       376     0    19     1    16
  9.5933538748008673E-01 a       377     0    19     1    17
 -8.4736442025313807E-01 a       378     0    19     1    18
  1.8869528116649685E+00 a       379     0    19     1    19
 -1.8711530600303508E-01 a       380     0    19     1    20
 -2.6590157997982056E-01 a       381     0    20     1     1
 -6.3956999571730755E-01 a       382     0    20     1     2
  4.1343182800832434E-01 a       383     0    20     1     3
 -1.2168552534257107E-01 a       384     0    20     1     4
 -1.2576549762780329E+00 a       385     0    20     1     5
 -6.4892534497510490E-01 a       386     0    20     1     6
  3.2891090124469211E-02 a       387     0    20     1     7
 -1.2908158605298794E+00 a       388     0    20     1     8
  8.2774135647810942E-01 a       389     0    20     1     9
  2.6262302854172187E-01 a       390     0    20     1    10
  4.5898217820326193E-01 a       391     0    20     1    11
 -3.6473102991171397E-01 a       392     0    20     1    12
  1.8237618894652607E+00 a       393     0    20     1    13
 -2.9609378383818025E-01 a       394     0    20     1    14
 -8.3416622140428429E-02 a       395     0    20     1    15
 -6.6615000652483514E-01 a       396     0    20     1    16
  9.1233070411641481E-01 a       397     0    20     1    17
 -3.5299353503948017E-01 a       398     0    20     1    18
  1.4300672408517536E+00 a       399     0    20     1    19
 -1.4229333750469053E+00 a       400     0    20     1    20
  8.5918963878110099E-01 a       401     0    21     1     1
 -1.3693670545972845E+00 a       402     0    21     1     2
 -6.5456874605354787E-01 a       403     0    21     1     3
  2.3455815346397105E-01 a       404     0    21     1     4
 -1.6229727407571320E-01 a       405     0    21     1     5
 -1.9060937018994732E+00 a       406     0    21     1     6
  7.7337572369363994E-01 a       407     0    21     1     7
 -1.0221945625816478E+00 a       408     0    21     1     8
  2.3782954284965325E+00 a       409     0    21     1     9
  8.5632351396007195E-02 a       410     0    21     1    10
  7.2812769871524374E-01 a       411     0    21     1    11
 -6.4443191657913890E-01 a       412     0    21     1    12
  2.0578854885821984E+00 a       413     0    21     1    13
 -6.6662964837542438E-01 a       414     0    21     1    14
  6.0720242594613305E-01 a       415     0    21     1    15
  8.9012553156743623E-01 a       416     0    21     1    16
  1.3208569588892383E-01 a       417     0    21     1    17
 -6.7213303885429121E-01 a       418     0    21     1    18
  2.0452743632831631E+00 a       419     0    21     1    19
 -8.4172455221368481E-01 a       420     0    21     1    20
  1.8957025999055042E+00 a       421     0    22     1     1
 -1.5765008343696034E+00 a       422     0    22     1     2
 -1.5539048214738824E+00 a       423     0    22     1     3
 -5.0884857103181336E-01 a       424     0    22     1     4
  2.8540988515909765E-01 a       425     0    22     1     5
 -6.2652651574659901E-01 a       426     0    22     1     6
 -2.0014205648146735E-01 a       427     0    22     1     7
 -6.7093627762813274E-02 a       428     0    22     1     8
 -5.9564862775622962E-01 a       429     0    22     1     9
 -7.5136052662962069E-02 a       430     0    22     1    10
  2.3891347626162956E-01 a       431     0    22     1    11
  5.3096544118214450E-01 a       432     0    22     1    12
 -9.1703261491789834E-01 a       433     0    22     1    13
  5.6110937010422834E-01 a       434     0    22     1    14
 -1.0847347422502109E+00 a       435     0    22     1    15
 -9.8206629049102501E-01 a       436     0    22     1    16
 -8.8465946389175210E-01 a       437     0    22     1    17
 -9.5749852489993503E-01 a       438     0    22     1    18
 -5.9936405010452942E-01 a       439     0    22     1    19
  1.3813096599109733E+00 a       440     0    22     1    20
 -3.7000865071990274E-01 a       441     0    23     1     1
 -1.0665951693876012E+00 a       442     0    23     1     2
 -8.8730314667867449E-01 a       443     0    23     1     3
 -1.0900151769353783E+00 a       444     0    23     1     4
  2.4611570802781266E-01 a       445     0    23     1     5
 -1.2165984622494077E+00 a       446     0    23     1     6
  1.0194466955888999E+00 a       447     0    23     1     7
 -3.1384916330443509E+00 a       448     0    23     1     8
  3.9333885191451290E-01 a       449     0    23     1     9
  1.6294664038281321E+00 a       450     0    23     1    10
  5.8195422678014386E-01 a       451     0    23     1    11
 -2.3658541385119762E+00 a       452     0    23     1    12
  1.5699662083411774E+00 a       453     0    23     1    13
 -9.6669410224850660E-01 a       454     0    23     1    14
  7.1166628091497797E-01 a       455     0    23     1    15
  5.9644658264616157E-01 a       456     0    23     1    16
  9.5088730737443861E-01 a       457     0    23     1    17
 -1.7913919288373625E+00 a       458     0    23     1    18
  1.8393983136420657E+00 a       459     0    23     1    19
 -1.9964116429377328E+00 a       460     0    23     1    20
  1.6879436994858752E+00 a       461     0    24     1     1
 -2.7328011178764744E-01 a       462     0    24     1     2
  2.2795234952049155E+00 a       463     0    24     1     3
  6.9464110035728088E-01 a       464     0    24     1     4
  3.7666994660768033E-02 a       465     0    24     1     5
  2.0672350667207455E+00 a       466     0    24     1     6
  2.7597847814880865E+00 a       467     0    24     1     7
 -1.8254021616135419E+00 a       468     0    24     1     8
 -2.1697614159346545E+00 a       469     0    24     1     9
 -2.4225001941580446E+00 a       470     0    24     1    10
 -1.9379042350807489E+00 a       471     0    24     1    11
  1.3651759395439587E+00 a       472     0    24     1    12
 -1.1987192594083860E+00 a       473     0    24     1    13
  6.3934211217304082E-02 a       474     0    24     1    14
  5.8781892445258632E-01 a       475     0    24     1    15
 -2.2019530507815381E+00 a       476     0    24     1    16
 -4.1432548645477829E-01 a       477     0    24     1    17
  2.6292044909344225E-01 a       478     0    24     1    18
 -6.0932125094357614E-01 a       479     0    24     1    19
  3.4318055201597458E-01 a       480     0    24     1    20
  7.5796403744319785E-02 a       481     0    25     1     1
 -1.8607634732184397E+00 a       482     0    25     1     2
 -1.8347825118435181E+00 a       483     0    25     1     3
 -2.7285389619067818E-01 a       484     0    25     1     4
 -8.7041062247671097E-01 a       485     0    25     1     5
 -6.1620437350046753E-01 a       486     0    25     1     6
 -1.2578535741815693E+00 a       487     0    25     1     7
 -2.4835229903305120E+00 a       488     0    25     1     8
  1.3268248847507591E+00 a       489     0    25     1     9
  1.1857049862968398E+00 a       490     0    25     1    10
  2.1555686854957723E+00 a       491     0    25     1    11
 -2.1629341646711366E+00 a       492     0    25     1    12
  1.8784889821033022E+00 a       493     0    25     1    13
 -1.2281404889917853E+00 a       494     0    25     1    14
  6.7173034036760459E-01 a       495     0    25     1    15
  1.6124593987969743E-01 a       496     0    25     1    16
  1.0643594233521965E+00 a       497     0    25     1    17
 -2.1656768921459504E+00 a       498     0    25     1    18
  2.0072066035417566E+00 a       499     0    25     1    19
 -1.2224622028161902E+00 a       500     0    25     1    20
  8.5479746419350544E-01 a       501     0    26     1     1
 -9.2200670699907561E-01 a       502     0    26     1     2
 -3.3024772261434171E-01 a       503     0    26     1     3
  9.4854931548139856E-02 a       504     0    26     1     4
 -1.1445002478617996E+00 a       505     0    26     1     5
 -1.2153352753360154E+00 a       506     0    26     1     6
  3.0541878234819381E-01 a       507     0    26     1     7
 -1.0949307932883883E+00 a       508     0    26     1     8
  1.5747215010789222E+00 a       509     0    26     1     9
  9.3485898798728007E-01 a       510     0    26     1    10
  1.8223657649273572E+00 a       511     0    26     1    11
  2.9306682375406923E-01 a       512     0    26     1    12
  1.2014954544297445E+00 a       513     0    26     1    13
 -1.1689091923850257E+00 a       514     0    26     1    14
 -1.0375256589212905E+00 a       515     0    26     1    15
  3.4659485806483303E-01 a       516     0    26     1    16
  1.3829990907320269E+00 a       517     0    26     1    17
 -1.3821101593363461E-01 a       518     0    26     1    18
  1.6120002116641192E+00 a       519     0    26     1    19
 -1.2521379091691085E+00 a       520     0    26     1    20
  6.2877646263732645E-01 a       521     0    27     1     1
 -3.6983738975999397E-01 a       522     0    27     1     2
 -8.4154384675365601E-01 a       523     0    27     1     3
 -1.6465826440713910E-01 a       524     0    27     1     4
 -2.8222236312213816E-01 a       525     0    27     1     5
  6.0953947656693030E-01 a       526     0    27     1     6
 -1.3646149959591811E+00 a       527     0    27     1     7
 -6.7440628840858241E-01 a       528     0    27     1     8
 -4.2820743429118285E-01 a       529     0    27     1     9
  1.6197017794670332E+00 a       530     0    27     1    10
  1.4681279361667848E-01 a       531     0    27     1    11
  6.8106584561926764E-01 a       532     0    27     1    12
  9.3168689904733382E-01 a       533     0    27     1    13
  1.0648986837462035E-01 a       534     0    27     1    14
 -9.5094146558156423E-01 a       535     0    27     1    15
  6.8451962426092161E-01 a       536     0    27     1    16
  1.4770624506904073E-01 a       537     0    27     1    17
  3.2382516718812621E-02 a       538     0    27     1    18
  1.2355340955710774E+00 a       539     0    27     1    19
  6.1517927274714779E-01 a       540     0    27     1    20
  5.3147868354517214E-01 a       541     0    28     1     1
  2.5753642017845619E+00 a       542     0    28     1     2
  1.7948743137273440E+00 a       543     0    28     1     3
 -1.3508438122771589E+00 a       544     0    28     1     4
 -3.4977625340012813E-01 a       545     0    28     1     5
 -1.4051903212991104E+00 a       546     0    28     1     6
  3.3053170319643472E+00 a       547     0    28     1     7
 -2.4829381858080897E+00 a       548     0    28     1     8
 -2.6821202432376889E+00 a       549     0    28     1     9
  7.3457166907366034E-01 a       550     0    28     1    10
  1.0427825836614304E+00 a       551     0    28     1    11
  4.3786998347555783E-01 a       552     0    28     1    12
 -6.8324980633056798E-01 a       553     0    28     1    13
 -4.0010743708163887E-01 a       554     0    28     1    14
 -6.5183152451965831E-01 a       555     0    28     1    15
  4.0307534063573298E-02 a       556     0    28     1    16
  1.0000801304957763E+00 a       557     0    28     1    17
  1.8868891756088504E+00 a       558     0    28     1    18
  1.8625240851525176E+00 a       559     0    28     1    19
 -1.4492128193658775E+00 a       560     0    28     1    20
  2.3318889018874618E+00 a       561     0    29     1     1
  1.2723933644367230E-01 a       562     0    29     1     2
  4.3825607137303529E-01 a       563     0    29     1     3
  8.3875200708454523E-01 a       564     0    29     1     4
  3.1384594806091171E+00 a       565     0    29     1     5
 -5.3568200638516883E-01 a       566     0    29     1     6
  1.9268387145499031E+00 a       567     0    29     1     7
 -2.4257298882287781E+00 a       568     0    29     1     8
  6.6742443321010403E-01 a       569     0    29     1     9
  1.5775326824230642E+00 a       570     0    29     1    10
  4.5274812002941600E-01 a       571     0    29     1    11
 -1.1281287356075553E+00 a       572     0    29     1    12
 -2.0118225219964009E-01 a       573     0    29     1    13
  2.1163936225579719E-01 a       574     0    29     1    14
 -3.4771634141339418E+00 a       575     0    29     1    15
 -4.9466126109323366E-01 a       576     0    29     1    16
 -4.8676218654027298E-01 a       577     0    29     1    17
  2.8458262140433819E+00 a       578     0    29     1    18
 -2.5673896306121646E+00 a       579     0    29     1    19
 -2.3127315026673179E+00 a       580     0    29     1    20
  1.5038930334438803E+00 a       581     0    30     1     1
  1.1892563756900125E+00 a       582     0    30     1     2
 -5.6694980773079849E-02 a       583     0    30     1     3
 -1.2882878919912992E+00 a       584     0    30     1     4
  1.1340477983940896E-01 a       585     0    30     1     5
 -1.5903804431496062E+00 a       586     0    30     1     6
 -1.5955080893232814E+00 a       587     0    30     1     7
 -5.1202372120579775E-01 a       588     0    30     1     8
 -5.7991046355847294E-02 a       589     0    30     1     9
  1.6804523509292491E+00 a       590     0    30     1    10
  1.2677531137076803E+00 a       591     0    30     1    11
 -3.2219981253660213E-01 a       592     0    30     1    12
 -1.1637268864127839E+00 a       593     0    30     1    13
 -1.1150206282354866E+00 a       594     0    30     1    14
 -6.7893344930451460E-01 a       595     0    30     1    15
  2.8065138320622424E-02 a       596     0    30     1    16
 -9.9935637140245814E-01 a       597     0    30     1    17
  5.2155403515520860E-01 a       598     0    30     1    18
  1.4651499714734133E+00 a       599     0    30     1    19
 -4.3037473004171117E-01 a       600     0    30     1    20
 -2.4847715915374047E+00 a       601     0    31     1     1
 -1.0933419968088800E+00 a       602     0    31     1     2
 -1.3372138388716421E+00 a       603     0    31     1     3
 -1.7226180061509355E-01 a       604     0    31     1     4
 -1.9779523390694775E+00 a       605     0    31     1     5
  1.8465223351973928E-01 a       606     0    31     1     6
 -2.3849386740443537E+00 a       607     0    31     1     7
  2.1608215496067178E+00 a       608     0    31     1     8
  1.7389766738828734E+00 a       609     0    31     1     9
 -4.6974423685594763E-01 a       610     0    31     1    10
  3.7347294993902957E-01 a       611     0    31     1    11
 -1.9021263349463413E+00 a       612     0    31     1    12
  2.0147790912064778E+00 a       613     0    31     1    13
  4.3858269008400524E-01 a       614     0    31     1    14
 -1.2548890518235396E-02 a       615     0    31     1    15
 -1.0890225656526793E-01 a       616     0    31     1    16
  6.6942385587466846E-01 a       617     0    31     1    17
  6.2294385853356071E-01 a       618     0    31     1    18
  1.9425067838606689E+00 a       619     0    31     1    19
 -7.5971232204479355E-01 a       620     0    31     1    20
  2.4914954127446691E+00 a       621     0    32     1     1
 -8.9738011998678024E-01 a       622     0    32     1     2
 -1.6097746532966835E+00 a       623     0    32     1     3
  1.4008374986428052E+00 a       624     0    32     1     4
  1.5711719104440485E+00 a       625     0    32     1     5
  1.4850748988590334E+00 a       626     0    32     1     6
 -2.2884161769818006E+00 a       627     0    32     1     7
 -1.2221873792275935E+00 a       628     0    32     1     8
  7.0057043048437750E-01 a       629     0    32     1     9
  5.9518671164430903E-01 a       630     0    32     1    10
  7.8172062967736533E-01 a       631     0    32     1    11
 -2.2090699614703502E-01 a       632     0    32     1    12
 -1.0979291646874558E+00 a       633     0    32     1    13
  1.0277923519201630E-01 a       634     0    32     1    14
 -2.4345720936814566E+00 a       635     0    32     1    15
 -1.1932940751767245E+00 a       636     0    32     1    16
 -1.3645860419917670E+00 a       637     0    32     1    17
  2.5955323905734602E+00 a       638     0    32     1    18
 -2.9988731995886644E+00 a       639     0    32     1    19
 -7.3971145888403000E-01 a       640     0    32     1    20
  3.6431731263945006E+00 a       641     0    33     1     1
  7.6316600934514656E-01 a       642     0    33     1     2
 -7.3785923856796998E-01 a       643     0    33     1     3
 -2.1105940330571175E-02 a       644     0    33     1     4
  7.0878560989269601E-01 a       645     0    33     1     5
 -1.7215758261529692E+00 a       646     0    33     1     6
  9.0407499529161850E-01 a       647     0    33     1     7
  1.0992116508383785E+00 a       648     0    33     1     8
  1.0274264283496715E+00 a       649     0    33     1     9
  1.3617824991016576E+00 a       650     0    33     1    10
  2.2513090300830565E+00 a       651     0    33     1    11
  2.9453112245425528E+00 a       652     0    33     1    12
 -2.4211735497798990E+00 a       653     0    33     1    13
 -1.1516978157743512E+00 a       654     0    33     1    14
 -1.7328441294763923E+00 a       655     0    33     1    15
  1.1981917195986862E+00 a       656     0    33     1    16
  3.9104959663192229E-01 a       657     0    33     1    17
  4.4159209131979793E-01 a       658     0    33     1    18
  1.2554762834608743E-01 a       659     0    33     1    19
  1.6873497090914329E+00 a       660     0    33     1    20
 -1.5926089362918713E-01 a       661     0    34     1     1
 -1.4738573130589797E-01 a       662     0    34     1     2
  1.0800900978251513E+00 a       663     0    34     1     3
 -9.0741379260070210E-01 a       664     0    34     1     4
 -1.0191495685826866E+00 a       665     0    34     1     5
  2.7831738954277790E-01 a       666     0    34     1     6
 -8.5386094399276946E-01 a       667     0    34     1     7
 -1.9002575591947712E-01 a       668     0    34     1     8
  8.0962390620516855E-01 a       669     0    34     1     9
 -7.7740260727944724E-02 a       670     0    34     1    10
  6.7407757091632204E-03 a       671     0    34     1    11
 -7.6828892600343535E-01 a       672     0    34     1    12
  2.8258202573599367E-01 a       673     0    34     1    13
  3.4350053189732682E-01 a       674     0    34     1    14
  1.3310334856925621E-01 a       675     0    34     1    15
 -7.1634423239756573E-01 a       676     0    34     1    16
  3.3350143100769097E-01 a       677     0    34     1    17
 -4.4429062045876801E-02 a       678     0    34     1    18
 -2.9368598582069011E-01 a       679     0    34     1    19
  1.1484185126496633E+00 a       680     0    34     1    20
  5.3854934085790351E-01 a       681     0    35     1     1
 -3.5375704212239678E+00 a       682     0    35     1     2
 -5.3462189524625199E+00 a       683     0    35     1     3
  3.4511172926147937E+00 a       684     0    35     1     4
  2.0878495843712805E+00 a       685     0    35     1     5
  2.3387128916041426E+00 a       686     0    35     1     6
 -5.4985819051289306E+00 a       687     0    35     1     7
  4.7759118090742199E+00 a       688     0    35     1     8
  2.9242601989248311E+00 a       689     0    35     1     9
  3.8052874890393129E-01 a       690     0    35     1    10
 -2.3948285897792259E+00 a       691     0    35     1    11
  1.4071570257840031E+00 a       692     0    35     1    12
 -1.0943169591724562E+00 a       693     0    35     1    13
  2.4959353740391705E+00 a       694     0    35     1    14
  8.9310250496577781E-01 a       695     0    35     1    15
 -1.2982282648315289E+00 a       696     0    35     1    16
 -4.0645143695488057E+00 a       697     0    35     1    17
 -2.0384397389001414E+00 a       698     0    35     1    18
 -3.3597573004151844E+00 a       699     0    35     1    19
  1.6020221968227277E+00 a       700     0    35     1    20
  1.2944004905703304E+00 a       701     0    36     1     1
 -6.3136486847572271E-01 a       702     0    36     1     2
 -1.0592770639439684E+00 a       703     0    36     1     3
  7.9972755832478648E-02 a       704     0    36     1     4
  8.9743157659764417E-01 a       705     0    36     1     5
  4.2622850487944663E-01 a       706     0    36     1     6
 -2.5741131296323627E+00 a       707     0    36     1     7
  6.4109324599334216E-01 a       708     0    36     1     8
 -7.0746940873389980E-02 a       709     0    36     1     9
  6.5539667673258428E-01 a       710     0    36     1    10
  1.0996607607164829E-01 a       711     0    36     1    11
  5.7981167858590810E-01 a       712     0    36     1    12
  6.8249897429465256E-01 a       713     0    36     1    13
 -9.7111066024559850E-02 a       714     0    36     1    14
 -1.2265500922160542E+00 a       715     0    36     1    15
  7.8915473031296712E-01 a       716     0    36     1    16
 -7.6999797437511286E-01 a       717     0    36     1    17
  9.7714974881694361E-01 a       718     0    36     1    18
  7.6744203900011257E-02 a       719     0    36     1    19
  8.4817793799321628E-01 a       720     0    36     1    20
 -1.7607907506231129E-02 a       721     0    37     1     1
 -1.5868060318794157E+00 a       722     0    37     1     2
 -3.5667512401729753E+00 a       723     0    37     1     3
 -2.8195393568021049E-01 a       724     0    37     1     4
  7.8766830899185003E-01 a       725     0    37     1     5
 -9.6860570180106131E-01 a       726     0    37     1     6
 -3.1638804211045710E+00 a       727     0    37     1     7
  3.0076789007957694E+00 a       728     0    37     1     8
 -1.8312249097750763E-01 a       729     0    37     1     9
 -8.6881828108239009E-02 a       730     0    37     1    10
  3.2822875345608821E-01 a       731     0    37     1    11
  1.0320390327953295E+00 a       732     0    37     1    12
 -8.8730232481986215E-01 a       733     0    37     1    13
  7.0156923806237628E-02 a       734     0    37     1    14
  3.9387560386458842E-01 a       735     0    37     1    15
  1.3216875450589975E+00 a       736     0    37     1    16
 -6.0901332335694350E-02 a       737     0    37     1    17
  1.4686536774249852E+00 a       738     0    37     1    18
  2.9257552697792777E-01 a       739     0    37     1    19
  1.8221835019580026E+00 a       740     0    37     1    20
  4.3695490873048093E-01 a       741     0    38     1     1
  2.1124620898306046E-01 a       742     0    38     1     2
 -8.5843355979611646E-01 a       743     0    38     1     3
  1.0494027377178508E+00 a       744     0    38     1     4
 -3.4664910277676805E-02 a       745     0    38     1     5
 -1.4287065465218278E+00 a       746     0    38     1     6
 -8.0156759703597391E-01 a       747     0    38     1     7
 -1.9641593665610094E-01 a       748     0    38     1     8
  1.8647913484216391E-01 a       749     0    38     1     9
 -8.2136129070420161E-01 a       750     0    38     1    10
  1.4926698978930080E+00 a       751     0    38     1    11
 -1.1637175354898164E+00 a       752     0    38     1    12
 -2.2747179825571955E+00 a       753     0    38     1    13
 -1.4456424849115572E+00 a       754     0    38     1    14
 -1.6406337375498331E-01 a       755     0    38     1    15
 -1.6257807923698426E+00 a       756     0    38     1    16
 -4.8837945703614605E-01 a       757     0    38     1    17
 -1.6884940443596832E+00 a       758     0    38     1    18
 -7.0332302289524273E-01 a       759     0    38     1    19
 -1.0352705948429901E+00 a       760     0    38     1    20
 -9.2827044132873793E-01 a       761     0    39     1     1
 -1.3521456498071411E+00 a       762     0    39     1     2
 -4.3299281796897893E-01 a       763     0    39     1     3
  4.9672441881061763E-01 a       764     0    39     1     4
  6.0928675798553300E-01 a       765     0    39     1     5
  1.1477173049988481E+00 a       766     0    39     1     6
 -1.5193064427726350E+00 a       767     0    39     1     7
  6.8946991680121628E-01 a       768     0    39     1     8
  8.9240815084368641E-01 a       769     0    39     1     9
  3.5719346260127277E-01 a       770     0    39     1    10
 -5.2267558543676440E-01 a       771     0    39     1    11
  2.1794481960895565E-01 a       772     0    39     1    12
  1.1129991531787546E-03 a       773     0    39     1    13
  2.6888460217944909E-01 a       774     0    39     1    14
  7.0312918231965149E-01 a       775     0    39     1    15
 -1.9600481888826918E-01 a       776     0    39     1    16
 -4.6258819219489528E-01 a       777     0    39     1    17
 -9.0205561736991258E-01 a       778     0    39     1    18
 -1.0152038428168675E+00 a       779     0    39     1    19
  3.5168571747575300E-01 a       780     0    39     1    20
  1.0010107095405096E+00 a       781     0    40     1     1
  5.2015856138865425E-02 a       782     0    40     1     2
 -5.4636557471908168E-02 a       783     0    40     1     3
 -1.3231756057286801E+00 a       784     0    40     1     4
  3.1191955015089792E+00 a       785     0    40     1     5
 -3.8178636135793947E-01 a       786     0    40     1     6
  2.0099393013770550E+00 a       787     0    40     1     7
 -2.2685705744977249E+00 a       788     0    40     1     8
 -2.8498422917120334E+00 a       789     0    40     1     9
  6.1852698882661228E-01 a       790     0    40     1    10
 -2.0900623056862574E-01 a       791     0    40     1    11
  3.3057354317510013E-01 a       792     0    40     1    12
 -2.5244594569317064E-01 a       793     0    40     1    13
 -1.2842358640750491E-02 a       794     0    40     1    14
 -2.0399306506049342E-01 a       795     0    40     1    15
  4.3878280195851721E-01 a       796     0    40     1    16
 -4.0116966802377846E-01 a       797     0    40     1    17
 -1.5444367206508667E+00 a       798     0    40     1    18
 -1.1568288360879708E+00 a       799     0    40     1    19
  2.1250233915944050E-01 a       800     0    40     1    20
  1.0743884191249133E+00 a       801     0    41     1     1
 -2.7574487657595506E+00 a       802     0    41     1     2
  1.2165652042034267E+00 a       803     0    41     1     3
 -5.5687350819769987E-01 a       804     0    41     1     4
 -7.0822483852756724E-01 a       805     0    41     1     5
 -8.9447894561565822E-01 a       806     0    41     1     6
  5.5443923964933113E+00 a       807     0    41     1     7
 -3.6989798914248357E+00 a       808     0    41     1     8
  5.7649005493705485E-01 a       809     0    41     1     9
  2.4512665752744560E+00 a       810     0    41     1    10
  1.6858159866085640E+00 a       811     0    41     1    11
 -9.6572439093280171E-01 a       812     0    41     1    12
  2.0631388097673620E+00 a       813     0    41     1    13
  3.4174587888584296E-01 a       814     0    41     1    14
  1.2274165966246095E-01 a       815     0    41     1    15
  2.6119030776507270E+00 a       816     0    41     1    16
  2.7953419746702037E+00 a       817     0    41     1    17
 -2.2212948010789098E+00 a       818     0    41     1    18
  1.8710640872050617E+00 a       819     0    41     1    19
 -6.3975077515617751E-01 a       820     0    41     1    20
  5.3174014106836254E-01 a       821     0    42     1     1
 -1.8001003489898604E+00 a       822     0    42     1     2
  8.2622140563230612E-02 a       823     0    42     1     3
 -7.1036109979411877E-01 a       824     0    42     1     4
 -9.6731406435674150E-01 a       825     0    42     1     5
 -7.4217408739993207E-01 a       826     0    42     1     6
  2.3642436824925359E+00 a       827     0    42     1     7
 -3.2705441212266090E-01 a       828     0    42     1     8
  2.1119216268631433E+00 a       829     0    42     1     9
  1.5765915676871067E+00 a       830     0    42     1    10
  2.0919835415651891E+00 a       831     0    42     1    11
 -2.2335367874803905E-01 a       832     0    42     1    12
  1.3679542714829118E+00 a       833     0    42     1    13
 -1.1289366414530986E+00 a       834     0    42     1    14
 -1.9490567406276810E-01 a       835     0    42     1    15
  1.7285592646562100E+00 a       836     0    42     1    16
  8.7557174119681846E-01 a       837     0    42     1    17
 -1.9538920539425404E+00 a       838     0    42     1    18
  2.3835161314214810E+00 a       839     0    42     1    19
 -8.6701958713970226E-02 a       840     0    42     1    20
 -4.8119763893321940E-03 a       841     0    43     1     1
  1.1034599947950730E+00 a       842     0    43     1     2
 -2.9997307408026452E-01 a       843     0    43     1     3
  4.3959489465444468E-01 a       844     0    43     1     4
  6.0985702814630582E-01 a       845     0    43     1     5
 -1.3610600653555218E+00 a       846     0    43     1     6
  4.4978853840558337E-02 a       847     0    43     1     7
 -1.5550427414523580E+00 a       848     0    43     1     8
  1.1054781480137827E+00 a       849     0    43     1     9
 -1.0746746352178646E-01 a       850     0    43     1    10
 -5.2002671451521087E-01 a       851     0    43     1    11
  6.5697164629013438E-01 a       852     0    43     1    12
 -5.3341138153629575E-01 a       853     0    43     1    13
 -1.2695656006318419E+00 a       854     0    43     1    14
 -1.1780659448915165E+00 a       855     0    43     1    15
  1.6085520750464907E-01 a       856     0    43     1    16
  1.8097066256426159E-01 a       857     0    43     1    17
 -1.2639772234988254E+00 a       858     0    43     1    18
 -6.7036856577882997E-02 a       859     0    43     1    19
  1.2371254971564642E+00 a       860     0    43     1    20
 -1.4344221860654114E+00 a       861     0    44     1     1
 -4.9174853573365018E+00 a       862     0    44     1     2
 -1.0997532128272560E+00 a       863     0    44     1     3
 -7.6911664685496950E-01 a       864     0    44     1     4
 -2.6291722938800572E+00 a       865     0    44     1     5
  7.8292348042771243E-01 a       866     0    44     1     6
 -2.1856191802877850E-01 a       867     0    44     1     7
 -1.0631773633328492E+00 a       868     0    44     1     8
  9.3793189703026458E-01 a       869     0    44     1     9
  9.3222192017022920E-01 a       870     0    44     1    10
  3.8054139623029620E-01 a       871     0    44     1    11
 -1.5751869422556197E+00 a       872     0    44     1    12
  2.8071325916802969E-01 a       873     0    44     1    13
 -4.4612516496053987E-02 a       874     0    44     1    14
  2.6434217966341893E+00 a       875     0    44     1    15
  9.3947567992461889E-01 a       876     0    44     1    16
  8.8129675531340002E-01 a       877     0    44     1    17
 -4.3013668118721391E+00 a       878     0    44     1    18
  2.1902633175450004E+00 a       879     0    44     1    19
 -8.8545420195552382E-01 a       880     0    44     1    20
 -1.4986758553470079E+00 a       881     0    45     1     1
 -3.2467045267037684E+00 a       882     0    45     1     2
  1.0195303206837498E+00 a       883     0    45     1     3
  1.4969135291980813E+00 a       884     0    45     1     4
 -3.2560051058679251E-01 a       885     0    45     1     5
 -9.8884728557571977E-01 a       886     0    45     1     6
  1.9397746186372553E+00 a       887     0    45     1     7
 -2.2155007711693115E+00 a       888     0    45     1     8
  1.2327066505908173E+00 a       889     0    45     1     9
 -1.0083886775987840E+00 a       890     0    45     1    10
  1.6665444874935184E-01 a       891     0    45     1    11
 -2.8318718793581432E+00 a       892     0    45     1    12
  1.5956678790802941E+00 a       893     0    45     1    13
 -1.6137057269631485E+00 a       894     0    45     1    14
  3.9272637271465011E-01 a       895     0    45     1    15
 -3.4110582862017319E-01 a       896     0    45     1    16
  1.1649132177136960E+00 a       897     0    45     1    17
 -2.3014813650731316E+00 a       898     0    45     1    18
  2.7301009586144938E+00 a       899     0    45     1    19
 -5.4800178950914766E+00 a       900     0    45     1    20
 -1.9102731316610194E-01 a       901     0    46     1     1
 -3.5990982738425709E-01 a       902     0    46     1     2
  1.4773459300487399E-01 a       903     0    46     1     3
 -1.6218368338836645E-01 a       904     0    46     1     4
  6.0470129317754062E-01 a       905     0    46     1     5
 -7.6795412611235547E-01 a       906     0    46     1     6
  6.2899820389582128E-01 a       907     0    46     1     7
  4.3847301465898575E-01 a       908     0    46     1     8
 -1.0826244977698424E-01 a       909     0    46     1     9
 -9.1449599912212609E-01 a       910     0    46     1    10
  8.3906536252051328E-02 a       911     0    46     1    11
 -1.9913035742647317E-01 a       912     0    46     1    12
  1.4072775459543405E-01 a       913     0    46     1    13
 -2.6169518708115558E-01 a       914     0    46     1    14
  7.6903207272251217E-01 a       915     0    46     1    15
  1.6400584184218603E-01 a       916     0    46     1    16
 -2.6388076275751077E-01 a       917     0    46     1    17
 -1.3120407242773868E-01 a       918     0    46     1    18
 -5.4568249269937763E-01 a       919     0    46     1    19
 -4.8116647902387971E-01 a       920     0    46     1    20
 -2.0157353619607851E-01 a       921     0    47     1     1
 -2.2493071431880769E+00 a       922     0    47     1     2
 -2.1236756158103232E+00 a       923     0    47     1     3
 -2.9626627712877296E-01 a       924     0    47     1     4
  4.9067034247623748E-01 a       925     0    47     1     5
  5.1461911153219009E-01 a       926     0    47     1     6
 -6.4523380475033254E-01 a       927     0    47     1     7
  1.3273200620757866E+00 a       928     0    47     1     8
  1.2304017057323602E+00 a       929     0    47     1     9
 -2.0750204780806364E-01 a       930     0    47     1    10
  4.4643960470476218E-01 a       931     0    47     1    11
 -5.0742374163248471E-01 a       932     0    47     1    12
  1.6460020766103369E+00 a       933     0    47     1    13
 -1.0319342699774050E+00 a       934     0    47     1    14
 -4.2843036024276698E-01 a       935     0    47     1    15
  6.2231247195501838E-01 a       936     0    47     1    16
  1.8609410732636977E-01 a       937     0    47     1    17
 -1.2675436270603910E+00 a       938     0    47     1    18
  2.1133581164183290E+00 a       939     0    47     1    19
 -2.6727915292629256E-02 a       940     0    47     1    20
 -2.1848811893243214E+00 a       941     0    48     1     1
 -1.3174305053832671E+00 a       942     0    48     1     2
 -6.0408770216483820E-01 a       943     0    48     1     3
  2.7171993639671481E-02 a       944     0    48     1     4
  1.4782204764414768E+00 a       945     0    48     1     5
  2.0418407173761843E+00 a       946     0    48     1     6
 -1.6655538058933355E+00 a       947     0    48     1     7
  1.5848670189337286E+00 a       948     0    48     1     8
  2.1432361458650835E+00 a       949     0    48     1     9
 -3.9963271525694494E-01 a       950     0    48     1    10
 -5.7590490590264798E-01 a       951     0    48     1    11
 -1.6713871750159006E+00 a       952     0    48     1    12
  8.1915645506947621E-01 a       953     0    48     1    13
  1.4921577816353124E+00 a       954     0    48     1    14
  1.5849698604598110E+00 a       955     0    48     1    15
  7.2769066820913086E-01 a       956     0    48     1    16
 -5.5903868652490185E-01 a       957     0    48     1    17
 -6.1140082706877830E-01 a       958     0    48     1    18
 -2.4558421960700874E+00 a       959     0    48     1    19
 -2.0112542490088798E+00 a       960     0    48     1    20
 -2.2133592799681416E+00 a       961     0    49     1     1
 -2.5495682772100317E+00 a       962     0    49     1     2
  7.1497461927971717E-01 a       963     0    49     1     3
 -9.2857216892535954E-01 a       964     0    49     1     4
 -2.7249762519924605E+00 a       965     0    49     1     5
  7.9003820042345219E-01 a       966     0    49     1     6
 -5.2937627680631782E-01 a       967     0    49     1     7
 -7.0981149081456163E-01 a       968     0    49     1     8
  1.0237352715753063E+00 a       969     0    49     1     9
  4.7984912309395383E-01 a       970     0    49     1    10
  9.7055237778952386E-01 a       971     0    49     1    11
 -2.1465419335985660E+00 a       972     0    49     1    12
  3.6807909909633905E+00 a       973     0    49     1    13
 -2.0159472125926428E+00 a       974     0    49     1    14
  6.8671587471406736E-01 a       975     0    49     1    15
  8.5724565783194728E-01 a       976     0    49     1    16
  1.8711789886218617E+00 a       977     0    49     1    17
 -2.7754465275014963E+00 a       978     0    49     1    18
  2.8973479614952167E+00 a       979     0    49     1    19
 -1.6400736833800005E+00 a       980     0    49     1    20
  2.1787346437396554E-01 a       981     0    50     1     1
 -7.9238403816123837E-01 a       982     0    50     1     2
  1.0867713083338344E-01 a       983     0    50     1     3
  5.7821890332517878E-01 a       984     0    50     1     4
 -1.2765608715539631E+00 a       985     0    50     1     5
  4.7641172566684453E-01 a       986     0    50     1     6
  5.4834723191091062E-01 a       987     0    50     1     7
 -8.1476422167163265E-01 a       988     0    50     1     8
  2.6778025117784099E-01 a       989     0    50     1     9
  2.0104408966086187E-01 a       990     0    50     1    10
  2.2939217141248783E-01 a       991     0    50     1    11
  8.4682835242182486E-01 a       992     0    50     1    12
  9.2559814759802728E-01 a       993     0    50     1    13
 -3.8955555368751105E-01 a       994     0    50     1    14
 -7.6876486485550655E-01 a       995     0    50     1    15
  5.2822204666169081E-01 a       996     0    50     1    16
  1.4770369019759750E+00 a       997     0    50     1    17
 -1.3819699526420143E-01 a       998     0    50     1    18
  3.0528448215977777E-01 a       999     0    50     1    19
 -7.6005989700651561E-02 a      1000     0    50     1    20
 -3.9106091289471900E-01 a      1001     0    51     1     1
 -3.4709623464752304E-01 a      1002     0    51     1     2
  4.5452448221998853E-01 a      1003     0    51     1     3
 -1.1267090286078717E-01 a      1004     0    51     1     4
 -5.6999725264892720E-01 a      1005     0    51     1     5
  2.8615639288103006E-01 a      1006     0    51     1     6
 -5.3386416470516573E-01 a      1007     0    51     1     7
  5.2796322186715960E-01 a      1008     0    51     1     8
  3.0897809133621928E-01 a      1009     0    51     1     9
 -3.6445630637464921E-01 a      1010     0    51     1    10
 -8.2909121145855233E-02 a      1011     0    51     1    11
  2.2589647252798481E-01 a      1012     0    51     1    12
 -1.6243320083324122E+00 a      1013     0    51     1    13
  2.9346806843903339E-01 a      1014     0    51     1    14
  2.4336844208634228E-01 a      1015     0    51     1    15
  8.5806099429714200E-01 a      1016     0    51     1    16
 -1.9882532445778145E-01 a      1017     0    51     1    17
 -9.6140992439400796E-01 a      1018     0    51     1    18
  1.1539496235154374E-01 a      1019     0    51     1    19
 -1.7847380285671219E-02 a      1020     0    51     1    20
 -1.3967184789205620E+00 a      1021     0    52     1     1
 -1.0443994937932932E+00 a      1022     0    52     1     2
 -4.5022719416470453E-01 a      1023     0    52     1     3
 -1.2539661934183519E-01 a      1024     0    52     1     4
 -6.7565561657183171E-01 a      1025     0    52     1     5
  9.7578954237509605E-02 a      1026     0    52     1     6
 -1.1481733873538522E+00 a      1027     0    52     1     7
 -2.6387295544348183E-01 a      1028     0    52     1     8
  1.0168180430091835E+00 a      1029     0    52     1     9
 -7.8877230304377599E-01 a      1030     0    52     1    10
  3.8279772062292977E-01 a      1031     0    52     1    11
 -2.5075472717451057E+00 a      1032     0    52     1    12
  1.7213408735958393E+00 a      1033     0    52     1    13
  1.1031528543499421E-02 a      1034     0    52     1    14
  9.7239473876618743E-02 a      1035     0    52     1    15
 -6.3167653455207029E-01 a      1036     0    52     1    16
 -1.2687462699004259E-01 a      1037     0    52     1    17
 -2.7477284557671516E-01 a      1038     0    52     1    18
 -3.1558572701935073E-01 a      1039     0    52     1    19
 -4.6956372101591104E-01 a      1040     0    52     1    20
 -4.7035357886982060E-01 a      1041     0    53     1     1
  1.1579232656564818E-01 a      1042     0    53     1     2
  5.6893334987971245E-01 a      1043     0    53     1     3
 -6.8411735586111322E-01 a      1044     0    53     1     4
 -2.8741062472825080E-01 a      1045     0    53     1     5
 -9.5368565452719239E-02 a      1046     0    53     1     6
 -5.3365119057917565E-01 a      1047     0    53     1     7
 -7.8483882747309730E-01 a      1048     0    53     1     8
  4.3002959672773561E-01 a      1049     0    53     1     9
  4.4518891950364720E-01 a      1050     0    53     1    10
 -3.6372492431056813E-01 a      1051     0    53     1    11
 -3.1561544702601357E-01 a      1052     0    53     1    12
  3.2930288051154694E-01 a      1053     0    53     1    13
 -8.9613163199012066E-02 a      1054     0    53     1    14
  1.2137542862313706E-01 a      1055     0    53     1    15
 -1.7832010196144887E-01 a      1056     0    53     1    16
 -7.2758382830481499E-02 a      1057     0    53     1    17
 -4.7813675740612999E-01 a      1058     0    53     1    18
 -2.1259941925197881E-02 a      1059     0    53     1    19
 -7.8031497547961481E-01 a      1060     0    53     1    20
  6.7536613874824558E-01 a      1061     0    54     1     1
  2.8006850308001846E-01 a      1062     0    54     1     2
  5.4801290282117654E-01 a      1063     0    54     1     3
 -2.2186179365418812E-01 a      1064     0    54     1     4
 -2.4259277000681331E-01 a      1065     0    54     1     5
  6.4628580805975749E-02 a      1066     0    54     1     6
 -1.8337787176641598E-01 a      1067     0    54     1     7
 -1.2274416934721666E-01 a      1068     0    54     1     8
 -9.3992558833347575E-02 a      1069     0    54     1     9
  5.1463762786420586E-01 a      1070     0    54     1    10
 -1.6497981793513944E-01 a      1071     0    54     1    11
  4.7375297997876287E-01 a      1072     0    54     1    12
 -1.0660190026581884E-01 a      1073     0    54     1    13
 -1.4346357678377974E-01 a      1074     0    54     1    14
 -2.6422415666598292E-01 a      1075     0    54     1    15
  6.5771954819071735E-02 a      1076     0    54     1    16
  4.8972418880583002E-01 a      1077     0    54     1    17
  3.4719825017225492E-01 a      1078     0    54     1    18
  8.5970373602839423E-01 a      1079     0    54     1    19
  5.1154153820394266E-01 a      1080     0    54     1    20
 -9.5907892121928476E-02 a      1081     0    55     1     1
 -5.5012709454949171E-01 a      1082     0    55     1     2
 -3.7280683207885086E-02 a      1083     0    55     1     3
 -2.8323969625312928E-01 a      1084     0    55     1     4
 -7.2144496203177655E-01 a      1085     0    55     1     5
 -8.6412182156485939E-01 a      1086     0    55     1     6
  1.1653389948977184E+00 a      1087     0    55     1     7
 -1.3870543356628642E+00 a      1088     0    55     1     8
  6.2666703940553958E-02 a      1089     0    55     1     9
  5.6802147645111056E-01 a      1090     0    55     1    10
  1.4155495689706696E+00 a      1091     0    55     1    11
 -1.0663036913622499E+00 a      1092     0    55     1    12
  9.1594388555445760E-01 a      1093     0    55     1    13
 -2.0426010279476819E-01 a      1094     0    55     1    14
  8.4730726152113833E-01 a      1095     0    55     1    15
  4.2482102977551950E-02 a      1096     0    55     1    16
  4.2865738861085850E-01 a      1097     0    55     1    17
 -1.6009063328282178E+00 a      1098     0    55     1    18
  1.5702073268779526E+00 a      1099     0    55     1    19
 -9.4367753541652644E-01 a      1100     0    55     1    20
  9.3324033365083092E-01 a      1101     0    56     1     1
  1.2026069790955374E+00 a      1102     0    56     1     2
  2.2971970368619191E-01 a      1103     0    56     1     3
  5.3411342663283601E-01 a      1104     0    56     1     4
  9.8752403435942593E-01 a      1105     0    56     1     5
  8.3256358433321017E-03 a      1106     0    56     1     6
  6.3875091209185686E-01 a      1107     0    56     1     7
 -1.7656913245099690E-01 a      1108     0    56     1     8
 -1.1229242301476577E-01 a      1109     0    56     1     9
 -4.1078703634920152E-02 a      1110     0    56     1    10
  3.2895338308178268E-01 a      1111     0    56     1    11
  9.1146954811079359E-02 a      1112     0    56     1    12
 -2.7569164123080844E-02 a      1113     0    56     1    13
  6.9282354016743181E-02 a      1114     0    56     1    14
 -4.7537669605234928E-01 a      1115     0    56     1    15
  2.2927522907418452E-01 a      1116     0    56     1    16
 -2.2388405992372543E-01 a      1117     0    56     1    17
  1.0662945276196485E+00 a      1118     0    56     1    18
 -5.5367385926991908E-01 a      1119     0    56     1    19
  7.6545066805387141E-02 a      1120     0    56     1    20
  3.1837711848635024E+00 a      1121     0    57     1     1
  2.0457844141366093E+00 a      1122     0    57     1     2
  1.9971122259504872E+00 a      1123     0    57     1     3
  2.1706853392703124E-01 a      1124     0    57     1     4
  2.0416895106887449E+00 a      1125     0    57     1     5
 -2.5893547112689190E+00 a      1126     0    57     1     6
  2.4021095354528827E+00 a      1127     0    57     1     7
 -4.3345153655460242E+00 a      1128     0    57     1     8
  1.8679537351640803E+00 a      1129     0    57     1     9
  1.8413159773027155E+00 a      1130     0    57     1    10
 -3.6128753445803077E+00 a      1131     0    57     1    11
  2.5278405599806137E+00 a      1132     0    57     1    12
 -4.8551561015168421E-01 a      1133     0    57     1    13
  3.5473772420738001E+00 a      1134     0    57     1    14
  1.5942936290865897E+00 a      1135     0    57     1    15
  6.6048164661540412E-02 a      1136     0    57     1    16
 -3.5932944623848558E-02 a      1137     0    57     1    17
 -2.4894762866155271E+00 a      1138     0    57     1    18
 -1.3023072115974084E+00 a      1139     0    57     1    19
  3.6618008361715204E+00 a      1140     0    57     1    20
  2.0649170758675464E+00 a      1141     0    58     1     1
 -1.0738637143134910E+00 a      1142     0    58     1     2
  1.0501470555302241E+00 a      1143     0    58     1     3
  2.5384503968547132E+00 a      1144     0    58     1     4
 -2.3886586577250175E+00 a      1145     0    58     1     5
  1.1991419484717607E+00 a      1146     0    58     1     6
  5.7510381734766403E-01 a      1147     0    58     1     7
  2.3797946255398323E+00 a      1148     0    58     1     8
  2.0314825943257886E+00 a      1149     0    58     1     9
 -1.3525617577388438E+00 a      1150     0    58     1    10
  9.3697950394424623E-01 a      1151     0    58     1    11
  1.0516710894568353E+00 a      1152     0    58     1    12
 -1.1013852788061995E+00 a      1153     0    58     1    13
 -1.7037625504617853E+00 a      1154     0    58     1    14
 -9.2405561564191863E-01 a      1155     0    58     1    15
 -2.1390588450919990E+00 a      1156     0    58     1    16
  3.3071152653047625E-01 a      1157     0    58     1    17
  1.9125041245914304E-01 a      1158     0    58     1    18
 -3.0840256325201532E+00 a      1159     0    58     1    19
 -1.2806068369531558E+00 a      1160     0    58     1    20
 -1.4019705225191126E+00 a      1161     0    59     1     1
  5.0777918296073743E-01 a      1162     0    59     1     2
  2.0919914712216769E+00 a      1163     0    59     1     3
  5.5681513718168547E-02 a      1164     0    59     1     4
 -7.9373127515652253E-01 a      1165     0    59     1     5
 -1.0705879794505921E+00 a      1166     0    59     1     6
  2.4320673609133858E+00 a      1167     0    59     1     7
 -9.8599165474316930E-01 a      1168     0    59     1     8
 -9.8192372972421016E-01 a      1169     0    59     1     9
 -1.4257709284057718E+00 a      1170     0    59     1    10
  1.5387874550758200E+00 a      1171     0    59     1    11
 -1.7814916138965886E+00 a      1172     0    59     1    12
  8.9426968686071939E-01 a      1173     0    59     1    13
 -4.0259151086230716E-01 a      1174     0    59     1    14
 -1.9050550887656714E+00 a      1175     0    59     1    15
 -1.2297087562548101E+00 a      1176     0    59     1    16
  9.1026137274718633E-01 a      1177     0    59     1    17
  3.9971640619926485E+00 a      1178     0    59     1    18
  1.3252122386860973E-01 a      1179     0    59     1    19
 -2.5836428137066565E+00 a      1180     0    59     1    20
 -1.7224852654903930E+00 a      1181     0    60     1     1
  9.8413040730624635E-01 a      1182     0    60     1     2
  2.3765682341375877E-01 a      1183     0    60     1     3
  3.6773060711467220E-01 a      1184     0    60     1     4
 -2.7575298174589511E+00 a      1185     0    60     1     5
  3.3198986897225413E-01 a      1186     0    60     1     6
  3.7577518421341688E-01 a      1187     0    60     1     7
 -2.0889802037621070E+00 a      1188     0    60     1     8
 -3.8307341496727920E-01 a      1189     0    60     1     9
 -2.2249120685801365E+00 a      1190     0    60     1    10
  4.6621962800293004E-01 a      1191     0    60     1    11
 -5.7340882239072122E-01 a      1192     0    60     1    12
  9.6019017394808792E-01 a      1193     0    60     1    13
  9.8879620574265603E-01 a      1194     0    60     1    14
 -1.9116392591191549E+00 a      1195     0    60     1    15
 -1.7751944711451799E+00 a      1196     0    60     1    16
 -1.2636213402335312E+00 a      1197     0    60     1    17
  1.0566966856501985E+00 a      1198     0    60     1    18
 -6.7514731658063054E-01 a      1199     0    60     1    19
  9.2243453828653721E-01 a      1200     0    60     1    20
 -1.4064259138241002E+00 a      1201     0    61     1     1
  1.3879319626266562E+00 a      1202     0    61     1     2
  9.6257431187605089E-02 a      1203     0    61     1     3
  1.2658097564346295E-03 a      1204     0    61     1     4
 -2.9520191422140851E-01 a      1205     0    61     1     5
 -5.7189573089121171E-01 a      1206     0    61     1     6
  1.0704545177574110E+00 a      1207     0    61     1     7
  7.1726491434371675E-01 a      1208     0    61     1     8
  2.3735377180730381E+00 a      1209     0    61     1     9
 -1.3211280481972005E+00 a      1210     0    61     1    10
  1.5015173116348572E+00 a      1211     0    61     1    11
 -4.9002099883548061E-01 a      1212     0    61     1    12
  8.7954665336023408E-01 a      1213     0    61     1    13
  2.1803510088883362E+00 a      1214     0    61     1    14
 -1.1491006413763738E+00 a      1215     0    61     1    15
  8.4658277026656514E-01 a      1216     0    61     1    16
 -7.0543905554929387E-01 a      1217     0    61     1    17
  3.3051522815098977E+00 a      1218     0    61     1    18
  1.0425950489638587E+00 a      1219     0    61     1    19
 -1.3522472603779978E+00 a      1220     0    61     1    20
 -3.0225376568167345E-01 a      1221     0    62     1     1
  2.2385085572995087E+00 a      1222     0    62     1     2
  1.0102625772339411E+00 a      1223     0    62     1     3
 -4.1638819937875855E+00 a      1224     0    62     1     4
 -3.2700178045989197E+00 a      1225     0    62     1     5
  2.9554179221795496E-01 a      1226     0    62     1     6
  1.1246712530454832E+00 a      1227     0    62     1     7
  2.0585266237703062E+00 a      1228     0    62     1     8
 -1.1270914907201117E+00 a      1229     0    62     1     9
  2.6423575582843783E+00 a      1230     0    62     1    10
  8.4078799131791826E-01 a      1231     0    62     1    11
  8.9178425827357452E-02 a      1232     0    62     1    12
  3.7388648492376908E+00 a      1233     0    62     1    13
  3.0776681881715345E-01 a      1234     0    62     1    14
  2.0849076715074504E+00 a      1235     0    62     1    15
 -1.3316410336180449E+00 a      1236     0    62     1    16
  1.7643440040967620E+00 a      1237     0    62     1    17
 -2.2462867999427969E+00 a      1238     0    62     1    18
  2.7039443710446167E+00 a      1239     0    62     1    19
  2.1473313888387482E+00 a      1240     0    62     1    20
  1.8196499075606793E+00 a      1241     0    63     1     1
 -1.2144728028707437E+00 a      1242     0    63     1     2
  6.5687268314437686E-01 a      1243     0    63     1     3
  2.0700961269986409E+00 a      1244     0    63     1     4
 -2.0937331503733470E+00 a      1245     0    63     1     5
  1.2423770215587466E+00 a      1246     0    63     1     6
  4.0737579015735034E-02 a      1247     0    63     1     7
  2.4803588762511883E+00 a      1248     0    63     1     8
  1.4464079425877123E+00 a      1249     0    63     1     9
 -1.2564069746485478E+00 a      1250     0    63     1    10
  9.7882580404102226E-01 a      1251     0    63     1    11
  1.0058837297444179E+00 a      1252     0    63     1    12
 -1.3599944185385984E+00 a      1253     0    63     1    13
 -1.4477394458947777E+00 a      1254     0    63     1    14
 -9.5612085061535745E-01 a      1255     0    63     1    15
 -1.9128814049056699E+00 a      1256     0    63     1    16
  3.6534981364569541E-01 a      1257     0    63     1    17
  1.9315109636865382E-01 a      1258     0    63     1    18
 -2.9387837717133820E+00 a      1259     0    63     1    19
 -1.0569344501582365E+00 a      1260     0    63     1    20
 -1.6442401016166870E+00 a      1261     0    64     1     1
  9.9717277817950756E-02 a      1262     0    64     1     2
  1.3170247447100345E+00 a      1263     0    64     1     3
 -3.5200386491300512E-01 a      1264     0    64     1     4
 -3.8412920039904458E-01 a      1265     0    64     1     5
 -1.1705654111393387E+00 a      1266     0    64     1     6
  1.7315778043639061E+00 a      1267     0    64     1     7
 -1.1026074874250293E+00 a      1268     0    64     1     8
 -1.3284763402502420E+00 a      1269     0    64     1     9
 -1.3533769441847026E+00 a      1270     0    64     1    10
  1.1897448545958302E+00 a      1271     0    64     1    11
 -2.2071687554521997E+00 a      1272     0    64     1    12
  1.0771293242545004E+00 a      1273     0    64     1    13
 -3.9676097624715712E-01 a      1274     0    64     1    14
 -1.3974430259537498E+00 a      1275     0    64     1    15
 -1.1848460008144182E+00 a      1276     0    64     1    16
  6.1727176326757638E-01 a      1277     0    64     1    17
  3.1200993162262938E+00 a      1278     0    64     1    18
  6.3982107445442993E-01 a      1279     0    64     1    19
 -2.4296275529606861E+00 a      1280     0    64     1    20
 -1.0004430615575339E+00 a      1281     0    65     1     1
  1.1988131214025670E+00 a      1282     0    65     1     2
 -1.4533905678763626E-01 a      1283     0    65     1     3
 -4.4676159912543473E-01 a      1284     0    65     1     4
  1.4134845587219552E-01 a      1285     0    65     1     5
 -6.6447784691286127E-01 a      1286     0    65     1     6
  8.9754886666006040E-01 a      1287     0    65     1     7
  3.6119213860586291E-01 a      1288     0    65     1     8
  1.9415666861313023E+00 a      1289     0    65     1     9
 -1.1272257417420075E+00 a      1290     0    65     1    10
  1.1543385643400668E+00 a      1291     0    65     1    11
 -3.1498018707462616E-01 a      1292     0    65     1    12
  9.7903293149455861E-01 a      1293     0    65     1    13
  2.0899775341213531E+00 a      1294     0    65     1    14
 -9.5969727220071288E-01 a      1295     0    65     1    15
  1.2192302817614298E+00 a      1296     0    65     1    16
 -6.5577878150657054E-01 a      1297     0    65     1    17
  2.4949594135805020E+00 a      1298     0    65     1    18
  1.1016939813278999E+00 a      1299     0    65     1    19
 -1.2407340534588294E+00 a      1300     0    65     1    20
  1.3725269074449356E-01 a      1301     0    66     1     1
  2.2268157033078952E+00 a      1302     0    66     1     2
  1.2358309479949705E+00 a      1303     0    66     1     3
 -4.2353326350454781E+00 a      1304     0    66     1     4
 -2.8519124671840141E+00 a      1305     0    66     1     5
  2.2488800575998055E-01 a      1306     0    66     1     6
  1.6872226399144707E+00 a      1307     0    66     1     7
  1.6797060539174162E+00 a      1308     0    66     1     8
 -1.9889973867241333E+00 a      1309     0    66     1     9
  2.8250555609134000E+00 a      1310     0    66     1    10
  8.6495615545899718E-01 a      1311     0    66     1    11
  6.9555049575866101E-01 a      1312     0    66     1    12
  3.3833863416595209E+00 a      1313     0    66     1    13
  1.7847454207027871E-01 a      1314     0    66     1    14
  1.9662955672225257E+00 a      1315     0    66     1    15
 -2.3902723552359106E-01 a      1316     0    66     1    16
  1.7918885068619208E+00 a      1317     0    66     1    17
 -2.8462873422750654E+00 a      1318     0    66     1    18
  3.3006191079845180E+00 a      1319     0    66     1    19
  2.6423765393020937E+00 a      1320     0    66     1    20
  1.6454494771246260E+00 a      1321     0    67     1     1
 -1.1756665371816475E+00 a      1322     0    67     1     2
 -2.3102211286401945E-02 a      1323     0    67     1     3
  1.7790250702098760E+00 a      1324     0    67     1     4
 -1.5839910722664636E+00 a      1325     0    67     1     5
  1.1462385143607132E+00 a      1326     0    67     1     6
 -9.2229150161305873E-01 a      1327     0    67     1     7
  2.6300223855800269E+00 a      1328     0    67     1     8
  6.0009378255112567E-01 a      1329     0    67     1     9
 -7.0415658834432626E-01 a      1330     0    67     1    10
  6.7285616225786304E-01 a      1331     0    67     1    11
  9.6069578514966536E-01 a      1332     0    67     1    12
 -1.2369745955949252E+00 a      1333     0    67     1    13
 -1.5154542921926293E+00 a      1334     0    67     1    14
 -6.2040635859617332E-01 a      1335     0    67     1    15
 -1.6753986744888363E+00 a      1336     0    67     1    16
  7.5544716187775099E-02 a      1337     0    67     1    17
 -4.0833023911115363E-01 a      1338     0    67     1    18
 -2.1906898966883630E+00 a      1339     0    67     1    19
 -9.0046777051757065E-01 a      1340     0    67     1    20
  6.1650638770780275E-01 a      1341     0    68     1     1
 -1.7319641362659299E+00 a      1342     0    68     1     2
  1.3561447140762406E+00 a      1343     0    68     1     3
 -2.0893140718087251E+00 a      1344     0    68     1     4
  8.1763076947513280E-01 a      1345     0    68     1     5
 -1.4726774821252555E+00 a      1346     0    68     1     6
  3.1006400373343440E-01 a      1347     0    68     1     7
  1.6436329905158031E-01 a      1348     0    68     1     8
  2.5546827177328302E+00 a      1349     0    68     1     9
  1.0380044261949877E+00 a      1350     0    68     1    10
 -9.4653699791251864E-02 a      1351     0    68     1    11
 -1.0768885106129855E+00 a      1352     0    68     1    12
  2.1217740481803764E+00 a      1353     0    68     1    13
  1.3047659262050033E+00 a      1354     0    68     1    14
 -1.9338955640257811E+00 a      1355     0    68     1    15
  1.8082933097052312E+00 a      1356     0    68     1    16
 -3.1020728348141574E-01 a      1357     0    68     1    17
  3.9143833219081334E+00 a      1358     0    68     1    18
  2.5949513768215531E+00 a      1359     0    68     1    19
 -8.7672912074726869E-02 a      1360     0    68     1    20
 -1.7308321502898283E+00 a      1361     0    69     1     1
 -4.7616878568471610E-01 a      1362     0    69     1     2
  5.5957167256098249E-02 a      1363     0    69     1     3
 -9.4667921397542387E-01 a      1364     0    69     1     4
 -5.6288936082904528E-02 a      1365     0    69     1     5
 -1.3385346574541450E+00 a      1366     0    69     1     6
  4.4364691112228682E-01 a      1367     0    69     1     7
 -1.0519661261069044E+00 a      1368     0    69     1     8
 -2.2142805218207444E+00 a      1369     0    69     1     9
 -8.7740766192881281E-01 a      1370     0    69     1    10
  9.5889854533819763E-01 a      1371     0    69     1    11
 -2.4700189376736890E+00 a      1372     0    69     1    12
  1.1753735017680209E+00 a      1373     0    69     1    13
 -4.6633950100795607E-01 a      1374     0    69     1    14
 -3.4129722022144182E-01 a      1375     0    69     1    15
 -1.1207297694642182E+00 a      1376     0    69     1    16
  1.1076550096561525E-03 a      1377     0    69     1    17
  1.2436006350231104E+00 a      1378     0    69     1    18
  1.1864118615427810E+00 a      1379     0    69     1    19
 -1.9434130105753571E+00 a      1380     0    69     1    20
 -3.6719927334276209E-01 a      1381     0    70     1     1
  4.9117529505363378E-01 a      1382     0    70     1     2
 -6.3297936385043840E-01 a      1383     0    70     1     3
 -4.6863266260118402E-01 a      1384     0    70     1     4
  5.4132177030776596E-01 a      1385     0    70     1     5
 -6.7141518452707760E-01 a      1386     0    70     1     6
  3.8188242427217789E-01 a      1387     0    70     1     7
 -4.9950897761890212E-01 a      1388     0    70     1     8
  1.1757370996712999E+00 a      1389     0    70     1     9
 -1.3584208965246439E-01 a      1390     0    70     1    10
  9.6312558120305991E-01 a      1391     0    70     1    11
 -1.2886728804879766E-01 a      1392     0    70     1    12
  7.1690269169320087E-01 a      1393     0    70     1    13
  1.7178788602817714E+00 a      1394     0    70     1    14
 -1.2594337538706907E-01 a      1395     0    70     1    15
  1.3793159169960911E+00 a      1396     0    70     1    16
 -9.1521231046572060E-01 a      1397     0    70     1    17
  9.5555300955328826E-01 a      1398     0    70     1    18
  1.3228871931562478E+00 a      1399     0    70     1    19
 -7.7428422547747977E-01 a      1400     0    70     1    20
  1.2828790015185898E+00 a      1401     0    71     1     1
  2.5731184289208633E+00 a      1402     0    71     1     2
  1.4289824429807649E+00 a      1403     0    71     1     3
 -4.5825360599830436E+00 a      1404     0    71     1     4
 -2.7242906474517845E+00 a      1405     0    71     1     5
  6.2312483148796505E-01 a      1406     0    71     1     6
  2.3545262356221039E+00 a      1407     0    71     1     7
  6.6631037736699528E-01 a      1408     0    71     1     8
 -3.5428421527854721E+00 a      1409     0    71     1     9
  3.3227293530948452E+00 a      1410     0    71     1    10
  1.3041880434142215E+00 a      1411     0    71     1    11
  2.6850786978453249E+00 a      1412     0    71     1    12
  2.8420769572061895E+00 a      1413     0    71     1    13
 -2.8404202711232013E-01 a      1414     0    71     1    14
  1.2422840157542316E+00 a      1415     0    71     1    15
  1.5038759224569871E+00 a      1416     0    71     1    16
  2.5666723460495815E+00 a      1417     0    71     1    17
 -3.0533815346322921E+00 a      1418     0    71     1    18
  4.1193177662764526E+00 a      1419     0    71     1    19
  3.7901825813376511E+00 a      1420     0    71     1    20
  1.3523438483424755E+00 a      1421     0    72     1     1
 -1.4773860652483493E+00 a      1422     0    72     1     2
 -7.0942660791120216E-01 a      1423     0    72     1     3
  9.8957517885604640E-01 a      1424     0    72     1     4
 -6.9918045017346031E-01 a      1425     0    72     1     5
  1.3363661587731090E+00 a      1426     0    72     1     6
 -2.6992889626271523E+00 a      1427     0    72     1     7
  2.7550450634991521E+00 a      1428     0    72     1     8
 -7.1476701853499647E-01 a      1429     0    72     1     9
 -2.7625299923893909E-01 a      1430     0    72     1    10
  2.3343793426217127E-01 a      1431     0    72     1    11
  1.1824580969320373E+00 a      1432     0    72     1    12
 -1.3559431594132700E+00 a      1433     0    72     1    13
 -1.8248819339592686E+00 a      1434     0    72     1    14
 -4.2210737153387756E-01 a      1435     0    72     1    15
 -8.1343124309329362E-01 a      1436     0    72     1    16
 -6.7637164415421835E-01 a      1437     0    72     1    17
 -1.5733681852076506E+00 a      1438     0    72     1    18
 -1.2393218756438138E+00 a      1439     0    72     1    19
 -3.4418927813394512E-01 a      1440     0    72     1    20
  1.4720190818692780E+00 a      1441     0    73     1     1
 -1.3417722728907471E+00 a      1442     0    73     1     2
  1.1749858792089810E-01 a      1443     0    73     1     3
 -1.7495411262270570E+00 a      1444     0    73     1     4
  2.0288260707973276E+00 a      1445     0    73     1     5
 -1.4984374409228067E+00 a      1446     0    73     1     6
 -8.8605952222552720E-01 a      1447     0    73     1     7
  3.1931970098124923E-01 a      1448     0    73     1     8
  1.1088089595782269E+00 a      1449     0    73     1     9
  7.6256626522378324E-01 a      1450     0    73     1    10
 -7.2465171851801258E-01 a      1451     0    73     1    11
 -1.0331285125085898E-01 a      1452     0    73     1    12
 -2.5177949197786909E-01 a      1453     0    73     1    13
  9.1009588568608424E-01 a      1454     0    73     1    14
 -4.4236075924710055E-01 a      1455     0    73     1    15
  2.1196492134605864E+00 a      1456     0    73     1    16
 -1.3710442867691373E+00 a      1457     0    73     1    17
  6.7572264154409867E-01 a      1458     0    73     1    18
  1.6634957975989668E+00 a      1459     0    73     1    19
  1.3726740108968560E+00 a      1460     0    73     1    20
  8.5585885207879919E-01 a      1461     0    74     1     1
 -1.6746048390447821E-01 a      1462     0    74     1     2
 -1.2511650349130887E+00 a      1463     0    74     1     3
 -6.9546254953093900E-01 a      1464     0    74     1     4
  9.0328900843612647E-01 a      1465     0    74     1     5
 -7.8959374621523304E-01 a      1466     0    74     1     6
  9.9219975857299837E-03 a      1467     0    74     1     7
 -1.6444140380893202E+00 a      1468     0    74     1     8
 -2.4189343598795243E-01 a      1469     0    74     1     9
  9.9729645173230586E-01 a      1470     0    74     1    10
  2.8117759248473351E-01 a      1471     0    74     1    11
  1.4319009406691960E-01 a      1472     0    74     1    12
  1.0706658128104134E-01 a      1473     0    74     1    13
  9.8450696343638444E-01 a      1474     0    74     1    14
  8.7642498407853497E-01 a      1475     0    74     1    15
  1.1431934754563198E+00 a      1476     0    74     1    16
 -1.3152697487618215E+00 a      1477     0    74     1    17
 -1.6876248222844104E+00 a      1478     0    74     1    18
  4.9998767861120591E-01 a      1479     0    74     1    19
  3.0967673197797563E-01 a      1480     0    74     1    20
 -3.0095242558088366E+00 a      1481     0    75     1     1
 -5.5207307494748936E-01 a      1482     0    75     1     2
 -2.7771862605790529E+00 a      1483     0    75     1     3
 -1.6868653363778394E+00 a      1484     0    75     1     4
  1.6302686993076559E-01 a      1485     0    75     1     5
 -4.5378360745381585E-01 a      1486     0    75     1     6
 -4.8946627106474443E+00 a      1487     0    75     1     7
  4.1147852164726508E+00 a      1488     0    75     1     8
  9.2447389332269170E-01 a      1489     0    75     1     9
 -4.2768734640525781E-02 a      1490     0    75     1    10
  2.6400241107317139E+00 a      1491     0    75     1    11
 -4.3910172936384653E+00 a      1492     0    75     1    12
  2.2514461181975842E+00 a      1493     0    75     1    13
 -2.5137650653295642E+00 a      1494     0    75     1    14
 -1.3585089654270717E+00 a      1495     0    75     1    15
  9.2089300493080395E-01 a      1496     0    75     1    16
  8.9449112807853670E-01 a      1497     0    75     1    17
  2.9245741177448492E+00 a      1498     0    75     1    18
  5.7155669776023492E+00 a      1499     0    75     1    19
 -4.0440497731416727E+00 a      1500     0    75     1    20
  1.1735373026951328E+00 a      1501     0    76     1     1
 -1.1604088478723777E+00 a      1502     0    76     1     2
 -1.7974481924658889E+00 a      1503     0    76     1     3
  1.0876118588738679E+00 a      1504     0    76     1     4
  1.3199289129245080E+00 a      1505     0    76     1     5
  1.9945308327067097E+00 a      1506     0    76     1     6
 -4.0378159835767935E+00 a      1507     0    76     1     7
  2.7134877489559313E+00 a      1508     0    76     1     8
 -2.3234633626019194E+00 a      1509     0    76     1     9
  5.2410113296943950E-01 a      1510     0    76     1    10
 -5.2822212342471087E-01 a      1511     0    76     1    11
  1.4954371114783414E+00 a      1512     0    76     1    12
 -1.2744227020248053E+00 a      1513     0    76     1    13
 -1.2842511637358731E+00 a      1514     0    76     1    14
 -1.1682768398176033E+00 a      1515     0    76     1    15
 -3.1217104764205367E-01 a      1516     0    76     1    16
 -1.1574989458471636E+00 a      1517     0    76     1    17
 -1.6061923340794990E+00 a      1518     0    76     1    18
 -1.1095237696383937E+00 a      1519     0    76     1    19
 -7.4405505842263617E-02 a      1520     0    76     1    20
  2.7319213272878868E+00 a      1521     0    77     1     1
 -1.5530557409626857E+00 a      1522     0    77     1     2
 -2.1330431794439697E+00 a      1523     0    77     1     3
 -2.8555765697870333E-01 a      1524     0    77     1     4
  2.1209446779763490E+00 a      1525     0    77     1     5
 -9.2757784212345734E-02 a      1526     0    77     1     6
 -8.4318314420338725E-01 a      1527     0    77     1     7
 -2.9686984806912049E+00 a      1528     0    77     1     8
 -1.9799850015461660E+00 a      1529     0    77     1     9
  2.4085473286222214E+00 a      1530     0    77     1    10
 -9.7812822992750204E-01 a      1531     0    77     1    11
  8.6500183989861923E-01 a      1532     0    77     1    12
 -1.1297310663197027E+00 a      1533     0    77     1    13
  2.5615442984651765E-01 a      1534     0    77     1    14
  1.6756693204047872E+00 a      1535     0    77     1    15
  7.9071744057939952E-01 a      1536     0    77     1    16
 -1.8926099005301480E+00 a      1537     0    77     1    17
 -4.2289930309629584E+00 a      1538     0    77     1    18
 -1.2641430385704406E+00 a      1539     0    77     1    19
  1.6767815595017566E+00 a      1540     0    77     1    20
 -4.5990039534972174E-02 a      1541     0    78     1     1
  2.4468822646429453E+00 a      1542     0    78     1     2
 -7.9593992175835082E-01 a      1543     0    78     1     3
  5.2445731001735041E-01 a      1544     0    78     1     4
  1.8607545769742135E+00 a      1545     0    78     1     5
 -2.1729410888693588E+00 a      1546     0    78     1     6
 -1.4646668658930326E+00 a      1547     0    78     1     7
 -4.9374321629540709E+00 a      1548     0    78     1     8
  3.4539202328295850E+00 a      1549     0    78     1     9
  1.2604888474468841E+00 a      1550     0    78     1    10
 -1.6671588272211533E+00 a      1551     0    78     1    11
 -8.5801073217249391E-01 a      1552     0    78     1    12
 -1.8382994662179103E-01 a      1553     0    78     1    13
  2.4846988468819537E+00 a      1554     0    78     1    14
  2.2841796766422184E-01 a      1555     0    78     1    15
  9.4823295251024098E-01 a      1556     0    78     1    16
  8.2919104588056947E-01 a      1557     0    78     1    17
  2.0370313166284002E+00 a      1558     0    78     1    18
  1.1155909369982759E+00 a      1559     0    78     1    19
  1.8169263679588670E+00 a      1560     0    78     1    20
 -5.5532183170869727E-02 a      1561     0    79     1     1
 -8.5003480708646784E-01 a      1562     0    79     1     2
  1.5483975608835723E-01 a      1563     0    79     1     3
  2.4383233482814246E+00 a      1564     0    79     1     4
  2.6056287187820417E+00 a      1565     0    79     1     5
  3.1918682713927011E+00 a      1566     0    79     1     6
 -2.3564245312599086E+00 a      1567     0    79     1     7
  1.2870531894837469E+00 a      1568     0    79     1     8
 -1.6553797136561412E+00 a      1569     0    79     1     9
 -2.4603276149105310E-01 a      1570     0    79     1    10
 -1.1028282788790866E+00 a      1571     0    79     1    11
  1.4606329870537014E+00 a      1572     0    79     1    12
 -3.5124292555349587E-02 a      1573     0    79     1    13
 -1.9250695441738064E-01 a      1574     0    79     1    14
 -2.4790352779687423E+00 a      1575     0    79     1    15
  2.4844261330152914E-01 a      1576     0    79     1    16
 -1.1319177314117896E+00 a      1577     0    79     1    17
  5.7818881849620729E-01 a      1578     0    79     1    18
 -2.2614432463451655E+00 a      1579     0    79     1    19
 -1.3795354060167695E+00 a      1580     0    79     1    20
  1.6255820786010047E+00 a      1581     0    80     1     1
  2.7320677590653952E-01 a      1582     0    80     1     2
  1.8253521570751499E+00 a      1583     0    80     1     3
  1.0393756455233467E+00 a      1584     0    80     1     4
 -1.5868511493500728E-01 a      1585     0    80     1     5
  4.4238709641893159E-01 a      1586     0    80     1     6
  1.0776606387477183E+00 a      1587     0    80     1     7
  1.7183202623299254E+00 a      1588     0    80     1     8
 -4.3422332482134313E-01 a      1589     0    80     1     9
 -8.0663614792039928E-01 a      1590     0    80     1    10
  6.7115404177072746E-01 a      1591     0    80     1    11
 -1.1606133966256440E+00 a      1592     0    80     1    12
 -3.0953587203471438E+00 a      1593     0    80     1    13
 -1.9711389541967255E+00 a      1594     0    80     1    14
 -2.8274305543808159E-01 a      1595     0    80     1    15
 -1.0056751415035290E+00 a      1596     0    80     1    16
 -2.7211565865556325E-01 a      1597     0    80     1    17
  5.8448715693910566E-03 a      1598     0    80     1    18
 -2.7948448075411414E+00 a      1599     0    80     1    19
 -2.5618556791508507E+00 a      1600     0    80     1    20
 -1.9828389178352162E+00 a      1601     0    81     1     1
  2.6701789467059678E+00 a      1602     0    81     1     2
  2.9620833023155657E-01 a      1603     0    81     1     3
  4.2151733804175318E-01 a      1604     0    81     1     4
 -1.9766989923661284E+00 a      1605     0    81     1     5
  1.5754333760291028E+00 a      1606     0    81     1     6
 -2.9317810283225193E-01 a      1607     0    81     1     7
 -1.4714187141868185E+00 a      1608     0    81     1     8
  1.1681225574468163E-01 a      1609     0    81     1     9
 -1.3842781497637997E+00 a      1610     0    81     1    10
  4.9449668063402191E-01 a      1611     0    81     1    11
 -6.1988565476680513E-01 a      1612     0    81     1    12
 -1.8192417491720170E+00 a      1613     0    81     1    13
 -1.7220293697578370E-01 a      1614     0    81     1    14
 -1.8640870929389881E+00 a      1615     0    81     1    15
  4.5004805569877110E-01 a      1616     0    81     1    16
  5.6577023702834672E-01 a      1617     0    81     1    17
 -1.0176225068598990E+00 a      1618     0    81     1    18
 -3.7929180371788057E-01 a      1619     0    81     1    19
 -1.4389472877182538E-01 a      1620     0    81     1    20
  1.8252437311886174E+00 a      1621     0    82     1     1
  4.3579595571218671E-01 a      1622     0    82     1     2
 -7.4517703310033256E-01 a      1623     0    82     1     3
