################################################################################
# Neural network connection values (weights and biases).
################################################################################
# Col  Name       Description
################################################################################
# 1    connection Neural network connection value.
# 2    t          Connection type (a = weight, b = bias).
# 3    index      Index enumerating weights.
# 4    l_s        Starting point layer (end point layer for biases).
# 5    n_s        Starting point neuron in starting layer (end point neuron for biases).
# 6    l_e        End point layer.
# 7    n_e        End point neuron in end layer.
################################################################################
#                      1 2         3     4     5     6     7
#             connection t     index   l_s   n_s   l_e   n_e
############################################################
 -1.7628344063690132E-01 a         1     0     1     1     1
 -5.9257201955490868E-01 a         2     0     1     1     2
 -2.6722050882562742E-01 a         3     0     1     1     3
  4.3987630588809562E-01 a         4     0     1     1     4
 -1.4588466742767575E-01 a         5     0     1     1     5
 -5.2931744462228902E-01 a         6     0     1     1     6
 -1.9432239739024446E-01 a         7     0     1     1     7
  2.7533016635796642E-01 a         8     0     1     1     8
 -2.9782626183248601E-01 a         9     0     1     1     9
 -2.8581729491771340E-01 a        10     0     1     1    10
 -1.1614738492189036E-01 a        11     0     1     1    11
  4.6159762624333656E-01 a        12     0     1     1    12
  1.5312521674101118E-01 a        13     0     1     1    13
 -4.2280577463143043E-01 a        14     0     1     1    14
  1.6744202696576990E-01 a        15     0     1     1    15
 -3.1277785983730400E-01 a        16     0     1     1    16
  2.2730275739163811E-02 a        17     0     1     1    17
  3.7108504809069132E-02 a        18     0     1     1    18
 -8.5451669989237464E-02 a        19     0     1     1    19
  2.4254690274954702E-01 a        20     0     1     1    20
  1.7556285035335586E-02 a        21     0     2     1     1
 -3.8483954075415994E-01 a        22     0     2     1     2
  1.8330654408179509E-01 a        23     0     2     1     3
 -7.8010738527393264E-02 a        24     0     2     1     4
  1.2143900480376607E-02 a        25     0     2     1     5
  4.9612416841436263E-01 a        26     0     2     1     6
  8.1946426458633800E-02 a        27     0     2     1     7
  6.3786220714605643E-02 a        28     0     2     1     8
  3.2357507718987527E-01 a        29     0     2     1     9
  7.4173170329783461E-02 a        30     0     2     1    10
 -3.4648949175884769E-01 a        31     0     2     1    11
 -1.4421014196915255E-01 a        32     0     2     1    12
 -4.2174641550991954E-01 a        33     0     2     1    13
 -2.3418985468678338E-03 a        34     0     2     1    14
 -2.6943880272565718E-01 a        35     0     2     1    15
  4.5361828607422466E-02 a        36     0     2     1    16
 -1.7757504560522441E-01 a        37     0     2     1    17
  2.3722200899031970E-01 a        38     0     2     1    18
  3.0776019826278894E-01 a        39     0     2     1    19
  2.5243347373673404E-02 a        40     0     2     1    20
  4.2015122592726217E-02 a        41     0     3     1     1
 -4.0440105855834158E-01 a        42     0     3     1     2
  3.4044751314963728E-01 a        43     0     3     1     3
 -4.1584677895252754E-02 a        44     0     3     1     4
 -8.8914404780238210E-02 a        45     0     3     1     5
 -3.6492224990265210E-01 a        46     0     3     1     6
  5.1502993917268126E-02 a        47     0     3     1     7
  3.4704338473682744E-01 a        48     0     3     1     8
 -5.7892333288746156E-01 a        49     0     3     1     9
 -1.3834608253074623E-01 a        50     0     3     1    10
  2.2612637230775456E-01 a        51     0     3     1    11
  3.6441162778227754E-01 a        52     0     3     1    12
 -2.4440927681753397E-01 a        53     0     3     1    13
 -5.9914294283498204E-01 a        54     0     3     1    14
  4.5307161349438851E-01 a        55     0     3     1    15
 -3.1216169944899907E-01 a        56     0     3     1    16
 -1.2037102445865631E-01 a        57     0     3     1    17
 -7.1883059143851724E-01 a        58     0     3     1    18
 -6.8477581244250477E-02 a        59     0     3     1    19
 -2.6795552498763801E-02 a        60     0     3     1    20
 -7.2152044644712268E-02 a        61     0     4     1     1
  5.5059656716974888E-02 a        62     0     4     1     2
  7.2788287824407039E-01 a        63     0     4     1     3
 -1.0756021532792842E-01 a        64     0     4     1     4
 -3.3332619769468991E-01 a        65     0     4     1     5
  4.5750940296534792E-01 a        66     0     4     1     6
  4.2072673962846657E-01 a        67     0     4     1     7
  3.1554927954169903E-03 a        68     0     4     1     8
  2.1935296911197139E-02 a        69     0     4     1     9
  1.5972524651243805E-01 a        70     0     4     1    10
 -3.9252709503433694E-02 a        71     0     4     1    11
  4.8661219300258723E-01 a        72     0     4     1    12
 -4.8336927226453519E-01 a        73     0     4     1    13
 -3.9612128875081021E-01 a        74     0     4     1    14
 -4.5771228064474911E-01 a        75     0     4     1    15
 -2.7185170170090833E-01 a        76     0     4     1    16
 -1.5060326669849747E-01 a        77     0     4     1    17
 -7.2059067294296619E-01 a        78     0     4     1    18
  3.4575120706215234E-01 a        79     0     4     1    19
 -2.0507575042498113E-02 a        80     0     4     1    20
 -1.4002415289176348E-02 a        81     0     5     1     1
  2.2100647354923425E-02 a        82     0     5     1     2
 -2.3539179082232919E-02 a        83     0     5     1     3
  5.8459653366195748E-02 a        84     0     5     1     4
 -1.6911228648170068E-01 a        85     0     5     1     5
 -4.8110512385380708E-02 a        86     0     5     1     6
 -6.4663516505817767E-02 a        87     0     5     1     7
 -1.0953191133622599E-01 a        88     0     5     1     8
  9.4263980254708737E-02 a        89     0     5     1     9
 -8.1264339937072910E-02 a        90     0     5     1    10
 -6.2072060344349048E-02 a        91     0     5     1    11
  5.0059495061801932E-03 a        92     0     5     1    12
  4.5039042461831255E-03 a        93     0     5     1    13
  5.7726946963132753E-01 a        94     0     5     1    14
 -4.6563017591592926E-02 a        95     0     5     1    15
  1.4748423279804088E-01 a        96     0     5     1    16
  1.2378927053716800E-01 a        97     0     5     1    17
  1.6474493177702543E-01 a        98     0     5     1    18
 -6.7386629049601313E-02 a        99     0     5     1    19
  1.7884869064909373E-01 a       100     0     5     1    20
 -5.0953171491180138E-01 a       101     0     6     1     1
 -2.6312374098042773E-01 a       102     0     6     1     2
  3.1669024431249476E-01 a       103     0     6     1     3
  2.0880358984578351E-01 a       104     0     6     1     4
 -8.5419033072843598E-02 a       105     0     6     1     5
  3.1497115194667963E-01 a       106     0     6     1     6
  2.0594371273930440E-01 a       107     0     6     1     7
 -3.1982455398348618E-02 a       108     0     6     1     8
  3.3585101996631395E-01 a       109     0     6     1     9
 -2.8787346495799796E-03 a       110     0     6     1    10
  3.3804400337510049E-01 a       111     0     6     1    11
  3.7719829356799051E-01 a       112     0     6     1    12
  1.8588961359699135E-01 a       113     0     6     1    13
  2.5649917062882033E-01 a       114     0     6     1    14
  3.9952347761565454E-01 a       115     0     6     1    15
  2.1261395848687048E-01 a       116     0     6     1    16
  7.0534735328419793E-02 a       117     0     6     1    17
 -3.1860049254075895E-01 a       118     0     6     1    18
  1.4199183009455446E-01 a       119     0     6     1    19
  2.7687589340705304E-01 a       120     0     6     1    20
 -1.5581692086329010E-01 a       121     0     7     1     1
 -3.4566655699245080E-02 a       122     0     7     1     2
  2.0255469200888723E-01 a       123     0     7     1     3
 -1.1046031024895789E-01 a       124     0     7     1     4
  1.0013177912464413E-01 a       125     0     7     1     5
  1.6310688240637128E-01 a       126     0     7     1     6
  3.8383455958918108E-02 a       127     0     7     1     7
  1.7400650102100915E-01 a       128     0     7     1     8
  6.9125384737059273E-02 a       129     0     7     1     9
 -5.8164688118741661E-02 a       130     0     7     1    10
  2.3103164031204274E-01 a       131     0     7     1    11
  3.6554498293097752E-02 a       132     0     7     1    12
 -1.6685285623008267E-01 a       133     0     7     1    13
  4.4432465733773635E-01 a       134     0     7     1    14
  1.1876735673631870E-01 a       135     0     7     1    15
  1.5709050117847487E-01 a       136     0     7     1    16
 -3.1380037317040466E-01 a       137     0     7     1    17
  2.2012766068415804E-01 a       138     0     7     1    18
 -1.3464506740500407E-02 a       139     0     7     1    19
  1.0821320522666682E-01 a       140     0     7     1    20
  2.0073204890872051E-01 a       141     0     8     1     1
  1.0228133012466080E-01 a       142     0     8     1     2
 -1.9248665392961942E-01 a       143     0     8     1     3
 -1.7100401411906552E-01 a       144     0     8     1     4
 -1.4196783264942167E-01 a       145     0     8     1     5
  1.9893485315618409E-01 a       146     0     8     1     6
 -1.4056154207484928E-01 a       147     0     8     1     7
  2.8883072165525044E-02 a       148     0     8     1     8
 -5.8819978768792934E-02 a       149     0     8     1     9
  2.0139367980220360E-01 a       150     0     8     1    10
 -4.3651881039766367E-02 a       151     0     8     1    11
 -1.3694255169168931E-01 a       152     0     8     1    12
 -1.8464946832837875E-01 a       153     0     8     1    13
  4.2877372259718693E-01 a       154     0     8     1    14
 -2.5125541586911682E-01 a       155     0     8     1    15
  2.5583743837402473E-01 a       156     0     8     1    16
  1.6288775537914049E-01 a       157     0     8     1    17
  1.2214076299096500E-01 a       158     0     8     1    18
  2.2628673938457131E-01 a       159     0     8     1    19
  1.0706647051795130E-01 a       160     0     8     1    20
  2.2972721536474019E-01 a       161     0     9     1     1
  2.9261971372746914E-01 a       162     0     9     1     2
 -1.2562079382598745E-01 a       163     0     9     1     3
 -9.3559059603125300E-02 a       164     0     9     1     4
 -2.1099655813979468E-01 a       165     0     9     1     5
 -6.1451055580871022E-02 a       166     0     9     1     6
 -3.9164386131959344E-01 a       167     0     9     1     7
 -3.6934412171021683E-02 a       168     0     9     1     8
  2.0630955575453253E-01 a       169     0     9     1     9
  9.9768195659476297E-02 a       170     0     9     1    10
 -1.3492024604095068E-01 a       171     0     9     1    11
 -9.3546195729366732E-02 a       172     0     9     1    12
 -2.0230401431511136E-01 a       173     0     9     1    13
  6.3753952766287325E-01 a       174     0     9     1    14
 -7.5113041270973117E-03 a       175     0     9     1    15
  2.6161342678633409E-01 a       176     0     9     1    16
  3.4386312957037882E-02 a       177     0     9     1    17
  5.4209982178923029E-03 a       178     0     9     1    18
  8.8667776081189004E-02 a       179     0     9     1    19
  8.1405896662006816E-02 a       180     0     9     1    20
 -2.6065137076655487E-01 a       181     0    10     1     1
  9.4822228082639196E-03 a       182     0    10     1     2
 -4.5739416864920189E-02 a       183     0    10     1     3
  2.4222172360007577E-01 a       184     0    10     1     4
  3.3969088713397634E-02 a       185     0    10     1     5
  1.5172976293348733E-01 a       186     0    10     1     6
  8.4564192351981871E-02 a       187     0    10     1     7
  2.0069965056381195E-01 a       188     0    10     1     8
 -1.1877610146358684E-01 a       189     0    10     1     9
  4.2670919718185076E-02 a       190     0    10     1    10
  1.6092067811465469E-01 a       191     0    10     1    11
 -2.7538546821507504E-01 a       192     0    10     1    12
  9.1188423338690081E-02 a       193     0    10     1    13
 -1.2086285025418822E-02 a       194     0    10     1    14
 -1.9513672037014851E-01 a       195     0    10     1    15
  8.9152842650229228E-02 a       196     0    10     1    16
  4.6230557433971642E-02 a       197     0    10     1    17
 -7.6412345302711057E-02 a       198     0    10     1    18
  1.6905281378750089E-01 a       199     0    10     1    19
  1.5691517965831039E-01 a       200     0    10     1    20
  5.0642028161966182E-02 a       201     0    11     1     1
  1.4047359865724893E-01 a       202     0    11     1     2
  1.0475052545108050E-01 a       203     0    11     1     3
 -8.6570807276729153E-02 a       204     0    11     1     4
 -1.8550370271317848E-01 a       205     0    11     1     5
 -5.3129508032655266E-02 a       206     0    11     1     6
 -2.2466249446629535E-01 a       207     0    11     1     7
 -1.7197550820716392E-01 a       208     0    11     1     8
  1.8985425036804474E-01 a       209     0    11     1     9
 -6.3029698849197791E-02 a       210     0    11     1    10
  2.7198865411195872E-01 a       211     0    11     1    11
 -1.1745650938621117E-01 a       212     0    11     1    12
  1.1975439954841147E-01 a       213     0    11     1    13
  4.6976034229630431E-01 a       214     0    11     1    14
 -2.7964703751144837E-01 a       215     0    11     1    15
  2.5043730021940386E-01 a       216     0    11     1    16
 -7.1466158711893407E-02 a       217     0    11     1    17
  6.2625049432222496E-02 a       218     0    11     1    18
  8.5754885874813839E-03 a       219     0    11     1    19
  5.7759623540550323E-02 a       220     0    11     1    20
  6.6647222376430712E-02 a       221     0    12     1     1
  2.4201694039554508E-01 a       222     0    12     1     2
 -9.5481279780579062E-02 a       223     0    12     1     3
 -1.2430722350829027E-01 a       224     0    12     1     4
 -3.6924278528985566E-01 a       225     0    12     1     5
 -1.6403642461765472E-01 a       226     0    12     1     6
 -3.6690908697906971E-01 a       227     0    12     1     7
 -1.7142890000647157E-01 a       228     0    12     1     8
 -7.2464849069646023E-02 a       229     0    12     1     9
  1.3738694460988657E-01 a       230     0    12     1    10
 -6.7887930805040089E-02 a       231     0    12     1    11
 -1.1759788134066326E-01 a       232     0    12     1    12
  9.1044883025940757E-04 a       233     0    12     1    13
  2.7518634727166752E-01 a       234     0    12     1    14
 -1.0942545123472526E-01 a       235     0    12     1    15
  2.8572769653737107E-01 a       236     0    12     1    16
  1.1243321322417428E-02 a       237     0    12     1    17
  3.7383191531501381E-01 a       238     0    12     1    18
  2.9618746282866027E-02 a       239     0    12     1    19
 -3.3452653981360804E-02 a       240     0    12     1    20
  1.2695704543927135E-02 a       241     0    13     1     1
  3.2780780192004982E-01 a       242     0    13     1     2
 -3.1730659928801863E-01 a       243     0    13     1     3
  3.5941150105967939E-01 a       244     0    13     1     4
  5.8218365459246406E-02 a       245     0    13     1     5
  5.9259101116412055E-02 a       246     0    13     1     6
  4.7954011578163654E-02 a       247     0    13     1     7
  9.8198837957967133E-02 a       248     0    13     1     8
  1.9670865060478951E-01 a       249     0    13     1     9
  7.6058256532283527E-02 a       250     0    13     1    10
  2.3530292897788602E-01 a       251     0    13     1    11
 -1.5513293601583342E-01 a       252     0    13     1    12
  3.3235260424804805E-02 a       253     0    13     1    13
  1.6783219742299401E-02 a       254     0    13     1    14
 -8.6056170917689551E-02 a       255     0    13     1    15
 -6.9801043110027994E-02 a       256     0    13     1    16
 -1.3998639254710504E-01 a       257     0    13     1    17
  3.1876109739496927E-01 a       258     0    13     1    18
  1.3574861192816123E-01 a       259     0    13     1    19
  1.9341052990040994E-01 a       260     0    13     1    20
  4.7121675248373983E-02 a       261     0    14     1     1
 -6.3916633591219477E-02 a       262     0    14     1     2
  5.3513237728927902E-02 a       263     0    14     1     3
  1.5592284130780670E-01 a       264     0    14     1     4
  3.4105868241218702E-02 a       265     0    14     1     5
  4.2882475611126972E-02 a       266     0    14     1     6
 -1.8303299770126438E-01 a       267     0    14     1     7
 -6.2146531761269287E-03 a       268     0    14     1     8
 -6.6942384880349717E-02 a       269     0    14     1     9
  1.2688278815320198E-01 a       270     0    14     1    10
  4.7009678383272212E-02 a       271     0    14     1    11
 -9.2325228770173323E-02 a       272     0    14     1    12
 -7.2033148234423180E-02 a       273     0    14     1    13
  2.5555639677488817E-01 a       274     0    14     1    14
 -1.4704611207543508E-01 a       275     0    14     1    15
  1.1444722939571789E-01 a       276     0    14     1    16
 -3.3546038669934952E-01 a       277     0    14     1    17
  1.8326531129761789E-01 a       278     0    14     1    18
 -2.2225295673822243E-01 a       279     0    14     1    19
 -1.5042938716369664E-01 a       280     0    14     1    20
 -1.1482974402741337E-01 a       281     0    15     1     1
 -8.2403323705363754E-02 a       282     0    15     1     2
  1.0409514402534938E-01 a       283     0    15     1     3
 -2.0757968410516717E-01 a       284     0    15     1     4
  1.1277097527007160E-01 a       285     0    15     1     5
  1.7954651730641050E-02 a       286     0    15     1     6
 -1.5928570274827886E-01 a       287     0    15     1     7
 -7.6110597751388440E-02 a       288     0    15     1     8
  1.5278610195070106E-02 a       289     0    15     1     9
  1.5139389492106509E-01 a       290     0    15     1    10
 -3.8158406251791552E-02 a       291     0    15     1    11
  7.4995132402312328E-02 a       292     0    15     1    12
 -1.1517580567670196E-01 a       293     0    15     1    13
  1.8234886508420864E-01 a       294     0    15     1    14
  1.9105493299217047E-01 a       295     0    15     1    15
 -1.4129183505258766E-01 a       296     0    15     1    16
 -3.2085107259069601E-02 a       297     0    15     1    17
  4.5778172750220647E-01 a       298     0    15     1    18
 -2.2678331924804596E-01 a       299     0    15     1    19
  5.7684613177585803E-02 a       300     0    15     1    20
 -2.4012981354574675E-01 a       301     0    16     1     1
 -2.5247749182282930E-01 a       302     0    16     1     2
  1.4151791754873105E-01 a       303     0    16     1     3
 -1.3507670303720931E-01 a       304     0    16     1     4
 -4.5187089026687083E-02 a       305     0    16     1     5
 -2.1475928101028590E-02 a       306     0    16     1     6
  2.1926842603380245E-01 a       307     0    16     1     7
  8.0865272919879494E-02 a       308     0    16     1     8
  8.1793580686776203E-03 a       309     0    16     1     9
 -1.2239662853640336E-02 a       310     0    16     1    10
 -9.4311831381239553E-02 a       311     0    16     1    11
  3.6869875775408983E-01 a       312     0    16     1    12
  1.4541280716161945E-01 a       313     0    16     1    13
 -8.2168180308154731E-02 a       314     0    16     1    14
 -5.0870844380785027E-02 a       315     0    16     1    15
  4.9629917038815939E-02 a       316     0    16     1    16
  5.6813049167396285E-04 a       317     0    16     1    17
  1.0846359942508785E-01 a       318     0    16     1    18
 -1.1803402528033020E-01 a       319     0    16     1    19
 -2.2409454661496406E-01 a       320     0    16     1    20
 -1.0611018732943220E-01 a       321     0    17     1     1
 -8.8262109253910773E-02 a       322     0    17     1     2
  7.2142950329971908E-02 a       323     0    17     1     3
  5.2414920579130095E-02 a       324     0    17     1     4
 -1.2540051622528939E-01 a       325     0    17     1     5
  1.6599385005109560E-01 a       326     0    17     1     6
 -1.2629518208272121E-02 a       327     0    17     1     7
 -2.8952201702820590E-02 a       328     0    17     1     8
  5.9694606726495916E-02 a       329     0    17     1     9
  1.1352652349404027E-01 a       330     0    17     1    10
  1.9523279567572610E-01 a       331     0    17     1    11
 -1.6752797816575052E-01 a       332     0    17     1    12
 -2.8522845199708831E-02 a       333     0    17     1    13
  2.3541871853000140E-01 a       334     0    17     1    14
 -2.7716919637571735E-01 a       335     0    17     1    15
  9.6247926721637803E-02 a       336     0    17     1    16
  2.9991503807177852E-02 a       337     0    17     1    17
  3.4694201544186942E-01 a       338     0    17     1    18
 -4.2346900103983107E-02 a       339     0    17     1    19
 -1.6763865851998491E-01 a       340     0    17     1    20
  2.0188693038015560E-02 a       341     0    18     1     1
 -7.5317722757563946E-02 a       342     0    18     1     2
  2.7130855835647966E-01 a       343     0    18     1     3
  3.9928095856196200E-01 a       344     0    18     1     4
  3.0344048081236391E-02 a       345     0    18     1     5
  3.0452928536424739E-01 a       346     0    18     1     6
 -3.3962796662102124E-01 a       347     0    18     1     7
  4.0254956985150178E-02 a       348     0    18     1     8
 -8.2890402186908463E-02 a       349     0    18     1     9
 -1.6126258213201272E-01 a       350     0    18     1    10
  3.6575070480957028E-01 a       351     0    18     1    11
  3.5126692617855360E-01 a       352     0    18     1    12
 -4.2521938929288218E-02 a       353     0    18     1    13
  3.2800625190760846E-01 a       354     0    18     1    14
 -1.0852534183630050E-01 a       355     0    18     1    15
  2.0121427566453731E-01 a       356     0    18     1    16
 -2.2447524300721261E-01 a       357     0    18     1    17
  1.4764464588655404E-01 a       358     0    18     1    18
 -7.3871871913795371E-03 a       359     0    18     1    19
 -1.0631827753246076E-01 a       360     0    18     1    20
  1.2530800228894090E-01 a       361     0    19     1     1
  2.1250787667429497E-01 a       362     0    19     1     2
  4.0237982519599552E-01 a       363     0    19     1     3
 -9.2943769196768722E-02 a       364     0    19     1     4
  1.0438436148705475E-01 a       365     0    19     1     5
 -1.8948638929228778E-01 a       366     0    19     1     6
  5.1299518710876964E-02 a       367     0    19     1     7
 -1.3965029925052791E-01 a       368     0    19     1     8
 -5.9005924724009541E-02 a       369     0    19     1     9
 -4.0253221284083268E-01 a       370     0    19     1    10
 -2.7654195249729974E-01 a       371     0    19     1    11
  2.5788793689082717E-01 a       372     0    19     1    12
 -1.7244545214322801E-01 a       373     0    19     1    13
 -2.3698235917061827E-01 a       374     0    19     1    14
 -3.5937608805376081E-01 a       375     0    19     1    15
 -1.5467417591812607E-01 a       376     0    19     1    16
 -4.8784270255830195E-02 a       377     0    19     1    17
  2.4697383451984561E-01 a       378     0    19     1    18
  2.7077753929565851E-02 a       379     0    19     1    19
 -8.9875864069922581E-02 a       380     0    19     1    20
  4.8317449048812071E-02 a       381     0    20     1     1
  8.3367336422163152E-02 a       382     0    20     1     2
 -1.4088560315015372E-01 a       383     0    20     1     3
  8.0602165364170475E-02 a       384     0    20     1     4
 -1.6533573812860475E-01 a       385     0    20     1     5
  2.1564585758023666E-01 a       386     0    20     1     6
 -6.2137719925781133E-02 a       387     0    20     1     7
 -1.5120319288808559E-01 a       388     0    20     1     8
  9.6492075044074130E-02 a       389     0    20     1     9
  1.6513895674334247E-01 a       390     0    20     1    10
  2.7785370440320822E-02 a       391     0    20     1    11
 -1.7899717142727636E-01 a       392     0    20     1    12
  1.3032108062017705E-01 a       393     0    20     1    13
  1.6459112565966347E-01 a       394     0    20     1    14
  1.8024600589474885E-01 a       395     0    20     1    15
 -2.0203153246932976E-02 a       396     0    20     1    16
 -1.9355282218237048E-02 a       397     0    20     1    17
  3.1863354359952967E-01 a       398     0    20     1    18
 -7.0882534824917465E-02 a       399     0    20     1    19
 -8.9085167650052463E-02 a       400     0    20     1    20
 -6.3485946025887585E-02 a       401     0    21     1     1
  1.8885876027166115E-01 a       402     0    21     1     2
  1.4657926640176039E-01 a       403     0    21     1     3
 -2.2750925996252289E-01 a       404     0    21     1     4
  1.7531050410475174E-01 a       405     0    21     1     5
 -2.8050255073075775E-01 a       406     0    21     1     6
 -2.9112145135764367E-01 a       407     0    21     1     7
 -1.0252133286969380E-01 a       408     0    21     1     8
  4.6029575397660977E-01 a       409     0    21     1     9
 -7.4864157762526820E-02 a       410     0    21     1    10
  1.7633836799190872E-01 a       411     0    21     1    11
  1.3981390032027746E-01 a       412     0    21     1    12
  1.3404333676498453E-01 a       413     0    21     1    13
  2.7845318706905098E-01 a       414     0    21     1    14
  2.1710831991001847E-01 a       415     0    21     1    15
  2.7807645604537995E-01 a       416     0    21     1    16
  4.4740003595771259E-02 a       417     0    21     1    17
  2.4596190475423235E-01 a       418     0    21     1    18
 -1.6432994794856032E-01 a       419     0    21     1    19
 -2.3207049793722512E-01 a       420     0    21     1    20
  3.5017825636176558E-01 a       421     0    22     1     1
  3.6671058256206029E-01 a       422     0    22     1     2
  1.5327693409211327E-01 a       423     0    22     1     3
 -3.4208171499424594E-02 a       424     0    22     1     4
  1.9994904508256073E-01 a       425     0    22     1     5
 -2.9752811484814129E-01 a       426     0    22     1     6
 -1.8088315908820155E-02 a       427     0    22     1     7
 -1.5451862296272051E-01 a       428     0    22     1     8
 -3.0719930586731548E-01 a       429     0    22     1     9
 -2.5285084358295912E-01 a       430     0    22     1    10
  1.9283903900441456E-02 a       431     0    22     1    11
  1.2426523099452626E-01 a       432     0    22     1    12
 -1.1211031970881599E-01 a       433     0    22     1    13
 -3.0362177103405291E-01 a       434     0    22     1    14
 -1.8580205189555488E-01 a       435     0    22     1    15
 -7.4336137068765240E-02 a       436     0    22     1    16
  7.7598181130387129E-03 a       437     0    22     1    17
 -1.8307762412885762E-02 a       438     0    22     1    18
 -1.8190077413215130E-01 a       439     0    22     1    19
 -1.6430981540779299E-01 a       440     0    22     1    20
  2.1096350200904540E-01 a       441     0    23     1     1
  8.6474210648769270E-02 a       442     0    23     1     2
  3.3518503900144225E-01 a       443     0    23     1     3
 -7.7080475916179184E-02 a       444     0    23     1     4
  5.6094288786589029E-02 a       445     0    23     1     5
  1.0883737259198493E-01 a       446     0    23     1     6
 -1.0269068565863399E-02 a       447     0    23     1     7
 -1.1391691757472799E-01 a       448     0    23     1     8
  1.4794492448471497E-01 a       449     0    23     1     9
 -1.3313112046646786E-01 a       450     0    23     1    10
  1.3082853471218485E-02 a       451     0    23     1    11
  4.6383020633566113E-02 a       452     0    23     1    12
  2.8480185346904861E-02 a       453     0    23     1    13
  1.5607293832481209E-01 a       454     0    23     1    14
  2.0653553589517432E-01 a       455     0    23     1    15
  3.0050929184848052E-01 a       456     0    23     1    16
 -2.9594103109319880E-01 a       457     0    23     1    17
 -5.1710497229291393E-02 a       458     0    23     1    18
 -2.9737344884748097E-02 a       459     0    23     1    19
 -1.4697697247630490E-02 a       460     0    23     1    20
  6.6495753893480877E-02 a       461     0    24     1     1
  7.7809946181007950E-02 a       462     0    24     1     2
 -1.8840576954481966E-01 a       463     0    24     1     3
  8.2693898341546501E-02 a       464     0    24     1     4
  9.3400110146465126E-02 a       465     0    24     1     5
 -5.2062966551009393E-02 a       466     0    24     1     6
  1.9729946356150847E-02 a       467     0    24     1     7
  1.3050458666858144E-02 a       468     0    24     1     8
 -1.7745435351529429E-01 a       469     0    24     1     9
 -1.8751407218400454E-01 a       470     0    24     1    10
 -7.1918199615292180E-02 a       471     0    24     1    11
 -6.9682505099049427E-02 a       472     0    24     1    12
 -2.4069462593320429E-01 a       473     0    24     1    13
 -4.7078396616860002E-02 a       474     0    24     1    14
 -1.0879907125329911E-02 a       475     0    24     1    15
  5.3959994997834083E-02 a       476     0    24     1    16
 -1.4565345257660417E-01 a       477     0    24     1    17
  1.0242044644500284E-01 a       478     0    24     1    18
  1.5308732286805311E-02 a       479     0    24     1    19
 -1.1220000601126823E-01 a       480     0    24     1    20
  2.4780002258655054E-01 a       481     0    25     1     1
  2.6894978478982601E-01 a       482     0    25     1     2
 -2.7638508424137476E-01 a       483     0    25     1     3
  1.2389456746736761E-01 a       484     0    25     1     4
 -8.1576952618186996E-02 a       485     0    25     1     5
  3.8414750933262867E-02 a       486     0    25     1     6
  2.1701019851834563E-02 a       487     0    25     1     7
 -8.1110679522888567E-03 a       488     0    25     1     8
 -5.9476912542408403E-02 a       489     0    25     1     9
 -7.8257848151914555E-02 a       490     0    25     1    10
 -3.0705245186307892E-02 a       491     0    25     1    11
  7.3250367857347815E-02 a       492     0    25     1    12
  5.0147501239864514E-02 a       493     0    25     1    13
  8.0544328911837729E-02 a       494     0    25     1    14
  2.8211257667138484E-01 a       495     0    25     1    15
 -3.2672886157305079E-03 a       496     0    25     1    16
  5.7093263754305026E-02 a       497     0    25     1    17
 -2.3709864015340776E-01 a       498     0    25     1    18
 -2.6219188408023097E-01 a       499     0    25     1    19
 -1.0169610949508877E-01 a       500     0    25     1    20
 -1.3267329672598235E-01 a       501     0    26     1     1
 -5.6271901966477321E-02 a       502     0    26     1     2
 -1.0234597059276743E-01 a       503     0    26     1     3
 -6.1865088652907331E-02 a       504     0    26     1     4
 -2.5347710496043152E-01 a       505     0    26     1     5
 -2.1900369136931386E-01 a       506     0    26     1     6
 -1.5550200580087725E-01 a       507     0    26     1     7
 -1.4584422614254425E-01 a       508     0    26     1     8
  1.8738211386961651E-02 a       509     0    26     1     9
 -6.4668591166707604E-02 a       510     0    26     1    10
 -1.4700271009000782E-01 a       511     0    26     1    11
 -8.4561895201562074E-03 a       512     0    26     1    12
 -7.3682401605654471E-03 a       513     0    26     1    13
  2.6413748761468447E-01 a       514     0    26     1    14
 -2.2501124791507404E-01 a       515     0    26     1    15
 -1.1219574683978034E-01 a       516     0    26     1    16
  7.3362667125833364E-02 a       517     0    26     1    17
  1.1173921545111580E-01 a       518     0    26     1    18
 -2.1360805914633813E-01 a       519     0    26     1    19
 -3.7100742617017388E-02 a       520     0    26     1    20
 -9.3611398936343848E-02 a       521     0    27     1     1
 -2.7758133772804582E-02 a       522     0    27     1     2
  1.8184828096170580E-01 a       523     0    27     1     3
  5.3555276745552459E-02 a       524     0    27     1     4
  3.0167994069790560E-01 a       525     0    27     1     5
 -9.6171486069556805E-02 a       526     0    27     1     6
 -1.2082711646886025E-02 a       527     0    27     1     7
  1.0343718981440272E-01 a       528     0    27     1     8
  9.8857191566507387E-03 a       529     0    27     1     9
 -4.9992326749468017E-03 a       530     0    27     1    10
  2.9397778776056996E-02 a       531     0    27     1    11
  2.4039159698308202E-03 a       532     0    27     1    12
 -1.5692662764983174E-02 a       533     0    27     1    13
  6.6097536438835397E-02 a       534     0    27     1    14
  1.9445052834854759E-01 a       535     0    27     1    15
  1.5505976589736989E-01 a       536     0    27     1    16
 -1.0347595591794162E-01 a       537     0    27     1    17
 -1.9383453106429560E-01 a       538     0    27     1    18
  9.5601117009070272E-02 a       539     0    27     1    19
 -5.5417818161946117E-02 a       540     0    27     1    20
 -1.5242727504006526E-01 a       541     0    28     1     1
  2.2674068937436739E-01 a       542     0    28     1     2
  6.0631571410963966E-02 a       543     0    28     1     3
  3.0617198399129006E-02 a       544     0    28     1     4
  2.3079812258985914E-02 a       545     0    28     1     5
  5.3612767716200209E-02 a       546     0    28     1     6
  3.1300211124853894E-01 a       547     0    28     1     7
 -8.4395277481547917E-02 a       548     0    28     1     8
  1.2306415363296200E-01 a       549     0    28     1     9
 -7.3794065460643321E-02 a       550     0    28     1    10
  1.9052897674615299E-01 a       551     0    28     1    11
 -5.7434344581130175E-03 a       552     0    28     1    12
  8.0067269712329522E-03 a       553     0    28     1    13
  6.4142654081102785E-02 a       554     0    28     1    14
  2.4562990321908739E-02 a       555     0    28     1    15
 -2.9777325509846696E-02 a       556     0    28     1    16
 -1.3658283469432625E-01 a       557     0    28     1    17
  6.8162547656444680E-02 a       558     0    28     1    18
 -5.8341750939213247E-02 a       559     0    28     1    19
  8.4981663409298261E-02 a       560     0    28     1    20
  1.3952196182130863E-02 a       561     0    29     1     1
  1.1907811483933198E-01 a       562     0    29     1     2
 -1.9148762222184146E-01 a       563     0    29     1     3
 -4.3066281111824103E-02 a       564     0    29     1     4
 -1.8895056829510926E-01 a       565     0    29     1     5
 -1.0742469042824730E-01 a       566     0    29     1     6
  1.5948249301892573E-01 a       567     0    29     1     7
  5.1117971031562008E-02 a       568     0    29     1     8
  2.1003537862665986E-01 a       569     0    29     1     9
 -7.7241864089322959E-02 a       570     0    29     1    10
  1.3868298743127047E-01 a       571     0    29     1    11
  1.7120227760188692E-01 a       572     0    29     1    12
  2.2187028522288355E-01 a       573     0    29     1    13
  1.4101544835629138E-02 a       574     0    29     1    14
  7.5010323730532708E-02 a       575     0    29     1    15
 -6.7010871269637576E-02 a       576     0    29     1    16
  7.1210263009397964E-02 a       577     0    29     1    17
  3.1050544071785624E-01 a       578     0    29     1    18
 -1.7530870604792112E-01 a       579     0    29     1    19
  1.3726936285344601E-01 a       580     0    29     1    20
 -2.7760712051478059E-01 a       581     0    30     1     1
 -2.5753550745675219E-01 a       582     0    30     1     2
  9.0739871847020453E-02 a       583     0    30     1     3
  3.0927804396648689E-01 a       584     0    30     1     4
  1.8156586311642842E-02 a       585     0    30     1     5
 -2.4219019725516319E-01 a       586     0    30     1     6
  3.7691862406026594E-01 a       587     0    30     1     7
  7.5121861289370886E-02 a       588     0    30     1     8
 -1.8665098673287792E-01 a       589     0    30     1     9
  2.7156853024226271E-03 a       590     0    30     1    10
  4.8142762243016174E-01 a       591     0    30     1    11
  9.5288842387705699E-02 a       592     0    30     1    12
  1.6221467428776584E-01 a       593     0    30     1    13
 -2.3106247381753242E-01 a       594     0    30     1    14
 -1.0265951835287414E-01 a       595     0    30     1    15
 -1.0411043219415926E-01 a       596     0    30     1    16
  5.3266330990114847E-03 a       597     0    30     1    17
 -3.2555844098126091E-01 a       598     0    30     1    18
 -1.5917955396067096E-01 a       599     0    30     1    19
 -9.4564905371455940E-02 a       600     0    30     1    20
  9.4338133588834902E-02 a       601     0    31     1     1
  1.2048601194073767E-01 a       602     0    31     1     2
 -2.3090618724068582E-01 a       603     0    31     1     3
 -5.0645715958876993E-02 a       604     0    31     1     4
  6.5935417947216232E-02 a       605     0    31     1     5
  7.8167958144728891E-02 a       606     0    31     1     6
  2.7994370462132837E-02 a       607     0    31     1     7
  1.3312857113598731E-01 a       608     0    31     1     8
  4.4486234047565021E-02 a       609     0    31     1     9
  7.2470666997243180E-02 a       610     0    31     1    10
  1.5737314898401580E-01 a       611     0    31     1    11
  1.4770045016004717E-02 a       612     0    31     1    12
 -1.0504102255447494E-01 a       613     0    31     1    13
  1.4676904670618621E-01 a       614     0    31     1    14
 -2.4839142030608601E-02 a       615     0    31     1    15
 -2.2331654356010044E-01 a       616     0    31     1    16
 -1.5919333578350026E-01 a       617     0    31     1    17
 -5.0195425949218242E-01 a       618     0    31     1    18
  2.1901391284810116E-02 a       619     0    31     1    19
  1.5951441073958441E-03 a       620     0    31     1    20
  3.3199068809634885E-02 a       621     0    32     1     1
  3.0141055824798122E-02 a       622     0    32     1     2
 -1.2746626900905280E-02 a       623     0    32     1     3
 -4.1802378018613869E-02 a       624     0    32     1     4
  9.5116445373341130E-02 a       625     0    32     1     5
 -9.5701114551277555E-02 a       626     0    32     1     6
 -9.5501084422803251E-02 a       627     0    32     1     7
 -2.2377839804733766E-02 a       628     0    32     1     8
  1.5437643432377962E-01 a       629     0    32     1     9
  1.7620566371611079E-02 a       630     0    32     1    10
 -2.3724257475652630E-01 a       631     0    32     1    11
  1.8327368820010895E-01 a       632     0    32     1    12
  1.0735158516541649E-01 a       633     0    32     1    13
 -3.8427637864584384E-02 a       634     0    32     1    14
  5.9487145618167835E-02 a       635     0    32     1    15
 -2.8335292313559252E-01 a       636     0    32     1    16
  3.3723318852107204E-01 a       637     0    32     1    17
 -4.0116896491201076E-01 a       638     0    32     1    18
 -1.8067516597699668E-01 a       639     0    32     1    19
  2.0373604143142396E-01 a       640     0    32     1    20
  1.6701564616766992E-01 a       641     0    33     1     1
  1.8609165133538852E-01 a       642     0    33     1     2
  2.5479882282697836E-01 a       643     0    33     1     3
 -1.0451337442535870E-01 a       644     0    33     1     4
 -2.0248291353036726E-01 a       645     0    33     1     5
 -3.1346913449430985E-01 a       646     0    33     1     6
  1.2803496897252456E-01 a       647     0    33     1     7
 -1.9462871396129866E-01 a       648     0    33     1     8
  4.0138829278735182E-02 a       649     0    33     1     9
 -7.5464852780490158E-02 a       650     0    33     1    10
  1.1926320724778781E-01 a       651     0    33     1    11
 -3.5095372746934375E-02 a       652     0    33     1    12
 -2.4572804637216064E-01 a       653     0    33     1    13
  1.4626569674241915E-01 a       654     0    33     1    14
 -1.1764009136528716E-01 a       655     0    33     1    15
 -1.6223791337957243E-02 a       656     0    33     1    16
 -1.0286759560615710E-02 a       657     0    33     1    17
  2.2243837813605546E-01 a       658     0    33     1    18
  1.1918286862251715E-03 a       659     0    33     1    19
  1.4507100749467788E-01 a       660     0    33     1    20
 -2.7359599644258464E-01 a       661     0    34     1     1
 -1.9274925975892565E-01 a       662     0    34     1     2
 -1.8743314073573047E-01 a       663     0    34     1     3
  5.7970187560953602E-02 a       664     0    34     1     4
 -1.1536719334814538E-01 a       665     0    34     1     5
  4.2077391570676158E-02 a       666     0    34     1     6
  4.4413983645740583E-02 a       667     0    34     1     7
 -4.0539063857770993E-02 a       668     0    34     1     8
  2.0357163244054770E-02 a       669     0    34     1     9
  6.7788486494873871E-03 a       670     0    34     1    10
  1.3165984470260156E-02 a       671     0    34     1    11
  1.4817654066980016E-01 a       672     0    34     1    12
  1.0614615081710377E-01 a       673     0    34     1    13
  8.7297833483520951E-02 a       674     0    34     1    14
  3.6142091118577763E-01 a       675     0    34     1    15
  1.1515615468042920E-01 a       676     0    34     1    16
  2.7214506661182319E-01 a       677     0    34     1    17
 -2.2058885188856642E-01 a       678     0    34     1    18
  1.1867467561171829E-02 a       679     0    34     1    19
  6.8783034905527493E-02 a       680     0    34     1    20
 -8.3710437460833703E-02 a       681     0    35     1     1
 -2.6825781385115338E-01 a       682     0    35     1     2
  2.8166463730192570E-01 a       683     0    35     1     3
  1.1662774119922745E-01 a       684     0    35     1     4
  2.8710189220209648E-01 a       685     0    35     1     5
 -2.3831791037436201E-01 a       686     0    35     1     6
  6.1881517079888160E-01 a       687     0    35     1     7
 -1.5205898077662089E-01 a       688     0    35     1     8
 -3.2112986386677415E-02 a       689     0    35     1     9
 -1.7163757138839647E-01 a       690     0    35     1    10
  3.7052045714015003E-01 a       691     0    35     1    11
  2.3977240461445831E-01 a       692     0    35     1    12
  2.7444423307836835E-01 a       693     0    35     1    13
 -2.6008177068491839E-01 a       694     0    35     1    14
  4.1447498680125129E-02 a       695     0    35     1    15
 -1.2172741992942658E-01 a       696     0    35     1    16
  1.7874258896846629E-01 a       697     0    35     1    17
 -2.4697168339746667E-01 a       698     0    35     1    18
 -7.7859499414810032E-02 a       699     0    35     1    19
 -1.3773642140396536E-01 a       700     0    35     1    20
  1.5959039389577004E-01 a       701     0    36     1     1
  2.0089566978186271E-01 a       702     0    36     1     2
 -1.7886223695157052E-01 a       703     0    36     1     3
  4.5717683771233510E-02 a       704     0    36     1     4
 -2.1340267339086930E-01 a       705     0    36     1     5
  5.7012495870501285E-02 a       706     0    36     1     6
  2.2767607611354093E-01 a       707     0    36     1     7
 -2.4828896500077832E-01 a       708     0    36     1     8
  1.3488266519474890E-01 a       709     0    36     1     9
 -1.1556006875647609E-01 a       710     0    36     1    10
 -2.3129498839538093E-01 a       711     0    36     1    11
  2.4136418512506325E-02 a       712     0    36     1    12
 -1.5526256655433010E-01 a       713     0    36     1    13
 -1.1932711890543642E-01 a       714     0    36     1    14
 -2.1601349157483135E-01 a       715     0    36     1    15
  1.9687157532194877E-01 a       716     0    36     1    16
  2.1646437520681897E-01 a       717     0    36     1    17
  8.4620193762336204E-02 a       718     0    36     1    18
 -4.2465588889562832E-02 a       719     0    36     1    19
 -1.8568464507259791E-01 a       720     0    36     1    20
  2.0809171648523306E-01 a       721     0    37     1     1
  3.2924192151619369E-03 a       722     0    37     1     2
 -7.9421604672794931E-03 a       723     0    37     1     3
 -2.2573482945412024E-01 a       724     0    37     1     4
 -8.6816122153316938E-02 a       725     0    37     1     5
 -2.6353505475439014E-02 a       726     0    37     1     6
  1.1091219637231729E-01 a       727     0    37     1     7
 -3.5010094770558176E-01 a       728     0    37     1     8
 -9.1764693841651535E-02 a       729     0    37     1     9
  3.1291135038919631E-03 a       730     0    37     1    10
  1.5277248814998962E-01 a       731     0    37     1    11
  1.2520156867137669E-01 a       732     0    37     1    12
  1.5197494216904744E-01 a       733     0    37     1    13
 -9.3857383052990864E-02 a       734     0    37     1    14
 -6.3159317247847305E-02 a       735     0    37     1    15
 -9.4445365276458984E-02 a       736     0    37     1    16
  1.1651225121659774E-01 a       737     0    37     1    17
  2.7963341487585482E-02 a       738     0    37     1    18
  1.1392551243774600E-01 a       739     0    37     1    19
 -8.9699467764315269E-02 a       740     0    37     1    20
 -1.6823587996311795E-01 a       741     0    38     1     1
 -2.0135614530799745E-01 a       742     0    38     1     2
 -5.5290026386045597E-02 a       743     0    38     1     3
 -1.1569680935741054E-01 a       744     0    38     1     4
 -2.4811513640404133E-02 a       745     0    38     1     5
 -1.8376576140596454E-01 a       746     0    38     1     6
  1.6292241845115116E-02 a       747     0    38     1     7
 -2.5963505311918844E-01 a       748     0    38     1     8
 -5.6025472687147644E-02 a       749     0    38     1     9
  6.3368377298913495E-02 a       750     0    38     1    10
 -1.5036768617878860E-01 a       751     0    38     1    11
 -1.7049160941402733E-01 a       752     0    38     1    12
  3.1176559538886064E-02 a       753     0    38     1    13
 -1.8348498369033456E-01 a       754     0    38     1    14
 -6.5343020247913844E-02 a       755     0    38     1    15
  9.6504180486390131E-02 a       756     0    38     1    16
  2.0949325047537842E-01 a       757     0    38     1    17
  2.4379999203029312E-02 a       758     0    38     1    18
 -1.9057542632960298E-01 a       759     0    38     1    19
  1.6186917947787863E-01 a       760     0    38     1    20
 -3.0748931245658284E-01 a       761     0    39     1     1
 -9.4310384892399776E-02 a       762     0    39     1     2
 -1.3986552010460496E-01 a       763     0    39     1     3
  1.0072727263272779E-01 a       764     0    39     1     4
  2.6533906177603644E-01 a       765     0    39     1     5
 -3.2811893916333312E-01 a       766     0    39     1     6
  2.0897367573514281E-01 a       767     0    39     1     7
 -1.0815336544382635E-01 a       768     0    39     1     8
 -3.2959170117332806E-02 a       769     0    39     1     9
 -2.2292561977873049E-02 a       770     0    39     1    10
  2.8446006393341911E-01 a       771     0    39     1    11
 -1.4387285010413978E-02 a       772     0    39     1    12
  1.5728137333473224E-01 a       773     0    39     1    13
 -3.9576965009232112E-01 a       774     0    39     1    14
  3.4796001553603334E-01 a       775     0    39     1    15
 -1.1639428153977965E-01 a       776     0    39     1    16
 -4.2502344612386049E-02 a       777     0    39     1    17
 -3.4408304454464311E-01 a       778     0    39     1    18
 -2.4692785725436689E-01 a       779     0    39     1    19
  6.1192928891910713E-02 a       780     0    39     1    20
  1.6567656539033404E-01 a       781     0    40     1     1
  2.2781605119468758E-02 a       782     0    40     1     2
  1.3853917703476375E-02 a       783     0    40     1     3
  6.9579416520181925E-03 a       784     0    40     1     4
 -2.1856505558791084E-01 a       785     0    40     1     5
 -3.1738029887422431E-01 a       786     0    40     1     6
  1.5800043699301650E-01 a       787     0    40     1     7
 -5.3305017249462752E-02 a       788     0    40     1     8
  1.6892729878669302E-01 a       789     0    40     1     9
 -1.0620383463806399E-01 a       790     0    40     1    10
  1.2518748854289921E-01 a       791     0    40     1    11
  3.1008631045620228E-02 a       792     0    40     1    12
 -1.2306050186980515E-01 a       793     0    40     1    13
 -7.6318026444468041E-03 a       794     0    40     1    14
 -4.1207115216035858E-02 a       795     0    40     1    15
  7.5505529787100442E-02 a       796     0    40     1    16
  3.2939848983478862E-02 a       797     0    40     1    17
  2.8078175367498480E-02 a       798     0    40     1    18
 -1.1878324157557897E-01 a       799     0    40     1    19
  1.0949612389600846E-02 a       800     0    40     1    20
 -8.0572052508223607E-02 a       801     0    41     1     1
 -7.5745756347970886E-02 a       802     0    41     1     2
 -3.2545902951664635E-01 a       803     0    41     1     3
  7.5285863162419836E-02 a       804     0    41     1     4
  5.7562399287699122E-02 a       805     0    41     1     5
 -1.3457498666336440E-01 a       806     0    41     1     6
  1.3406583801265173E-01 a       807     0    41     1     7
 -3.3260442283390190E-01 a       808     0    41     1     8
  1.6211388745331573E-01 a       809     0    41     1     9
  2.7805062391668972E-01 a       810     0    41     1    10
 -8.7594476905560215E-02 a       811     0    41     1    11
 -2.4301591259256686E-01 a       812     0    41     1    12
  1.7570099377817286E-01 a       813     0    41     1    13
 -1.0405276375409962E-01 a       814     0    41     1    14
  3.3139081942088117E-01 a       815     0    41     1    15
  5.3132333994265262E-03 a       816     0    41     1    16
  3.5176104559476268E-01 a       817     0    41     1    17
 -5.0129166771612432E-01 a       818     0    41     1    18
 -3.6635690781623056E-02 a       819     0    41     1    19
  1.9978406319689185E-01 a       820     0    41     1    20
 -1.2918909782590798E-01 a       821     0    42     1     1
  1.3431077777265274E-01 a       822     0    42     1     2
  6.7140369915944423E-02 a       823     0    42     1     3
  1.5959168718198752E-01 a       824     0    42     1     4
  8.2877284304012887E-03 a       825     0    42     1     5
 -7.1017985239141582E-04 a       826     0    42     1     6
 -2.7436714070683266E-02 a       827     0    42     1     7
 -1.1976969917658743E-01 a       828     0    42     1     8
 -9.2286959848575864E-02 a       829     0    42     1     9
  4.6484501895609910E-02 a       830     0    42     1    10
  2.3630249321025771E-02 a       831     0    42     1    11
 -3.4411390237094316E-02 a       832     0    42     1    12
  1.5406388455367856E-01 a       833     0    42     1    13
 -2.0639710318311769E-01 a       834     0    42     1    14
 -6.4448387787699735E-02 a       835     0    42     1    15
 -2.4057808863177790E-01 a       836     0    42     1    16
  4.8748867255545010E-02 a       837     0    42     1    17
 -2.0565732962727859E-01 a       838     0    42     1    18
 -1.7747733342840322E-01 a       839     0    42     1    19
  2.6210565595053047E-02 a       840     0    42     1    20
  6.2341147675388481E-02 a       841     0    43     1     1
 -2.3354889327005279E-01 a       842     0    43     1     2
 -9.5288314777287247E-02 a       843     0    43     1     3
 -1.2684535581576717E-01 a       844     0    43     1     4
 -1.6397999109455241E-01 a       845     0    43     1     5
 -3.5370729894663977E-01 a       846     0    43     1     6
 -1.3243937555165368E-02 a       847     0    43     1     7
 -7.2297368498388900E-02 a       848     0    43     1     8
 -2.7561219345938963E-02 a       849     0    43     1     9
  8.5503828803145512E-02 a       850     0    43     1    10
 -8.0010084824441191E-02 a       851     0    43     1    11
 -5.4269126197352670E-02 a       852     0    43     1    12
 -1.0595925379362428E-01 a       853     0    43     1    13
  1.8228147633588124E-01 a       854     0    43     1    14
  1.0653694297961862E-01 a       855     0    43     1    15
  2.7551337693603600E-01 a       856     0    43     1    16
 -1.1963553724686719E-01 a       857     0    43     1    17
 -2.0835042635849432E-01 a       858     0    43     1    18
 -1.3489413416407883E-01 a       859     0    43     1    19
  1.0549969072947125E-01 a       860     0    43     1    20
 -8.1450987903484789E-02 a       861     0    44     1     1
  1.1255330092155816E-01 a       862     0    44     1     2
 -1.7543963504498199E-02 a       863     0    44     1     3
  1.6366072683007804E-01 a       864     0    44     1     4
  5.4909511362061549E-02 a       865     0    44     1     5
 -1.4065687303993402E-01 a       866     0    44     1     6
  1.4532131618018240E-01 a       867     0    44     1     7
 -6.6202091542172284E-02 a       868     0    44     1     8
 -2.7348802829334823E-01 a       869     0    44     1     9
 -3.4896835302284129E-01 a       870     0    44     1    10
  2.2981399334530275E-01 a       871     0    44     1    11
 -1.3423476526913194E-01 a       872     0    44     1    12
 -1.4703845062196341E-01 a       873     0    44     1    13
 -3.1037272471379523E-01 a       874     0    44     1    14
 -1.5325238328499483E-01 a       875     0    44     1    15
 -2.0850742236761011E-01 a       876     0    44     1    16
  9.8051095811662145E-02 a       877     0    44     1    17
 -1.7909694877673038E-01 a       878     0    44     1    18
  1.8681564544513088E-01 a       879     0    44     1    19
 -3.0716058040277838E-01 a       880     0    44     1    20
 -1.1704515124732866E-03 a       881     0    45     1     1
  4.0044977598782269E-02 a       882     0    45     1     2
  2.2441623702237487E-01 a       883     0    45     1     3
  1.5347778646381910E-01 a       884     0    45     1     4
  2.2478912723870228E-02 a       885     0    45     1     5
  3.3523677877069009E-02 a       886     0    45     1     6
  2.3510647833685613E-01 a       887     0    45     1     7
 -1.0638135775530588E-01 a       888     0    45     1     8
 -8.5408137442447973E-03 a       889     0    45     1     9
 -8.8787046930304495E-02 a       890     0    45     1    10
 -7.8093007912446361E-02 a       891     0    45     1    11
 -3.0379477188017673E-01 a       892     0    45     1    12
  6.0985429246448938E-02 a       893     0    45     1    13
 -6.9910658984776886E-02 a       894     0    45     1    14
 -1.3328733790683756E-01 a       895     0    45     1    15
 -1.8836193270606119E-01 a       896     0    45     1    16
 -1.4430494727245130E-01 a       897     0    45     1    17
  2.4309941483892386E-01 a       898     0    45     1    18
  4.5286029764102793E-02 a       899     0    45     1    19
 -1.8721065840786305E-01 a       900     0    45     1    20
 -1.9284126590534337E-01 a       901     0    46     1     1
 -1.0813370532238963E-01 a       902     0    46     1     2
  1.3288237787654042E-01 a       903     0    46     1     3
 -1.7142631689385274E-01 a       904     0    46     1     4
 -5.1925696109592641E-02 a       905     0    46     1     5
  2.3480484653704312E-01 a       906     0    46     1     6
  4.8578846656621245E-02 a       907     0    46     1     7
 -6.9832508745646629E-02 a       908     0    46     1     8
 -1.7280376888181784E-01 a       909     0    46     1     9
 -9.8723231624326349E-02 a       910     0    46     1    10
 -6.1937231289071791E-03 a       911     0    46     1    11
 -1.2595050387133475E-01 a       912     0    46     1    12
  7.7771474700345622E-02 a       913     0    46     1    13
  6.3569734905062181E-02 a       914     0    46     1    14
  9.9796886543809818E-02 a       915     0    46     1    15
  6.4212950672147981E-02 a       916     0    46     1    16
  6.7598711594641550E-02 a       917     0    46     1    17
  9.4055754879357176E-02 a       918     0    46     1    18
 -1.5651709507511352E-01 a       919     0    46     1    19
 -8.6142322950590461E-02 a       920     0    46     1    20
  1.9747973732800322E-01 a       921     0    47     1     1
 -1.2207291951287970E-01 a       922     0    47     1     2
 -2.5103419318600539E-01 a       923     0    47     1     3
  3.2261058005020538E-01 a       924     0    47     1     4
  1.5534832731591497E-01 a       925     0    47     1     5
 -1.1859046330381581E-01 a       926     0    47     1     6
 -1.6593037870694355E-01 a       927     0    47     1     7
  1.0885755519998533E-01 a       928     0    47     1     8
  2.7122517112860036E-02 a       929     0    47     1     9
 -2.1748321645237167E-01 a       930     0    47     1    10
  2.3667657863116167E-02 a       931     0    47     1    11
 -2.6104206390799325E-02 a       932     0    47     1    12
  1.2900254388608373E-01 a       933     0    47     1    13
  1.4448204478681106E-02 a       934     0    47     1    14
 -2.1188098099302682E-01 a       935     0    47     1    15
 -1.6100810706638680E-01 a       936     0    47     1    16
 -2.1360475445195041E-02 a       937     0    47     1    17
  1.0095525501127629E-01 a       938     0    47     1    18
 -1.7857399090728260E-01 a       939     0    47     1    19
  4.5362718150972044E-02 a       940     0    47     1    20
  5.3587958889366703E-02 a       941     0    48     1     1
 -3.9519121069934979E-02 a       942     0    48     1     2
 -1.1512434150076176E-01 a       943     0    48     1     3
 -1.3087968654205381E-01 a       944     0    48     1     4
  8.3876434541388267E-02 a       945     0    48     1     5
  3.4779547798698129E-01 a       946     0    48     1     6
  3.9008922763973185E-02 a       947     0    48     1     7
 -1.1809387681871575E-01 a       948     0    48     1     8
 -2.1527189795455287E-02 a       949     0    48     1     9
  1.4349831333233720E-01 a       950     0    48     1    10
 -4.4473381588962593E-02 a       951     0    48     1    11
  7.7072937299610414E-02 a       952     0    48     1    12
  3.7767693819303762E-02 a       953     0    48     1    13
  7.8058890290089904E-03 a       954     0    48     1    14
 -3.0472948594480440E-02 a       955     0    48     1    15
  1.6891504019887333E-02 a       956     0    48     1    16
  1.4501162607525117E-01 a       957     0    48     1    17
  2.0451396729818330E-01 a       958     0    48     1    18
  1.4981849242755418E-01 a       959     0    48     1    19
 -1.5335729870617698E-01 a       960     0    48     1    20
 -7.4875045869968140E-02 a       961     0    49     1     1
 -2.2949515609288143E-01 a       962     0    49     1     2
 -3.2806139490424735E-01 a       963     0    49     1     3
  1.5482445358633865E-01 a       964     0    49     1     4
  6.5101484584838387E-02 a       965     0    49     1     5
 -1.3972396287426601E-02 a       966     0    49     1     6
 -9.0654123103672060E-02 a       967     0    49     1     7
  7.1651395310726035E-02 a       968     0    49     1     8
 -2.0481789332851905E-01 a       969     0    49     1     9
 -2.4286192609869345E-01 a       970     0    49     1    10
  1.2397630704015464E-01 a       971     0    49     1    11
  3.2830045535592392E-02 a       972     0    49     1    12
  1.3723449822658190E-01 a       973     0    49     1    13
 -1.1509185604419145E-01 a       974     0    49     1    14
 -1.4235344253530380E-01 a       975     0    49     1    15
 -3.3078309879864515E-02 a       976     0    49     1    16
  2.2939810823123677E-01 a       977     0    49     1    17
 -1.0232754864203250E-01 a       978     0    49     1    18
 -9.9480410548681508E-02 a       979     0    49     1    19
  1.7808139505637213E-01 a       980     0    49     1    20
  1.5593120422355303E-01 a       981     0    50     1     1
  1.4618031659091246E-01 a       982     0    50     1     2
 -1.3016226116967727E-01 a       983     0    50     1     3
  4.4867995812299187E-02 a       984     0    50     1     4
 -1.6407030822068117E-01 a       985     0    50     1     5
  2.4375797056980852E-01 a       986     0    50     1     6
 -2.7337837053804409E-01 a       987     0    50     1     7
  2.2713400329888375E-02 a       988     0    50     1     8
  1.2214456392139318E-01 a       989     0    50     1     9
 -1.0619273991364775E-01 a       990     0    50     1    10
  4.1938511438486238E-02 a       991     0    50     1    11
  6.3871954833301839E-02 a       992     0    50     1    12
 -8.9099866455983959E-02 a       993     0    50     1    13
  1.5440125280892225E-01 a       994     0    50     1    14
  1.5525630228477202E-01 a       995     0    50     1    15
 -1.1487329514438857E-01 a       996     0    50     1    16
 -1.3556960293071016E-01 a       997     0    50     1    17
  1.0387627896646900E-01 a       998     0    50     1    18
  2.1761491458833229E-02 a       999     0    50     1    19
 -1.2378413741935379E-01 a      1000     0    50     1    20
  2.8007218594937929E-02 a      1001     0    51     1     1
 -2.1762322471684456E-01 a      1002     0    51     1     2
 -2.3217055104435944E-01 a      1003     0    51     1     3
 -9.8064234023499466E-02 a      1004     0    51     1     4
 -4.0714799949065780E-02 a      1005     0    51     1     5
  1.0411174076873518E-01 a      1006     0    51     1     6
  1.2838774356083860E-01 a      1007     0    51     1     7
 -2.6333568628161958E-02 a      1008     0    51     1     8
 -3.2021163357300327E-02 a      1009     0    51     1     9
 -4.1201095350637706E-02 a      1010     0    51     1    10
 -9.0722534676310584E-02 a      1011     0    51     1    11
 -1.8958229600127294E-01 a      1012     0    51     1    12
 -3.4258216533076445E-02 a      1013     0    51     1    13
 -1.3301631710856948E-01 a      1014     0    51     1    14
  1.0481850831632415E-01 a      1015     0    51     1    15
 -2.4451023987879708E-01 a      1016     0    51     1    16
 -1.4999130383329848E-01 a      1017     0    51     1    17
 -7.2143622059743118E-02 a      1018     0    51     1    18
 -1.4040944824350542E-02 a      1019     0    51     1    19
  7.9752895006388158E-02 a      1020     0    51     1    20
  2.1298610989113678E-01 a      1021     0    52     1     1
  2.8399349840354187E-04 a      1022     0    52     1     2
  4.6319160378494241E-02 a      1023     0    52     1     3
  2.2917852521994747E-01 a      1024     0    52     1     4
 -1.6267077140317240E-01 a      1025     0    52     1     5
 -4.5526532134098394E-02 a      1026     0    52     1     6
  1.5096974599267366E-02 a      1027     0    52     1     7
  1.3628182923049789E-01 a      1028     0    52     1     8
 -3.1414868295228052E-03 a      1029     0    52     1     9
 -4.9298037949823188E-02 a      1030     0    52     1    10
 -1.7572698712489784E-01 a      1031     0    52     1    11
  9.0232058470691032E-02 a      1032     0    52     1    12
  1.9679562646297642E-02 a      1033     0    52     1    13
 -5.2638062062263583E-02 a      1034     0    52     1    14
  1.6328878530542995E-01 a      1035     0    52     1    15
  1.2279445264292524E-02 a      1036     0    52     1    16
 -2.5301604010020917E-01 a      1037     0    52     1    17
  6.4685068416096184E-02 a      1038     0    52     1    18
 -7.4094319618329310E-02 a      1039     0    52     1    19
 -3.8075084789432695E-02 a      1040     0    52     1    20
 -4.2891477325008387E-01 a      1041     0    53     1     1
 -5.9339286519503633E-02 a      1042     0    53     1     2
  2.2366545560940523E-01 a      1043     0    53     1     3
  1.2089904388656683E-01 a      1044     0    53     1     4
  2.4503804383602421E-01 a      1045     0    53     1     5
  4.7497903687109888E-01 a      1046     0    53     1     6
  6.0313712585571388E-01 a      1047     0    53     1     7
 -2.1609458998934378E-02 a      1048     0    53     1     8
 -1.8143721555804448E-01 a      1049     0    53     1     9
 -3.3447389067011757E-01 a      1050     0    53     1    10
  3.1926139947674059E-01 a      1051     0    53     1    11
  2.9871788973414648E-01 a      1052     0    53     1    12
  2.6708264120317132E-01 a      1053     0    53     1    13
 -9.4402004220151270E-02 a      1054     0    53     1    14
  1.8877548352106416E-01 a      1055     0    53     1    15
  7.2785291026405949E-02 a      1056     0    53     1    16
 -4.6155252279357789E-01 a      1057     0    53     1    17
 -5.0870519268263226E-01 a      1058     0    53     1    18
 -4.9691985823911378E-02 a      1059     0    53     1    19
  3.9027803990667402E-02 a      1060     0    53     1    20
  2.3661759794124559E-02 a      1061     0    54     1     1
  1.8006678181053136E-02 a      1062     0    54     1     2
 -5.8855069207445668E-02 a      1063     0    54     1     3
  2.7061565610559218E-01 a      1064     0    54     1     4
 -2.3550933490202958E-01 a      1065     0    54     1     5
 -1.8437471792616514E-01 a      1066     0    54     1     6
 -5.6565503158843011E-01 a      1067     0    54     1     7
 -6.2940735787654287E-02 a      1068     0    54     1     8
 -2.0444016103007970E-01 a      1069     0    54     1     9
 -1.2073573960451831E-01 a      1070     0    54     1    10
 -2.1688953894225499E-01 a      1071     0    54     1    11
  1.8561115862111642E-02 a      1072     0    54     1    12
  1.8940958263581179E-01 a      1073     0    54     1    13
  2.2219317965454746E-01 a      1074     0    54     1    14
 -5.6874537496343650E-02 a      1075     0    54     1    15
 -2.1005181873032822E-01 a      1076     0    54     1    16
 -2.1869988641177185E-01 a      1077     0    54     1    17
  2.4350436078768578E-01 a      1078     0    54     1    18
  1.7622492546357879E-01 a      1079     0    54     1    19
  7.8694039559928389E-02 a      1080     0    54     1    20
  1.5705031141419637E-01 a      1081     0    55     1     1
 -1.2412979027582098E-01 a      1082     0    55     1     2
  3.1352263008932207E-01 a      1083     0    55     1     3
 -1.3150765178870299E-01 a      1084     0    55     1     4
 -4.5345516869279817E-02 a      1085     0    55     1     5
 -1.1014755105756557E-01 a      1086     0    55     1     6
  2.7438702223013073E-01 a      1087     0    55     1     7
 -8.7842895713307750E-02 a      1088     0    55     1     8
 -1.8507679415253941E-01 a      1089     0    55     1     9
 -3.2518560037070121E-01 a      1090     0    55     1    10
 -2.8442973281076578E-01 a      1091     0    55     1    11
  2.4939667948028835E-03 a      1092     0    55     1    12
 -2.2004007874068623E-01 a      1093     0    55     1    13
 -4.3463358736754981E-01 a      1094     0    55     1    14
 -2.3323541278160310E-02 a      1095     0    55     1    15
 -4.0974376411016047E-02 a      1096     0    55     1    16
 -1.2705471692602763E-01 a      1097     0    55     1    17
  6.3089560881010462E-02 a      1098     0    55     1    18
 -1.1540431980846516E-01 a      1099     0    55     1    19
  9.5161543463668355E-02 a      1100     0    55     1    20
 -3.9831582651453445E-01 a      1101     0    56     1     1
  2.8506444585530373E-02 a      1102     0    56     1     2
  2.9733616494119658E-01 a      1103     0    56     1     3
  4.3194163931345515E-02 a      1104     0    56     1     4
  7.5061064265476707E-02 a      1105     0    56     1     5
  5.2026024473162173E-02 a      1106     0    56     1     6
  6.4434526910434609E-01 a      1107     0    56     1     7
  1.3685052458481708E-01 a      1108     0    56     1     8
 -3.9453988825020786E-01 a      1109     0    56     1     9
 -2.2643521275142997E-01 a      1110     0    56     1    10
  4.1220381538315437E-01 a      1111     0    56     1    11
  2.5247218092887619E-01 a      1112     0    56     1    12
  1.7583451129378264E-01 a      1113     0    56     1    13
 -2.3891878521438112E-01 a      1114     0    56     1    14
  1.0600398752825613E-01 a      1115     0    56     1    15
  3.4395917836960624E-02 a      1116     0    56     1    16
 -2.2096629371942003E-01 a      1117     0    56     1    17
 -5.8607197638258746E-01 a      1118     0    56     1    18
 -1.0150440756459257E-01 a      1119     0    56     1    19
  1.8646139650878313E-01 a      1120     0    56     1    20
 -1.4876922510915949E-01 a      1121     0    57     1     1
 -1.4384240944324020E-01 a      1122     0    57     1     2
 -6.3252601328586033E-01 a      1123     0    57     1     3
 -1.3669492663283261E-01 a      1124     0    57     1     4
 -5.3377175344661687E-01 a      1125     0    57     1     5
  6.5827281708804988E-02 a      1126     0    57     1     6
 -1.7338335526011225E-01 a      1127     0    57     1     7
 -1.4579390552536131E-01 a      1128     0    57     1     8
 -1.1010845140892528E-01 a      1129     0    57     1     9
  3.8624567377285396E-01 a      1130     0    57     1    10
 -9.2153345677944420E-03 a      1131     0    57     1    11
 -2.8610795694473784E-01 a      1132     0    57     1    12
  4.5162329035728604E-01 a      1133     0    57     1    13
  4.4358475667795605E-01 a      1134     0    57     1    14
  9.4505547302859733E-02 a      1135     0    57     1    15
  1.6673767892323951E-01 a      1136     0    57     1    16
  6.7149462186586539E-01 a      1137     0    57     1    17
  7.6040147258973456E-02 a      1138     0    57     1    18
  1.6031728134415735E-01 a      1139     0    57     1    19
  2.8621881728292159E-01 a      1140     0    57     1    20
  1.1824392281020077E-01 a      1141     0    58     1     1
 -1.2670727336099369E-01 a      1142     0    58     1     2
  1.7166307648345788E-01 a      1143     0    58     1     3
 -1.1914675108147418E-01 a      1144     0    58     1     4
  1.5098677018883766E-02 a      1145     0    58     1     5
  2.2873350593300274E-02 a      1146     0    58     1     6
  2.9616455670463226E-01 a      1147     0    58     1     7
 -4.2055637261104600E-01 a      1148     0    58     1     8
  4.2704357129208020E-01 a      1149     0    58     1     9
 -2.9115825843825108E-02 a      1150     0    58     1    10
 -2.3529150073887536E-01 a      1151     0    58     1    11
  4.5818468856746675E-01 a      1152     0    58     1    12
 -4.7046158662384881E-02 a      1153     0    58     1    13
 -2.2953965986960367E-02 a      1154     0    58     1    14
  2.2331796189634584E-01 a      1155     0    58     1    15
  3.4398315926427214E-01 a      1156     0    58     1    16
 -1.6148461037313641E-01 a      1157     0    58     1    17
  4.0491875335267508E-01 a      1158     0    58     1    18
 -2.6298035243272411E-01 a      1159     0    58     1    19
 -8.4879732662845236E-02 a      1160     0    58     1    20
  2.0023225570563968E-01 a      1161     0    59     1     1
  2.1282209196460167E-01 a      1162     0    59     1     2
 -2.4191185230236062E-01 a      1163     0    59     1     3
 -1.0263447654580179E-01 a      1164     0    59     1     4
  3.2197898537016899E-02 a      1165     0    59     1     5
 -3.2653273182009901E-01 a      1166     0    59     1     6
  3.3331271445408700E-01 a      1167     0    59     1     7
 -2.7636716439246360E-02 a      1168     0    59     1     8
 -3.0014532861921062E-01 a      1169     0    59     1     9
 -3.0113763719151682E-01 a      1170     0    59     1    10
  1.5594777198909349E-01 a      1171     0    59     1    11
  1.3979062175692586E-01 a      1172     0    59     1    12
 -9.5060651218283498E-02 a      1173     0    59     1    13
 -1.7788949913102284E-01 a      1174     0    59     1    14
 -2.2920743931667251E-02 a      1175     0    59     1    15
  9.5327866950911583E-02 a      1176     0    59     1    16
 -4.5412677886380072E-02 a      1177     0    59     1    17
  1.6864043916422630E-01 a      1178     0    59     1    18
 -9.0617579952632199E-02 a      1179     0    59     1    19
 -1.3101244718477162E-01 a      1180     0    59     1    20
 -4.6986790655158134E-01 a      1181     0    60     1     1
 -7.2682036072213008E-01 a      1182     0    60     1     2
 -3.0075413348881103E-01 a      1183     0    60     1     3
 -5.5591794783803931E-02 a      1184     0    60     1     4
 -5.0063974547317780E-01 a      1185     0    60     1     5
  6.5560199549608122E-01 a      1186     0    60     1     6
 -6.2085837824782819E-01 a      1187     0    60     1     7
 -2.0132657560330601E-03 a      1188     0    60     1     8
  1.2402253868962294E+00 a      1189     0    60     1     9
  5.9999036494794822E-01 a      1190     0    60     1    10
  1.4295648770675745E-01 a      1191     0    60     1    11
  4.1303195689193516E-02 a      1192     0    60     1    12
  8.1307148234544813E-01 a      1193     0    60     1    13
  1.0126972105356427E+00 a      1194     0    60     1    14
  4.9000993928488767E-01 a      1195     0    60     1    15
  4.8607891140980020E-01 a      1196     0    60     1    16
  5.5706612604989891E-01 a      1197     0    60     1    17
  9.4022640321246997E-01 a      1198     0    60     1    18
  3.1208116365218370E-02 a      1199     0    60     1    19
  1.1021494820635480E-01 a      1200     0    60     1    20
  2.3130980612836047E-01 a      1201     0    61     1     1
 -1.2960190157319780E-02 a      1202     0    61     1     2
  2.4978001715522602E-01 a      1203     0    61     1     3
  1.1850964704259120E-01 a      1204     0    61     1     4
  1.9602388728202505E-01 a      1205     0    61     1     5
 -1.4800369110009895E-01 a      1206     0    61     1     6
  3.4161422244983097E-01 a      1207     0    61     1     7
 -1.3811304539961300E-01 a      1208     0    61     1     8
 -1.8192132311125808E-01 a      1209     0    61     1     9
 -5.6563431357092220E-01 a      1210     0    61     1    10
  1.0690191335266705E-01 a      1211     0    61     1    11
  5.1874183173205579E-01 a      1212     0    61     1    12
 -4.5390668861919758E-01 a      1213     0    61     1    13
 -5.4624824069527300E-01 a      1214     0    61     1    14
 -3.3392358434854726E-02 a      1215     0    61     1    15
  4.5845217555711207E-02 a      1216     0    61     1    16
 -5.2932847991742582E-01 a      1217     0    61     1    17
 -2.0770211353360396E-01 a      1218     0    61     1    18
  8.9462980874187269E-03 a      1219     0    61     1    19
 -3.2673793252827404E-02 a      1220     0    61     1    20
 -1.4388298147316902E-01 a      1221     0    62     1     1
  2.1928673623705877E-01 a      1222     0    62     1     2
  1.7638005937109819E-02 a      1223     0    62     1     3
  2.6756452039119061E-01 a      1224     0    62     1     4
 -1.8139087053685560E-01 a      1225     0    62     1     5
 -2.2200885768688575E-02 a      1226     0    62     1     6
  3.7237107566870270E-01 a      1227     0    62     1     7
 -1.4819943501738139E-01 a      1228     0    62     1     8
  1.1029079124425241E-01 a      1229     0    62     1     9
 -2.0240817271525757E-01 a      1230     0    62     1    10
 -1.8192013495686640E-01 a      1231     0    62     1    11
  1.2090447804162090E-01 a      1232     0    62     1    12
 -5.1358351261556717E-02 a      1233     0    62     1    13
 -1.9263166151132324E-01 a      1234     0    62     1    14
 -1.9089493876833036E-02 a      1235     0    62     1    15
  8.8789766560919969E-02 a      1236     0    62     1    16
 -9.7082010939286617E-02 a      1237     0    62     1    17
  1.2124944444149298E-01 a      1238     0    62     1    18
  8.8905236439122168E-02 a      1239     0    62     1    19
 -2.2506638283498470E-02 a      1240     0    62     1    20
 -2.6361194711168041E-03 a      1241     0    63     1     1
 -2.9148926292118221E-01 a      1242     0    63     1     2
  3.3591590011470912E-01 a      1243     0    63     1     3
  2.1734372493183951E-01 a      1244     0    63     1     4
  3.5663814727919940E-01 a      1245     0    63     1     5
  6.1315089849943251E-02 a      1246     0    63     1     6
  2.0404953764332982E-02 a      1247     0    63     1     7
  1.4050635318104196E-01 a      1248     0    63     1     8
 -8.0878876411621198E-02 a      1249     0    63     1     9
 -1.8812187824637058E-01 a      1250     0    63     1    10
  2.3442796602047930E-01 a      1251     0    63     1    11
  2.3768567017723333E-04 a      1252     0    63     1    12
  1.5836980380619717E-01 a      1253     0    63     1    13
 -3.8722100035402474E-01 a      1254     0    63     1    14
 -9.7443080407393096E-03 a      1255     0    63     1    15
 -1.1231070655180690E-01 a      1256     0    63     1    16
 -3.0203610723664071E-01 a      1257     0    63     1    17
  1.3367148030802473E-01 a      1258     0    63     1    18
 -1.3501869057948643E-01 a      1259     0    63     1    19
 -2.5330192380982730E-01 a      1260     0    63     1    20
  9.3430251324411920E-02 a      1261     0    64     1     1
  9.4153078027340048E-02 a      1262     0    64     1     2
  1.9819273638254134E-01 a      1263     0    64     1     3
 -1.1099493360166052E-01 a      1264     0    64     1     4
  8.1088609114381485E-04 a      1265     0    64     1     5
 -2.2861461929513677E-01 a      1266     0    64     1     6
  6.1590417831477173E-01 a      1267     0    64     1     7
 -2.0387636257202718E-01 a      1268     0    64     1     8
 -3.9479856006352937E-01 a      1269     0    64     1     9
 -3.0018298479695926E-01 a      1270     0    64     1    10
  1.7071494027362030E-01 a      1271     0    64     1    11
  1.1853665501504189E-01 a      1272     0    64     1    12
 -3.5949246144187458E-01 a      1273     0    64     1    13
 -3.4326796966076389E-01 a      1274     0    64     1    14
  1.4610454363543274E-01 a      1275     0    64     1    15
 -1.0811571097498118E-01 a      1276     0    64     1    16
 -3.6689878494548733E-01 a      1277     0    64     1    17
 -3.2819132376303356E-01 a      1278     0    64     1    18
 -1.0833870188574855E-01 a      1279     0    64     1    19
 -3.0901079741220396E-02 a      1280     0    64     1    20
  8.5102242846744183E-02 a      1281     0    65     1     1
  5.9381463752811545E-02 a      1282     0    65     1     2
 -3.1158801657208485E-01 a      1283     0    65     1     3
  1.8318746401607885E-01 a      1284     0    65     1     4
 -2.2725179531764989E-01 a      1285     0    65     1     5
  1.1669724037264685E-01 a      1286     0    65     1     6
  1.2518608973066181E-01 a      1287     0    65     1     7
  2.0984835085870387E-03 a      1288     0    65     1     8
  1.4234150732924999E-02 a      1289     0    65     1     9
  3.8302531817109488E-03 a      1290     0    65     1    10
 -1.4867466291651824E-01 a      1291     0    65     1    11
  1.0274015733238000E-01 a      1292     0    65     1    12
 -9.2407469504740700E-02 a      1293     0    65     1    13
 -5.3578984257262825E-02 a      1294     0    65     1    14
  3.6709561155966680E-01 a      1295     0    65     1    15
 -1.7549254579057996E-02 a      1296     0    65     1    16
 -4.8167486091238984E-02 a      1297     0    65     1    17
 -8.6923365834077324E-02 a      1298     0    65     1    18
 -2.9597521643098901E-01 a      1299     0    65     1    19
  9.9330516637423497E-02 a      1300     0    65     1    20
 -8.2632106373233982E-02 a      1301     0    66     1     1
 -8.7828902480184531E-02 a      1302     0    66     1     2
  4.4609206569396403E-01 a      1303     0    66     1     3
  1.1606871192071291E-01 a      1304     0    66     1     4
  4.0462448579782545E-03 a      1305     0    66     1     5
 -1.3627017342458342E-01 a      1306     0    66     1     6
 -3.9510899653527616E-02 a      1307     0    66     1     7
 -1.5454085272920029E-01 a      1308     0    66     1     8
 -2.7682784003377658E-01 a      1309     0    66     1     9
 -1.4415414151899825E-01 a      1310     0    66     1    10
  5.1417443413285462E-02 a      1311     0    66     1    11
 -7.2372625754160744E-02 a      1312     0    66     1    12
 -4.3650650540079529E-02 a      1313     0    66     1    13
 -3.8344916538302887E-01 a      1314     0    66     1    14
 -1.4407753404242132E-02 a      1315     0    66     1    15
  1.2575118981777544E-01 a      1316     0    66     1    16
 -2.9269773594988957E-01 a      1317     0    66     1    17
 -1.8897368419881089E-01 a      1318     0    66     1    18
 -1.3249791605074001E-03 a      1319     0    66     1    19
 -1.8716887044005925E-01 a      1320     0    66     1    20
 -5.0590610638040705E-02 a      1321     0    67     1     1
  1.9084858249524053E-01 a      1322     0    67     1     2
  1.8638075566440834E-01 a      1323     0    67     1     3
  1.5302831384057106E-01 a      1324     0    67     1     4
  7.5581317452154073E-02 a      1325     0    67     1     5
  3.3946403602960522E-02 a      1326     0    67     1     6
  1.6290065999396341E-01 a      1327     0    67     1     7
 -2.5849458804157655E-01 a      1328     0    67     1     8
 -1.9571561360628831E-01 a      1329     0    67     1     9
 -3.0222610201076883E-01 a      1330     0    67     1    10
 -1.2233175854796362E-01 a      1331     0    67     1    11
 -1.6352762835049681E-01 a      1332     0    67     1    12
 -4.0245809202066812E-01 a      1333     0    67     1    13
 -2.0527661457975258E-01 a      1334     0    67     1    14
 -3.6452034337508121E-01 a      1335     0    67     1    15
 -1.4568690695066810E-01 a      1336     0    67     1    16
 -5.8753504744152996E-01 a      1337     0    67     1    17
  3.8075576744412899E-02 a      1338     0    67     1    18
 -4.8954309571401761E-02 a      1339     0    67     1    19
 -2.6247359491710848E-01 a      1340     0    67     1    20
  1.0469643861164026E-01 a      1341     0    68     1     1
  3.1785277382305334E-02 a      1342     0    68     1     2
  4.2398071737671905E-01 a      1343     0    68     1     3
 -5.4600723745146615E-02 a      1344     0    68     1     4
  8.2456306901094223E-01 a      1345     0    68     1     5
 -6.7211151635107069E-01 a      1346     0    68     1     6
  7.3125065482475504E-01 a      1347     0    68     1     7
  2.0007510688752883E-01 a      1348     0    68     1     8
 -7.8692176505207365E-02 a      1349     0    68     1     9
 -7.4870480966813890E-01 a      1350     0    68     1    10
  2.8156091361022895E-01 a      1351     0    68     1    11
  3.9608497085164528E-02 a      1352     0    68     1    12
 -4.4475942549335501E-01 a      1353     0    68     1    13
 -8.8190384747375661E-01 a      1354     0    68     1    14
 -1.4970873269007071E-01 a      1355     0    68     1    15
  2.6224249078722891E-02 a      1356     0    68     1    16
 -5.1181755964532172E-01 a      1357     0    68     1    17
 -1.8429900911452651E-01 a      1358     0    68     1    18
 -6.8965235517983936E-01 a      1359     0    68     1    19
 -8.7417291953421669E-02 a      1360     0    68     1    20
  1.1980940954813166E-01 a      1361     0    69     1     1
  1.7925878962039588E-01 a      1362     0    69     1     2
  1.0998320009652771E-01 a      1363     0    69     1     3
 -3.5054186191366146E-02 a      1364     0    69     1     4
 -2.4280337830759247E-01 a      1365     0    69     1     5
 -1.2793794301771275E-01 a      1366     0    69     1     6
  4.0342216408633852E-01 a      1367     0    69     1     7
 -2.7221578225514503E-02 a      1368     0    69     1     8
 -2.3426641939426707E-01 a      1369     0    69     1     9
 -4.3569259340439086E-02 a      1370     0    69     1    10
  1.4396608567132366E-01 a      1371     0    69     1    11
  3.7242490940460415E-01 a      1372     0    69     1    12
 -1.4820473949778631E-01 a      1373     0    69     1    13
 -4.5108847040386046E-01 a      1374     0    69     1    14
  3.9370376044891374E-02 a      1375     0    69     1    15
  1.4178147116609052E-01 a      1376     0    69     1    16
  1.7066706301518200E-01 a      1377     0    69     1    17
 -2.2737406487353878E-01 a      1378     0    69     1    18
 -5.3817003411162662E-02 a      1379     0    69     1    19
  2.1507952694714885E-01 a      1380     0    69     1    20
  5.4569164521214589E-02 a      1381     0    70     1     1
 -2.1887539140410595E-01 a      1382     0    70     1     2
 -1.9802581529169530E-01 a      1383     0    70     1     3
  5.2131098992325667E-02 a      1384     0    70     1     4
 -3.7541844499465921E-01 a      1385     0    70     1     5
  7.9823065177479099E-02 a      1386     0    70     1     6
  2.0933084773833458E-03 a      1387     0    70     1     7
 -1.4738738399507817E-01 a      1388     0    70     1     8
 -4.4784304213409681E-01 a      1389     0    70     1     9
 -2.1703219261670637E-01 a      1390     0    70     1    10
 -6.1566961151588946E-02 a      1391     0    70     1    11
 -2.6958300767444085E-02 a      1392     0    70     1    12
 -3.2073398320741013E-02 a      1393     0    70     1    13
 -8.9869344862842718E-03 a      1394     0    70     1    14
 -7.4789431502231912E-02 a      1395     0    70     1    15
  9.0916735517069303E-02 a      1396     0    70     1    16
  1.9487886199728750E-02 a      1397     0    70     1    17
 -2.6263693899130391E-01 a      1398     0    70     1    18
  2.9090293259470362E-02 a      1399     0    70     1    19
  8.5933911257737763E-02 a      1400     0    70     1    20
 -1.4031267554385535E-01 a      1401     0    71     1     1
 -2.0409364335900343E-01 a      1402     0    71     1     2
 -7.0050312847224694E-01 a      1403     0    71     1     3
 -5.4147997300579254E-01 a      1404     0    71     1     4
 -1.8089762447590552E-01 a      1405     0    71     1     5
  3.3325937808851724E-01 a      1406     0    71     1     6
 -4.3932548867069549E-01 a      1407     0    71     1     7
 -4.1505971004239554E-03 a      1408     0    71     1     8
 -7.9650346298216643E-02 a      1409     0    71     1     9
  4.3883230949186691E-01 a      1410     0    71     1    10
 -1.5969240522398986E-01 a      1411     0    71     1    11
 -1.3328497704058725E-01 a      1412     0    71     1    12
  3.1775756497151314E-01 a      1413     0    71     1    13
  2.9419384453678032E-01 a      1414     0    71     1    14
  7.8399683335889470E-01 a      1415     0    71     1    15
  1.2373138458424141E-01 a      1416     0    71     1    16
  4.2373674823101076E-01 a      1417     0    71     1    17
 -4.5734464676124154E-01 a      1418     0    71     1    18
  2.6279091907009394E-01 a      1419     0    71     1    19
  6.1339072225197910E-01 a      1420     0    71     1    20
  1.5354807683219662E-01 a      1421     0    72     1     1
  1.8845287398641294E-01 a      1422     0    72     1     2
 -1.0199476103307466E-02 a      1423     0    72     1     3
 -2.3818387904584781E-01 a      1424     0    72     1     4
 -1.5393493354967991E-01 a      1425     0    72     1     5
  4.1158648987134150E-01 a      1426     0    72     1     6
 -5.3377174235294667E-01 a      1427     0    72     1     7
 -2.6446232564880651E-01 a      1428     0    72     1     8
  3.0144502765380499E-01 a      1429     0    72     1     9
  2.6192929549458732E-01 a      1430     0    72     1    10
 -9.3007852229159901E-02 a      1431     0    72     1    11
 -2.8393656928201594E-01 a      1432     0    72     1    12
 -5.7716415607248141E-02 a      1433     0    72     1    13
  7.3462286771017815E-01 a      1434     0    72     1    14
 -2.6645041848653305E-02 a      1435     0    72     1    15
 -1.8665349922606083E-02 a      1436     0    72     1    16
 -3.6640632804719370E-01 a      1437     0    72     1    17
  6.9762082874228071E-01 a      1438     0    72     1    18
 -1.2538363769686944E-01 a      1439     0    72     1    19
 -2.3533862149763066E-01 a      1440     0    72     1    20
 -3.2609246688249033E-01 a      1441     0    73     1     1
  5.5735434780483033E-02 a      1442     0    73     1     2
 -2.3937651318008396E-01 a      1443     0    73     1     3
  1.2515475087488653E-01 a      1444     0    73     1     4
 -1.0751726369586054E-01 a      1445     0    73     1     5
  1.6908598163322131E-01 a      1446     0    73     1     6
  1.8508591930751372E-01 a      1447     0    73     1     7
 -2.3401570581587572E-01 a      1448     0    73     1     8
  1.4418916391255979E-01 a      1449     0    73     1     9
 -6.0391938103544603E-02 a      1450     0    73     1    10
  9.4520588382356871E-02 a      1451     0    73     1    11
  4.5785350841128919E-02 a      1452     0    73     1    12
  5.7944412446380981E-02 a      1453     0    73     1    13
  7.7824301030212567E-02 a      1454     0    73     1    14
  4.1772550754428162E-01 a      1455     0    73     1    15
  4.7616588799029934E-02 a      1456     0    73     1    16
  3.1510317630604667E-01 a      1457     0    73     1    17
 -2.5352707019885640E-01 a      1458     0    73     1    18
 -1.8396367937995065E-01 a      1459     0    73     1    19
  2.7122633190941725E-01 a      1460     0    73     1    20
 -3.5804593117109332E-02 a      1461     0    74     1     1
 -1.7268943925567162E-01 a      1462     0    74     1     2
  5.8889478167653678E-02 a      1463     0    74     1     3
 -9.4106795814635352E-02 a      1464     0    74     1     4
  4.6395187139407053E-02 a      1465     0    74     1     5
  3.2027843684594964E-01 a      1466     0    74     1     6
 -9.0194623642099792E-02 a      1467     0    74     1     7
  2.2154015345472100E-01 a      1468     0    74     1     8
  5.2999599382658871E-02 a      1469     0    74     1     9
  2.7579473992220821E-01 a      1470     0    74     1    10
  2.9114716432483223E-01 a      1471     0    74     1    11
  1.6420356912358844E-01 a      1472     0    74     1    12
  1.4929239885951240E-01 a      1473     0    74     1    13
 -1.1705773540481516E-01 a      1474     0    74     1    14
  1.9924764430984843E-01 a      1475     0    74     1    15
  7.0902923796089451E-02 a      1476     0    74     1    16
 -9.5339810236474754E-02 a      1477     0    74     1    17
  8.7152341038598969E-03 a      1478     0    74     1    18
 -3.1822989406457913E-01 a      1479     0    74     1    19
  3.8706641765787403E-01 a      1480     0    74     1    20
  2.0934535762585951E-01 a      1481     0    75     1     1
  2.8927630950329447E-01 a      1482     0    75     1     2
  1.1925242089595481E-01 a      1483     0    75     1     3
  4.2523462953658928E-02 a      1484     0    75     1     4
  1.5382080623737338E-01 a      1485     0    75     1     5
 -2.5266259914763706E-01 a      1486     0    75     1     6
 -6.3700762132944136E-02 a      1487     0    75     1     7
  6.6596037184239107E-02 a      1488     0    75     1     8
 -3.3153885684857226E-01 a      1489     0    75     1     9
 -2.1677395758850720E-01 a      1490     0    75     1    10
 -9.7456879042177966E-02 a      1491     0    75     1    11
 -6.4921586307024493E-02 a      1492     0    75     1    12
 -1.3656988355691244E-01 a      1493     0    75     1    13
  7.6885442968058396E-02 a      1494     0    75     1    14
 -2.8566288367204651E-01 a      1495     0    75     1    15
 -1.3903309420678495E-01 a      1496     0    75     1    16
 -4.8065758657176688E-01 a      1497     0    75     1    17
  5.0652154298470298E-01 a      1498     0    75     1    18
 -1.6629985790649437E-01 a      1499     0    75     1    19
 -4.1327671918797537E-01 a      1500     0    75     1    20
  1.2350471671968771E-01 a      1501     0    76     1     1
  1.0304665498297710E-01 a      1502     0    76     1     2
 -2.2821893606732124E-01 a      1503     0    76     1     3
 -1.5523791390217409E-01 a      1504     0    76     1     4
 -2.4824126718072831E-01 a      1505     0    76     1     5
  1.7842838746901651E-01 a      1506     0    76     1     6
 -2.5809301703171206E-01 a      1507     0    76     1     7
 -1.7255473473033511E-01 a      1508     0    76     1     8
  4.5250320825600931E-01 a      1509     0    76     1     9
 -1.1280586373263009E-01 a      1510     0    76     1    10
 -1.9738209996591002E-01 a      1511     0    76     1    11
  6.9008093661487746E-02 a      1512     0    76     1    12
  1.0800604851679257E-01 a      1513     0    76     1    13
  6.7223130114611757E-02 a      1514     0    76     1    14
  7.5391564834755911E-02 a      1515     0    76     1    15
  3.1872402955231055E-01 a      1516     0    76     1    16
  3.7529671596410165E-02 a      1517     0    76     1    17
  1.3680287660005855E-01 a      1518     0    76     1    18
 -8.8582962196816523E-02 a      1519     0    76     1    19
  9.7975907890990713E-02 a      1520     0    76     1    20
  1.8940813351947458E-01 a      1521     0    77     1     1
  3.0687442873657295E-01 a      1522     0    77     1     2
  3.1742407439457027E-01 a      1523     0    77     1     3
  2.1654354997541636E-01 a      1524     0    77     1     4
  4.1093481811653193E-01 a      1525     0    77     1     5
 -3.3196369240773904E-01 a      1526     0    77     1     6
  2.7784744633502634E-01 a      1527     0    77     1     7
 -3.3326166659094142E-01 a      1528     0    77     1     8
 -3.8428321359133316E-01 a      1529     0    77     1     9
 -5.3972314026747792E-01 a      1530     0    77     1    10
  7.5419820054913420E-02 a      1531     0    77     1    11
 -5.6648210971883300E-02 a      1532     0    77     1    12
 -2.7885757248889798E-01 a      1533     0    77     1    13
 -6.8305210933810667E-01 a      1534     0    77     1    14
  6.6126061920582001E-03 a      1535     0    77     1    15
  1.7965552930203166E-01 a      1536     0    77     1    16
 -4.2067993750612398E-01 a      1537     0    77     1    17
 -2.7445731914814353E-01 a      1538     0    77     1    18
 -2.4969895324788369E-02 a      1539     0    77     1    19
  7.6159069324342785E-02 a      1540     0    77     1    20
 -5.1668706710939752E-03 a      1541     0    78     1     1
 -2.1026170439775729E-01 a      1542     0    78     1     2
 -3.9195865345573194E-01 a      1543     0    78     1     3
 -1.4319653970630392E-01 a      1544     0    78     1     4
 -8.7619833198545799E-02 a      1545     0    78     1     5
  2.4477895683219444E-01 a      1546     0    78     1     6
 -1.9254561460770137E-02 a      1547     0    78     1     7
  2.6211735480074827E-02 a      1548     0    78     1     8
  1.0432827888880750E-01 a      1549     0    78     1     9
  1.8823597261612637E-01 a      1550     0    78     1    10
 -1.4548567630973586E-01 a      1551     0    78     1    11
  8.8344231566304776E-02 a      1552     0    78     1    12
  3.3307773683678554E-01 a      1553     0    78     1    13
 -3.4429256090222703E-02 a      1554     0    78     1    14
  1.7516938030984264E-01 a      1555     0    78     1    15
  1.0272564321763512E-01 a      1556     0    78     1    16
  2.2572805013496003E-01 a      1557     0    78     1    17
 -1.7049655269187711E-01 a      1558     0    78     1    18
 -1.0331305779915121E-02 a      1559     0    78     1    19
  1.5123495820489771E-01 a      1560     0    78     1    20
  5.4427367063841971E-02 a      1561     0    79     1     1
  7.6477717053176131E-02 a      1562     0    79     1     2
 -4.0913962908571445E-03 a      1563     0    79     1     3
  2.4341400217159131E-01 a      1564     0    79     1     4
 -1.0654132157455459E-01 a      1565     0    79     1     5
  3.6251305913766341E-01 a      1566     0    79     1     6
  2.2449842584710991E-01 a      1567     0    79     1     7
  7.3723556223425121E-02 a      1568     0    79     1     8
 -2.5011120477241083E-01 a      1569     0    79     1     9
 -1.6437078254312834E-01 a      1570     0    79     1    10
  3.1203112567455099E-01 a      1571     0    79     1    11
  2.8656864210468430E-01 a      1572     0    79     1    12
 -1.2494801480164440E-01 a      1573     0    79     1    13
 -1.7072649753414426E-01 a      1574     0    79     1    14
  6.8581456241574371E-02 a      1575     0    79     1    15
  7.4751265138893769E-02 a      1576     0    79     1    16
 -4.0388692746287487E-02 a      1577     0    79     1    17
 -1.1519019529739048E-01 a      1578     0    79     1    18
  1.7530352233440785E-01 a      1579     0    79     1    19
  4.2061833073707600E-01 a      1580     0    79     1    20
 -7.1752229020753192E-02 a      1581     0    80     1     1
 -1.1686129375815762E-01 a      1582     0    80     1     2
  5.4859084692930327E-01 a      1583     0    80     1     3
  2.1206012040241998E-01 a      1584     0    80     1     4
  4.2740302601185381E-01 a      1585     0    80     1     5
 -4.7611596531109368E-01 a      1586     0    80     1     6
  7.6015754397909563E-01 a      1587     0    80     1     7
  1.3288595391384664E-01 a      1588     0    80     1     8
 -3.6311138661625264E-01 a      1589     0    80     1     9
 -3.8657666213202119E-01 a      1590     0    80     1    10
  4.7791495895630115E-02 a      1591     0    80     1    11
  5.4751328065779249E-03 a      1592     0    80     1    12
 -1.8887199367427573E-01 a      1593     0    80     1    13
 -1.0960340067335768E+00 a      1594     0    80     1    14
 -1.3089456031689400E-01 a      1595     0    80     1    15
 -7.0019396073790083E-02 a      1596     0    80     1    16
 -6.9776914731285111E-01 a      1597     0    80     1    17
 -5.5303290007732286E-01 a      1598     0    80     1    18
 -2.3752471398984404E-01 a      1599     0    80     1    19
 -3.7833583327961584E-01 a      1600     0    80     1    20
  2.4349861906226636E-01 a      1601     0    81     1     1
 -1.5997243790103619E-02 a      1602     0    81     1     2
  3.6721758206938354E-01 a      1603     0    81     1     3
  5.6712277635526012E-02 a      1604     0    81     1     4
  2.5671007938709128E-01 a      1605     0    81     1     5
 -4.8101602508987547E-02 a      1606     0    81     1     6
 -1.0644654623868278E-01 a      1607     0    81     1     7
 -5.3983712105096913E-02 a      1608     0    81     1     8
  1.7370616048893037E-01 a      1609     0    81     1     9
  9.2544944386346098E-02 a      1610     0    81     1    10
  2.5630709515394207E-01 a      1611     0    81     1    11
 -4.9892979490917637E-02 a      1612     0    81     1    12
 -1.5357287095431956E-02 a      1613     0    81     1    13
 -1.0742768995223823E-01 a      1614     0    81     1    14
 -8.9422385400022598E-03 a      1615     0    81     1    15
  5.8533183802048638E-01 a      1616     0    81     1    16
 -1.5329663452668582E-01 a      1617     0    81     1    17
  3.6130283244346972E-01 a      1618     0    81     1    18
 -1.5714927835230774E-01 a      1619     0    81     1    19
  2.3080501667869999E-01 a      1620     0    81     1    20
 -3.5622166988501236E-01 a      1621     0    82     1     1
 -1.1139282941532733E-01 a      1622     0    82     1     2
 -2.1005212942006291E-01 a      1623     0    82     1     3
