################################################################################
# Neural network connection values (weights and biases).
################################################################################
# Col  Name       Description
################################################################################
# 1    connection Neural network connection value.
# 2    t          Connection type (a = weight, b = bias).
# 3    index      Index enumerating weights.
# 4    l_s        Starting point layer (end point layer for biases).
# 5    n_s        Starting point neuron in starting layer (end point neuron for biases).
# 6    l_e        End point layer.
# 7    n_e        End point neuron in end layer.
################################################################################
#                      1 2         3     4     5     6     7
#             connection t     index   l_s   n_s   l_e   n_e
############################################################
 -2.0984420041647656E-01 a         1     0     1     1     1
 -4.5730255563055648E-02 a         2     0     1     1     2
 -2.2339638339432433E-01 a         3     0     1     1     3
  5.6561505976979831E-01 a         4     0     1     1     4
  1.5258259192998089E-01 a         5     0     1     1     5
  3.4813495349625107E-01 a         6     0     1     1     6
  1.3400190125745834E-01 a         7     0     1     1     7
  7.6258490968434089E-01 a         8     0     1     1     8
  7.3160943567632719E-01 a         9     0     1     1     9
 -2.2073917972773102E-01 a        10     0     1     1    10
 -5.8758223575128654E-01 a        11     0     1     1    11
 -3.9676726534853102E-02 a        12     0     1     1    12
 -2.7324401646716145E-01 a        13     0     1     1    13
  2.1441487582321642E-01 a        14     0     1     1    14
 -5.7993387635877425E-01 a        15     0     1     1    15
  2.6432010632736563E-01 a        16     0     1     1    16
  2.7334324465393248E-02 a        17     0     1     1    17
  6.2828066179869801E-01 a        18     0     1     1    18
 -1.1805609660314127E-01 a        19     0     1     1    19
 -2.2617615210761158E-01 a        20     0     1     1    20
 -4.0952698414114454E-02 a        21     0     2     1     1
  4.6921123117232810E-01 a        22     0     2     1     2
  5.1812261942603111E-01 a        23     0     2     1     3
  5.1058415935875412E-01 a        24     0     2     1     4
  1.7978712748581710E-01 a        25     0     2     1     5
 -5.6665592246950491E-01 a        26     0     2     1     6
  7.3556086901270116E-03 a        27     0     2     1     7
 -2.8405107654629524E-01 a        28     0     2     1     8
  6.3732583430601264E-01 a        29     0     2     1     9
  1.1517022673849482E+00 a        30     0     2     1    10
  2.2272977978679878E-01 a        31     0     2     1    11
  6.1008457519689452E-01 a        32     0     2     1    12
 -1.9853253299781973E-01 a        33     0     2     1    13
 -1.5179711046175615E-01 a        34     0     2     1    14
 -6.6629087066150547E-02 a        35     0     2     1    15
  1.2728618948653248E+00 a        36     0     2     1    16
 -3.4365693148695703E-01 a        37     0     2     1    17
 -8.7938798804158824E-01 a        38     0     2     1    18
 -5.2377618287941197E-01 a        39     0     2     1    19
  3.4575508079339273E-01 a        40     0     2     1    20
 -3.3293183630392265E-01 a        41     0     3     1     1
  7.3822606259310003E-02 a        42     0     3     1     2
 -4.3453780051850494E-01 a        43     0     3     1     3
 -1.1787987547319764E-01 a        44     0     3     1     4
 -9.7564632226152415E-02 a        45     0     3     1     5
 -1.5146128433649880E-01 a        46     0     3     1     6
 -6.3805770719205945E-01 a        47     0     3     1     7
  5.0748861412847146E-01 a        48     0     3     1     8
  1.6000636347291033E-01 a        49     0     3     1     9
  4.9617212934104005E-01 a        50     0     3     1    10
 -5.7322553815340493E-01 a        51     0     3     1    11
  5.7178234850412424E-01 a        52     0     3     1    12
 -6.7134611141437636E-02 a        53     0     3     1    13
 -3.4680386513331535E-01 a        54     0     3     1    14
  9.1711099946720331E-02 a        55     0     3     1    15
  5.8946734585222915E-01 a        56     0     3     1    16
 -2.9404129456205530E-01 a        57     0     3     1    17
 -7.4444302316286654E-02 a        58     0     3     1    18
  7.5600022709516834E-01 a        59     0     3     1    19
  1.2509434427132013E-01 a        60     0     3     1    20
  5.7499870919077434E-01 a        61     0     4     1     1
  6.3315245597230019E-01 a        62     0     4     1     2
 -6.7560688211465644E-02 a        63     0     4     1     3
 -1.0062447582785919E-02 a        64     0     4     1     4
  2.6622751047880588E-01 a        65     0     4     1     5
  2.5366528565212793E-01 a        66     0     4     1     6
  1.0561058458811687E+00 a        67     0     4     1     7
 -4.9466516803380635E-02 a        68     0     4     1     8
  2.5873862121697105E-02 a        69     0     4     1     9
 -2.8911487600362518E-01 a        70     0     4     1    10
  5.9917059099634773E-01 a        71     0     4     1    11
 -2.5605900616704741E-01 a        72     0     4     1    12
 -3.0805223550321609E-01 a        73     0     4     1    13
  3.0034700436614098E-01 a        74     0     4     1    14
 -5.0244888803106658E-01 a        75     0     4     1    15
 -8.0923783946204508E-01 a        76     0     4     1    16
  1.1676632630632093E+00 a        77     0     4     1    17
 -4.7939874321347935E-02 a        78     0     4     1    18
 -7.3375244606896028E-01 a        79     0     4     1    19
  5.8654694744658113E-02 a        80     0     4     1    20
 -2.2076992930362579E-01 a        81     0     5     1     1
 -4.7792554046108532E-01 a        82     0     5     1     2
 -1.0140143225065175E+00 a        83     0     5     1     3
 -4.1983557729704224E-01 a        84     0     5     1     4
  3.5954349494702040E-02 a        85     0     5     1     5
  7.6340431495288419E-01 a        86     0     5     1     6
 -1.4602388638724093E+00 a        87     0     5     1     7
 -2.9914626357400707E+00 a        88     0     5     1     8
 -8.7486372427861558E-01 a        89     0     5     1     9
 -7.6960170871427080E-01 a        90     0     5     1    10
 -1.0236594245106914E+00 a        91     0     5     1    11
 -1.0648032664823166E+00 a        92     0     5     1    12
  7.3112432717531739E-01 a        93     0     5     1    13
  5.0619785757828606E-01 a        94     0     5     1    14
  1.5050880812387368E+00 a        95     0     5     1    15
 -7.0103375630779108E-01 a        96     0     5     1    16
 -4.2945311103212785E-01 a        97     0     5     1    17
  1.2476567393328475E+00 a        98     0     5     1    18
  5.7662154023631840E-01 a        99     0     5     1    19
  5.2203019633781411E-01 a       100     0     5     1    20
  9.3562734525063598E-02 a       101     0     6     1     1
  2.2480646322588843E-01 a       102     0     6     1     2
  3.3916325623070454E-01 a       103     0     6     1     3
  1.7276412535983801E-01 a       104     0     6     1     4
 -1.8040058922528018E-01 a       105     0     6     1     5
 -4.9871282765129926E-01 a       106     0     6     1     6
  3.5702819957666770E-01 a       107     0     6     1     7
 -2.7825402391443244E-01 a       108     0     6     1     8
 -3.3924541626663901E-01 a       109     0     6     1     9
  4.7098606518352787E-01 a       110     0     6     1    10
  6.5785470614268460E-01 a       111     0     6     1    11
 -9.3854739083161665E-02 a       112     0     6     1    12
  7.0086910884510745E-02 a       113     0     6     1    13
 -7.7895134785687242E-02 a       114     0     6     1    14
  2.3626188048985108E-01 a       115     0     6     1    15
  3.6914330695902731E-01 a       116     0     6     1    16
  9.2026281854163776E-03 a       117     0     6     1    17
 -7.3779176627553777E-01 a       118     0     6     1    18
 -2.2714813710408699E-01 a       119     0     6     1    19
  7.3724574086217062E-02 a       120     0     6     1    20
  2.1771216941998415E-03 a       121     0     7     1     1
  5.1026235983835788E-01 a       122     0     7     1     2
  3.5491622209485979E-01 a       123     0     7     1     3
  6.0505158123321190E-01 a       124     0     7     1     4
 -1.1503038194085630E-01 a       125     0     7     1     5
 -3.1878648562787126E-01 a       126     0     7     1     6
  4.4274454237576566E-01 a       127     0     7     1     7
  6.5585473915787973E-01 a       128     0     7     1     8
 -3.5758008198596908E-01 a       129     0     7     1     9
 -4.7220773605484531E-02 a       130     0     7     1    10
 -2.2862946910053413E-02 a       131     0     7     1    11
 -3.6602258096470042E-01 a       132     0     7     1    12
 -1.1744005533269293E+00 a       133     0     7     1    13
  1.2761212222135485E-01 a       134     0     7     1    14
  3.1015317750675631E-01 a       135     0     7     1    15
 -5.4291248599488384E-01 a       136     0     7     1    16
 -3.9543961722720310E-02 a       137     0     7     1    17
  8.6242184425405655E-01 a       138     0     7     1    18
 -4.6513861512853494E-01 a       139     0     7     1    19
 -4.1211531811615063E-02 a       140     0     7     1    20
 -7.4215184865643394E-02 a       141     0     8     1     1
 -1.5794395208645649E-02 a       142     0     8     1     2
  5.7208240242998754E-02 a       143     0     8     1     3
 -1.8826603664334074E-01 a       144     0     8     1     4
 -2.2217587596182847E-01 a       145     0     8     1     5
  1.3092937875699803E-01 a       146     0     8     1     6
  1.5001697542128678E-01 a       147     0     8     1     7
  2.4953956492574730E-01 a       148     0     8     1     8
 -1.9197151303229864E-02 a       149     0     8     1     9
  6.0392453836165240E-02 a       150     0     8     1    10
  1.4959961961442841E-01 a       151     0     8     1    11
 -5.4694607220585299E-02 a       152     0     8     1    12
  2.1576527176449037E-01 a       153     0     8     1    13
  1.1286540909516853E-01 a       154     0     8     1    14
 -5.9824500127774675E-02 a       155     0     8     1    15
  1.0761688598486449E-01 a       156     0     8     1    16
 -1.2691130548101612E-01 a       157     0     8     1    17
 -3.1150286072028177E-01 a       158     0     8     1    18
 -1.9727667804565999E-01 a       159     0     8     1    19
 -1.7904495838513382E-01 a       160     0     8     1    20
  2.0303337098871865E-01 a       161     0     9     1     1
  2.8877229551891387E-01 a       162     0     9     1     2
  3.7045202316310843E-01 a       163     0     9     1     3
 -3.6993275953267839E-02 a       164     0     9     1     4
  1.8665432920558278E-02 a       165     0     9     1     5
 -1.2349125094549918E-01 a       166     0     9     1     6
  2.4906556301666727E-01 a       167     0     9     1     7
 -2.7331379112757165E-01 a       168     0     9     1     8
 -3.7848653513160857E-01 a       169     0     9     1     9
  9.7739295596347517E-02 a       170     0     9     1    10
  1.5034747553139680E-01 a       171     0     9     1    11
 -1.7300237388762935E-01 a       172     0     9     1    12
 -2.1674842408498673E-01 a       173     0     9     1    13
 -1.0346626319775432E-01 a       174     0     9     1    14
  1.1918746512842239E-01 a       175     0     9     1    15
  1.3724367685271580E-01 a       176     0     9     1    16
  2.1504963479996819E-01 a       177     0     9     1    17
 -2.9555764433730420E-03 a       178     0     9     1    18
 -3.1848116946898047E-01 a       179     0     9     1    19
  1.1607305878570681E-01 a       180     0     9     1    20
 -3.5271814257508596E-02 a       181     0    10     1     1
  7.2923588597764349E-02 a       182     0    10     1     2
 -3.7928046322196157E-01 a       183     0    10     1     3
  1.3031332914322058E-01 a       184     0    10     1     4
  2.4035047085001141E-01 a       185     0    10     1     5
 -2.9933041723738713E-01 a       186     0    10     1     6
 -6.5237786773377160E-01 a       187     0    10     1     7
  2.9200642024798229E-01 a       188     0    10     1     8
  1.3830834119119703E-01 a       189     0    10     1     9
  5.9053218147314068E-02 a       190     0    10     1    10
  1.3460117734846830E-01 a       191     0    10     1    11
  4.9711353445876197E-02 a       192     0    10     1    12
  2.4023196933885471E-01 a       193     0    10     1    13
 -9.4065446327638233E-02 a       194     0    10     1    14
  5.9298286260778910E-01 a       195     0    10     1    15
 -2.4695654395072913E-01 a       196     0    10     1    16
 -1.4343800836430098E-01 a       197     0    10     1    17
 -1.5451253250595343E-01 a       198     0    10     1    18
  4.4785807595315796E-01 a       199     0    10     1    19
  5.2802775401940699E-02 a       200     0    10     1    20
 -2.2996040457850608E-01 a       201     0    11     1     1
 -2.1302576779045818E-01 a       202     0    11     1     2
  7.5940014806436279E-02 a       203     0    11     1     3
 -1.2211972019932718E-02 a       204     0    11     1     4
  1.0935630716707860E-02 a       205     0    11     1     5
 -8.0853842180065832E-02 a       206     0    11     1     6
 -4.9491458757550644E-01 a       207     0    11     1     7
  3.0498109175818022E-01 a       208     0    11     1     8
  3.4312613718579399E-01 a       209     0    11     1     9
  1.5593098581967674E-01 a       210     0    11     1    10
 -4.5651285343886894E-01 a       211     0    11     1    11
  3.6960826081167192E-01 a       212     0    11     1    12
  1.4760825801238203E-01 a       213     0    11     1    13
 -3.0705351277585480E-01 a       214     0    11     1    14
 -6.7664213151791955E-02 a       215     0    11     1    15
  2.8271354498299245E-01 a       216     0    11     1    16
 -4.8559888888521469E-01 a       217     0    11     1    17
  5.9718201307272380E-02 a       218     0    11     1    18
  3.6035254334239880E-01 a       219     0    11     1    19
 -1.8287862863991164E-01 a       220     0    11     1    20
  2.7151992256074381E-01 a       221     0    12     1     1
  3.7820841469775535E-01 a       222     0    12     1     2
  2.7216749779495525E-01 a       223     0    12     1     3
 -6.0596919614329961E-02 a       224     0    12     1     4
 -2.2371925632601886E-01 a       225     0    12     1     5
 -4.8396452699871756E-01 a       226     0    12     1     6
  2.3283382453778906E-01 a       227     0    12     1     7
 -5.3885611622178298E-01 a       228     0    12     1     8
 -3.2135507945111202E-01 a       229     0    12     1     9
  5.1008565719047050E-01 a       230     0    12     1    10
  7.0993362032370633E-01 a       231     0    12     1    11
 -1.3874017069985056E-01 a       232     0    12     1    12
 -4.9234322272127304E-02 a       233     0    12     1    13
 -2.9734156670984097E-01 a       234     0    12     1    14
  1.0513091459054760E-01 a       235     0    12     1    15
  3.4514306596802347E-01 a       236     0    12     1    16
  1.7844611307827532E-01 a       237     0    12     1    17
 -4.3055189776514086E-01 a       238     0    12     1    18
 -5.0968722354339968E-01 a       239     0    12     1    19
  3.1473581941096962E-01 a       240     0    12     1    20
 -2.2822044355248780E-01 a       241     0    13     1     1
  3.3632948329242573E-01 a       242     0    13     1     2
  4.3313058053455883E-01 a       243     0    13     1     3
  6.2990161051523319E-01 a       244     0    13     1     4
  8.3490288617451391E-02 a       245     0    13     1     5
 -1.3442323661219718E-01 a       246     0    13     1     6
  5.1017601647318001E-01 a       247     0    13     1     7
  2.2878765638313353E-01 a       248     0    13     1     8
 -3.3571896653097955E-01 a       249     0    13     1     9
  9.6775214019270750E-02 a       250     0    13     1    10
 -3.6170876185833295E-01 a       251     0    13     1    11
 -4.2586577921037105E-01 a       252     0    13     1    12
 -1.1963843709584636E+00 a       253     0    13     1    13
  1.3731572206391815E-01 a       254     0    13     1    14
 -1.3830244821043383E-02 a       255     0    13     1    15
 -6.1120460061445869E-01 a       256     0    13     1    16
  9.2723198510696325E-02 a       257     0    13     1    17
  6.6860241377799134E-01 a       258     0    13     1    18
 -6.1360697936000341E-01 a       259     0    13     1    19
 -5.8350304704266678E-03 a       260     0    13     1    20
 -2.5240612369500110E-03 a       261     0    14     1     1
  1.3828109193672289E-01 a       262     0    14     1     2
 -1.0223750868276202E-01 a       263     0    14     1     3
  2.6005788628136770E-02 a       264     0    14     1     4
 -8.6903953954254751E-02 a       265     0    14     1     5
  2.0414214000427419E-01 a       266     0    14     1     6
  1.6507155136340612E-01 a       267     0    14     1     7
  3.7808344213532769E-01 a       268     0    14     1     8
 -2.4917626099131573E-02 a       269     0    14     1     9
  1.0091501712876996E-01 a       270     0    14     1    10
  9.9903313869779313E-04 a       271     0    14     1    11
 -1.7436337176997507E-02 a       272     0    14     1    12
  6.9586885504553178E-02 a       273     0    14     1    13
  5.6710186587107365E-02 a       274     0    14     1    14
 -5.1140853826335972E-02 a       275     0    14     1    15
 -2.0295670107867098E-01 a       276     0    14     1    16
 -1.0952256455981947E-01 a       277     0    14     1    17
 -3.7509314111090213E-03 a       278     0    14     1    18
 -2.6807419472608768E-01 a       279     0    14     1    19
 -2.5400597356031895E-01 a       280     0    14     1    20
  2.5320814912566580E-01 a       281     0    15     1     1
  4.5636567115193155E-01 a       282     0    15     1     2
  1.5448212895667424E-01 a       283     0    15     1     3
 -3.5386193750622533E-02 a       284     0    15     1     4
 -3.7015597954021540E-01 a       285     0    15     1     5
 -2.8754861619238403E-01 a       286     0    15     1     6
  1.5377620445872719E-01 a       287     0    15     1     7
  1.6293722950494093E-02 a       288     0    15     1     8
 -3.6155531345090619E-01 a       289     0    15     1     9
 -7.2488365711415280E-03 a       290     0    15     1    10
 -3.8665828755103000E-02 a       291     0    15     1    11
 -3.0129259257910640E-01 a       292     0    15     1    12
 -1.8399156614345749E-01 a       293     0    15     1    13
  2.6678870729940080E-01 a       294     0    15     1    14
 -2.3629312035450162E-01 a       295     0    15     1    15
 -3.1005291007814465E-02 a       296     0    15     1    16
 -1.0319768170761345E-01 a       297     0    15     1    17
 -1.4116316140809823E-01 a       298     0    15     1    18
 -2.0188055004382369E-01 a       299     0    15     1    19
 -1.1504051369467166E-01 a       300     0    15     1    20
 -1.0760967268318991E-01 a       301     0    16     1     1
 -8.6883551549162261E-02 a       302     0    16     1     2
  2.1603082118780603E-01 a       303     0    16     1     3
  4.1897050636995214E-01 a       304     0    16     1     4
  6.7360493598534179E-03 a       305     0    16     1     5
 -1.5734503964036972E-01 a       306     0    16     1     6
  1.9677632034672046E-01 a       307     0    16     1     7
 -9.6062558106018867E-02 a       308     0    16     1     8
  8.0492884460808944E-03 a       309     0    16     1     9
  3.6167663590820676E-01 a       310     0    16     1    10
 -3.3909776659835694E-01 a       311     0    16     1    11
 -5.7762176570095247E-02 a       312     0    16     1    12
 -3.0197083379250156E-01 a       313     0    16     1    13
  4.2114929802392398E-01 a       314     0    16     1    14
  2.3995262688124636E-01 a       315     0    16     1    15
 -1.8645378278477773E-01 a       316     0    16     1    16
 -5.3497223396710525E-01 a       317     0    16     1    17
  4.9410677236383604E-01 a       318     0    16     1    18
 -5.2865245467083613E-02 a       319     0    16     1    19
  8.3028625740055984E-02 a       320     0    16     1    20
  2.1670600978370985E-01 a       321     0    17     1     1
  6.6258110445900353E-02 a       322     0    17     1     2
  2.1090505914652788E-01 a       323     0    17     1     3
  2.6504747442045430E-02 a       324     0    17     1     4
 -1.4478075795552511E-01 a       325     0    17     1     5
 -4.2485345421642187E-02 a       326     0    17     1     6
  2.6397313380580234E-01 a       327     0    17     1     7
  2.7580461919012683E-01 a       328     0    17     1     8
 -1.7695978484262323E-01 a       329     0    17     1     9
 -1.1439783790743388E-01 a       330     0    17     1    10
  2.5216377563200210E-01 a       331     0    17     1    11
 -1.0655523315418820E-01 a       332     0    17     1    12
 -2.4969995838099876E-01 a       333     0    17     1    13
  2.3262471048934336E-01 a       334     0    17     1    14
  4.9104998515913092E-03 a       335     0    17     1    15
 -2.0454902232185534E-01 a       336     0    17     1    16
  3.5597759179901659E-03 a       337     0    17     1    17
 -3.6872812267635002E-01 a       338     0    17     1    18
 -4.4185722886009976E-01 a       339     0    17     1    19
  1.7922005455174180E-03 a       340     0    17     1    20
  1.4627903607017406E-01 a       341     0    18     1     1
  2.8725108098435903E-01 a       342     0    18     1     2
 -9.6950731343577110E-02 a       343     0    18     1     3
 -2.8853635890870849E-01 a       344     0    18     1     4
 -4.0880867001873059E-02 a       345     0    18     1     5
 -9.3865231680767477E-02 a       346     0    18     1     6
 -1.2528342517111141E-01 a       347     0    18     1     7
 -4.4154677443299234E-01 a       348     0    18     1     8
 -2.2924657356098704E-01 a       349     0    18     1     9
  4.1897890569285612E-01 a       350     0    18     1    10
  5.6391138197682478E-01 a       351     0    18     1    11
 -9.4730037067056169E-02 a       352     0    18     1    12
  4.0346226545659847E-01 a       353     0    18     1    13
 -1.6592602772510309E-01 a       354     0    18     1    14
 -4.5924800047901032E-02 a       355     0    18     1    15
  2.9803056502388320E-01 a       356     0    18     1    16
 -1.3827605776495869E-01 a       357     0    18     1    17
 -5.2822034124638317E-01 a       358     0    18     1    18
 -6.2625138553527138E-02 a       359     0    18     1    19
  3.2127385588289675E-02 a       360     0    18     1    20
 -7.7959451037562827E-02 a       361     0    19     1     1
  2.7276667088646761E-01 a       362     0    19     1     2
  5.1890003759673309E-01 a       363     0    19     1     3
  1.0356619963261303E-01 a       364     0    19     1     4
 -8.8956091347367858E-02 a       365     0    19     1     5
 -8.4847861961017096E-02 a       366     0    19     1     6
  3.3981493332344576E-01 a       367     0    19     1     7
 -2.7084289947687162E-01 a       368     0    19     1     8
 -2.1423874597454839E-01 a       369     0    19     1     9
  2.2954343256064333E-01 a       370     0    19     1    10
  4.4843060189307248E-02 a       371     0    19     1    11
  1.8958263322252505E-03 a       372     0    19     1    12
 -4.5470438318805489E-01 a       373     0    19     1    13
  2.2459062626736775E-01 a       374     0    19     1    14
  1.9654711277720324E-01 a       375     0    19     1    15
 -2.9203081860438196E-01 a       376     0    19     1    16
 -2.2867169028316321E-02 a       377     0    19     1    17
  1.2047705934962745E-01 a       378     0    19     1    18
 -4.8028762533592412E-01 a       379     0    19     1    19
  5.6718119446266181E-02 a       380     0    19     1    20
 -1.5883985385666988E-01 a       381     0    20     1     1
 -6.1445974228297964E-02 a       382     0    20     1     2
  1.4186089220914047E-01 a       383     0    20     1     3
 -1.5671071772933334E-01 a       384     0    20     1     4
 -1.1305608346182663E-01 a       385     0    20     1     5
  1.6042819339295150E-01 a       386     0    20     1     6
  1.5282487078991275E-01 a       387     0    20     1     7
  2.7063712124223105E-01 a       388     0    20     1     8
  1.7438576794909005E-01 a       389     0    20     1     9
  9.3384460198950872E-02 a       390     0    20     1    10
 -1.4509971019815387E-02 a       391     0    20     1    11
 -4.0611026032919065E-02 a       392     0    20     1    12
 -2.7269610537397199E-02 a       393     0    20     1    13
  5.3038253904503230E-02 a       394     0    20     1    14
  3.2828727203223135E-02 a       395     0    20     1    15
  5.8782063757419475E-03 a       396     0    20     1    16
 -1.2326097178097681E-01 a       397     0    20     1    17
 -8.8046174305465449E-02 a       398     0    20     1    18
 -1.2798276027895228E-01 a       399     0    20     1    19
 -2.6467527955788711E-01 a       400     0    20     1    20
 -3.2801040156381134E-01 a       401     0    21     1     1
 -1.1195935016142451E-01 a       402     0    21     1     2
  1.6819946898260954E-01 a       403     0    21     1     3
 -2.0784904576973259E-01 a       404     0    21     1     4
  3.4735436732031227E-01 a       405     0    21     1     5
  3.1451959136175067E-01 a       406     0    21     1     6
  1.5957832372939296E-01 a       407     0    21     1     7
 -2.9539686159394934E-01 a       408     0    21     1     8
  1.9883347050438874E-01 a       409     0    21     1     9
  3.1244593964182449E-01 a       410     0    21     1    10
 -4.8965262541659747E-02 a       411     0    21     1    11
  2.0264496426923523E-01 a       412     0    21     1    12
  5.4882011732916969E-01 a       413     0    21     1    13
 -2.4478199955822479E-02 a       414     0    21     1    14
  1.9882437497176672E-01 a       415     0    21     1    15
  2.5324596130940735E-01 a       416     0    21     1    16
 -2.5750538265719014E-01 a       417     0    21     1    17
 -2.3544488989496551E-01 a       418     0    21     1    18
 -4.5054248610053048E-02 a       419     0    21     1    19
 -1.0751784841881731E-01 a       420     0    21     1    20
  7.7945886019898949E-02 a       421     0    22     1     1
 -3.5171537519685181E-01 a       422     0    22     1     2
 -2.9543701959405405E-01 a       423     0    22     1     3
 -1.8040144843027367E-01 a       424     0    22     1     4
 -1.6369063747145768E-01 a       425     0    22     1     5
 -8.3521769968568291E-02 a       426     0    22     1     6
 -3.5193355133712251E-01 a       427     0    22     1     7
  5.4875749044413857E-01 a       428     0    22     1     8
  4.8723225217353289E-01 a       429     0    22     1     9
  2.2455976014102746E-01 a       430     0    22     1    10
 -2.0248565096121898E-01 a       431     0    22     1    11
  3.8746446271572539E-02 a       432     0    22     1    12
  5.5078206600757174E-01 a       433     0    22     1    13
 -4.0577121605154594E-02 a       434     0    22     1    14
 -2.5888812838268316E-01 a       435     0    22     1    15
  2.9587874809815501E-01 a       436     0    22     1    16
 -3.7199047521822332E-01 a       437     0    22     1    17
 -2.7234507430361887E-01 a       438     0    22     1    18
  3.8396660095210733E-01 a       439     0    22     1    19
  1.7175496640390184E-01 a       440     0    22     1    20
 -2.9107399415401292E-01 a       441     0    23     1     1
  4.7053805172673095E-02 a       442     0    23     1     2
 -2.4904957593902408E-01 a       443     0    23     1     3
 -4.3094122112435529E-01 a       444     0    23     1     4
  1.4476473278831278E-01 a       445     0    23     1     5
 -3.0478135080825441E-01 a       446     0    23     1     6
 -3.5068873701443293E-01 a       447     0    23     1     7
 -7.7471637367166446E-02 a       448     0    23     1     8
 -1.4989750088558956E-01 a       449     0    23     1     9
  1.2709413961944771E-01 a       450     0    23     1    10
  3.7218057900199625E-01 a       451     0    23     1    11
  1.5490952121951171E-01 a       452     0    23     1    12
  3.2794743836320533E-01 a       453     0    23     1    13
 -1.6204646672639661E-01 a       454     0    23     1    14
  1.3079184263448573E-01 a       455     0    23     1    15
  2.8197472419884306E-01 a       456     0    23     1    16
  6.7605959359583925E-02 a       457     0    23     1    17
 -1.3826366423631650E-01 a       458     0    23     1    18
  2.4050960468460286E-01 a       459     0    23     1    19
 -1.2806119575416661E-01 a       460     0    23     1    20
  1.6914351474595030E-01 a       461     0    24     1     1
  1.9902107823258630E-01 a       462     0    24     1     2
  1.4381612247312853E-01 a       463     0    24     1     3
  3.5295749715759536E-02 a       464     0    24     1     4
  1.1142956839839835E-01 a       465     0    24     1     5
  3.8653410829614952E-02 a       466     0    24     1     6
  5.2375666997044201E-01 a       467     0    24     1     7
  4.3188360164561562E-01 a       468     0    24     1     8
  2.2005814673838842E-01 a       469     0    24     1     9
 -1.3564375156953096E-01 a       470     0    24     1    10
  4.8576441159947864E-01 a       471     0    24     1    11
  2.7641517791147242E-02 a       472     0    24     1    12
 -3.3839099091042296E-01 a       473     0    24     1    13
 -7.1892949330681161E-02 a       474     0    24     1    14
 -7.7450161767059197E-02 a       475     0    24     1    15
 -1.7512184083372410E-02 a       476     0    24     1    16
  8.0797177725971636E-01 a       477     0    24     1    17
 -1.7189086549348162E-01 a       478     0    24     1    18
 -2.6523060690256944E-01 a       479     0    24     1    19
 -1.4244429187144120E-01 a       480     0    24     1    20
 -8.9912660122058063E-02 a       481     0    25     1     1
  1.9725887680869350E-01 a       482     0    25     1     2
  1.8315452959420747E-01 a       483     0    25     1     3
  1.1947373118377994E-01 a       484     0    25     1     4
  1.0467532576491681E-01 a       485     0    25     1     5
 -1.5390845404330078E-01 a       486     0    25     1     6
 -3.3384250416850399E-02 a       487     0    25     1     7
 -4.2970493899232504E-01 a       488     0    25     1     8
 -1.3301165245533986E-01 a       489     0    25     1     9
  4.0406455294314486E-01 a       490     0    25     1    10
  3.3570984575234536E-01 a       491     0    25     1    11
 -1.6682833711924802E-01 a       492     0    25     1    12
 -3.2297853054765852E-01 a       493     0    25     1    13
 -1.0125148905033229E-01 a       494     0    25     1    14
  4.1858922290485219E-02 a       495     0    25     1    15
 -2.9913277686818640E-01 a       496     0    25     1    16
  7.5694340121509870E-02 a       497     0    25     1    17
 -3.6278520889809485E-01 a       498     0    25     1    18
 -9.8378063784213113E-02 a       499     0    25     1    19
  6.6991327733981120E-03 a       500     0    25     1    20
 -3.4601474847235725E-01 a       501     0    26     1     1
 -5.0159072534791169E-02 a       502     0    26     1     2
 -1.1401115478888797E-01 a       503     0    26     1     3
  2.7944770485483546E-02 a       504     0    26     1     4
 -1.7437684319578609E-01 a       505     0    26     1     5
 -3.0979234279942810E-02 a       506     0    26     1     6
 -1.1401727892443253E-01 a       507     0    26     1     7
  7.1204360841057537E-02 a       508     0    26     1     8
  1.5437319023614718E-01 a       509     0    26     1     9
 -2.3141857871544727E-01 a       510     0    26     1    10
  1.0500859006247601E-02 a       511     0    26     1    11
  2.0950917631570454E-01 a       512     0    26     1    12
 -2.6177693658892176E-01 a       513     0    26     1    13
 -1.2061137389854072E-01 a       514     0    26     1    14
 -1.0555691062400620E-01 a       515     0    26     1    15
  2.4700554911079923E-02 a       516     0    26     1    16
 -1.6452618484437916E-02 a       517     0    26     1    17
  1.0842189173688571E-01 a       518     0    26     1    18
 -9.4160957155701011E-02 a       519     0    26     1    19
 -1.4718065716493030E-02 a       520     0    26     1    20
 -5.9923442567509133E-01 a       521     0    27     1     1
 -4.8824177190719009E-01 a       522     0    27     1     2
 -1.4613026975134674E-02 a       523     0    27     1     3
 -1.0403093208717643E-02 a       524     0    27     1     4
 -1.5392606217305099E-02 a       525     0    27     1     5
  1.5368374541955257E-01 a       526     0    27     1     6
 -4.8174961676662431E-01 a       527     0    27     1     7
  4.6053818437693789E-01 a       528     0    27     1     8
  1.7091455473871175E-01 a       529     0    27     1     9
  9.8463158475633097E-02 a       530     0    27     1    10
 -1.8299054946917298E-01 a       531     0    27     1    11
  1.3609142717013070E-01 a       532     0    27     1    12
  8.1404040102300096E-02 a       533     0    27     1    13
  9.6938062845844733E-02 a       534     0    27     1    14
  4.2558720901247635E-03 a       535     0    27     1    15
  1.3901399540011364E-01 a       536     0    27     1    16
 -9.8745383861448530E-02 a       537     0    27     1    17
  4.4125889371765883E-03 a       538     0    27     1    18
  2.3063330037482355E-01 a       539     0    27     1    19
 -8.6310013737664573E-02 a       540     0    27     1    20
  1.5391213441500110E-01 a       541     0    28     1     1
  1.6713849882891610E-01 a       542     0    28     1     2
 -3.6783022161411959E-02 a       543     0    28     1     3
  1.9765403182308722E-01 a       544     0    28     1     4
  1.9253953202467466E-01 a       545     0    28     1     5
  3.6967005547828564E-02 a       546     0    28     1     6
  2.3344993255231650E-01 a       547     0    28     1     7
 -2.0531017834398035E-01 a       548     0    28     1     8
 -1.0835434056505808E-01 a       549     0    28     1     9
  6.3481268083160874E-02 a       550     0    28     1    10
  3.0100385761918486E-01 a       551     0    28     1    11
 -7.0534374992765422E-02 a       552     0    28     1    12
  1.1979865631484203E-01 a       553     0    28     1    13
  1.6181306546061891E-01 a       554     0    28     1    14
 -1.3156153791791725E-01 a       555     0    28     1    15
 -4.1219605187887393E-01 a       556     0    28     1    16
 -2.1216104857481492E-02 a       557     0    28     1    17
  5.1004051859594036E-02 a       558     0    28     1    18
 -2.5528658976737029E-01 a       559     0    28     1    19
  7.2526249622608873E-03 a       560     0    28     1    20
 -2.6280762567445975E-01 a       561     0    29     1     1
 -1.2415655785047303E-01 a       562     0    29     1     2
 -2.8688319340832263E-01 a       563     0    29     1     3
 -3.3050426091535112E-01 a       564     0    29     1     4
  9.0225792923649600E-02 a       565     0    29     1     5
 -2.6201736204458675E-01 a       566     0    29     1     6
 -3.4259412563400843E-01 a       567     0    29     1     7
  7.6239571764495495E-01 a       568     0    29     1     8
 -6.8795711525749301E-02 a       569     0    29     1     9
 -2.8941881002960923E-01 a       570     0    29     1    10
 -2.4614387950845429E-01 a       571     0    29     1    11
 -2.1502061138063955E-01 a       572     0    29     1    12
 -2.1686592548026407E-01 a       573     0    29     1    13
 -6.6381651459202834E-03 a       574     0    29     1    14
  1.5171758347272077E-01 a       575     0    29     1    15
  6.4168351584323033E-02 a       576     0    29     1    16
 -1.9024605584627369E-01 a       577     0    29     1    17
  4.7923074834045470E-01 a       578     0    29     1    18
  5.0292156885810790E-01 a       579     0    29     1    19
 -2.2474207792657522E-01 a       580     0    29     1    20
 -1.3882302087081594E-01 a       581     0    30     1     1
 -3.1858438518901230E-02 a       582     0    30     1     2
  3.2016638497868977E-01 a       583     0    30     1     3
 -5.1429851174186726E-02 a       584     0    30     1     4
 -7.2386340650140629E-02 a       585     0    30     1     5
 -1.6940955944094879E-01 a       586     0    30     1     6
 -1.1470225038965032E-03 a       587     0    30     1     7
 -3.3492875379134496E-01 a       588     0    30     1     8
 -1.3646594261622497E-01 a       589     0    30     1     9
 -2.3273382000935564E-01 a       590     0    30     1    10
  2.5305662762023590E-01 a       591     0    30     1    11
 -1.1566835801508146E-01 a       592     0    30     1    12
 -1.5060834253226815E-01 a       593     0    30     1    13
 -8.5488380592913957E-02 a       594     0    30     1    14
  1.4915551858357498E-01 a       595     0    30     1    15
  2.7454072565845261E-01 a       596     0    30     1    16
 -3.2209589013629497E-01 a       597     0    30     1    17
  8.5993469931030617E-02 a       598     0    30     1    18
 -1.3710919325147050E-01 a       599     0    30     1    19
  1.8366393948938139E-01 a       600     0    30     1    20
  1.1443365716209596E-01 a       601     0    31     1     1
 -3.2532110234911660E-01 a       602     0    31     1     2
 -2.6687233092407454E-02 a       603     0    31     1     3
  1.5168374761416407E-02 a       604     0    31     1     4
 -1.8339808327287452E-01 a       605     0    31     1     5
  3.2494920889295348E-01 a       606     0    31     1     6
  2.9743831380215840E-01 a       607     0    31     1     7
  4.7725676081389995E-01 a       608     0    31     1     8
  4.0372329837884713E-01 a       609     0    31     1     9
 -2.0273228108500924E-01 a       610     0    31     1    10
  1.7929670474346876E-01 a       611     0    31     1    11
 -1.9567436488643467E-02 a       612     0    31     1    12
  4.8285626432911490E-02 a       613     0    31     1    13
  1.4479294548127750E-01 a       614     0    31     1    14
 -3.8853794036664870E-02 a       615     0    31     1    15
  1.5840285491376643E-02 a       616     0    31     1    16
  1.1741450743497113E-01 a       617     0    31     1    17
  8.5087687194857681E-02 a       618     0    31     1    18
  1.8819705739693640E-01 a       619     0    31     1    19
 -1.4201204356161287E-01 a       620     0    31     1    20
 -4.3836239557786311E-01 a       621     0    32     1     1
  8.1374682475654048E-02 a       622     0    32     1     2
 -9.3738351265714892E-02 a       623     0    32     1     3
 -1.1804267492252259E-01 a       624     0    32     1     4
 -7.8466272159757863E-02 a       625     0    32     1     5
  2.9858983340980066E-02 a       626     0    32     1     6
 -1.7555130341176217E-01 a       627     0    32     1     7
 -1.7392717908295821E-01 a       628     0    32     1     8
 -1.3227244410464429E-02 a       629     0    32     1     9
  3.4956926203403682E-01 a       630     0    32     1    10
 -4.4141743248210193E-02 a       631     0    32     1    11
 -1.8357998171773660E-01 a       632     0    32     1    12
 -2.1261238157637422E-01 a       633     0    32     1    13
 -9.2069142777588972E-02 a       634     0    32     1    14
  2.3222375329079939E-01 a       635     0    32     1    15
 -2.1496473421433210E-01 a       636     0    32     1    16
 -1.5391750890816860E-01 a       637     0    32     1    17
  2.4887805636824289E-01 a       638     0    32     1    18
  3.3576717088194569E-01 a       639     0    32     1    19
 -1.1502139834354952E-01 a       640     0    32     1    20
 -1.9279120588477128E-01 a       641     0    33     1     1
  1.8365300118182357E-01 a       642     0    33     1     2
 -3.2346144348471453E-02 a       643     0    33     1     3
  1.6734676617854341E-02 a       644     0    33     1     4
  7.5964389874581414E-02 a       645     0    33     1     5
 -3.4080285916709609E-03 a       646     0    33     1     6
 -2.3971482482050072E-01 a       647     0    33     1     7
 -1.4251846375384916E-01 a       648     0    33     1     8
  1.9591107812694016E-02 a       649     0    33     1     9
 -1.5896111776234417E-01 a       650     0    33     1    10
  1.0291715405091753E-01 a       651     0    33     1    11
  2.8044522554902246E-01 a       652     0    33     1    12
 -1.9062034110530884E-01 a       653     0    33     1    13
 -1.8763178491641397E-01 a       654     0    33     1    14
 -1.0170316565761922E-02 a       655     0    33     1    15
  2.0384297285769265E-01 a       656     0    33     1    16
 -1.9785380876984335E-01 a       657     0    33     1    17
  8.6000215084619233E-02 a       658     0    33     1    18
  1.8988590581451198E-01 a       659     0    33     1    19
  1.6712212230171505E-01 a       660     0    33     1    20
 -1.7449362179826905E-01 a       661     0    34     1     1
 -9.8809340487727729E-02 a       662     0    34     1     2
 -3.2988895248228012E-01 a       663     0    34     1     3
 -2.8070390941938422E-01 a       664     0    34     1     4
 -1.5645085741097536E-01 a       665     0    34     1     5
 -1.4513692626795524E-01 a       666     0    34     1     6
 -2.7236227889993458E-01 a       667     0    34     1     7
 -3.0276109950691445E-02 a       668     0    34     1     8
  1.7248223333492945E-02 a       669     0    34     1     9
 -3.5661520518161760E-01 a       670     0    34     1    10
  1.4423537619215768E-01 a       671     0    34     1    11
  1.4186375756870928E-01 a       672     0    34     1    12
  1.4072959885181999E-01 a       673     0    34     1    13
  4.1227004970612990E-02 a       674     0    34     1    14
 -3.1131964824019603E-01 a       675     0    34     1    15
  6.9220717114647654E-02 a       676     0    34     1    16
  3.8908817257770789E-02 a       677     0    34     1    17
 -1.2192305281025098E-01 a       678     0    34     1    18
  5.7468875894984624E-02 a       679     0    34     1    19
 -1.9499269609673517E-01 a       680     0    34     1    20
 -3.1338015298881326E-02 a       681     0    35     1     1
 -4.9826100993724913E-02 a       682     0    35     1     2
 -7.9925769369791677E-01 a       683     0    35     1     3
 -5.1007963258098088E-01 a       684     0    35     1     4
  4.3951495413636538E-01 a       685     0    35     1     5
  4.2279942588016463E-02 a       686     0    35     1     6
 -8.9942182456338249E-01 a       687     0    35     1     7
  3.1636067312082938E-01 a       688     0    35     1     8
  9.0120276488081297E-02 a       689     0    35     1     9
  1.1441993521806575E-01 a       690     0    35     1    10
  2.0755258107915181E-01 a       691     0    35     1    11
  1.7908736677484921E-01 a       692     0    35     1    12
  5.9311602292200172E-01 a       693     0    35     1    13
  1.3434810462078839E-02 a       694     0    35     1    14
  3.4444565527703169E-01 a       695     0    35     1    15
 -3.5020999961591426E-01 a       696     0    35     1    16
 -2.0452773516653946E-01 a       697     0    35     1    17
 -7.0158286507368620E-02 a       698     0    35     1    18
  5.2983017773692154E-01 a       699     0    35     1    19
  8.1694031273813750E-02 a       700     0    35     1    20
 -4.6042843871325922E-01 a       701     0    36     1     1
 -4.4363405072287515E-01 a       702     0    36     1     2
 -1.4834438015539045E-01 a       703     0    36     1     3
 -4.7065610391532436E-01 a       704     0    36     1     4
  6.8024762570544461E-02 a       705     0    36     1     5
  1.1441340971759398E-01 a       706     0    36     1     6
 -4.6717271050133463E-01 a       707     0    36     1     7
  1.8463654135383956E-01 a       708     0    36     1     8
  6.0394589550229172E-01 a       709     0    36     1     9
  2.8873731892529388E-03 a       710     0    36     1    10
 -1.8171462188606119E-01 a       711     0    36     1    11
  3.2116309704943241E-01 a       712     0    36     1    12
  5.6694815029925738E-01 a       713     0    36     1    13
 -2.1677419601354705E-01 a       714     0    36     1    14
 -6.4832516566326978E-02 a       715     0    36     1    15
  2.7123271408251548E-01 a       716     0    36     1    16
  1.9520840327875655E-01 a       717     0    36     1    17
 -2.1933415575256032E-01 a       718     0    36     1    18
  2.2361284151737640E-01 a       719     0    36     1    19
 -1.0997265229712774E-01 a       720     0    36     1    20
 -4.0056140271265095E-01 a       721     0    37     1     1
 -4.0206792847565465E-01 a       722     0    37     1     2
 -3.9143247533442849E-01 a       723     0    37     1     3
 -4.7680789268116591E-01 a       724     0    37     1     4
  3.9468134125573745E-01 a       725     0    37     1     5
  3.3029605041422760E-01 a       726     0    37     1     6
 -4.8995185684094417E-01 a       727     0    37     1     7
 -6.3807910263574935E-02 a       728     0    37     1     8
  3.5258979695842863E-01 a       729     0    37     1     9
 -1.0440417253231932E-01 a       730     0    37     1    10
 -9.5102884115524033E-02 a       731     0    37     1    11
  4.1959182178034349E-01 a       732     0    37     1    12
  5.7444424133013838E-01 a       733     0    37     1    13
  1.9402151595886097E-02 a       734     0    37     1    14
  3.4735227792764606E-01 a       735     0    37     1    15
 -1.3354628048418732E-01 a       736     0    37     1    16
 -6.0512715269169966E-02 a       737     0    37     1    17
  2.8764836788348108E-01 a       738     0    37     1    18
  3.4021727717367412E-01 a       739     0    37     1    19
  1.4124525094607107E-01 a       740     0    37     1    20
 -1.4107315440952281E-01 a       741     0    38     1     1
 -1.8118550607357037E-02 a       742     0    38     1     2
  1.0210911331504945E-01 a       743     0    38     1     3
 -8.8791622540361284E-02 a       744     0    38     1     4
 -2.4795223827143559E-01 a       745     0    38     1     5
 -4.8626592811826252E-01 a       746     0    38     1     6
 -5.5289101016178774E-02 a       747     0    38     1     7
 -3.8215411547054140E-01 a       748     0    38     1     8
 -2.2818179949854925E-01 a       749     0    38     1     9
  3.8799924854614615E-02 a       750     0    38     1    10
  1.0344274884196542E-01 a       751     0    38     1    11
  1.8020002906339178E-01 a       752     0    38     1    12
  6.7257872987439536E-03 a       753     0    38     1    13
  7.9921978456510709E-02 a       754     0    38     1    14
 -6.5173041708322235E-02 a       755     0    38     1    15
 -1.1053121932646359E-01 a       756     0    38     1    16
  6.7104326955237645E-02 a       757     0    38     1    17
  2.0236629216304189E-02 a       758     0    38     1    18
 -5.4870104729526116E-02 a       759     0    38     1    19
  1.5479107764362748E-01 a       760     0    38     1    20
 -4.7052869014564092E-01 a       761     0    39     1     1
 -2.2528257146979930E-01 a       762     0    39     1     2
  9.2214093037823519E-02 a       763     0    39     1     3
  9.0404078342538503E-03 a       764     0    39     1     4
 -3.8964672745570798E-02 a       765     0    39     1     5
  1.0539116002420221E-01 a       766     0    39     1     6
  2.0280887006144069E-02 a       767     0    39     1     7
 -1.0786314700885148E-01 a       768     0    39     1     8
 -8.1180890768447270E-02 a       769     0    39     1     9
  6.7007385211697162E-02 a       770     0    39     1    10
 -7.8135443002419869E-02 a       771     0    39     1    11
  4.0633528015799170E-02 a       772     0    39     1    12
  1.2894914923665735E-01 a       773     0    39     1    13
  6.7814857773171769E-02 a       774     0    39     1    14
 -9.0324538496619075E-02 a       775     0    39     1    15
  3.2328521478504635E-01 a       776     0    39     1    16
 -2.0794727150857495E-01 a       777     0    39     1    17
  2.3087612027863511E-01 a       778     0    39     1    18
 -2.7697248277934888E-01 a       779     0    39     1    19
 -1.7783929888811453E-01 a       780     0    39     1    20
  2.3623815920790980E-01 a       781     0    40     1     1
 -5.1046318138381230E-01 a       782     0    40     1     2
 -2.7359208261699336E-01 a       783     0    40     1     3
 -7.0490441547652383E-02 a       784     0    40     1     4
 -2.3957865287894836E-01 a       785     0    40     1     5
  2.8846847542785148E-01 a       786     0    40     1     6
  1.5477526511104303E-01 a       787     0    40     1     7
  8.5976221807506026E-01 a       788     0    40     1     8
  2.5273022239780768E-01 a       789     0    40     1     9
 -1.8125473227043487E-01 a       790     0    40     1    10
 -3.1475987838094660E-01 a       791     0    40     1    11
 -4.3449783795903912E-01 a       792     0    40     1    12
  2.0771403309775757E-01 a       793     0    40     1    13
 -1.8081561751387726E-01 a       794     0    40     1    14
 -8.8427166506321320E-02 a       795     0    40     1    15
 -5.1159514884680145E-02 a       796     0    40     1    16
 -5.3777070882000094E-02 a       797     0    40     1    17
  4.8666635576250877E-01 a       798     0    40     1    18
  5.5242922647470249E-01 a       799     0    40     1    19
 -1.4562840428016333E-01 a       800     0    40     1    20
 -1.7679021325814284E-01 a       801     0    41     1     1
  8.1419743075113390E-02 a       802     0    41     1     2
 -1.4698292990798073E-01 a       803     0    41     1     3
 -8.5384323680495117E-02 a       804     0    41     1     4
  9.0839614122084855E-02 a       805     0    41     1     5
 -2.4631219079912223E-01 a       806     0    41     1     6
 -2.7222186978826585E-01 a       807     0    41     1     7
  2.6617709028051367E-02 a       808     0    41     1     8
 -2.4884110633828657E-01 a       809     0    41     1     9
 -1.7606019595483377E-01 a       810     0    41     1    10
 -6.6367232585789401E-02 a       811     0    41     1    11
 -1.8644843426438892E-01 a       812     0    41     1    12
 -2.9994148815383437E-01 a       813     0    41     1    13
 -3.1237568354154011E-01 a       814     0    41     1    14
 -1.1306388055986648E-01 a       815     0    41     1    15
 -4.6236539787356068E-01 a       816     0    41     1    16
 -1.7087180363646516E-02 a       817     0    41     1    17
  1.2090145464567861E-01 a       818     0    41     1    18
  4.1415650990528509E-04 a       819     0    41     1    19
 -1.2188899228689797E-01 a       820     0    41     1    20
 -1.7130470267020539E-01 a       821     0    42     1     1
  1.3027858169190923E-01 a       822     0    42     1     2
 -8.8747014462729826E-03 a       823     0    42     1     3
 -1.3036211789964247E-02 a       824     0    42     1     4
 -3.0275859613554568E-01 a       825     0    42     1     5
  1.1514299589369348E-01 a       826     0    42     1     6
  4.6502710753421397E-02 a       827     0    42     1     7
 -3.5460067202110218E-01 a       828     0    42     1     8
  7.5270916772506538E-02 a       829     0    42     1     9
  2.6535629061327993E-02 a       830     0    42     1    10
 -8.2069335926819351E-02 a       831     0    42     1    11
 -1.4534404308816051E-01 a       832     0    42     1    12
 -3.9208223742484158E-02 a       833     0    42     1    13
 -1.8428913070821323E-01 a       834     0    42     1    14
  1.6234602837940432E-01 a       835     0    42     1    15
  3.2581547105753633E-01 a       836     0    42     1    16
 -2.2689911255564202E-01 a       837     0    42     1    17
  1.9900469505006746E-01 a       838     0    42     1    18
 -2.4947855210684511E-01 a       839     0    42     1    19
 -6.2615148178445226E-02 a       840     0    42     1    20
 -3.9736153658510892E-01 a       841     0    43     1     1
 -4.3723213162337460E-02 a       842     0    43     1     2
 -1.2622093002176302E-01 a       843     0    43     1     3
 -9.9343953020834597E-02 a       844     0    43     1     4
 -3.7703321698111331E-01 a       845     0    43     1     5
  2.0914076893047470E-01 a       846     0    43     1     6
 -1.5921538640619964E-01 a       847     0    43     1     7
 -2.5483235615612648E-01 a       848     0    43     1     8
 -1.9429015314351126E-02 a       849     0    43     1     9
 -5.6818979407445097E-02 a       850     0    43     1    10
  1.4526771886679940E-01 a       851     0    43     1    11
 -1.0683618722616453E-01 a       852     0    43     1    12
  2.0575213029017381E-01 a       853     0    43     1    13
 -1.7447616465491853E-01 a       854     0    43     1    14
  7.8743662968924211E-03 a       855     0    43     1    15
  6.9264471555026838E-02 a       856     0    43     1    16
 -2.1388414083479751E-01 a       857     0    43     1    17
  1.5589323076495085E-01 a       858     0    43     1    18
  2.0566768333718882E-01 a       859     0    43     1    19
  1.4229910971036586E-01 a       860     0    43     1    20
  1.1412781191604414E-01 a       861     0    44     1     1
 -1.4915665519901382E-02 a       862     0    44     1     2
 -1.6868544995561291E-01 a       863     0    44     1     3
 -2.0260053240568975E-02 a       864     0    44     1     4
  8.2369096420426918E-02 a       865     0    44     1     5
 -6.9370535882973844E-02 a       866     0    44     1     6
 -2.4349512491238720E-02 a       867     0    44     1     7
 -6.1891009122380125E-01 a       868     0    44     1     8
  2.1470319235351093E-01 a       869     0    44     1     9
  2.8898674302410027E-01 a       870     0    44     1    10
  3.7015684540073379E-01 a       871     0    44     1    11
 -4.3631541807875374E-02 a       872     0    44     1    12
  1.6988413269663383E-01 a       873     0    44     1    13
 -2.4139035847939835E-01 a       874     0    44     1    14
 -1.5218517867238970E-01 a       875     0    44     1    15
 -2.8152143382610417E-01 a       876     0    44     1    16
  2.4341794458200472E-01 a       877     0    44     1    17
 -2.2519431140968540E-01 a       878     0    44     1    18
  1.6366686122763688E-01 a       879     0    44     1    19
  1.3513667668494772E-01 a       880     0    44     1    20
  6.4107979724143538E-01 a       881     0    45     1     1
  7.9246792331452959E-02 a       882     0    45     1     2
 -1.4509872119437972E-01 a       883     0    45     1     3
 -2.8342160918244141E-01 a       884     0    45     1     4
  5.5807220975511119E-03 a       885     0    45     1     5
  2.2216371617467265E-01 a       886     0    45     1     6
  5.2571011099380682E-01 a       887     0    45     1     7
  4.2318128782962217E-01 a       888     0    45     1     8
  3.2983255258645164E-02 a       889     0    45     1     9
 -2.4251954912479626E-01 a       890     0    45     1    10
  1.0956378203745047E-01 a       891     0    45     1    11
  1.1716678278004795E-01 a       892     0    45     1    12
  3.6224070813834708E-01 a       893     0    45     1    13
  2.2774095495759097E-01 a       894     0    45     1    14
 -2.2491636645490451E-01 a       895     0    45     1    15
 -2.6021435316007785E-01 a       896     0    45     1    16
  5.7268911647133225E-01 a       897     0    45     1    17
 -3.8107235647582000E-01 a       898     0    45     1    18
 -2.8887476933613064E-03 a       899     0    45     1    19
 -1.7886132410998939E-01 a       900     0    45     1    20
  2.0807823906316739E-01 a       901     0    46     1     1
  1.7510604116133302E-01 a       902     0    46     1     2
 -6.9563820498168769E-02 a       903     0    46     1     3
 -1.1434682214028953E-01 a       904     0    46     1     4
 -9.7675436594716114E-02 a       905     0    46     1     5
  5.3348320229642802E-02 a       906     0    46     1     6
  1.5072283901257044E-01 a       907     0    46     1     7
  7.3976846424289297E-02 a       908     0    46     1     8
  2.3339294266541369E-01 a       909     0    46     1     9
  3.2164426691285813E-01 a       910     0    46     1    10
 -8.9492774608423795E-02 a       911     0    46     1    11
  1.0148402133561569E-02 a       912     0    46     1    12
 -1.1337019269652737E-01 a       913     0    46     1    13
 -3.2905893350702615E-03 a       914     0    46     1    14
  7.4615993589316837E-02 a       915     0    46     1    15
 -3.4947232554065999E-01 a       916     0    46     1    16
 -7.8966945521272223E-04 a       917     0    46     1    17
 -4.5206874800004571E-02 a       918     0    46     1    18
 -2.7586633271851163E-01 a       919     0    46     1    19
 -6.5011354782051875E-02 a       920     0    46     1    20
 -5.0286327990322358E-02 a       921     0    47     1     1
  3.9744157662769591E-02 a       922     0    47     1     2
 -6.6707241043582374E-02 a       923     0    47     1     3
 -1.0120927285995988E-01 a       924     0    47     1     4
 -7.7305756485877411E-02 a       925     0    47     1     5
 -4.6006977802368954E-02 a       926     0    47     1     6
  7.5547260035141450E-02 a       927     0    47     1     7
 -2.2642705742450815E-02 a       928     0    47     1     8
 -1.1083608171834675E-01 a       929     0    47     1     9
 -1.2412901481240070E-01 a       930     0    47     1    10
 -1.9269859069329859E-01 a       931     0    47     1    11
  5.9074386270540159E-02 a       932     0    47     1    12
 -8.7605273379050802E-02 a       933     0    47     1    13
  8.2928219472364006E-02 a       934     0    47     1    14
  1.8129033987720183E-01 a       935     0    47     1    15
  9.7637290874230898E-02 a       936     0    47     1    16
 -1.8553378381679728E-01 a       937     0    47     1    17
  1.7231747403228340E-01 a       938     0    47     1    18
  2.2383303476811781E-01 a       939     0    47     1    19
 -4.7750498632444821E-02 a       940     0    47     1    20
  3.0200647803327180E-01 a       941     0    48     1     1
 -4.0502575540399949E-01 a       942     0    48     1     2
 -7.0116881303878928E-02 a       943     0    48     1     3
 -1.6989500537487370E-01 a       944     0    48     1     4
 -4.0299776547566835E-01 a       945     0    48     1     5
  4.7758478587541059E-01 a       946     0    48     1     6
 -7.7451708043613857E-02 a       947     0    48     1     7
  2.6674440112098097E-01 a       948     0    48     1     8
 -1.3641038518314411E-01 a       949     0    48     1     9
 -2.6359507217569383E-02 a       950     0    48     1    10
  1.9066789116240460E-01 a       951     0    48     1    11
 -1.5192712199170948E-02 a       952     0    48     1    12
  1.4048834991457035E-01 a       953     0    48     1    13
 -3.0491131140116262E-01 a       954     0    48     1    14
  1.1858392320667746E-02 a       955     0    48     1    15
  2.2354544877739993E-01 a       956     0    48     1    16
  1.6728255723226007E-01 a       957     0    48     1    17
  1.1666867462219496E-01 a       958     0    48     1    18
  7.0053398196631131E-02 a       959     0    48     1    19
 -5.2987123233182885E-03 a       960     0    48     1    20
  1.4755641034618328E-01 a       961     0    49     1     1
  1.1891890922270278E-01 a       962     0    49     1     2
  1.5304253242554475E-01 a       963     0    49     1     3
  4.9667057259989966E-01 a       964     0    49     1     4
 -3.9644524071860449E-01 a       965     0    49     1     5
 -1.8368592583362617E-01 a       966     0    49     1     6
 -1.5805980462570795E-02 a       967     0    49     1     7
 -2.5875144076818879E-01 a       968     0    49     1     8
 -1.4223997358599588E-01 a       969     0    49     1     9
  4.5586618091643461E-03 a       970     0    49     1    10
 -5.3598368341494396E-02 a       971     0    49     1    11
  1.5274575286847478E-01 a       972     0    49     1    12
 -1.9967724933528283E-01 a       973     0    49     1    13
 -2.1679825427678290E-01 a       974     0    49     1    14
 -1.3303410117553363E-01 a       975     0    49     1    15
 -8.1888709735395984E-02 a       976     0    49     1    16
 -6.7796270657727378E-02 a       977     0    49     1    17
 -3.5430631011236398E-02 a       978     0    49     1    18
 -3.9260371486043422E-01 a       979     0    49     1    19
 -1.3278973514278303E-01 a       980     0    49     1    20
  4.6843166607845835E-02 a       981     0    50     1     1
 -9.6964906133185064E-02 a       982     0    50     1     2
  1.6379388633547526E-01 a       983     0    50     1     3
  1.3934957952848326E-02 a       984     0    50     1     4
 -2.4566650644122268E-02 a       985     0    50     1     5
 -6.1808347643017278E-02 a       986     0    50     1     6
  5.9312601524657942E-02 a       987     0    50     1     7
 -3.1404884102705193E-02 a       988     0    50     1     8
  3.5078470764088529E-02 a       989     0    50     1     9
  1.0235502861575293E-02 a       990     0    50     1    10
 -2.8187084543888158E-02 a       991     0    50     1    11
  2.2477686023355409E-01 a       992     0    50     1    12
  1.5014143890809645E-03 a       993     0    50     1    13
  1.2980331755739369E-01 a       994     0    50     1    14
 -1.9655675760562799E-01 a       995     0    50     1    15
 -5.7335916918643912E-02 a       996     0    50     1    16
  2.1290747704404167E-01 a       997     0    50     1    17
  5.3863331308195393E-02 a       998     0    50     1    18
  1.1355753398993981E-01 a       999     0    50     1    19
 -1.8554982711010193E-02 a      1000     0    50     1    20
  4.3393774777134117E-02 a      1001     0    51     1     1
  6.8035100044257397E-03 a      1002     0    51     1     2
  1.5381318499910426E-05 a      1003     0    51     1     3
 -3.5331449877963973E-02 a      1004     0    51     1     4
 -8.9060891992886096E-02 a      1005     0    51     1     5
  1.6193438789701473E-01 a      1006     0    51     1     6
 -5.8324924666260297E-02 a      1007     0    51     1     7
 -1.3082112220852474E-01 a      1008     0    51     1     8
  1.5323946739656119E-01 a      1009     0    51     1     9
  2.6624175981575609E-02 a      1010     0    51     1    10
 -6.6614582412487744E-02 a      1011     0    51     1    11
  1.3510349540109640E-01 a      1012     0    51     1    12
 -2.0522733453875930E-01 a      1013     0    51     1    13
  1.8976571236778339E-01 a      1014     0    51     1    14
 -1.2271264536601748E-01 a      1015     0    51     1    15
 -2.0379969555432584E-01 a      1016     0    51     1    16
 -5.5700493277084394E-02 a      1017     0    51     1    17
  3.2799971471839114E-02 a      1018     0    51     1    18
  6.6719622675174090E-02 a      1019     0    51     1    19
 -1.4322328174724973E-03 a      1020     0    51     1    20
 -5.2278487789131953E-02 a      1021     0    52     1     1
 -1.6713748915459337E-01 a      1022     0    52     1     2
  5.9760574147283607E-01 a      1023     0    52     1     3
 -3.7750798136653746E-02 a      1024     0    52     1     4
 -1.6701928947194830E-01 a      1025     0    52     1     5
 -2.0879465710665052E-01 a      1026     0    52     1     6
  2.6364154683114560E-01 a      1027     0    52     1     7
  1.1033007882595096E-01 a      1028     0    52     1     8
 -5.8619157787133620E-02 a      1029     0    52     1     9
  7.8443226437775668E-02 a      1030     0    52     1    10
 -8.2838881751802625E-04 a      1031     0    52     1    11
  3.3507874319252229E-01 a      1032     0    52     1    12
  1.3358823209360582E-01 a      1033     0    52     1    13
 -7.3152130220376033E-02 a      1034     0    52     1    14
  1.4660815191812598E-03 a      1035     0    52     1    15
  2.0870733307144274E-01 a      1036     0    52     1    16
 -2.0404236952443613E-01 a      1037     0    52     1    17
  6.0516515794072911E-03 a      1038     0    52     1    18
  1.3677891510101034E-01 a      1039     0    52     1    19
 -3.5539198074588230E-01 a      1040     0    52     1    20
  3.9081648930548642E-02 a      1041     0    53     1     1
 -3.4192552274050408E-02 a      1042     0    53     1     2
 -9.5395515972586400E-02 a      1043     0    53     1     3
  1.9294698547537620E-01 a      1044     0    53     1     4
  1.6895124528441358E-01 a      1045     0    53     1     5
 -4.3187233969399538E-02 a      1046     0    53     1     6
 -1.1710190019950821E-02 a      1047     0    53     1     7
  1.4188046805113566E-01 a      1048     0    53     1     8
 -2.7439987901014540E-01 a      1049     0    53     1     9
  1.0412811864757118E-01 a      1050     0    53     1    10
  4.6141950976455175E-02 a      1051     0    53     1    11
 -1.1484269469436606E-01 a      1052     0    53     1    12
 -2.0739396123157655E-01 a      1053     0    53     1    13
 -1.8208073232677752E-01 a      1054     0    53     1    14
  8.7487995524837686E-02 a      1055     0    53     1    15
 -1.7035865936094050E-01 a      1056     0    53     1    16
  2.5138739638003074E-02 a      1057     0    53     1    17
 -1.5216444460275691E-01 a      1058     0    53     1    18
 -1.7391843417460421E-02 a      1059     0    53     1    19
  1.5113133279507354E-01 a      1060     0    53     1    20
 -3.4832102037583343E-02 a      1061     0    54     1     1
 -9.5849619871390263E-02 a      1062     0    54     1     2
 -3.4169623082378663E-02 a      1063     0    54     1     3
  2.6383808405067061E-01 a      1064     0    54     1     4
 -1.6812221072489428E-01 a      1065     0    54     1     5
  3.1102299240176090E-01 a      1066     0    54     1     6
 -2.0325203756303567E-01 a      1067     0    54     1     7
 -2.0445455283976136E-01 a      1068     0    54     1     8
 -1.5362241747678587E-01 a      1069     0    54     1     9
 -1.5938901907771305E-01 a      1070     0    54     1    10
  1.1681431713778469E-01 a      1071     0    54     1    11
  1.7700799935383227E-01 a      1072     0    54     1    12
 -1.4941167298416649E-01 a      1073     0    54     1    13
  3.5176927133429244E-02 a      1074     0    54     1    14
  2.2569423594968541E-01 a      1075     0    54     1    15
  1.1157120238184988E-01 a      1076     0    54     1    16
  6.5799729152476380E-02 a      1077     0    54     1    17
  1.2128700032184299E-01 a      1078     0    54     1    18
 -3.1698503353059522E-02 a      1079     0    54     1    19
  1.6979050733471227E-01 a      1080     0    54     1    20
  9.1582817652675882E-02 a      1081     0    55     1     1
  1.5062551269587235E-01 a      1082     0    55     1     2
 -7.7039379343390710E-02 a      1083     0    55     1     3
 -1.1660257322351609E-02 a      1084     0    55     1     4
  3.8601704207133415E-02 a      1085     0    55     1     5
  7.8605215603249262E-02 a      1086     0    55     1     6
 -1.1490839449596977E-02 a      1087     0    55     1     7
 -7.4460868661615576E-04 a      1088     0    55     1     8
  9.6025143914262381E-02 a      1089     0    55     1     9
  7.7409467008927868E-02 a      1090     0    55     1    10
 -1.4607901544589449E-02 a      1091     0    55     1    11
 -6.5349924877078039E-02 a      1092     0    55     1    12
  2.0793670225857250E-01 a      1093     0    55     1    13
 -8.5442858927294016E-02 a      1094     0    55     1    14
  1.6229737294551641E-01 a      1095     0    55     1    15
 -4.5938898962383380E-02 a      1096     0    55     1    16
 -4.8179475896634842E-03 a      1097     0    55     1    17
  4.4199120026808980E-02 a      1098     0    55     1    18
  1.0868440927457482E-01 a      1099     0    55     1    19
 -9.9727684010457278E-03 a      1100     0    55     1    20
 -9.7476372252481597E-02 a      1101     0    56     1     1
  7.1296598419106124E-03 a      1102     0    56     1     2
  1.5591635581487162E-01 a      1103     0    56     1     3
  4.1580731134554126E-03 a      1104     0    56     1     4
  5.0979083630029134E-02 a      1105     0    56     1     5
 -1.2362315592103112E-01 a      1106     0    56     1     6
 -6.3781173900381474E-02 a      1107     0    56     1     7
 -1.6373684549667306E-01 a      1108     0    56     1     8
 -8.3257775635550910E-03 a      1109     0    56     1     9
 -9.1444030662306816E-02 a      1110     0    56     1    10
 -3.4665580647273535E-03 a      1111     0    56     1    11
  1.6481279940046256E-01 a      1112     0    56     1    12
 -6.4780031786476275E-02 a      1113     0    56     1    13
  2.2043247396558085E-03 a      1114     0    56     1    14
 -7.0666362428458127E-02 a      1115     0    56     1    15
  2.8786047988083228E-02 a      1116     0    56     1    16
  6.1761872441909019E-02 a      1117     0    56     1    17
  2.0121741169936339E-01 a      1118     0    56     1    18
 -7.6370522688876480E-02 a      1119     0    56     1    19
  6.0174491544455103E-02 a      1120     0    56     1    20
  4.5819948215892509E-01 a      1121     0    57     1     1
  1.2126386013756955E-01 a      1122     0    57     1     2
 -6.4047120889169709E-02 a      1123     0    57     1     3
  1.6173631062711111E-01 a      1124     0    57     1     4
 -4.2616258706135418E-01 a      1125     0    57     1     5
  5.6577111702347405E-01 a      1126     0    57     1     6
  5.7654554195398133E-01 a      1127     0    57     1     7
 -1.0975188230596580E+00 a      1128     0    57     1     8
 -2.0686277155135432E-01 a      1129     0    57     1     9
  7.3615669945915660E-02 a      1130     0    57     1    10
 -3.6553332771860114E-01 a      1131     0    57     1    11
 -5.5979843565730836E-01 a      1132     0    57     1    12
 -6.7781782092287501E-01 a      1133     0    57     1    13
  4.3973522039578350E-01 a      1134     0    57     1    14
 -3.9217989720763013E-01 a      1135     0    57     1    15
 -1.8592638979196768E-01 a      1136     0    57     1    16
  4.4281001830744204E-01 a      1137     0    57     1    17
  7.9212274506396274E-01 a      1138     0    57     1    18
 -1.6585316443662240E-01 a      1139     0    57     1    19
 -6.3033317638770570E-01 a      1140     0    57     1    20
  2.1715089189542805E-01 a      1141     0    58     1     1
 -1.5795088243470468E-01 a      1142     0    58     1     2
 -3.2428678234945518E-01 a      1143     0    58     1     3
 -2.0259693016086644E-01 a      1144     0    58     1     4
 -8.7387245057317847E-02 a      1145     0    58     1     5
  4.6856816116773031E-01 a      1146     0    58     1     6
  1.3011059383585176E-02 a      1147     0    58     1     7
  7.0612391362736360E-01 a      1148     0    58     1     8
  2.8320747228714221E-01 a      1149     0    58     1     9
 -1.8998072555236947E-01 a      1150     0    58     1    10
 -7.5574786017953456E-03 a      1151     0    58     1    11
 -6.0005931480357454E-02 a      1152     0    58     1    12
  6.9382882140774305E-01 a      1153     0    58     1    13
 -2.2328567186089313E-01 a      1154     0    58     1    14
  1.4114029348672067E-02 a      1155     0    58     1    15
 -1.5820374490705197E-01 a      1156     0    58     1    16
  1.3270006581557137E-01 a      1157     0    58     1    17
 -3.5917765602866381E-01 a      1158     0    58     1    18
  3.4294654479535558E-01 a      1159     0    58     1    19
 -5.6364204943968998E-01 a      1160     0    58     1    20
  1.1512886405017286E-01 a      1161     0    59     1     1
  1.6525353588713204E-01 a      1162     0    59     1     2
  3.9155603429700625E-01 a      1163     0    59     1     3
  1.4322989581643192E-01 a      1164     0    59     1     4
 -2.5839006379826235E-01 a      1165     0    59     1     5
  9.2604978643395175E-02 a      1166     0    59     1     6
 -2.3573881399310576E-01 a      1167     0    59     1     7
 -4.9113526098411914E-01 a      1168     0    59     1     8
 -4.5999006755720673E-01 a      1169     0    59     1     9
  5.6726757761683544E-01 a      1170     0    59     1    10
  5.1693841406054708E-01 a      1171     0    59     1    11
  2.1746505397720710E-02 a      1172     0    59     1    12
  1.0246294504756542E-01 a      1173     0    59     1    13
 -1.4551887722774481E-01 a      1174     0    59     1    14
  6.6031966685170862E-02 a      1175     0    59     1    15
  2.2861289388094727E-01 a      1176     0    59     1    16
 -3.2640702431090268E-01 a      1177     0    59     1    17
 -7.4181056473344575E-01 a      1178     0    59     1    18
 -1.5341847992459859E-01 a      1179     0    59     1    19
  3.4054088285900885E-01 a      1180     0    59     1    20
  6.4394169600676260E-02 a      1181     0    60     1     1
 -2.2408483808981264E-01 a      1182     0    60     1     2
 -7.5349963955366042E-02 a      1183     0    60     1     3
  5.8067924416559676E-02 a      1184     0    60     1     4
 -7.1697870614736717E-02 a      1185     0    60     1     5
  3.1741789892853228E-01 a      1186     0    60     1     6
 -2.4578155788402153E-01 a      1187     0    60     1     7
 -6.2322545259406525E-01 a      1188     0    60     1     8
 -2.3741560332130732E-01 a      1189     0    60     1     9
  7.8809045963960836E-02 a      1190     0    60     1    10
 -1.5487603730153113E-01 a      1191     0    60     1    11
 -1.7649199328658843E-01 a      1192     0    60     1    12
  3.6667572392226211E-01 a      1193     0    60     1    13
  1.0166835107501251E-01 a      1194     0    60     1    14
  9.7933817670696227E-02 a      1195     0    60     1    15
 -5.7185528642700767E-01 a      1196     0    60     1    16
 -1.1233671500151519E-01 a      1197     0    60     1    17
  3.4794666169406943E-03 a      1198     0    60     1    18
  1.6490234391197781E-01 a      1199     0    60     1    19
  3.7439628446639055E-02 a      1200     0    60     1    20
 -3.1008907787897472E-01 a      1201     0    61     1     1
 -3.0366133778160186E-02 a      1202     0    61     1     2
 -5.5402794774970794E-02 a      1203     0    61     1     3
 -1.0378178126300916E-01 a      1204     0    61     1     4
 -3.7141102042173607E-02 a      1205     0    61     1     5
  3.3527597697327804E-01 a      1206     0    61     1     6
 -4.2643792897855887E-01 a      1207     0    61     1     7
 -1.1745687857231994E+00 a      1208     0    61     1     8
 -5.1947446124297891E-01 a      1209     0    61     1     9
  8.2922392129414546E-02 a      1210     0    61     1    10
  6.4473420441349871E-01 a      1211     0    61     1    11
  1.7776063625150834E-03 a      1212     0    61     1    12
  6.7485411266328080E-02 a      1213     0    61     1    13
 -6.1873106342964106E-02 a      1214     0    61     1    14
  2.0027819118546830E-01 a      1215     0    61     1    15
 -5.1439255086234681E-01 a      1216     0    61     1    16
 -4.6070791195031824E-01 a      1217     0    61     1    17
 -4.6052891989243294E-01 a      1218     0    61     1    18
  9.8235294214654587E-02 a      1219     0    61     1    19
  6.3829428297797142E-01 a      1220     0    61     1    20
 -1.5028346606944268E-01 a      1221     0    62     1     1
  1.1644147898459431E-01 a      1222     0    62     1     2
  3.5977813522050811E-01 a      1223     0    62     1     3
 -1.8606637662314834E-01 a      1224     0    62     1     4
  1.5069133369575685E-01 a      1225     0    62     1     5
 -4.9052092763359434E-01 a      1226     0    62     1     6
  2.6441814192285102E-02 a      1227     0    62     1     7
  5.8020430222111863E-01 a      1228     0    62     1     8
  1.7253674089635526E-01 a      1229     0    62     1     9
 -5.3647178751127689E-01 a      1230     0    62     1    10
 -2.7312957457670384E-01 a      1231     0    62     1    11
 -4.8396443826750853E-02 a      1232     0    62     1    12
 -1.0825223338279504E+00 a      1233     0    62     1    13
 -5.5721720235724959E-01 a      1234     0    62     1    14
 -2.5544983616507444E-01 a      1235     0    62     1    15
 -3.6005430481354955E-01 a      1236     0    62     1    16
 -8.9474061566725258E-02 a      1237     0    62     1    17
  3.9343325931887629E-01 a      1238     0    62     1    18
  6.5920954093073832E-03 a      1239     0    62     1    19
 -3.3230005966069742E-01 a      1240     0    62     1    20
  4.5763800968360635E-02 a      1241     0    63     1     1
 -2.2086097981606109E-01 a      1242     0    63     1     2
 -3.2945432372402855E-01 a      1243     0    63     1     3
 -4.0335921383696777E-01 a      1244     0    63     1     4
 -3.1836543218829456E-02 a      1245     0    63     1     5
  4.6308639718593958E-01 a      1246     0    63     1     6
  2.9476667194776526E-02 a      1247     0    63     1     7
  7.3158011183194782E-01 a      1248     0    63     1     8
  1.5647938046676180E-01 a      1249     0    63     1     9
 -2.9968878701768592E-01 a      1250     0    63     1    10
  1.4019124447182180E-01 a      1251     0    63     1    11
 -3.6855005848104250E-02 a      1252     0    63     1    12
  3.8165775284606257E-01 a      1253     0    63     1    13
  7.2244044608924626E-02 a      1254     0    63     1    14
 -1.9905355978566269E-01 a      1255     0    63     1    15
 -1.1324756759956460E-01 a      1256     0    63     1    16
  3.4735828132494473E-01 a      1257     0    63     1    17
 -1.0511558513721018E-02 a      1258     0    63     1    18
  1.0568233159793299E-01 a      1259     0    63     1    19
 -4.7815150467998047E-01 a      1260     0    63     1    20
 -4.0085306969573395E-02 a      1261     0    64     1     1
  6.9275732110111621E-02 a      1262     0    64     1     2
  2.1992004267321588E-01 a      1263     0    64     1     3
  6.2370079084744089E-02 a      1264     0    64     1     4
 -5.3529574859343190E-02 a      1265     0    64     1     5
  1.1248883981575413E-03 a      1266     0    64     1     6
 -2.2968071948229438E-01 a      1267     0    64     1     7
 -5.5439772545143029E-01 a      1268     0    64     1     8
 -3.6806125656113781E-01 a      1269     0    64     1     9
  3.1238350149543720E-01 a      1270     0    64     1    10
  3.2964159129252901E-01 a      1271     0    64     1    11
 -1.7478423241923058E-01 a      1272     0    64     1    12
  2.0357237654082397E-01 a      1273     0    64     1    13
 -1.0035173627526289E-01 a      1274     0    64     1    14
 -6.5891594501553394E-02 a      1275     0    64     1    15
  1.2698374122374717E-01 a      1276     0    64     1    16
 -3.7091117697552406E-01 a      1277     0    64     1    17
 -5.3710615563924402E-01 a      1278     0    64     1    18
 -2.9221519055835282E-02 a      1279     0    64     1    19
  2.6934878553233282E-01 a      1280     0    64     1    20
 -2.4395104154433778E-01 a      1281     0    65     1     1
  3.8843571833533853E-02 a      1282     0    65     1     2
 -7.8443570108836749E-02 a      1283     0    65     1     3
 -3.9753615807787235E-01 a      1284     0    65     1     4
  2.2613847464289027E-01 a      1285     0    65     1     5
  2.9684922119482754E-01 a      1286     0    65     1     6
 -4.5704339399775668E-01 a      1287     0    65     1     7
 -9.4571239079586589E-01 a      1288     0    65     1     8
 -4.9768215418223000E-01 a      1289     0    65     1     9
 -1.6388868871429010E-01 a      1290     0    65     1    10
  3.2322893016033744E-01 a      1291     0    65     1    11
  7.0907055985777123E-02 a      1292     0    65     1    12
  2.6682903756327842E-01 a      1293     0    65     1    13
  5.4715850164648840E-02 a      1294     0    65     1    14
  3.5764953908262002E-02 a      1295     0    65     1    15
 -2.0764213374004903E-01 a      1296     0    65     1    16
 -3.2352865966846439E-01 a      1297     0    65     1    17
 -2.3903811181114595E-01 a      1298     0    65     1    18
  1.7178972092750766E-01 a      1299     0    65     1    19
  4.1040389810339722E-01 a      1300     0    65     1    20
 -1.4878052627178290E-01 a      1301     0    66     1     1
  1.4730892140910912E-01 a      1302     0    66     1     2
  5.9915879380516246E-01 a      1303     0    66     1     3
  2.8904262468962331E-02 a      1304     0    66     1     4
  4.2227176257122823E-01 a      1305     0    66     1     5
 -6.3966403336878064E-01 a      1306     0    66     1     6
  3.3949295094206333E-01 a      1307     0    66     1     7
  6.6717517437289653E-01 a      1308     0    66     1     8
  1.4256209038209891E-01 a      1309     0    66     1     9
 -5.5028851227891318E-01 a      1310     0    66     1    10
 -4.6819317263958621E-01 a      1311     0    66     1    11
 -2.2355103180808755E-01 a      1312     0    66     1    12
 -1.1616006073640701E+00 a      1313     0    66     1    13
 -4.8810372747374636E-01 a      1314     0    66     1    14
 -1.6234016951993652E-01 a      1315     0    66     1    15
 -1.9779876777285343E-01 a      1316     0    66     1    16
 -2.3965916619620659E-01 a      1317     0    66     1    17
  1.2510661815275120E-01 a      1318     0    66     1    18
 -5.3300650869846346E-02 a      1319     0    66     1    19
 -3.5005961114067291E-01 a      1320     0    66     1    20
 -4.3139441939270473E-03 a      1321     0    67     1     1
 -6.5832091878324825E-02 a      1322     0    67     1     2
 -3.2891619015596335E-01 a      1323     0    67     1     3
 -2.3987214121578465E-01 a      1324     0    67     1     4
 -1.5088723722681336E-04 a      1325     0    67     1     5
  2.5414352882365271E-01 a      1326     0    67     1     6
  6.4344780710083871E-02 a      1327     0    67     1     7
  7.4577646482742255E-01 a      1328     0    67     1     8
  1.4088142748962720E-01 a      1329     0    67     1     9
 -1.1198910053767913E-01 a      1330     0    67     1    10
  4.1706273369044658E-02 a      1331     0    67     1    11
  1.8586722326950002E-02 a      1332     0    67     1    12
  4.1861658495378329E-01 a      1333     0    67     1    13
  5.8414869544401817E-02 a      1334     0    67     1    14
 -1.4302987635192232E-01 a      1335     0    67     1    15
 -1.9830655224624796E-01 a      1336     0    67     1    16
  4.0284684816526928E-01 a      1337     0    67     1    17
 -5.0432157971164487E-02 a      1338     0    67     1    18
  2.1272493531214973E-01 a      1339     0    67     1    19
 -5.6885014396405353E-01 a      1340     0    67     1    20
 -5.6097882996634896E-01 a      1341     0    68     1     1
 -4.7322456194185664E-01 a      1342     0    68     1     2
  3.6455713846107696E-01 a      1343     0    68     1     3
 -3.2294535751851899E-01 a      1344     0    68     1     4
 -1.1183081341114874E-01 a      1345     0    68     1     5
 -2.8326003244039479E-03 a      1346     0    68     1     6
  1.2250382996963531E-01 a      1347     0    68     1     7
  3.0645292617105152E-01 a      1348     0    68     1     8
  2.3181451040758073E-02 a      1349     0    68     1     9
 -8.7970520054857793E-01 a      1350     0    68     1    10
 -6.5074312082803110E-01 a      1351     0    68     1    11
 -2.1153794868618389E-01 a      1352     0    68     1    12
 -6.6911146858702697E-01 a      1353     0    68     1    13
 -4.3284871731712543E-01 a      1354     0    68     1    14
 -8.7254940901678769E-04 a      1355     0    68     1    15
  7.1159889610098281E-02 a      1356     0    68     1    16
  2.3752818460267391E-01 a      1357     0    68     1    17
  5.1547767380266452E-01 a      1358     0    68     1    18
  2.3276772732913822E-01 a      1359     0    68     1    19
 -3.7421075975700707E-01 a      1360     0    68     1    20
  6.5076775770419272E-03 a      1361     0    69     1     1
  3.2480545939602180E-02 a      1362     0    69     1     2
  4.8531451061604038E-02 a      1363     0    69     1     3
  3.3336810221604805E-02 a      1364     0    69     1     4
 -1.4937325437609364E-01 a      1365     0    69     1     5
 -1.7333588184517174E-01 a      1366     0    69     1     6
 -2.0940740487157136E-01 a      1367     0    69     1     7
 -4.1126566012219057E-01 a      1368     0    69     1     8
 -4.5060776862837892E-01 a      1369     0    69     1     9
  1.9096493711881948E-01 a      1370     0    69     1    10
  4.1520746440098782E-01 a      1371     0    69     1    11
 -4.8241963065044677E-02 a      1372     0    69     1    12
  1.8275537305128806E-01 a      1373     0    69     1    13
 -1.1945807231961270E-01 a      1374     0    69     1    14
 -1.4271460677836734E-01 a      1375     0    69     1    15
 -5.3777657668743005E-02 a      1376     0    69     1    16
 -4.9920276945335262E-01 a      1377     0    69     1    17
 -4.8264315350124737E-01 a      1378     0    69     1    18
 -1.0348972679732313E-01 a      1379     0    69     1    19
  3.2664847334798480E-01 a      1380     0    69     1    20
 -2.5406322334524267E-01 a      1381     0    70     1     1
 -2.0716222570031589E-01 a      1382     0    70     1     2
 -1.8202272200231939E-01 a      1383     0    70     1     3
 -1.7912232511069925E-01 a      1384     0    70     1     4
  2.7801790953365352E-01 a      1385     0    70     1     5
  3.6985933431929002E-01 a      1386     0    70     1     6
 -7.0093264232840469E-01 a      1387     0    70     1     7
 -7.5423582911728759E-01 a      1388     0    70     1     8
 -4.2838312754377122E-01 a      1389     0    70     1     9
  3.3360755023387798E-02 a      1390     0    70     1    10
  2.0788009116208783E-01 a      1391     0    70     1    11
  4.5005775404841027E-02 a      1392     0    70     1    12
  2.3848195963723851E-01 a      1393     0    70     1    13
  5.9361531984566118E-02 a      1394     0    70     1    14
  2.5660439750174724E-01 a      1395     0    70     1    15
 -1.2981685974233470E-01 a      1396     0    70     1    16
 -4.0356223608457598E-01 a      1397     0    70     1    17
  4.4080051296371367E-02 a      1398     0    70     1    18
  5.0074249970686346E-01 a      1399     0    70     1    19
  2.4034701160558128E-01 a      1400     0    70     1    20
  1.4241936656915595E-02 a      1401     0    71     1     1
  4.3004868131839447E-01 a      1402     0    71     1     2
  5.9840839616862729E-01 a      1403     0    71     1     3
 -1.5711610583086767E-02 a      1404     0    71     1     4
  1.1355816377395443E-01 a      1405     0    71     1     5
 -5.1358690568642762E-01 a      1406     0    71     1     6
  3.6588019182864351E-01 a      1407     0    71     1     7
  5.6665692701643289E-01 a      1408     0    71     1     8
  9.4081051584388287E-02 a      1409     0    71     1     9
 -2.8455215588600963E-01 a      1410     0    71     1    10
 -4.0917751693283233E-01 a      1411     0    71     1    11
  3.2690017723086606E-02 a      1412     0    71     1    12
 -9.7390685048890868E-01 a      1413     0    71     1    13
 -6.5422287355608721E-01 a      1414     0    71     1    14
 -1.6144620148302299E-01 a      1415     0    71     1    15
 -2.1591117898855525E-01 a      1416     0    71     1    16
  2.3756666834189216E-01 a      1417     0    71     1    17
  1.3080150414636074E-01 a      1418     0    71     1    18
 -8.9416600470963711E-02 a      1419     0    71     1    19
 -1.8564951245160932E-01 a      1420     0    71     1    20
 -1.0400356469051647E-01 a      1421     0    72     1     1
 -2.5855617276653453E-01 a      1422     0    72     1     2
  9.8693125617283842E-02 a      1423     0    72     1     3
 -3.4936426371009649E-01 a      1424     0    72     1     4
 -1.6105469457035532E-01 a      1425     0    72     1     5
  1.3396736397849587E-01 a      1426     0    72     1     6
  6.1959463196168220E-02 a      1427     0    72     1     7
  6.4246336472144261E-01 a      1428     0    72     1     8
  3.0658150160860875E-01 a      1429     0    72     1     9
 -2.9739478103601363E-01 a      1430     0    72     1    10
  4.1634897230569103E-02 a      1431     0    72     1    11
  3.2305828246225432E-01 a      1432     0    72     1    12
  1.7740438685883814E-01 a      1433     0    72     1    13
 -2.3276565362200699E-01 a      1434     0    72     1    14
 -2.3997069544422472E-01 a      1435     0    72     1    15
  1.0506272558866367E-01 a      1436     0    72     1    16
  3.4545045343203068E-01 a      1437     0    72     1    17
 -4.9619724549901145E-01 a      1438     0    72     1    18
  2.3192790621852277E-01 a      1439     0    72     1    19
 -4.2880195440710100E-01 a      1440     0    72     1    20
 -2.0549647320165851E-01 a      1441     0    73     1     1
 -3.1682700076580023E-01 a      1442     0    73     1     2
  4.9427425989350834E-02 a      1443     0    73     1     3
  2.1347324889326690E-02 a      1444     0    73     1     4
 -4.8518619692184944E-01 a      1445     0    73     1     5
 -3.8466272440382886E-02 a      1446     0    73     1     6
  1.6276325199640399E-02 a      1447     0    73     1     7
  9.1471038227807805E-02 a      1448     0    73     1     8
  6.7717004694017230E-02 a      1449     0    73     1     9
 -5.1598623696077994E-01 a      1450     0    73     1    10
 -4.1410888591474537E-01 a      1451     0    73     1    11
 -1.0282471566341982E-01 a      1452     0    73     1    12
 -2.4738335803624692E-01 a      1453     0    73     1    13
 -3.4309666830498597E-01 a      1454     0    73     1    14
 -5.8407042090083322E-02 a      1455     0    73     1    15
  1.6536477210400474E-01 a      1456     0    73     1    16
  9.1323198105022693E-02 a      1457     0    73     1    17
  3.1374554869601612E-01 a      1458     0    73     1    18
  3.6047421797134238E-01 a      1459     0    73     1    19
 -6.6211574666842243E-02 a      1460     0    73     1    20
 -2.8860043408343722E-01 a      1461     0    74     1     1
 -5.6568992746164448E-02 a      1462     0    74     1     2
 -1.6457266482537031E-01 a      1463     0    74     1     3
 -1.5040510725855988E-01 a      1464     0    74     1     4
 -1.2276276160224263E-01 a      1465     0    74     1     5
  3.1350712256863145E-01 a      1466     0    74     1     6
 -5.2002528928346348E-01 a      1467     0    74     1     7
 -4.9792946007949535E-02 a      1468     0    74     1     8
 -2.9864062070425940E-01 a      1469     0    74     1     9
 -2.3250289374876054E-01 a      1470     0    74     1    10
 -2.0816033612397739E-01 a      1471     0    74     1    11
 -1.3830626779978958E-01 a      1472     0    74     1    12
  2.7186581675109006E-01 a      1473     0    74     1    13
  1.6684281103002938E-02 a      1474     0    74     1    14
  2.8079672054343652E-01 a      1475     0    74     1    15
 -3.4430345593544004E-01 a      1476     0    74     1    16
 -3.9830757731986566E-01 a      1477     0    74     1    17
  4.6021638913929952E-01 a      1478     0    74     1    18
  2.2222390077280316E-01 a      1479     0    74     1    19
  9.8426412123511484E-02 a      1480     0    74     1    20
 -2.0119323974719291E-01 a      1481     0    75     1     1
 -3.7398447745247887E-01 a      1482     0    75     1     2
 -3.4293900120995890E-01 a      1483     0    75     1     3
  6.0839774957708273E-02 a      1484     0    75     1     4
 -1.7503931630424768E-01 a      1485     0    75     1     5
 -1.3840653872603251E-01 a      1486     0    75     1     6
 -5.0328889747349614E-01 a      1487     0    75     1     7
 -6.8019819237320878E-01 a      1488     0    75     1     8
  2.9767883882782231E-01 a      1489     0    75     1     9
  3.6035923407880405E-01 a      1490     0    75     1    10
  1.0638639961473065E-01 a      1491     0    75     1    11
  4.7325069492057492E-01 a      1492     0    75     1    12
  1.0523196407609078E-01 a      1493     0    75     1    13
 -1.2167713806705331E-01 a      1494     0    75     1    14
 -1.1774363407652808E-01 a      1495     0    75     1    15
  3.7682967859300676E-01 a      1496     0    75     1    16
  1.4644523119297118E-01 a      1497     0    75     1    17
  4.1083562337900559E-02 a      1498     0    75     1    18
  6.0098262992594298E-01 a      1499     0    75     1    19
  2.0092390651082767E-01 a      1500     0    75     1    20
 -3.0670949719586886E-02 a      1501     0    76     1     1
 -9.5631701018403362E-02 a      1502     0    76     1     2
 -9.8563455866591931E-02 a      1503     0    76     1     3
  5.4705943591751023E-02 a      1504     0    76     1     4
 -2.5173909070391472E-02 a      1505     0    76     1     5
  2.5028569582617791E-02 a      1506     0    76     1     6
  6.6882789847117408E-01 a      1507     0    76     1     7
  4.8630485170519433E-01 a      1508     0    76     1     8
  3.5270982358861297E-01 a      1509     0    76     1     9
 -5.4286660184090930E-02 a      1510     0    76     1    10
  4.4149025699242846E-02 a      1511     0    76     1    11
  4.6098382369408764E-01 a      1512     0    76     1    12
  8.4108838301649627E-02 a      1513     0    76     1    13
  3.4669481783328328E-02 a      1514     0    76     1    14
 -6.5482782205096546E-01 a      1515     0    76     1    15
 -4.6770096462872744E-02 a      1516     0    76     1    16
  8.9307173306920495E-01 a      1517     0    76     1    17
 -6.6396269241868322E-01 a      1518     0    76     1    18
 -7.0074815607912955E-02 a      1519     0    76     1    19
 -4.4721891107104972E-01 a      1520     0    76     1    20
 -1.3821720142133370E-01 a      1521     0    77     1     1
 -4.6354574430956336E-01 a      1522     0    77     1     2
 -4.9031447229593506E-01 a      1523     0    77     1     3
 -1.0106319513624808E-01 a      1524     0    77     1     4
 -2.1499474842206887E-01 a      1525     0    77     1     5
  7.6851561338326402E-01 a      1526     0    77     1     6
 -4.3088761948363663E-01 a      1527     0    77     1     7
  6.5703179472185547E-01 a      1528     0    77     1     8
 -6.2822642423559005E-02 a      1529     0    77     1     9
 -3.4646903799330925E-01 a      1530     0    77     1    10
 -6.6598817342837879E-01 a      1531     0    77     1    11
 -1.2192810255022372E-01 a      1532     0    77     1    12
  5.5285178412060099E-01 a      1533     0    77     1    13
  2.4005249922347227E-01 a      1534     0    77     1    14
  3.2455238102601069E-01 a      1535     0    77     1    15
  6.3119889538105914E-03 a      1536     0    77     1    16
 -2.5972496881843887E-01 a      1537     0    77     1    17
  7.7166109715719311E-01 a      1538     0    77     1    18
  3.2727731458217135E-01 a      1539     0    77     1    19
 -2.2445233132026535E-01 a      1540     0    77     1    20
  5.1985395309649773E-01 a      1541     0    78     1     1
 -3.3387050603274911E-02 a      1542     0    78     1     2
 -3.2718545761511708E-01 a      1543     0    78     1     3
  2.2870602281376159E-01 a      1544     0    78     1     4
 -7.0890844920664789E-02 a      1545     0    78     1     5
  5.5153702177133990E-01 a      1546     0    78     1     6
 -3.3849713969127382E-01 a      1547     0    78     1     7
 -1.8065674745454701E+00 a      1548     0    78     1     8
 -7.0514793543097853E-01 a      1549     0    78     1     9
 -1.7096312075928974E-01 a      1550     0    78     1    10
 -2.7058914542484119E-01 a      1551     0    78     1    11
 -1.0782326712873296E+00 a      1552     0    78     1    12
  3.0787825983963454E-02 a      1553     0    78     1    13
  1.8419349566426560E-01 a      1554     0    78     1    14
  1.5915410629814764E-01 a      1555     0    78     1    15
 -9.3620526171578666E-01 a      1556     0    78     1    16
 -1.3489860530768719E-01 a      1557     0    78     1    17
  8.3481045370914508E-01 a      1558     0    78     1    18
  4.0552590214543299E-01 a      1559     0    78     1    19
 -4.9230433147998513E-02 a      1560     0    78     1    20
 -9.3623769955602079E-02 a      1561     0    79     1     1
  7.9504291038411334E-02 a      1562     0    79     1     2
  3.4617323023351870E-01 a      1563     0    79     1     3
 -1.4071332651955577E-02 a      1564     0    79     1     4
 -1.8505687362632606E-01 a      1565     0    79     1     5
  7.3534556090197226E-02 a      1566     0    79     1     6
  1.0322470052532415E+00 a      1567     0    79     1     7
  3.5146073174610520E-01 a      1568     0    79     1     8
  2.6471508003462718E-01 a      1569     0    79     1     9
 -1.5214985812523485E-01 a      1570     0    79     1    10
  1.8494780810054304E-01 a      1571     0    79     1    11
  3.5951824069329946E-01 a      1572     0    79     1    12
  4.4179888771171585E-02 a      1573     0    79     1    13
  1.7326867941528973E-01 a      1574     0    79     1    14
 -7.5215815681847720E-01 a      1575     0    79     1    15
 -3.6852683383950230E-02 a      1576     0    79     1    16
  9.1917701645437933E-01 a      1577     0    79     1    17
 -7.0433816142780081E-01 a      1578     0    79     1    18
 -4.1349696253876944E-01 a      1579     0    79     1    19
 -3.6388413406116704E-01 a      1580     0    79     1    20
  1.0337042938859033E-01 a      1581     0    80     1     1
 -5.8552106519030492E-02 a      1582     0    80     1     2
  3.2775558490755541E-01 a      1583     0    80     1     3
  4.6373453251209305E-02 a      1584     0    80     1     4
  5.2541423508637208E-01 a      1585     0    80     1     5
 -3.4973743857350248E-01 a      1586     0    80     1     6
 -2.1949383104826917E-01 a      1587     0    80     1     7
  2.4518071515647571E-01 a      1588     0    80     1     8
  1.5842392635566324E-01 a      1589     0    80     1     9
  1.0111285534365082E-01 a      1590     0    80     1    10
  2.8223631508165509E-02 a      1591     0    80     1    11
  3.8091243865460339E-01 a      1592     0    80     1    12
 -4.2005439811037654E-01 a      1593     0    80     1    13
 -1.0567716942625244E-01 a      1594     0    80     1    14
 -1.1809369299223560E-01 a      1595     0    80     1    15
 -1.4961460608856436E-01 a      1596     0    80     1    16
 -7.1212221406741771E-02 a      1597     0    80     1    17
 -1.8735972977584098E-01 a      1598     0    80     1    18
 -6.8160618250881738E-02 a      1599     0    80     1    19
  1.1751823887568076E-01 a      1600     0    80     1    20
  5.0587972998594777E-01 a      1601     0    81     1     1
  1.3034535157965418E-01 a      1602     0    81     1     2
 -2.7409094518671234E-01 a      1603     0    81     1     3
  7.7926589058164200E-02 a      1604     0    81     1     4
 -7.8411965345914492E-02 a      1605     0    81     1     5
  2.9337158887111991E-01 a      1606     0    81     1     6
 -6.7193858537168427E-01 a      1607     0    81     1     7
 -9.6151776333894656E-01 a      1608     0    81     1     8
 -5.3077817167458130E-02 a      1609     0    81     1     9
  1.7228517307466903E-01 a      1610     0    81     1    10
 -3.1353096551702403E-01 a      1611     0    81     1    11
 -2.8349926758941029E-02 a      1612     0    81     1    12
  1.5073605619726852E-02 a      1613     0    81     1    13
 -1.5089514626323272E-01 a      1614     0    81     1    14
  8.6749968420292922E-02 a      1615     0    81     1    15
 -2.4957027374986476E-01 a      1616     0    81     1    16
  2.1696627986525346E-01 a      1617     0    81     1    17
  3.5983173624178288E-01 a      1618     0    81     1    18
 -1.3917321052703965E-01 a      1619     0    81     1    19
 -1.5708647427552913E-01 a      1620     0    81     1    20
  8.5468803441189600E-01 a      1621     0    82     1     1
  3.4003339696510099E-01 a      1622     0    82     1     2
 -1.4282644056714608E-01 a      1623     0    82     1     3
