################################################################################
# Neural network connection values (weights and biases).
################################################################################
# Col  Name       Description
################################################################################
# 1    connection Neural network connection value.
# 2    t          Connection type (a = weight, b = bias).
# 3    index      Index enumerating weights.
# 4    l_s        Starting point layer (end point layer for biases).
# 5    n_s        Starting point neuron in starting layer (end point neuron for biases).
# 6    l_e        End point layer.
# 7    n_e        End point neuron in end layer.
################################################################################
#                      1 2         3     4     5     6     7
#             connection t     index   l_s   n_s   l_e   n_e
############################################################
 -1.5653554817914406E-01 a         1     0     1     1     1
  2.8504108526201161E-01 a         2     0     1     1     2
 -2.2690684361088831E-01 a         3     0     1     1     3
  2.1256167715111551E-01 a         4     0     1     1     4
 -4.5014187340996931E-01 a         5     0     1     1     5
  1.6062831886403511E-01 a         6     0     1     1     6
  3.8373131556236756E-02 a         7     0     1     1     7
 -2.2625457513217290E-01 a         8     0     1     1     8
  1.6775900460365092E-01 a         9     0     1     1     9
  1.3524300525076360E-01 a        10     0     1     1    10
  1.8309426697548280E-02 a        11     0     1     1    11
  4.3038654832228301E-01 a        12     0     1     1    12
 -4.4542329035089212E-01 a        13     0     1     1    13
 -7.3073308060996364E-02 a        14     0     1     1    14
  1.6832428166882465E-01 a        15     0     1     1    15
 -1.3018026951498701E-01 a        16     0     1     1    16
 -5.9221486138523148E-02 a        17     0     1     1    17
  4.3884479666606240E-02 a        18     0     1     1    18
  4.9154608484694939E-01 a        19     0     1     1    19
  3.4812228950627921E-01 a        20     0     1     1    20
  6.9304952259179292E-02 a        21     0     2     1     1
 -1.7957585639458207E-01 a        22     0     2     1     2
  1.4205317935876230E-01 a        23     0     2     1     3
 -1.8292548469884226E-01 a        24     0     2     1     4
 -4.9708436432612640E-01 a        25     0     2     1     5
  2.5205729916937325E-01 a        26     0     2     1     6
 -3.5982086003631603E-01 a        27     0     2     1     7
 -6.6113204959480809E-02 a        28     0     2     1     8
  9.4763492893242582E-02 a        29     0     2     1     9
 -1.1387344229828117E-01 a        30     0     2     1    10
  2.0623369828904767E-01 a        31     0     2     1    11
  1.0993516214354179E-01 a        32     0     2     1    12
 -7.2480459171930411E-02 a        33     0     2     1    13
  1.5310762500285763E-01 a        34     0     2     1    14
  9.1375606649610072E-02 a        35     0     2     1    15
  7.9023735969569284E-02 a        36     0     2     1    16
 -7.3096988192571113E-02 a        37     0     2     1    17
 -1.4069264172232968E-01 a        38     0     2     1    18
  2.1963390020903606E-01 a        39     0     2     1    19
 -1.5536516239185177E-01 a        40     0     2     1    20
  1.8450046881742291E-01 a        41     0     3     1     1
  3.7896161209952728E-01 a        42     0     3     1     2
  2.0757224785799971E-02 a        43     0     3     1     3
 -2.2900460446886511E-02 a        44     0     3     1     4
  1.5054667826157092E-01 a        45     0     3     1     5
  4.0548215338238275E-01 a        46     0     3     1     6
  4.6378318651080896E-01 a        47     0     3     1     7
 -8.2489676252515368E-02 a        48     0     3     1     8
  1.0007745160238452E-01 a        49     0     3     1     9
  2.2283202511093789E-01 a        50     0     3     1    10
 -2.6541953886872967E-02 a        51     0     3     1    11
  4.3261192440931312E-01 a        52     0     3     1    12
 -3.9351805394405159E-01 a        53     0     3     1    13
  1.8793317512158882E-02 a        54     0     3     1    14
  2.3100659464976087E-01 a        55     0     3     1    15
 -1.5953838116282529E-01 a        56     0     3     1    16
  2.2880639525833155E-01 a        57     0     3     1    17
 -1.2902828515211937E-01 a        58     0     3     1    18
  1.8721748724616838E-01 a        59     0     3     1    19
  3.2131491686467850E-01 a        60     0     3     1    20
  2.4628776463456079E-01 a        61     0     4     1     1
 -8.4450392091726334E-02 a        62     0     4     1     2
  1.3293121093801735E-01 a        63     0     4     1     3
 -1.7115494422701699E-01 a        64     0     4     1     4
 -4.1306717386261876E-01 a        65     0     4     1     5
  4.2241648583457636E-01 a        66     0     4     1     6
 -3.2065675360741747E-01 a        67     0     4     1     7
  5.7511369324499274E-02 a        68     0     4     1     8
 -7.3270298771157760E-02 a        69     0     4     1     9
 -1.2182669071554501E-01 a        70     0     4     1    10
  1.5739881457233382E-01 a        71     0     4     1    11
  6.5759782078706003E-02 a        72     0     4     1    12
 -4.2610619876035150E-02 a        73     0     4     1    13
 -2.6831619948602035E-02 a        74     0     4     1    14
  3.0343564867569780E-02 a        75     0     4     1    15
 -4.7901589052385235E-01 a        76     0     4     1    16
 -1.9525033250620968E-01 a        77     0     4     1    17
 -1.4908295911434005E-01 a        78     0     4     1    18
 -1.8146100879850705E-01 a        79     0     4     1    19
  2.1381413243952074E-01 a        80     0     4     1    20
  4.1741811710356735E-02 a        81     0     5     1     1
 -2.0253401089517425E-01 a        82     0     5     1     2
  6.6867296276544655E-02 a        83     0     5     1     3
 -1.0715351851335606E-01 a        84     0     5     1     4
 -6.9786178260527548E-02 a        85     0     5     1     5
 -1.8367989757963877E-02 a        86     0     5     1     6
  3.0358577077047848E-02 a        87     0     5     1     7
  1.1619771019257714E-01 a        88     0     5     1     8
  1.7161858824550205E-01 a        89     0     5     1     9
  1.5512004988954645E-01 a        90     0     5     1    10
 -1.6358709442576058E-01 a        91     0     5     1    11
 -2.1946184255448750E-01 a        92     0     5     1    12
  4.5195867237320830E-02 a        93     0     5     1    13
 -4.2951762094554986E-02 a        94     0     5     1    14
 -1.4436220998995156E-01 a        95     0     5     1    15
  1.2492032920388144E-01 a        96     0     5     1    16
  2.7702260734017248E-01 a        97     0     5     1    17
  1.0367267649574682E-02 a        98     0     5     1    18
  1.7829158317289631E-01 a        99     0     5     1    19
 -1.4055241244143432E-01 a       100     0     5     1    20
 -1.7360319626449283E-01 a       101     0     6     1     1
 -1.8954559499846307E-01 a       102     0     6     1     2
 -1.3984546896211772E-01 a       103     0     6     1     3
  9.4193338868846788E-02 a       104     0     6     1     4
  7.9120329128352054E-02 a       105     0     6     1     5
 -4.1673371338284096E-02 a       106     0     6     1     6
 -2.6260585489590599E-01 a       107     0     6     1     7
  2.1450473916853477E-01 a       108     0     6     1     8
 -1.1196805723629065E-01 a       109     0     6     1     9
  1.0204842763859820E-02 a       110     0     6     1    10
 -3.7914951530685199E-02 a       111     0     6     1    11
 -5.3735639134070583E-02 a       112     0     6     1    12
  1.7695013880211158E-01 a       113     0     6     1    13
 -1.2067239840175278E-01 a       114     0     6     1    14
  2.1736248094529477E-03 a       115     0     6     1    15
  1.1021112585431846E-01 a       116     0     6     1    16
 -1.8688134994933592E-01 a       117     0     6     1    17
  5.4194174515567245E-03 a       118     0     6     1    18
  1.6878643313778502E-01 a       119     0     6     1    19
  2.6505183062840182E-01 a       120     0     6     1    20
  2.1617170635824368E-01 a       121     0     7     1     1
  1.5870913621820601E-01 a       122     0     7     1     2
 -1.1185529687197666E-01 a       123     0     7     1     3
 -1.9508939702913841E-01 a       124     0     7     1     4
  1.9129363704324862E-01 a       125     0     7     1     5
 -8.6080736339570432E-02 a       126     0     7     1     6
 -1.9091057911811996E-01 a       127     0     7     1     7
 -1.8006292978809413E-01 a       128     0     7     1     8
 -6.6376400992329138E-02 a       129     0     7     1     9
  2.3416970499012441E-01 a       130     0     7     1    10
 -8.4650330110934591E-02 a       131     0     7     1    11
 -2.3554752658059469E-01 a       132     0     7     1    12
 -1.1359860021933516E-01 a       133     0     7     1    13
  2.6459515443039271E-02 a       134     0     7     1    14
 -9.8704275795697238E-02 a       135     0     7     1    15
  1.5250642906947606E-01 a       136     0     7     1    16
  6.6646030508350190E-02 a       137     0     7     1    17
  1.8764812778551329E-01 a       138     0     7     1    18
 -2.0057485797410962E-01 a       139     0     7     1    19
  4.7694572967167462E-02 a       140     0     7     1    20
  2.8629165133488582E-01 a       141     0     8     1     1
 -2.2613517749631790E-01 a       142     0     8     1     2
 -1.8661847435912005E-01 a       143     0     8     1     3
 -1.1902824437670165E-01 a       144     0     8     1     4
 -2.2628232424591169E-01 a       145     0     8     1     5
  2.0274198779614291E-01 a       146     0     8     1     6
  3.0363103345146622E-02 a       147     0     8     1     7
 -2.5457820565866707E-01 a       148     0     8     1     8
  1.8425850624510387E-01 a       149     0     8     1     9
  4.5947043255536897E-03 a       150     0     8     1    10
  1.2736894569012516E-01 a       151     0     8     1    11
 -3.1319304600311804E-01 a       152     0     8     1    12
  5.5143340393345147E-02 a       153     0     8     1    13
 -8.6554881656497787E-02 a       154     0     8     1    14
 -2.9771732799088746E-01 a       155     0     8     1    15
 -6.2347509412699578E-02 a       156     0     8     1    16
 -3.0606398955039828E-02 a       157     0     8     1    17
  1.4014641442295955E-01 a       158     0     8     1    18
 -2.7874686239389618E-01 a       159     0     8     1    19
  1.8311698243162813E-01 a       160     0     8     1    20
  7.1400121183443549E-02 a       161     0     9     1     1
  1.4115055921597744E-01 a       162     0     9     1     2
 -2.5744682833209431E-01 a       163     0     9     1     3
 -9.1104270986856820E-02 a       164     0     9     1     4
 -2.0169830793615934E-01 a       165     0     9     1     5
 -8.5945866427972140E-02 a       166     0     9     1     6
 -6.8843767568291095E-02 a       167     0     9     1     7
 -5.9208787912154462E-02 a       168     0     9     1     8
 -7.7211833885360959E-02 a       169     0     9     1     9
 -2.5817511676637744E-02 a       170     0     9     1    10
  5.8232421279044821E-02 a       171     0     9     1    11
 -3.8471286063976690E-01 a       172     0     9     1    12
  5.8144098217343509E-02 a       173     0     9     1    13
 -1.0631056824243104E-01 a       174     0     9     1    14
  1.1712424076031523E-01 a       175     0     9     1    15
  5.9875153181947874E-02 a       176     0     9     1    16
  2.4741286404429474E-01 a       177     0     9     1    17
  1.2797856828712584E-01 a       178     0     9     1    18
 -5.1169825107902973E-02 a       179     0     9     1    19
 -1.4049532272526241E-01 a       180     0     9     1    20
  1.5670436263980381E-01 a       181     0    10     1     1
 -1.1882048550486905E-01 a       182     0    10     1     2
  3.7325949288746677E-02 a       183     0    10     1     3
 -1.4333147247460601E-01 a       184     0    10     1     4
  1.5822504697363535E-01 a       185     0    10     1     5
  2.8469293576319277E-02 a       186     0    10     1     6
 -4.5753529071713940E-03 a       187     0    10     1     7
  2.5448012538479542E-01 a       188     0    10     1     8
  4.4825338421145267E-01 a       189     0    10     1     9
  4.0343408206435484E-02 a       190     0    10     1    10
  1.5005731498927158E-01 a       191     0    10     1    11
 -1.7293023217714079E-01 a       192     0    10     1    12
  1.0218529869773993E-01 a       193     0    10     1    13
  4.4716594866801629E-01 a       194     0    10     1    14
  3.8919830870306704E-02 a       195     0    10     1    15
 -3.8737929890300599E-01 a       196     0    10     1    16
  7.3832740475504879E-02 a       197     0    10     1    17
 -1.9755890305417062E-01 a       198     0    10     1    18
 -6.2073652804129397E-03 a       199     0    10     1    19
  2.5787148007274163E-01 a       200     0    10     1    20
  1.1263011763528993E-01 a       201     0    11     1     1
  3.4719396671273633E-02 a       202     0    11     1     2
  5.4206288597822422E-02 a       203     0    11     1     3
  4.6896373906486960E-02 a       204     0    11     1     4
 -2.5408858538549847E-02 a       205     0    11     1     5
  3.1485975589852291E-02 a       206     0    11     1     6
 -1.2532287006525691E-01 a       207     0    11     1     7
  2.0448103761583541E-02 a       208     0    11     1     8
 -1.3479435902129533E-01 a       209     0    11     1     9
  1.0075823808648514E-01 a       210     0    11     1    10
 -2.8555600912364820E-01 a       211     0    11     1    11
 -9.6920314587712483E-02 a       212     0    11     1    12
 -1.4294937478207873E-01 a       213     0    11     1    13
 -3.1874195014243503E-02 a       214     0    11     1    14
  1.7901877151421561E-01 a       215     0    11     1    15
  2.7673432825288113E-01 a       216     0    11     1    16
  7.2863231219159094E-02 a       217     0    11     1    17
 -5.2177239582323523E-02 a       218     0    11     1    18
 -1.7369006889412270E-01 a       219     0    11     1    19
  2.2869187962712084E-01 a       220     0    11     1    20
  6.0210746402640264E-02 a       221     0    12     1     1
 -1.8900965793530006E-01 a       222     0    12     1     2
 -1.0740292321798080E-01 a       223     0    12     1     3
 -1.1855901734409052E-01 a       224     0    12     1     4
 -6.8236962915490681E-02 a       225     0    12     1     5
  3.5787324936793777E-02 a       226     0    12     1     6
 -1.8091462260582275E-01 a       227     0    12     1     7
 -2.2538002081131819E-01 a       228     0    12     1     8
 -1.9564342800183612E-02 a       229     0    12     1     9
 -1.2286124483941860E-01 a       230     0    12     1    10
  1.4549686759296993E-01 a       231     0    12     1    11
 -1.4485938419699040E-01 a       232     0    12     1    12
  3.7718204691313054E-02 a       233     0    12     1    13
 -2.8421120142844825E-01 a       234     0    12     1    14
  1.0214159925027499E-01 a       235     0    12     1    15
  2.0308607642989498E-01 a       236     0    12     1    16
  2.6166390740531181E-01 a       237     0    12     1    17
 -1.9277088767078110E-01 a       238     0    12     1    18
  1.5424572482211990E-01 a       239     0    12     1    19
  1.0322970475275067E-02 a       240     0    12     1    20
 -2.7730840057862904E-01 a       241     0    13     1     1
  2.4971249107625684E-01 a       242     0    13     1     2
 -5.6886844699597461E-01 a       243     0    13     1     3
  2.0526041746496457E-01 a       244     0    13     1     4
 -1.0252958980522650E-01 a       245     0    13     1     5
 -5.6588343472438818E-01 a       246     0    13     1     6
  2.3841865722115477E-01 a       247     0    13     1     7
  5.7359514631003028E-01 a       248     0    13     1     8
  5.6942924488892921E-01 a       249     0    13     1     9
  3.5128848614254143E-01 a       250     0    13     1    10
  9.3362636056317255E-02 a       251     0    13     1    11
 -2.4669842342986867E-01 a       252     0    13     1    12
 -4.0745900378674166E-01 a       253     0    13     1    13
  1.2040011269111252E-01 a       254     0    13     1    14
  1.1509340802721373E-01 a       255     0    13     1    15
 -3.0443701876824153E-01 a       256     0    13     1    16
  4.0801134137050771E-01 a       257     0    13     1    17
 -2.6985310246532934E-01 a       258     0    13     1    18
  1.2873459544500582E-01 a       259     0    13     1    19
  2.3053347470210483E-01 a       260     0    13     1    20
  5.7511441996267029E-03 a       261     0    14     1     1
 -4.1517603034379000E-02 a       262     0    14     1     2
  5.9530692484905313E-02 a       263     0    14     1     3
  1.3960125844164670E-01 a       264     0    14     1     4
  2.0355796125922691E-02 a       265     0    14     1     5
  1.9542789658373913E-01 a       266     0    14     1     6
 -8.4172756839022162E-03 a       267     0    14     1     7
  6.5009580463789782E-02 a       268     0    14     1     8
  1.3363645939238075E-01 a       269     0    14     1     9
 -1.2566812398902111E-01 a       270     0    14     1    10
  1.3070126258477208E-01 a       271     0    14     1    11
  1.6419170937024854E-02 a       272     0    14     1    12
 -1.1716976816668227E-01 a       273     0    14     1    13
 -1.4020425316297924E-01 a       274     0    14     1    14
 -3.4382715470992010E-02 a       275     0    14     1    15
 -8.9179510611017195E-03 a       276     0    14     1    16
  7.6786688750327139E-02 a       277     0    14     1    17
 -1.2916763349885255E-01 a       278     0    14     1    18
 -1.6659260880500809E-01 a       279     0    14     1    19
 -5.9478254853568835E-02 a       280     0    14     1    20
  2.6786817770547949E-01 a       281     0    15     1     1
 -2.7277470953562344E-01 a       282     0    15     1     2
  1.3398885168984861E-01 a       283     0    15     1     3
  2.0457652371887974E-01 a       284     0    15     1     4
 -1.6067539104640827E-01 a       285     0    15     1     5
 -2.4539759627774868E-01 a       286     0    15     1     6
  4.0755409709954761E-02 a       287     0    15     1     7
 -2.2652792531048610E-01 a       288     0    15     1     8
  2.4726299784863081E-02 a       289     0    15     1     9
  1.0080122749973312E-01 a       290     0    15     1    10
 -1.4884367989111774E-01 a       291     0    15     1    11
 -1.1709727314804037E-01 a       292     0    15     1    12
  1.1859238088022295E-01 a       293     0    15     1    13
 -5.8277024510223326E-02 a       294     0    15     1    14
 -1.0527962471728687E-01 a       295     0    15     1    15
 -1.2920694834920077E-01 a       296     0    15     1    16
  9.3602380210468003E-02 a       297     0    15     1    17
  8.9816293908710862E-02 a       298     0    15     1    18
  4.0393976951901570E-02 a       299     0    15     1    19
 -1.7988242711233937E-01 a       300     0    15     1    20
  4.5332800418551873E-02 a       301     0    16     1     1
  1.3958524692085730E-01 a       302     0    16     1     2
 -2.0682742733442608E-01 a       303     0    16     1     3
 -1.7708240271415984E-01 a       304     0    16     1     4
 -7.9732864023137839E-02 a       305     0    16     1     5
  1.6542721699545185E-01 a       306     0    16     1     6
 -3.8138592761676566E-03 a       307     0    16     1     7
  1.5228015824050009E-01 a       308     0    16     1     8
 -1.5144620145916349E-01 a       309     0    16     1     9
  1.0406362464294201E-01 a       310     0    16     1    10
 -5.0292716450673590E-02 a       311     0    16     1    11
  2.8760212670926533E-01 a       312     0    16     1    12
  3.5312756544092000E-01 a       313     0    16     1    13
 -1.9685981204344316E-01 a       314     0    16     1    14
 -1.1756719216603338E-01 a       315     0    16     1    15
  6.5128613560952925E-02 a       316     0    16     1    16
 -1.2758437384205518E-01 a       317     0    16     1    17
  1.3666212004833464E-01 a       318     0    16     1    18
 -5.4451181195182899E-03 a       319     0    16     1    19
  9.0162622366235498E-02 a       320     0    16     1    20
  5.4721890615367884E-02 a       321     0    17     1     1
  1.1342168590967157E-01 a       322     0    17     1     2
 -3.7656151585237330E-02 a       323     0    17     1     3
  1.3351289689338318E-02 a       324     0    17     1     4
  2.6279423627281778E-01 a       325     0    17     1     5
 -1.1489553332679307E-01 a       326     0    17     1     6
  2.1994221662644940E-02 a       327     0    17     1     7
 -1.4847227561449636E-01 a       328     0    17     1     8
 -1.1551700073401376E-01 a       329     0    17     1     9
  1.9486692600951638E-01 a       330     0    17     1    10
 -1.1035559409115029E-02 a       331     0    17     1    11
  9.8302176865166391E-03 a       332     0    17     1    12
  6.1038534463361549E-02 a       333     0    17     1    13
 -2.6425577391749705E-01 a       334     0    17     1    14
 -1.5399453831926702E-01 a       335     0    17     1    15
 -1.1406886143790609E-01 a       336     0    17     1    16
  6.4594612731210463E-02 a       337     0    17     1    17
  7.4083710024438434E-02 a       338     0    17     1    18
 -2.5794090222897564E-01 a       339     0    17     1    19
  1.6965378585820462E-01 a       340     0    17     1    20
  1.0677340129665092E-01 a       341     0    18     1     1
  6.1747827993422308E-02 a       342     0    18     1     2
  4.2182012204919218E-02 a       343     0    18     1     3
  6.1703158798915214E-04 a       344     0    18     1     4
 -2.5816285990818927E-01 a       345     0    18     1     5
  7.5609212814235188E-02 a       346     0    18     1     6
 -1.3507402905781787E-01 a       347     0    18     1     7
  6.3233565853092352E-02 a       348     0    18     1     8
 -6.5898480882401300E-02 a       349     0    18     1     9
 -9.3328529321567932E-02 a       350     0    18     1    10
 -1.0402620861598749E-01 a       351     0    18     1    11
 -7.8355991583523799E-02 a       352     0    18     1    12
  1.9251337392392467E-01 a       353     0    18     1    13
  8.6045375354319401E-02 a       354     0    18     1    14
 -2.2719541296844670E-01 a       355     0    18     1    15
 -2.2194396323966420E-01 a       356     0    18     1    16
 -4.2568666276316829E-02 a       357     0    18     1    17
 -9.3526181576309389E-02 a       358     0    18     1    18
  4.0720624747890932E-01 a       359     0    18     1    19
  1.2209607198968270E-01 a       360     0    18     1    20
 -2.0471674564253345E-01 a       361     0    19     1     1
 -5.1466676276341682E-02 a       362     0    19     1     2
 -1.6586829389591043E-01 a       363     0    19     1     3
 -9.4702519873404757E-03 a       364     0    19     1     4
 -2.5768793214133195E-01 a       365     0    19     1     5
 -2.0127144016611000E-02 a       366     0    19     1     6
 -9.6410490711767577E-02 a       367     0    19     1     7
  2.6213237988308929E-01 a       368     0    19     1     8
 -4.3137421863114073E-01 a       369     0    19     1     9
 -3.2989496064911430E-02 a       370     0    19     1    10
 -1.1783808727315602E-01 a       371     0    19     1    11
 -4.3982844205542680E-02 a       372     0    19     1    12
  3.0649254481308408E-01 a       373     0    19     1    13
 -3.3458935788605948E-01 a       374     0    19     1    14
 -3.0328918844709429E-01 a       375     0    19     1    15
  8.4807153335100249E-02 a       376     0    19     1    16
  3.2356782029396000E-02 a       377     0    19     1    17
  2.2436789409892667E-02 a       378     0    19     1    18
 -2.4835894120289890E-02 a       379     0    19     1    19
  2.4336534813742242E-01 a       380     0    19     1    20
  2.7750521671309969E-01 a       381     0    20     1     1
 -1.1759269596706569E-01 a       382     0    20     1     2
  4.5422056505242073E-02 a       383     0    20     1     3
  1.5601529249640808E-01 a       384     0    20     1     4
 -4.0150864392759023E-03 a       385     0    20     1     5
 -8.5694765066763410E-03 a       386     0    20     1     6
 -6.0017266112281531E-02 a       387     0    20     1     7
 -2.4948771612279386E-01 a       388     0    20     1     8
  1.1792208391263982E-01 a       389     0    20     1     9
  3.6237585201771144E-02 a       390     0    20     1    10
  1.3506980114681066E-01 a       391     0    20     1    11
  1.8286349225257187E-01 a       392     0    20     1    12
  1.2470864239546647E-01 a       393     0    20     1    13
 -1.4914622908061784E-01 a       394     0    20     1    14
 -9.7152690247096024E-02 a       395     0    20     1    15
  1.4125184771607913E-01 a       396     0    20     1    16
 -1.1472039567491642E-01 a       397     0    20     1    17
 -9.9502315606198682E-02 a       398     0    20     1    18
  1.5881906326998316E-01 a       399     0    20     1    19
 -2.0815449198402108E-01 a       400     0    20     1    20
  3.7299948956305576E-02 a       401     0    21     1     1
 -1.8629849563561102E-01 a       402     0    21     1     2
 -4.6856504467135907E-02 a       403     0    21     1     3
  7.6819225408136321E-02 a       404     0    21     1     4
  5.2609056616487140E-02 a       405     0    21     1     5
  2.6494750049175542E-01 a       406     0    21     1     6
  9.5198522167175434E-02 a       407     0    21     1     7
  3.3917189002174983E-02 a       408     0    21     1     8
 -5.8706192480929398E-02 a       409     0    21     1     9
 -5.5828118658782623E-04 a       410     0    21     1    10
 -1.5960775561356613E-01 a       411     0    21     1    11
 -2.9903447850964360E-01 a       412     0    21     1    12
  1.6073185381401714E-01 a       413     0    21     1    13
 -1.7438918409234017E-03 a       414     0    21     1    14
  1.7247325945280237E-01 a       415     0    21     1    15
  1.8373398288042844E-01 a       416     0    21     1    16
 -2.7181777200460375E-02 a       417     0    21     1    17
 -7.0411682727906683E-02 a       418     0    21     1    18
  3.6786766811959082E-02 a       419     0    21     1    19
  7.7542475743330781E-05 a       420     0    21     1    20
 -4.4855512937640573E-03 a       421     0    22     1     1
 -6.7221625676091815E-02 a       422     0    22     1     2
  8.3716943085774376E-02 a       423     0    22     1     3
 -1.5388164282387817E-01 a       424     0    22     1     4
  1.1110191831676632E-01 a       425     0    22     1     5
  1.0313837221820124E-01 a       426     0    22     1     6
  9.0883646192284645E-02 a       427     0    22     1     7
 -3.2257845284334424E-01 a       428     0    22     1     8
 -1.5617881815282048E-01 a       429     0    22     1     9
 -8.2020167262969415E-02 a       430     0    22     1    10
 -6.1089408943040123E-02 a       431     0    22     1    11
 -4.0629199168928104E-01 a       432     0    22     1    12
 -1.2264520509958972E-02 a       433     0    22     1    13
 -2.0402516234132220E-01 a       434     0    22     1    14
  5.3146653748142543E-02 a       435     0    22     1    15
 -1.3786738944084040E-01 a       436     0    22     1    16
 -2.7138367519757730E-02 a       437     0    22     1    17
 -1.3163330906473422E-01 a       438     0    22     1    18
  2.4128301159176420E-02 a       439     0    22     1    19
 -1.3803878567103600E-01 a       440     0    22     1    20
  4.0004271518420689E-02 a       441     0    23     1     1
 -3.5354483646993409E-02 a       442     0    23     1     2
 -1.6880384091362166E-01 a       443     0    23     1     3
 -7.9533576596634153E-02 a       444     0    23     1     4
 -4.2810491517412641E-01 a       445     0    23     1     5
  1.5440653887355882E-01 a       446     0    23     1     6
 -1.9856507982410382E-03 a       447     0    23     1     7
 -8.3528504712446845E-04 a       448     0    23     1     8
  1.8409407867722580E-02 a       449     0    23     1     9
 -1.5288300075933267E-01 a       450     0    23     1    10
 -7.0245335290373759E-02 a       451     0    23     1    11
 -1.4550421593352309E-02 a       452     0    23     1    12
 -1.4981935810248953E-01 a       453     0    23     1    13
  7.9180335475324132E-02 a       454     0    23     1    14
 -1.2485722440017258E-01 a       455     0    23     1    15
 -1.2713322907434987E-01 a       456     0    23     1    16
  3.7746761343795197E-02 a       457     0    23     1    17
  1.9367181602907757E-01 a       458     0    23     1    18
 -2.2636348450667312E-01 a       459     0    23     1    19
  3.3271621671801949E-02 a       460     0    23     1    20
 -2.0992833185992052E-01 a       461     0    24     1     1
  1.2873414809349618E-01 a       462     0    24     1     2
  3.2009815994059876E-01 a       463     0    24     1     3
  1.0646044517737787E-02 a       464     0    24     1     4
 -1.5352298071669246E-01 a       465     0    24     1     5
  8.3610746786374049E-02 a       466     0    24     1     6
 -2.9230308271196498E-01 a       467     0    24     1     7
  1.7446548691448016E-01 a       468     0    24     1     8
 -1.2894784970974563E-01 a       469     0    24     1     9
 -7.1849051399455771E-02 a       470     0    24     1    10
  2.3396989598353521E-01 a       471     0    24     1    11
 -7.5136856427651832E-02 a       472     0    24     1    12
 -8.5899206348151527E-02 a       473     0    24     1    13
 -9.2119459784283222E-02 a       474     0    24     1    14
 -1.3572612778815307E-01 a       475     0    24     1    15
 -1.4734294142361221E-01 a       476     0    24     1    16
 -2.2510827345893430E-01 a       477     0    24     1    17
  3.2881379048324333E-02 a       478     0    24     1    18
 -2.7660429208690617E-02 a       479     0    24     1    19
  7.5613082348593444E-02 a       480     0    24     1    20
 -1.5828190205955503E-01 a       481     0    25     1     1
  1.1676796057070798E-01 a       482     0    25     1     2
  2.8738208037786916E-01 a       483     0    25     1     3
 -3.4237497836294883E-01 a       484     0    25     1     4
  2.1931397164020913E-01 a       485     0    25     1     5
  2.5250390321063138E-01 a       486     0    25     1     6
 -3.6829901417699407E-01 a       487     0    25     1     7
 -2.5468491191499104E-01 a       488     0    25     1     8
 -4.5548568495824654E-01 a       489     0    25     1     9
 -2.0439438504700595E-02 a       490     0    25     1    10
 -1.2378725632792738E-01 a       491     0    25     1    11
 -5.1175451121612640E-02 a       492     0    25     1    12
  4.0053437202222417E-02 a       493     0    25     1    13
  1.4653985762517405E-01 a       494     0    25     1    14
 -4.2977778434295894E-01 a       495     0    25     1    15
  1.5784841201843081E-01 a       496     0    25     1    16
 -1.6383011066331452E-01 a       497     0    25     1    17
  8.3267074257304771E-02 a       498     0    25     1    18
 -1.8257648280319719E-01 a       499     0    25     1    19
 -8.0930207769527222E-04 a       500     0    25     1    20
 -1.0731106368294201E-01 a       501     0    26     1     1
  7.7643691428936165E-02 a       502     0    26     1     2
  1.0341078199356844E-01 a       503     0    26     1     3
  2.2427884833466832E-01 a       504     0    26     1     4
 -1.9691669010106808E-01 a       505     0    26     1     5
 -1.0631029092417923E-01 a       506     0    26     1     6
 -7.6537542586887733E-02 a       507     0    26     1     7
  1.0206269963716066E-01 a       508     0    26     1     8
 -6.3180406422128702E-02 a       509     0    26     1     9
  1.8405618692300011E-02 a       510     0    26     1    10
 -1.4860190060155376E-01 a       511     0    26     1    11
 -2.2337540588013130E-01 a       512     0    26     1    12
  3.7760564326238227E-02 a       513     0    26     1    13
  1.1744156204264990E-01 a       514     0    26     1    14
  9.4900579872935362E-02 a       515     0    26     1    15
  1.7393425579520113E-02 a       516     0    26     1    16
  1.5592520662039056E-01 a       517     0    26     1    17
  5.7819716983012380E-02 a       518     0    26     1    18
 -2.5258096428034066E-01 a       519     0    26     1    19
  7.7213136275052288E-02 a       520     0    26     1    20
 -5.0269377134707839E-02 a       521     0    27     1     1
  1.2156299577908372E-01 a       522     0    27     1     2
 -3.0960419422352048E-01 a       523     0    27     1     3
  7.6324859020411029E-02 a       524     0    27     1     4
 -1.1571274779314741E-01 a       525     0    27     1     5
 -1.9589055833641505E-01 a       526     0    27     1     6
  1.4737877008851649E-01 a       527     0    27     1     7
 -1.9137579503340124E-01 a       528     0    27     1     8
 -2.1541993997110528E-01 a       529     0    27     1     9
  7.3590191427420015E-02 a       530     0    27     1    10
 -1.2483825367940253E-01 a       531     0    27     1    11
  1.6867726028783492E-01 a       532     0    27     1    12
 -1.9912577538885262E-01 a       533     0    27     1    13
 -3.8281126937208990E-02 a       534     0    27     1    14
  2.5182936527287796E-02 a       535     0    27     1    15
 -1.7109056381899232E-02 a       536     0    27     1    16
 -8.9278850106495902E-02 a       537     0    27     1    17
  6.6899659581259971E-02 a       538     0    27     1    18
 -5.8332730505967871E-02 a       539     0    27     1    19
  3.2459339937986921E-04 a       540     0    27     1    20
 -6.8478565825420640E-02 a       541     0    28     1     1
  1.4855836853216967E-01 a       542     0    28     1     2
  1.6557718747518019E-01 a       543     0    28     1     3
  1.4069130626198975E-01 a       544     0    28     1     4
  7.7515160573605968E-02 a       545     0    28     1     5
 -1.5972983183761569E-01 a       546     0    28     1     6
  5.4892033384165713E-02 a       547     0    28     1     7
  3.8755658251637726E-01 a       548     0    28     1     8
 -5.8978295644837767E-02 a       549     0    28     1     9
  5.8714430910320310E-02 a       550     0    28     1    10
  5.0242370223915325E-02 a       551     0    28     1    11
  2.1754856356004962E-01 a       552     0    28     1    12
  9.1834381079873337E-02 a       553     0    28     1    13
 -1.6441616030036860E-01 a       554     0    28     1    14
 -3.2061331268508109E-01 a       555     0    28     1    15
 -1.1477969836303993E-01 a       556     0    28     1    16
 -1.7736886448143294E-01 a       557     0    28     1    17
  6.4068224399980167E-02 a       558     0    28     1    18
  6.4888428006046245E-02 a       559     0    28     1    19
  1.4046507061757535E-01 a       560     0    28     1    20
  2.5012360217921820E-01 a       561     0    29     1     1
  1.1009793231353743E-01 a       562     0    29     1     2
  5.4261865938566751E-02 a       563     0    29     1     3
 -1.7145537071365999E-02 a       564     0    29     1     4
 -5.7509511783845189E-02 a       565     0    29     1     5
 -1.6197508972206096E-01 a       566     0    29     1     6
 -2.5157544758505707E-01 a       567     0    29     1     7
  1.2333249600435339E-01 a       568     0    29     1     8
  4.6218092311050035E-02 a       569     0    29     1     9
  6.3410387072174543E-02 a       570     0    29     1    10
 -2.5166395246738332E-01 a       571     0    29     1    11
 -6.8174050281308005E-02 a       572     0    29     1    12
  2.0898555010624484E-01 a       573     0    29     1    13
 -7.8527066714289551E-02 a       574     0    29     1    14
  1.7157622331164601E-01 a       575     0    29     1    15
  1.3545542869011062E-01 a       576     0    29     1    16
  9.6695027920807534E-03 a       577     0    29     1    17
  9.8166335688275347E-02 a       578     0    29     1    18
 -1.4103661189260017E-01 a       579     0    29     1    19
 -3.2118899143686386E-01 a       580     0    29     1    20
  1.6563474657002297E-01 a       581     0    30     1     1
  1.9731550718565596E-01 a       582     0    30     1     2
  2.2988131592090283E-01 a       583     0    30     1     3
 -1.0796041117575875E-01 a       584     0    30     1     4
 -3.1592580511026869E-01 a       585     0    30     1     5
 -1.1284013661297496E-01 a       586     0    30     1     6
 -1.6458149822602547E-01 a       587     0    30     1     7
 -2.3729172472253529E-01 a       588     0    30     1     8
 -2.7016176251182172E-01 a       589     0    30     1     9
  6.8669909086548533E-02 a       590     0    30     1    10
 -9.7861580302505927E-02 a       591     0    30     1    11
 -2.7992807425500082E-01 a       592     0    30     1    12
  1.6144917636673303E-01 a       593     0    30     1    13
 -7.2513991186785268E-02 a       594     0    30     1    14
  8.2719942123145804E-02 a       595     0    30     1    15
  1.8251521059995407E-01 a       596     0    30     1    16
  1.7609406678128042E-01 a       597     0    30     1    17
  1.8671520199172861E-01 a       598     0    30     1    18
 -2.4917127997889363E-01 a       599     0    30     1    19
 -1.5663568022547328E-02 a       600     0    30     1    20
 -1.5716407276956287E-01 a       601     0    31     1     1
 -6.2574998854506403E-02 a       602     0    31     1     2
 -1.1386147337742310E-01 a       603     0    31     1     3
 -1.4992032169959107E-01 a       604     0    31     1     4
  4.9289687542791616E-02 a       605     0    31     1     5
  2.3493111771611264E-01 a       606     0    31     1     6
 -2.8214931162704920E-01 a       607     0    31     1     7
  1.8735388920949561E-01 a       608     0    31     1     8
  6.4422654439681579E-02 a       609     0    31     1     9
  2.8298740417785079E-01 a       610     0    31     1    10
 -2.0267945912580362E-01 a       611     0    31     1    11
 -9.5885242126947851E-02 a       612     0    31     1    12
  1.0234196235130699E-01 a       613     0    31     1    13
 -1.9297406610863085E-01 a       614     0    31     1    14
 -8.3183012782406848E-02 a       615     0    31     1    15
 -1.5961224944797481E-01 a       616     0    31     1    16
 -1.4979815908272737E-01 a       617     0    31     1    17
 -9.8960432850583549E-02 a       618     0    31     1    18
  9.6753947940598259E-02 a       619     0    31     1    19
 -1.1947352396943799E-01 a       620     0    31     1    20
  5.0751290565822886E-02 a       621     0    32     1     1
 -1.1390048165860756E-02 a       622     0    32     1     2
 -5.9857805317386208E-02 a       623     0    32     1     3
  2.4197397262611631E-01 a       624     0    32     1     4
  5.0420495922752755E-03 a       625     0    32     1     5
 -8.0309167080630072E-04 a       626     0    32     1     6
  1.0338599075320586E-01 a       627     0    32     1     7
 -3.5286731347860373E-01 a       628     0    32     1     8
 -1.2671192824138244E-01 a       629     0    32     1     9
 -1.6140712573928154E-01 a       630     0    32     1    10
 -2.5370460063440126E-02 a       631     0    32     1    11
  1.5489992492064442E-01 a       632     0    32     1    12
 -3.1143341375105063E-02 a       633     0    32     1    13
 -2.1902457539889156E-01 a       634     0    32     1    14
 -1.0835485785710763E-01 a       635     0    32     1    15
  4.6238233558629366E-01 a       636     0    32     1    16
  1.0348812027866314E-01 a       637     0    32     1    17
  2.3124321024069427E-02 a       638     0    32     1    18
 -2.0951978736616583E-02 a       639     0    32     1    19
  1.5065998292789590E-01 a       640     0    32     1    20
 -3.9627586878642228E-02 a       641     0    33     1     1
 -1.2483178365266569E-01 a       642     0    33     1     2
  2.0226661749975572E-01 a       643     0    33     1     3
 -2.6584883333055803E-01 a       644     0    33     1     4
  2.9881759114955254E-02 a       645     0    33     1     5
 -1.9903906169929939E-01 a       646     0    33     1     6
  6.2497909684491433E-02 a       647     0    33     1     7
  3.3658333346991254E-01 a       648     0    33     1     8
  1.4183101214637645E-01 a       649     0    33     1     9
 -2.4532991104756645E-02 a       650     0    33     1    10
 -1.7996069863420933E-01 a       651     0    33     1    11
 -1.1490515241788942E-04 a       652     0    33     1    12
  1.9793911974285046E-02 a       653     0    33     1    13
  1.5847166595301185E-01 a       654     0    33     1    14
  8.3979081435672689E-02 a       655     0    33     1    15
  2.3045042524102083E-02 a       656     0    33     1    16
  9.7469724813083899E-02 a       657     0    33     1    17
 -2.8373108058836960E-01 a       658     0    33     1    18
  1.7517677932317419E-01 a       659     0    33     1    19
  2.2540044373584153E-01 a       660     0    33     1    20
 -1.6005608738870181E-02 a       661     0    34     1     1
  1.4231088794837723E-01 a       662     0    34     1     2
  1.3748515771540071E-01 a       663     0    34     1     3
 -1.7277362831230908E-01 a       664     0    34     1     4
  1.4899320436944746E-01 a       665     0    34     1     5
  9.1453171693245225E-02 a       666     0    34     1     6
  1.6802316682118917E-01 a       667     0    34     1     7
 -1.9241401934160785E-02 a       668     0    34     1     8
  1.6182144138245877E-01 a       669     0    34     1     9
 -1.3118866955592881E-01 a       670     0    34     1    10
  7.9935267987443756E-02 a       671     0    34     1    11
  5.1783295307597711E-02 a       672     0    34     1    12
  4.2741382283364021E-02 a       673     0    34     1    13
 -1.1669307656622385E-01 a       674     0    34     1    14
 -1.5142758055750427E-01 a       675     0    34     1    15
  1.0521172966380633E-01 a       676     0    34     1    16
 -1.3172358687562637E-02 a       677     0    34     1    17
 -9.1215949681982933E-02 a       678     0    34     1    18
  2.2319456089131029E-01 a       679     0    34     1    19
 -2.6949485547789231E-01 a       680     0    34     1    20
  4.3515274982188273E-01 a       681     0    35     1     1
 -5.1845320146296381E-01 a       682     0    35     1     2
  3.7407362082378914E-01 a       683     0    35     1     3
 -3.3954105129987380E-02 a       684     0    35     1     4
 -1.9114081144766493E-01 a       685     0    35     1     5
  4.1083877049226886E-01 a       686     0    35     1     6
 -1.5924964997758495E-01 a       687     0    35     1     7
 -2.3413438273757020E-01 a       688     0    35     1     8
 -3.9016446579435310E-01 a       689     0    35     1     9
 -1.6702153682970899E-01 a       690     0    35     1    10
  1.2203924110649315E-01 a       691     0    35     1    11
 -1.2600552897309239E-01 a       692     0    35     1    12
  2.9714051796691993E-01 a       693     0    35     1    13
  4.3060244506693574E-01 a       694     0    35     1    14
 -4.2958945595860693E-01 a       695     0    35     1    15
  1.1958141087360152E-01 a       696     0    35     1    16
  2.7406014055016292E-01 a       697     0    35     1    17
  4.7530292334926372E-01 a       698     0    35     1    18
 -7.6648068717457787E-02 a       699     0    35     1    19
 -3.9692500344264653E-01 a       700     0    35     1    20
  1.9112053903321873E-02 a       701     0    36     1     1
 -7.7737554173934076E-02 a       702     0    36     1     2
  5.5038244803502258E-02 a       703     0    36     1     3
 -4.1074419598750113E-02 a       704     0    36     1     4
  2.4065354224516386E-01 a       705     0    36     1     5
  4.2558752910377910E-02 a       706     0    36     1     6
  2.0282358609765835E-01 a       707     0    36     1     7
 -1.3505920913897415E-01 a       708     0    36     1     8
 -1.4902343516375982E-01 a       709     0    36     1     9
 -1.1000389168704815E-01 a       710     0    36     1    10
 -3.1728815921123149E-01 a       711     0    36     1    11
 -9.2532051723097461E-02 a       712     0    36     1    12
  2.0655845740890072E-01 a       713     0    36     1    13
  1.3827777907767530E-01 a       714     0    36     1    14
 -1.3396932664660244E-01 a       715     0    36     1    15
  4.1811293536835897E-01 a       716     0    36     1    16
 -3.3563376247155097E-01 a       717     0    36     1    17
 -1.7578204533521288E-01 a       718     0    36     1    18
  3.6003752209494422E-02 a       719     0    36     1    19
 -2.9189747084620136E-02 a       720     0    36     1    20
  2.9136794936904901E-02 a       721     0    37     1     1
 -2.7388302206451692E-02 a       722     0    37     1     2
  4.0255178810721361E-02 a       723     0    37     1     3
  3.2861239620280890E-02 a       724     0    37     1     4
  2.8222427547578072E-01 a       725     0    37     1     5
 -7.6844096833989489E-02 a       726     0    37     1     6
  1.6398511671815449E-01 a       727     0    37     1     7
 -1.0082110249255434E-01 a       728     0    37     1     8
  1.8837023413033088E-01 a       729     0    37     1     9
  2.2362127352746214E-01 a       730     0    37     1    10
 -3.5631191518374974E-02 a       731     0    37     1    11
 -1.5865826328510430E-01 a       732     0    37     1    12
 -4.7950153223955037E-02 a       733     0    37     1    13
  5.6435388497412815E-02 a       734     0    37     1    14
 -8.7052433184736280E-02 a       735     0    37     1    15
  1.5688267348266197E-01 a       736     0    37     1    16
 -3.1577365310163849E-02 a       737     0    37     1    17
  9.9550732630438371E-02 a       738     0    37     1    18
 -3.7527399593962757E-02 a       739     0    37     1    19
 -1.8285210763120735E-01 a       740     0    37     1    20
  2.2753977718646876E-01 a       741     0    38     1     1
  7.5964080778242599E-02 a       742     0    38     1     2
  2.7572201051829132E-01 a       743     0    38     1     3
  1.9846193188880371E-01 a       744     0    38     1     4
 -8.0269868928170729E-02 a       745     0    38     1     5
  1.3789791893803685E-01 a       746     0    38     1     6
 -1.3253082849291178E-02 a       747     0    38     1     7
 -1.7648793135651206E-01 a       748     0    38     1     8
  1.6140468391754434E-01 a       749     0    38     1     9
 -2.5925997976729943E-02 a       750     0    38     1    10
  1.1036514906122544E-01 a       751     0    38     1    11
  6.9259887322846228E-02 a       752     0    38     1    12
 -1.4927348472032242E-01 a       753     0    38     1    13
  1.0853577211403598E-01 a       754     0    38     1    14
 -8.8989380100959442E-02 a       755     0    38     1    15
 -3.0810522431672129E-02 a       756     0    38     1    16
 -7.0858109770326638E-02 a       757     0    38     1    17
  1.1548060468053761E-02 a       758     0    38     1    18
 -4.0155972243356569E-02 a       759     0    38     1    19
 -1.7082602633892077E-01 a       760     0    38     1    20
 -6.9081675203576248E-02 a       761     0    39     1     1
 -2.2564390078773205E-01 a       762     0    39     1     2
  3.0492514447562979E-01 a       763     0    39     1     3
  2.2398369510731830E-01 a       764     0    39     1     4
  8.8007893371201379E-02 a       765     0    39     1     5
 -1.5908223974945784E-01 a       766     0    39     1     6
 -1.7513343458839375E-01 a       767     0    39     1     7
 -1.6764002978468927E-02 a       768     0    39     1     8
 -7.0765384807239845E-02 a       769     0    39     1     9
 -1.7157071372349081E-01 a       770     0    39     1    10
  9.9092394774467796E-02 a       771     0    39     1    11
  4.8131693867951825E-02 a       772     0    39     1    12
 -1.8055103119042876E-01 a       773     0    39     1    13
  1.2212627803758022E-01 a       774     0    39     1    14
  2.7455693648353380E-01 a       775     0    39     1    15
 -2.5324733401475930E-01 a       776     0    39     1    16
 -3.5933828803351325E-01 a       777     0    39     1    17
  1.2884259673534773E-01 a       778     0    39     1    18
 -4.1692746146543447E-02 a       779     0    39     1    19
  1.7228927207980069E-01 a       780     0    39     1    20
 -6.1761070899348340E-02 a       781     0    40     1     1
  1.0820695707868845E-01 a       782     0    40     1     2
 -8.0526760173396772E-02 a       783     0    40     1     3
  7.1171403312260115E-02 a       784     0    40     1     4
  1.2125443380380552E-01 a       785     0    40     1     5
  5.5847803402942028E-02 a       786     0    40     1     6
  1.2902893017301945E-01 a       787     0    40     1     7
  1.0193157189690448E-01 a       788     0    40     1     8
 -2.8024915420747438E-02 a       789     0    40     1     9
 -1.3360100118806512E-01 a       790     0    40     1    10
 -2.2094903069433397E-01 a       791     0    40     1    11
 -2.1444101428333101E-01 a       792     0    40     1    12
  3.4888656026776113E-02 a       793     0    40     1    13
 -4.8383627284427508E-02 a       794     0    40     1    14
 -2.3500369390573497E-01 a       795     0    40     1    15
 -4.3357744290039267E-02 a       796     0    40     1    16
  9.8620140177582208E-02 a       797     0    40     1    17
 -1.1655716795417603E-01 a       798     0    40     1    18
  3.5384708413543332E-02 a       799     0    40     1    19
 -9.9294421543401873E-02 a       800     0    40     1    20
 -1.2648671878052217E-01 a       801     0    41     1     1
  6.4676804785935613E-02 a       802     0    41     1     2
  7.3089537568599622E-02 a       803     0    41     1     3
  1.7506093675962415E-02 a       804     0    41     1     4
  2.6622800785515949E-01 a       805     0    41     1     5
 -8.6974343301557275E-02 a       806     0    41     1     6
 -4.7825802721162061E-04 a       807     0    41     1     7
  1.1691891810671784E-02 a       808     0    41     1     8
 -1.9444850930620611E-02 a       809     0    41     1     9
 -2.9536545404459512E-02 a       810     0    41     1    10
 -1.9095406308428828E-01 a       811     0    41     1    11
 -1.0799049909232052E-01 a       812     0    41     1    12
 -8.2625864802603657E-02 a       813     0    41     1    13
  7.6539625393392249E-02 a       814     0    41     1    14
  1.8167807497937943E-01 a       815     0    41     1    15
  7.8286703098512420E-02 a       816     0    41     1    16
  1.3858698860711371E-01 a       817     0    41     1    17
  3.0718937599803615E-02 a       818     0    41     1    18
  2.1256903667776848E-02 a       819     0    41     1    19
 -1.5637214125410845E-01 a       820     0    41     1    20
  1.0533770609686354E-03 a       821     0    42     1     1
  3.9398502758965746E-02 a       822     0    42     1     2
  7.7587635841367353E-02 a       823     0    42     1     3
  1.4061941787598923E-02 a       824     0    42     1     4
  1.9301349565138823E-01 a       825     0    42     1     5
  7.0863152820367772E-02 a       826     0    42     1     6
  1.6182000084086409E-01 a       827     0    42     1     7
  7.3983543931216242E-02 a       828     0    42     1     8
  7.9820337306475891E-02 a       829     0    42     1     9
 -2.8956544340150336E-01 a       830     0    42     1    10
 -1.9894981950877336E-01 a       831     0    42     1    11
 -2.8588368536126035E-01 a       832     0    42     1    12
  1.9669301440138545E-01 a       833     0    42     1    13
  1.0182060202354504E-01 a       834     0    42     1    14
  1.4582576701974892E-01 a       835     0    42     1    15
  3.0037664318082979E-01 a       836     0    42     1    16
  2.9620360263411322E-01 a       837     0    42     1    17
 -1.0191087203429168E-01 a       838     0    42     1    18
 -1.0924101979650699E-02 a       839     0    42     1    19
  6.4063009090211329E-02 a       840     0    42     1    20
 -6.4204118485752873E-02 a       841     0    43     1     1
 -5.3767271412116305E-02 a       842     0    43     1     2
  6.2400913444149400E-02 a       843     0    43     1     3
 -3.3004435009986605E-01 a       844     0    43     1     4
  3.6654551401855903E-02 a       845     0    43     1     5
 -1.5210020505113872E-01 a       846     0    43     1     6
  1.0374981146902072E-01 a       847     0    43     1     7
  2.6489465712016247E-01 a       848     0    43     1     8
  7.0809159381483480E-02 a       849     0    43     1     9
 -1.2430280223082732E-01 a       850     0    43     1    10
  1.2209317703842186E-01 a       851     0    43     1    11
 -1.2311565620871766E-01 a       852     0    43     1    12
 -9.3079990228858336E-02 a       853     0    43     1    13
  1.5071777342766039E-02 a       854     0    43     1    14
  2.6323443573924576E-01 a       855     0    43     1    15
  1.3875763805385305E-02 a       856     0    43     1    16
  9.9574034000234027E-02 a       857     0    43     1    17
 -2.7140330075924557E-01 a       858     0    43     1    18
  1.0683904141352393E-01 a       859     0    43     1    19
  2.7507608102313486E-01 a       860     0    43     1    20
 -8.3272685884076839E-02 a       861     0    44     1     1
  1.4684344049535755E-01 a       862     0    44     1     2
  1.9868049910823218E-01 a       863     0    44     1     3
  2.4022646191926447E-01 a       864     0    44     1     4
  2.2047060198101423E-01 a       865     0    44     1     5
 -2.2320502131306497E-01 a       866     0    44     1     6
 -1.1985902792727668E-01 a       867     0    44     1     7
  3.7761397146200243E-01 a       868     0    44     1     8
  5.3499145516483285E-02 a       869     0    44     1     9
 -3.9202331515378719E-02 a       870     0    44     1    10
 -9.0959467502774310E-02 a       871     0    44     1    11
 -1.7215393812746366E-01 a       872     0    44     1    12
 -2.3467208682512106E-01 a       873     0    44     1    13
  1.8288543183311212E-01 a       874     0    44     1    14
  2.4969185888072137E-01 a       875     0    44     1    15
  1.3606583498104158E-01 a       876     0    44     1    16
 -2.4648597721686413E-01 a       877     0    44     1    17
 -7.9550409759052573E-02 a       878     0    44     1    18
 -5.2496673898231073E-02 a       879     0    44     1    19
  2.0866789259311641E-01 a       880     0    44     1    20
  1.2911487970371166E-01 a       881     0    45     1     1
  4.2987173375095382E-02 a       882     0    45     1     2
 -8.2365182090222422E-02 a       883     0    45     1     3
 -8.8948777813287888E-03 a       884     0    45     1     4
 -5.4663846420574647E-02 a       885     0    45     1     5
 -1.1550644042596486E-01 a       886     0    45     1     6
  2.5680651835689466E-01 a       887     0    45     1     7
 -9.0493993124543662E-02 a       888     0    45     1     8
 -1.5092541255629399E-01 a       889     0    45     1     9
  1.1844935034248312E-01 a       890     0    45     1    10
 -9.0553048178250578E-02 a       891     0    45     1    11
  1.6537369009075079E-01 a       892     0    45     1    12
 -6.7171761985335546E-02 a       893     0    45     1    13
  9.2739916019438220E-02 a       894     0    45     1    14
 -9.6504135103773814E-02 a       895     0    45     1    15
  5.3559675192133518E-02 a       896     0    45     1    16
  3.4794443759609884E-03 a       897     0    45     1    17
  1.0531912825607370E-01 a       898     0    45     1    18
  2.8456473704700785E-01 a       899     0    45     1    19
 -2.6405885680656704E-01 a       900     0    45     1    20
 -8.7234288509845673E-02 a       901     0    46     1     1
 -2.1920508404456887E-01 a       902     0    46     1     2
 -1.2520222887826332E-01 a       903     0    46     1     3
 -3.0250552963165010E-02 a       904     0    46     1     4
 -2.4238353054362077E-01 a       905     0    46     1     5
 -1.6677713233028077E-01 a       906     0    46     1     6
 -5.1056736028943839E-02 a       907     0    46     1     7
  2.7111379627490906E-01 a       908     0    46     1     8
 -2.2136170470910554E-01 a       909     0    46     1     9
 -1.1551024575334665E-01 a       910     0    46     1    10
 -1.1229828896411659E-01 a       911     0    46     1    11
  1.5878526764677850E-01 a       912     0    46     1    12
 -1.4446749023190988E-01 a       913     0    46     1    13
 -2.9952583839218067E-01 a       914     0    46     1    14
 -1.0178604947932222E-01 a       915     0    46     1    15
 -1.5925526585720348E-01 a       916     0    46     1    16
  2.1511297776641673E-02 a       917     0    46     1    17
  2.8273507326333391E-01 a       918     0    46     1    18
 -4.9721636352587681E-02 a       919     0    46     1    19
 -1.4034716205131584E-01 a       920     0    46     1    20
 -1.3036288559291948E-01 a       921     0    47     1     1
 -1.4853654943615488E-01 a       922     0    47     1     2
  1.5844832023724886E-01 a       923     0    47     1     3
  2.0156975502136718E-01 a       924     0    47     1     4
  8.8083605103149373E-02 a       925     0    47     1     5
  7.7047065887710001E-02 a       926     0    47     1     6
 -4.0270435147326027E-02 a       927     0    47     1     7
  2.0773270200446722E-01 a       928     0    47     1     8
  6.0307103250249572E-02 a       929     0    47     1     9
 -6.4415968583550379E-02 a       930     0    47     1    10
 -1.9073518930628763E-01 a       931     0    47     1    11
  1.7891282922589440E-02 a       932     0    47     1    12
  1.6021500263654501E-01 a       933     0    47     1    13
 -1.1063497216951167E-01 a       934     0    47     1    14
  4.1225320292019682E-02 a       935     0    47     1    15
  1.2893858496051019E-01 a       936     0    47     1    16
 -1.5149327486874493E-02 a       937     0    47     1    17
  2.0396731302174420E-01 a       938     0    47     1    18
 -2.4854849288514752E-01 a       939     0    47     1    19
  8.6619042377305472E-02 a       940     0    47     1    20
 -7.8913114961783812E-02 a       941     0    48     1     1
 -3.3873019457359654E-01 a       942     0    48     1     2
 -1.0985262153329289E-01 a       943     0    48     1     3
  2.4111492253400507E-02 a       944     0    48     1     4
 -1.2290213553976260E-02 a       945     0    48     1     5
  3.2429644029716037E-01 a       946     0    48     1     6
 -2.7042515161754835E-02 a       947     0    48     1     7
 -5.4109964704200958E-02 a       948     0    48     1     8
 -2.2022141277016752E-01 a       949     0    48     1     9
  2.6256775168737878E-01 a       950     0    48     1    10
  1.7276611963418909E-01 a       951     0    48     1    11
 -1.0044879502629583E-01 a       952     0    48     1    12
  1.3425484017702288E-01 a       953     0    48     1    13
 -1.6443323732407603E-02 a       954     0    48     1    14
 -2.2904141626524360E-01 a       955     0    48     1    15
 -2.7893347016753484E-01 a       956     0    48     1    16
  1.9591137272524550E-02 a       957     0    48     1    17
 -1.4779242661809674E-01 a       958     0    48     1    18
  3.5532772999848070E-02 a       959     0    48     1    19
 -6.2950433345162440E-02 a       960     0    48     1    20
  2.1730026121401766E-01 a       961     0    49     1     1
 -1.7286931547422138E-01 a       962     0    49     1     2
 -5.6298561103228908E-02 a       963     0    49     1     3
 -1.5019316917235020E-01 a       964     0    49     1     4
 -9.9831650599451316E-02 a       965     0    49     1     5
  2.7529209043206812E-02 a       966     0    49     1     6
 -2.8521293238254930E-01 a       967     0    49     1     7
 -9.0422342944258785E-02 a       968     0    49     1     8
  4.8485644866807204E-02 a       969     0    49     1     9
  1.5307994933863353E-01 a       970     0    49     1    10
  1.5353223317505307E-01 a       971     0    49     1    11
  5.3415903338465388E-02 a       972     0    49     1    12
  2.1903148683241030E-02 a       973     0    49     1    13
 -1.1264600067946419E-01 a       974     0    49     1    14
 -1.3378861275614348E-01 a       975     0    49     1    15
 -5.9523987990163498E-03 a       976     0    49     1    16
 -2.8420579137243063E-01 a       977     0    49     1    17
  1.9709874065846436E-01 a       978     0    49     1    18
 -1.3361876927335498E-01 a       979     0    49     1    19
  1.8081820232631381E-02 a       980     0    49     1    20
 -2.3346457048318950E-01 a       981     0    50     1     1
  2.7088925655127460E-01 a       982     0    50     1     2
 -2.0050415850361164E-01 a       983     0    50     1     3
 -9.5749327004839069E-02 a       984     0    50     1     4
 -1.0335921452560103E-01 a       985     0    50     1     5
 -2.5046354367497858E-01 a       986     0    50     1     6
 -1.3142859469134613E-01 a       987     0    50     1     7
 -8.2451186215493230E-02 a       988     0    50     1     8
 -9.5104179773184305E-02 a       989     0    50     1     9
 -8.5443278099411684E-04 a       990     0    50     1    10
 -1.0077566266535061E-03 a       991     0    50     1    11
  2.9073579008607253E-01 a       992     0    50     1    12
 -1.9058598789774389E-01 a       993     0    50     1    13
 -1.9619501978456100E-01 a       994     0    50     1    14
  1.5943581104141183E-01 a       995     0    50     1    15
  4.1482962164221365E-01 a       996     0    50     1    16
  1.2005565309995990E-01 a       997     0    50     1    17
  4.7840503683169396E-02 a       998     0    50     1    18
 -3.5529675971009431E-03 a       999     0    50     1    19
  2.6164155350289420E-01 a      1000     0    50     1    20
 -4.3750337633289282E-03 a      1001     0    51     1     1
  2.4607643721806646E-01 a      1002     0    51     1     2
 -7.1093262430448709E-02 a      1003     0    51     1     3
  1.0208569649303369E-01 a      1004     0    51     1     4
  1.0707570644083148E-01 a      1005     0    51     1     5
 -5.7236892914693124E-02 a      1006     0    51     1     6
 -1.3814203659071125E-01 a      1007     0    51     1     7
  1.5701359946991214E-01 a      1008     0    51     1     8
 -1.6979186594836201E-02 a      1009     0    51     1     9
 -9.9851729385806692E-02 a      1010     0    51     1    10
  1.2341123270699378E-01 a      1011     0    51     1    11
 -5.9006427308556895E-03 a      1012     0    51     1    12
 -4.2292364964888765E-02 a      1013     0    51     1    13
 -6.4394406542178179E-02 a      1014     0    51     1    14
 -4.2955367292351103E-02 a      1015     0    51     1    15
 -2.2782356489216801E-01 a      1016     0    51     1    16
 -1.7025981465652502E-03 a      1017     0    51     1    17
  1.7729520241635127E-02 a      1018     0    51     1    18
 -1.6999632658453900E-02 a      1019     0    51     1    19
  4.7652060696202793E-02 a      1020     0    51     1    20
 -1.3654103150943894E-02 a      1021     0    52     1     1
 -6.2020741653199395E-02 a      1022     0    52     1     2
  4.4596540395062410E-02 a      1023     0    52     1     3
  1.2471290918402932E-01 a      1024     0    52     1     4
  4.4929861678373539E-02 a      1025     0    52     1     5
  1.3613356363174131E-02 a      1026     0    52     1     6
 -2.0054643616008294E-01 a      1027     0    52     1     7
  1.3300589585171763E-01 a      1028     0    52     1     8
  1.8055325378619416E-01 a      1029     0    52     1     9
  9.8035130736847706E-02 a      1030     0    52     1    10
  2.0907663423841705E-02 a      1031     0    52     1    11
  1.0097804421168086E-01 a      1032     0    52     1    12
 -1.9988558387958263E-01 a      1033     0    52     1    13
  8.1876417306745178E-02 a      1034     0    52     1    14
  1.0637786443589028E-01 a      1035     0    52     1    15
  1.1995870232944850E-01 a      1036     0    52     1    16
  7.5601495676320740E-02 a      1037     0    52     1    17
  4.7601508935380052E-02 a      1038     0    52     1    18
  1.3229218915421623E-01 a      1039     0    52     1    19
 -4.5415718502492493E-02 a      1040     0    52     1    20
 -8.5810674048106064E-02 a      1041     0    53     1     1
  4.1028181857195360E-02 a      1042     0    53     1     2
  1.4596669392799022E-01 a      1043     0    53     1     3
 -1.6927668650318278E-01 a      1044     0    53     1     4
  3.0201546068166146E-01 a      1045     0    53     1     5
  1.6703320292186272E-01 a      1046     0    53     1     6
 -1.0894975397068114E-01 a      1047     0    53     1     7
  1.5445854298442468E-01 a      1048     0    53     1     8
 -8.3028671021690051E-02 a      1049     0    53     1     9
 -7.2417780213484287E-02 a      1050     0    53     1    10
 -1.1378455103544460E-01 a      1051     0    53     1    11
 -7.5240398904484626E-02 a      1052     0    53     1    12
 -3.2525256387284635E-01 a      1053     0    53     1    13
  1.3464835457970545E-01 a      1054     0    53     1    14
  2.2955491462772684E-01 a      1055     0    53     1    15
  2.8239121853232557E-01 a      1056     0    53     1    16
  2.6230518474124603E-01 a      1057     0    53     1    17
 -6.4060961414973194E-02 a      1058     0    53     1    18
 -3.2074251744186444E-01 a      1059     0    53     1    19
 -2.0559797215589404E-01 a      1060     0    53     1    20
 -2.5300611612711715E-01 a      1061     0    54     1     1
 -3.2645820845542128E-01 a      1062     0    54     1     2
  4.5825755731091250E-01 a      1063     0    54     1     3
 -1.2446183955897849E-01 a      1064     0    54     1     4
  5.3306261511237374E-01 a      1065     0    54     1     5
  3.3599738443753469E-01 a      1066     0    54     1     6
 -4.3041749587330473E-02 a      1067     0    54     1     7
 -8.2506294558913140E-01 a      1068     0    54     1     8
 -5.7986591826823086E-01 a      1069     0    54     1     9
  3.3229707309498380E-01 a      1070     0    54     1    10
  2.8338828224628299E-01 a      1071     0    54     1    11
 -4.0833096860564116E-01 a      1072     0    54     1    12
  3.4034090902372433E-01 a      1073     0    54     1    13
 -4.5791018789525251E-01 a      1074     0    54     1    14
 -4.9770987574564363E-01 a      1075     0    54     1    15
  2.6609216683873721E-01 a      1076     0    54     1    16
 -5.4805293798678401E-01 a      1077     0    54     1    17
  1.0178915755389929E-01 a      1078     0    54     1    18
  2.2860269357968677E-01 a      1079     0    54     1    19
  2.0818493645829303E-01 a      1080     0    54     1    20
 -2.5788449916998268E-01 a      1081     0    55     1     1
 -1.2137122438665775E-01 a      1082     0    55     1     2
  1.8965445520509983E-01 a      1083     0    55     1     3
 -2.8559430486103038E-01 a      1084     0    55     1     4
 -3.6404433498543595E-02 a      1085     0    55     1     5
 -8.0839212532979987E-02 a      1086     0    55     1     6
  2.4459016357727512E-01 a      1087     0    55     1     7
 -2.9098693586977964E-01 a      1088     0    55     1     8
 -2.7789665367909255E-01 a      1089     0    55     1     9
 -2.6714137199512972E-01 a      1090     0    55     1    10
 -2.7722184007787776E-01 a      1091     0    55     1    11
 -1.8772614473327148E-02 a      1092     0    55     1    12
  4.2509446088934227E-01 a      1093     0    55     1    13
 -8.9540427312809812E-02 a      1094     0    55     1    14
 -4.7474076145366639E-01 a      1095     0    55     1    15
  4.9969648177436216E-01 a      1096     0    55     1    16
 -5.8857097567975047E-01 a      1097     0    55     1    17
 -1.0370457882388463E-01 a      1098     0    55     1    18
  4.8047937204354785E-01 a      1099     0    55     1    19
 -3.7701873592508528E-01 a      1100     0    55     1    20
 -3.1586435298650462E-01 a      1101     0    56     1     1
  1.8735976317149583E-01 a      1102     0    56     1     2
 -2.8519322199844735E-03 a      1103     0    56     1     3
 -5.8991629032681014E-02 a      1104     0    56     1     4
  1.9610604435430393E-02 a      1105     0    56     1     5
  2.9382143518517123E-01 a      1106     0    56     1     6
  7.9381513924277253E-02 a      1107     0    56     1     7
  1.6315893053457259E-01 a      1108     0    56     1     8
  1.7709541169720372E-01 a      1109     0    56     1     9
 -7.8981216145800240E-02 a      1110     0    56     1    10
  1.1034076204094398E-02 a      1111     0    56     1    11
 -3.7365465493669522E-02 a      1112     0    56     1    12
 -3.0013189385637790E-01 a      1113     0    56     1    13
 -4.2804774292272009E-02 a      1114     0    56     1    14
  2.8924932416810079E-01 a      1115     0    56     1    15
  2.9982048923558169E-01 a      1116     0    56     1    16
  6.6782450633231683E-02 a      1117     0    56     1    17
 -1.6660694102501514E-01 a      1118     0    56     1    18
 -1.8410925198157327E-01 a      1119     0    56     1    19
 -2.6921137427504716E-01 a      1120     0    56     1    20
 -3.1247426528850186E-01 a      1121     0    57     1     1
 -3.9383031571635918E-02 a      1122     0    57     1     2
  3.9754642785528115E-02 a      1123     0    57     1     3
  1.3568018222827696E-01 a      1124     0    57     1     4
  1.5848985767471355E-01 a      1125     0    57     1     5
  7.2005110886297172E-02 a      1126     0    57     1     6
 -5.2661273450887169E-01 a      1127     0    57     1     7
 -1.5880519672761061E-02 a      1128     0    57     1     8
 -1.6408686341785814E-01 a      1129     0    57     1     9
 -1.1745229359190051E-01 a      1130     0    57     1    10
 -3.6769564992881731E-01 a      1131     0    57     1    11
 -7.7936113492351744E-02 a      1132     0    57     1    12
 -2.6397378840767916E-02 a      1133     0    57     1    13
 -1.3298717169158802E-01 a      1134     0    57     1    14
  8.2540475233324306E-02 a      1135     0    57     1    15
 -1.2251896462778156E-03 a      1136     0    57     1    16
 -4.3311310981799539E-01 a      1137     0    57     1    17
  1.4083460973331541E-01 a      1138     0    57     1    18
 -3.1115743881495815E-02 a      1139     0    57     1    19
 -1.5487372089645962E-01 a      1140     0    57     1    20
  4.1198816997994697E-01 a      1141     0    58     1     1
 -4.9441719526667760E-01 a      1142     0    58     1     2
  1.4109870872049457E-01 a      1143     0    58     1     3
 -3.9589737028116595E-01 a      1144     0    58     1     4
 -4.9681195134525569E-01 a      1145     0    58     1     5
  4.1098221728782058E-01 a      1146     0    58     1     6
  2.2301175653121175E-01 a      1147     0    58     1     7
 -1.1054558663319343E+00 a      1148     0    58     1     8
 -3.2984299840814907E-01 a      1149     0    58     1     9
 -2.1592730726356915E-03 a      1150     0    58     1    10
 -4.4589561735389793E-01 a      1151     0    58     1    11
 -6.5289008866725257E-02 a      1152     0    58     1    12
 -1.7634904818503794E-01 a      1153     0    58     1    13
 -5.2226250656547479E-01 a      1154     0    58     1    14
 -2.1341154705351725E-01 a      1155     0    58     1    15
  3.6489059027815390E-01 a      1156     0    58     1    16
 -4.6851920618380161E-01 a      1157     0    58     1    17
  4.9016911414473513E-01 a      1158     0    58     1    18
  1.2619911654812874E-01 a      1159     0    58     1    19
 -6.1413808328254293E-01 a      1160     0    58     1    20
 -9.0303590381273807E-02 a      1161     0    59     1     1
 -1.0765735233619804E-01 a      1162     0    59     1     2
  1.2563675824089643E-01 a      1163     0    59     1     3
 -2.1218191191590401E-02 a      1164     0    59     1     4
  6.1625770572070616E-02 a      1165     0    59     1     5
  7.3061057906504884E-02 a      1166     0    59     1     6
  1.9211518371592073E-01 a      1167     0    59     1     7
 -2.1246697006976067E-01 a      1168     0    59     1     8
 -3.2931909137539968E-02 a      1169     0    59     1     9
 -2.1920692025492972E-01 a      1170     0    59     1    10
 -6.8508090144265815E-02 a      1171     0    59     1    11
  1.9193341870983768E-01 a      1172     0    59     1    12
 -7.7671986436817039E-02 a      1173     0    59     1    13
 -2.3615287704784943E-01 a      1174     0    59     1    14
 -1.4893116339705476E-01 a      1175     0    59     1    15
 -2.4829018369185264E-02 a      1176     0    59     1    16
 -1.6746938980336340E-01 a      1177     0    59     1    17
 -6.7384091182908515E-02 a      1178     0    59     1    18
 -8.0821196497550554E-02 a      1179     0    59     1    19
  2.6628453290984233E-01 a      1180     0    59     1    20
  5.0147977693409251E-01 a      1181     0    60     1     1
  1.8315906107950364E-01 a      1182     0    60     1     2
  3.6255759688561168E-01 a      1183     0    60     1     3
  2.1122036295976240E-01 a      1184     0    60     1     4
  3.7481871759872894E-02 a      1185     0    60     1     5
 -1.0263522218959027E-02 a      1186     0    60     1     6
 -3.3237388824060389E-02 a      1187     0    60     1     7
 -1.0411407544458949E-02 a      1188     0    60     1     8
  2.6224064225549937E-01 a      1189     0    60     1     9
 -2.5017344817680648E-01 a      1190     0    60     1    10
 -2.9224735489805481E-01 a      1191     0    60     1    11
 -2.4288212651465318E-01 a      1192     0    60     1    12
 -2.2622361491815277E-01 a      1193     0    60     1    13
 -3.3094512112075730E-01 a      1194     0    60     1    14
 -1.8418564574131786E-02 a      1195     0    60     1    15
  3.4956224886087262E-01 a      1196     0    60     1    16
 -2.2350442870533632E-01 a      1197     0    60     1    17
 -2.2931930426371616E-01 a      1198     0    60     1    18
 -1.5522273594839450E-01 a      1199     0    60     1    19
  2.6976975740517436E-02 a      1200     0    60     1    20
  3.6007951796187869E-02 a      1201     0    61     1     1
  2.4447133168922691E-01 a      1202     0    61     1     2
 -9.2809040668340153E-03 a      1203     0    61     1     3
 -2.4063022192507039E-01 a      1204     0    61     1     4
 -1.5549190573561608E-01 a      1205     0    61     1     5
  2.2222677706019120E-01 a      1206     0    61     1     6
 -2.0932385700475792E-01 a      1207     0    61     1     7
 -1.3935150092454076E-02 a      1208     0    61     1     8
 -1.5041737391536444E-01 a      1209     0    61     1     9
 -2.5325869073842189E-01 a      1210     0    61     1    10
 -1.1160769694215288E-01 a      1211     0    61     1    11
 -7.3667832496119037E-02 a      1212     0    61     1    12
 -2.7899653875051061E-01 a      1213     0    61     1    13
  4.9697786907532709E-02 a      1214     0    61     1    14
  2.0049076697157536E-01 a      1215     0    61     1    15
 -7.6777658074579772E-02 a      1216     0    61     1    16
  5.4209595866513693E-02 a      1217     0    61     1    17
 -3.1848293356392110E-02 a      1218     0    61     1    18
 -1.1329441115774830E-01 a      1219     0    61     1    19
  1.3472517407397708E-01 a      1220     0    61     1    20
 -1.5692219743067262E-01 a      1221     0    62     1     1
 -1.2801418003752577E-01 a      1222     0    62     1     2
 -1.8887155641159270E-01 a      1223     0    62     1     3
 -2.0480860996378028E-01 a      1224     0    62     1     4
 -4.7484940589354201E-02 a      1225     0    62     1     5
  6.1548707244688305E-02 a      1226     0    62     1     6
 -1.3097220409214114E-01 a      1227     0    62     1     7
  1.1710856423200169E-01 a      1228     0    62     1     8
 -3.0572048495661398E-02 a      1229     0    62     1     9
 -8.8433582962365601E-02 a      1230     0    62     1    10
  1.7203259777116647E-01 a      1231     0    62     1    11
  1.1769086921774789E-01 a      1232     0    62     1    12
 -1.0207201291232373E-01 a      1233     0    62     1    13
 -1.9618166220570851E-01 a      1234     0    62     1    14
 -4.4728572495707844E-02 a      1235     0    62     1    15
 -6.2254078320381996E-02 a      1236     0    62     1    16
  1.5012688911408867E-01 a      1237     0    62     1    17
 -3.0279367632440331E-02 a      1238     0    62     1    18
  2.8660216124556270E-01 a      1239     0    62     1    19
  6.9300875983455495E-02 a      1240     0    62     1    20
 -1.2818659105437738E-01 a      1241     0    63     1     1
  1.1400200712116029E-02 a      1242     0    63     1     2
 -2.4654883935315233E-01 a      1243     0    63     1     3
 -9.1871009620866320E-02 a      1244     0    63     1     4
  1.7654217489963203E-01 a      1245     0    63     1     5
  6.8685336288722115E-02 a      1246     0    63     1     6
  1.2030350750293185E-01 a      1247     0    63     1     7
 -1.3872818894735145E-01 a      1248     0    63     1     8
 -1.0522846154143914E-01 a      1249     0    63     1     9
  1.6747150496297139E-01 a      1250     0    63     1    10
 -2.8416155119118131E-01 a      1251     0    63     1    11
  1.1645018510067694E-01 a      1252     0    63     1    12
 -1.4492228487510110E-02 a      1253     0    63     1    13
  1.0113837272014942E-01 a      1254     0    63     1    14
 -7.2070484480491498E-02 a      1255     0    63     1    15
 -4.0420217998806372E-02 a      1256     0    63     1    16
  2.1008344804765222E-01 a      1257     0    63     1    17
  4.1231515429763735E-02 a      1258     0    63     1    18
 -1.8490896182889180E-01 a      1259     0    63     1    19
 -2.8182361301993784E-02 a      1260     0    63     1    20
 -5.3641067651378604E-02 a      1261     0    64     1     1
 -3.3743759046290046E-02 a      1262     0    64     1     2
  2.0010680922671201E-01 a      1263     0    64     1     3
 -7.1664703449559317E-02 a      1264     0    64     1     4
  3.8551957998132234E-02 a      1265     0    64     1     5
  6.9984785928360396E-02 a      1266     0    64     1     6
 -8.5211285222080269E-02 a      1267     0    64     1     7
 -2.8164292050116485E-01 a      1268     0    64     1     8
 -1.7951363010123376E-02 a      1269     0    64     1     9
 -3.3253152126066898E-01 a      1270     0    64     1    10
 -2.3248881945887956E-01 a      1271     0    64     1    11
 -1.8284520814372126E-03 a      1272     0    64     1    12
 -1.9765955510115713E-01 a      1273     0    64     1    13
  2.6354112902079313E-02 a      1274     0    64     1    14
 -1.5722932775312784E-01 a      1275     0    64     1    15
 -3.8039071044703693E-02 a      1276     0    64     1    16
  2.3021384561257183E-01 a      1277     0    64     1    17
 -1.3114740300447020E-01 a      1278     0    64     1    18
  5.8778456622837726E-02 a      1279     0    64     1    19
 -1.8295192601043145E-01 a      1280     0    64     1    20
  2.1214841458435657E-01 a      1281     0    65     1     1
 -4.5456497331600475E-02 a      1282     0    65     1     2
  1.6558716947026547E-01 a      1283     0    65     1     3
  8.9562555397689994E-02 a      1284     0    65     1     4
 -1.4862877851088961E-02 a      1285     0    65     1     5
  3.0600658845592543E-02 a      1286     0    65     1     6
 -2.7378686293500838E-02 a      1287     0    65     1     7
 -1.6907571557058507E-02 a      1288     0    65     1     8
 -1.4389330558278376E-01 a      1289     0    65     1     9
  8.5882351998914225E-02 a      1290     0    65     1    10
  1.6544433031451133E-01 a      1291     0    65     1    11
  1.0836166946918326E-01 a      1292     0    65     1    12
  1.9451384851203946E-01 a      1293     0    65     1    13
  1.2611166851378675E-01 a      1294     0    65     1    14
 -8.6591306089414941E-02 a      1295     0    65     1    15
 -6.7509818900124460E-02 a      1296     0    65     1    16
  1.1196064672638686E-01 a      1297     0    65     1    17
  1.1388485828093783E-01 a      1298     0    65     1    18
  1.3554973962638611E-02 a      1299     0    65     1    19
 -3.8776839629099134E-02 a      1300     0    65     1    20
 -1.4800958108711698E-01 a      1301     0    66     1     1
  1.6979086912822927E-01 a      1302     0    66     1     2
 -6.9150841894003931E-02 a      1303     0    66     1     3
  8.9798569103785156E-02 a      1304     0    66     1     4
  1.3409691785236894E-01 a      1305     0    66     1     5
  2.7791264918939518E-01 a      1306     0    66     1     6
  7.2389432938738452E-02 a      1307     0    66     1     7
 -2.9125456730990568E-01 a      1308     0    66     1     8
  2.1352629651091519E-02 a      1309     0    66     1     9
  1.8960375832433116E-01 a      1310     0    66     1    10
  1.2724315204968814E-01 a      1311     0    66     1    11
 -2.2057914644474483E-01 a      1312     0    66     1    12
  5.9704376797071974E-02 a      1313     0    66     1    13
  5.7344682940100838E-02 a      1314     0    66     1    14
 -7.5952832312695548E-02 a      1315     0    66     1    15
  2.2834416893475220E-03 a      1316     0    66     1    16
 -2.3812306366799099E-01 a      1317     0    66     1    17
  3.9489568464186375E-01 a      1318     0    66     1    18
 -3.2209854493706308E-01 a      1319     0    66     1    19
 -1.3442194446290628E-01 a      1320     0    66     1    20
  7.6070151366430361E-02 a      1321     0    67     1     1
  1.5131549188741586E-01 a      1322     0    67     1     2
  7.3294966923878699E-02 a      1323     0    67     1     3
 -6.1645926411334782E-02 a      1324     0    67     1     4
  9.7445248210533048E-02 a      1325     0    67     1     5
  1.5660358122991072E-01 a      1326     0    67     1     6
  1.9261750084007775E-01 a      1327     0    67     1     7
 -3.1360966263594220E-01 a      1328     0    67     1     8
 -1.6775820271758801E-01 a      1329     0    67     1     9
 -1.2199278947765700E-01 a      1330     0    67     1    10
  1.7678445026377976E-01 a      1331     0    67     1    11
 -1.6202378213624732E-01 a      1332     0    67     1    12
 -1.1172212171867698E-02 a      1333     0    67     1    13
  2.1223350427460985E-01 a      1334     0    67     1    14
  1.0593161672613916E-01 a      1335     0    67     1    15
  3.5880530335168991E-02 a      1336     0    67     1    16
 -2.0798967777859455E-02 a      1337     0    67     1    17
 -2.6990181774497873E-01 a      1338     0    67     1    18
  3.1086729055290452E-01 a      1339     0    67     1    19
  5.1760856503703816E-02 a      1340     0    67     1    20
 -6.1811674259277362E-03 a      1341     0    68     1     1
 -2.6590592918088542E-02 a      1342     0    68     1     2
  3.7094442773657749E-01 a      1343     0    68     1     3
 -1.6399187742024599E-01 a      1344     0    68     1     4
 -4.7647254561058477E-02 a      1345     0    68     1     5
  1.3521867333478382E-01 a      1346     0    68     1     6
 -2.7201722626141667E-01 a      1347     0    68     1     7
 -6.3349940227278823E-01 a      1348     0    68     1     8
 -2.8214155951432379E-01 a      1349     0    68     1     9
 -5.0552502760880164E-02 a      1350     0    68     1    10
 -3.7210104516992454E-01 a      1351     0    68     1    11
 -2.4849032351038719E-01 a      1352     0    68     1    12
 -5.2520108777527716E-04 a      1353     0    68     1    13
 -4.2106691228048937E-01 a      1354     0    68     1    14
  7.5489140460452714E-02 a      1355     0    68     1    15
  3.3414692802749424E-01 a      1356     0    68     1    16
 -5.3390423318345615E-01 a      1357     0    68     1    17
 -2.2002659209490957E-01 a      1358     0    68     1    18
  1.1293515342588049E-01 a      1359     0    68     1    19
 -2.7218810124233256E-01 a      1360     0    68     1    20
 -3.0540576497442216E-02 a      1361     0    69     1     1
  4.5269385903698854E-02 a      1362     0    69     1     2
 -8.0127325791298470E-02 a      1363     0    69     1     3
  9.2467801458225321E-02 a      1364     0    69     1     4
 -7.2080966384595477E-02 a      1365     0    69     1     5
  9.0191319071746420E-02 a      1366     0    69     1     6
 -1.5993993863729858E-01 a      1367     0    69     1     7
 -2.7340476199285108E-02 a      1368     0    69     1     8
 -2.4616172842476147E-01 a      1369     0    69     1     9
 -9.2661815289409685E-02 a      1370     0    69     1    10
  1.3943147562336514E-01 a      1371     0    69     1    11
  1.3703589550356029E-02 a      1372     0    69     1    12
 -1.6127324217820274E-01 a      1373     0    69     1    13
  1.1417785389583732E-01 a      1374     0    69     1    14
  1.3975652206362713E-01 a      1375     0    69     1    15
  6.4535830574151937E-02 a      1376     0    69     1    16
  1.3695601555553977E-01 a      1377     0    69     1    17
 -1.1948439352982321E-01 a      1378     0    69     1    18
  1.8259465474017286E-01 a      1379     0    69     1    19
 -4.3759949001221578E-02 a      1380     0    69     1    20
  1.9446231607498232E-01 a      1381     0    70     1     1
  1.8759560457034291E-01 a      1382     0    70     1     2
 -1.8262704021768905E-01 a      1383     0    70     1     3
  2.5681522712169796E-01 a      1384     0    70     1     4
  2.1538588936812254E-02 a      1385     0    70     1     5
 -8.3056995317896634E-02 a      1386     0    70     1     6
 -1.2995219425941291E-02 a      1387     0    70     1     7
  4.2587207873625299E-01 a      1388     0    70     1     8
  9.5053302822616426E-02 a      1389     0    70     1     9
 -6.3346154480782610E-02 a      1390     0    70     1    10
 -6.6872251162143626E-02 a      1391     0    70     1    11
  1.9898323414025848E-01 a      1392     0    70     1    12
 -2.5567674318089084E-01 a      1393     0    70     1    13
 -2.2273415965268994E-02 a      1394     0    70     1    14
  2.7955992432559768E-01 a      1395     0    70     1    15
 -1.5282422282226782E-01 a      1396     0    70     1    16
  1.6529819911312002E-01 a      1397     0    70     1    17
  2.5532921079364557E-01 a      1398     0    70     1    18
 -2.5159636195144930E-01 a      1399     0    70     1    19
  1.1057985860755300E-01 a      1400     0    70     1    20
 -4.0485829946799355E-02 a      1401     0    71     1     1
  2.7769942774454837E-01 a      1402     0    71     1     2
  1.2266512047177023E-02 a      1403     0    71     1     3
 -2.3153316129289891E-02 a      1404     0    71     1     4
 -3.6562205475175680E-01 a      1405     0    71     1     5
  2.6157926913981855E-01 a      1406     0    71     1     6
 -1.2292035018073863E-01 a      1407     0    71     1     7
  2.7237027320610052E-01 a      1408     0    71     1     8
  1.4636868518597151E-01 a      1409     0    71     1     9
  1.6273045135886741E-01 a      1410     0    71     1    10
  1.4035100886583246E-01 a      1411     0    71     1    11
  2.4728435442655369E-01 a      1412     0    71     1    12
 -2.7017278616501073E-01 a      1413     0    71     1    13
  3.4144894983312618E-01 a      1414     0    71     1    14
  3.9611349067054175E-01 a      1415     0    71     1    15
 -1.8797793535327972E-01 a      1416     0    71     1    16
  1.3810623646120598E-01 a      1417     0    71     1    17
  3.4238162958741170E-01 a      1418     0    71     1    18
 -6.8117509477452198E-01 a      1419     0    71     1    19
 -3.7227121129043958E-02 a      1420     0    71     1    20
 -5.7053545423285640E-02 a      1421     0    72     1     1
  1.7835993185855961E-01 a      1422     0    72     1     2
  1.6004232247256012E-01 a      1423     0    72     1     3
 -7.0297109480242287E-02 a      1424     0    72     1     4
  8.8182602536206453E-02 a      1425     0    72     1     5
 -1.3871581497926097E-01 a      1426     0    72     1     6
 -9.8308255366210719E-03 a      1427     0    72     1     7
 -1.3907057151672512E-02 a      1428     0    72     1     8
  2.3115238991292197E-01 a      1429     0    72     1     9
  1.6447143507215083E-02 a      1430     0    72     1    10
  8.0154998381639919E-02 a      1431     0    72     1    11
 -3.9994377613097831E-01 a      1432     0    72     1    12
 -3.5916732924750241E-02 a      1433     0    72     1    13
  1.4418411306265974E-01 a      1434     0    72     1    14
 -2.2043378335283095E-02 a      1435     0    72     1    15
  1.7848050426843587E-01 a      1436     0    72     1    16
 -7.3578276958192190E-02 a      1437     0    72     1    17
  2.0159562271138151E-01 a      1438     0    72     1    18
 -1.3087951951267562E-01 a      1439     0    72     1    19
 -8.0317858043200685E-03 a      1440     0    72     1    20
 -8.9517697468710036E-02 a      1441     0    73     1     1
 -3.0915687924093949E-01 a      1442     0    73     1     2
  5.5815645050764452E-02 a      1443     0    73     1     3
  8.6159196837094318E-02 a      1444     0    73     1     4
 -1.5940305389563481E-01 a      1445     0    73     1     5
 -1.9006370188555763E-01 a      1446     0    73     1     6
 -9.7298221628701290E-02 a      1447     0    73     1     7
 -4.5282864323157916E-02 a      1448     0    73     1     8
  1.4259674977261688E-01 a      1449     0    73     1     9
  1.1919884624928866E-01 a      1450     0    73     1    10
 -6.6777231696662637E-02 a      1451     0    73     1    11
  2.8178696124652347E-01 a      1452     0    73     1    12
  1.8155207331445117E-01 a      1453     0    73     1    13
  1.4303454416255962E-01 a      1454     0    73     1    14
 -9.0600370170173194E-02 a      1455     0    73     1    15
 -3.2210905772952175E-01 a      1456     0    73     1    16
  2.3823756408487531E-01 a      1457     0    73     1    17
 -1.4692459554234447E-01 a      1458     0    73     1    18
  3.5764761199458019E-02 a      1459     0    73     1    19
  2.0762538949455164E-01 a      1460     0    73     1    20
  7.3332371607685271E-02 a      1461     0    74     1     1
  2.2169392450671824E-01 a      1462     0    74     1     2
 -1.2700399558278677E-01 a      1463     0    74     1     3
  2.5298701948545677E-01 a      1464     0    74     1     4
 -2.6211372180050874E-01 a      1465     0    74     1     5
 -4.5656237026546552E-02 a      1466     0    74     1     6
 -9.3613620984445783E-02 a      1467     0    74     1     7
  4.7566207289704066E-01 a      1468     0    74     1     8
  2.6223395999247324E-02 a      1469     0    74     1     9
 -1.3954634384573264E-01 a      1470     0    74     1    10
 -2.3591774342485758E-02 a      1471     0    74     1    11
  1.9316461980837318E-01 a      1472     0    74     1    12
 -1.7512490473843251E-01 a      1473     0    74     1    13
  1.7619940105316809E-01 a      1474     0    74     1    14
  2.5401906153722026E-01 a      1475     0    74     1    15
  1.0405362355193170E-02 a      1476     0    74     1    16
  2.9511407766165781E-01 a      1477     0    74     1    17
  4.7098274484664615E-01 a      1478     0    74     1    18
 -2.3717725207321133E-01 a      1479     0    74     1    19
 -6.4391477876609591E-03 a      1480     0    74     1    20
  1.3285061267605797E-01 a      1481     0    75     1     1
 -2.0457892992732749E-01 a      1482     0    75     1     2
 -6.3478202735698319E-02 a      1483     0    75     1     3
  7.3217712465413975E-02 a      1484     0    75     1     4
  3.4216400699927996E-01 a      1485     0    75     1     5
 -1.2845161192381735E-01 a      1486     0    75     1     6
  7.0800369483004000E-02 a      1487     0    75     1     7
 -3.6159468155939845E-01 a      1488     0    75     1     8
 -1.8284359166840194E-02 a      1489     0    75     1     9
  2.1323964296489636E-01 a      1490     0    75     1    10
 -8.5814808326020418E-03 a      1491     0    75     1    11
  1.2698661006392661E-01 a      1492     0    75     1    12
  1.8979413997209759E-03 a      1493     0    75     1    13
  2.4794506387653761E-01 a      1494     0    75     1    14
  2.4920049234834649E-01 a      1495     0    75     1    15
 -9.9487130181333913E-02 a      1496     0    75     1    16
  3.2693090710775412E-02 a      1497     0    75     1    17
  1.2779309160048313E-01 a      1498     0    75     1    18
  2.7867379810045106E-01 a      1499     0    75     1    19
  9.6292708907810359E-02 a      1500     0    75     1    20
  2.1436600296899988E-01 a      1501     0    76     1     1
  2.4858109759844108E-01 a      1502     0    76     1     2
 -2.3648790736300901E-01 a      1503     0    76     1     3
  5.5034446414220624E-02 a      1504     0    76     1     4
 -1.2781811879613308E-01 a      1505     0    76     1     5
 -4.4419390251344354E-01 a      1506     0    76     1     6
  4.8987316780061940E-01 a      1507     0    76     1     7
  5.1592018543052920E-01 a      1508     0    76     1     8
  2.1509593794177886E-01 a      1509     0    76     1     9
 -1.9918604334613257E-01 a      1510     0    76     1    10
 -4.8347116507768031E-02 a      1511     0    76     1    11
 -1.8125016835703708E-01 a      1512     0    76     1    12
  4.7168150926511436E-02 a      1513     0    76     1    13
  3.9193898357249973E-01 a      1514     0    76     1    14
  5.5220477751618154E-02 a      1515     0    76     1    15
 -1.8321552545651534E-01 a      1516     0    76     1    16
  5.7642742531097364E-02 a      1517     0    76     1    17
  5.3679551097635539E-03 a      1518     0    76     1    18
 -1.4240097804298694E-02 a      1519     0    76     1    19
  9.8439883537106310E-02 a      1520     0    76     1    20
  1.7314137512532238E-01 a      1521     0    77     1     1
  9.8151519928224171E-02 a      1522     0    77     1     2
 -2.3117638210530109E-01 a      1523     0    77     1     3
  1.1099113981216412E-01 a      1524     0    77     1     4
 -8.8975036915756797E-02 a      1525     0    77     1     5
 -5.5253938684354180E-02 a      1526     0    77     1     6
  2.0925620427741456E-01 a      1527     0    77     1     7
 -4.5686724848176687E-02 a      1528     0    77     1     8
  2.5645833308383970E-01 a      1529     0    77     1     9
 -6.6147631365533879E-02 a      1530     0    77     1    10
  4.7666505154426726E-02 a      1531     0    77     1    11
  1.4370091544375486E-03 a      1532     0    77     1    12
 -1.3755677337708905E-01 a      1533     0    77     1    13
  6.0056996287097686E-01 a      1534     0    77     1    14
  5.2473782688666792E-01 a      1535     0    77     1    15
 -2.5437142399682455E-01 a      1536     0    77     1    16
  3.8088237799471952E-01 a      1537     0    77     1    17
 -3.1443160016453159E-01 a      1538     0    77     1    18
  4.2127641542627270E-04 a      1539     0    77     1    19
  7.7177724696389907E-02 a      1540     0    77     1    20
 -2.3713895959093798E-01 a      1541     0    78     1     1
 -1.3882616897736708E-01 a      1542     0    78     1     2
  6.8510990665353891E-02 a      1543     0    78     1     3
 -7.9174802491418922E-02 a      1544     0    78     1     4
  4.0344569274825735E-02 a      1545     0    78     1     5
 -1.1778947027661377E-01 a      1546     0    78     1     6
 -3.5886162915234950E-02 a      1547     0    78     1     7
 -5.3661389725404331E-02 a      1548     0    78     1     8
 -3.6909377205852384E-02 a      1549     0    78     1     9
 -6.1889430303277981E-02 a      1550     0    78     1    10
  3.6151120827716737E-02 a      1551     0    78     1    11
  2.2174310057892657E-01 a      1552     0    78     1    12
  8.2310049565209653E-02 a      1553     0    78     1    13
  5.9319086635678930E-03 a      1554     0    78     1    14
  1.0861144660952708E-01 a      1555     0    78     1    15
 -1.8628026467663217E-01 a      1556     0    78     1    16
  2.0572854198012802E-01 a      1557     0    78     1    17
  4.2220033965654200E-02 a      1558     0    78     1    18
  1.6067494245881284E-01 a      1559     0    78     1    19
  1.5688687718978422E-02 a      1560     0    78     1    20
 -1.8913349631054976E-01 a      1561     0    79     1     1
 -2.4747628977576203E-01 a      1562     0    79     1     2
 -2.6009500979373917E-01 a      1563     0    79     1     3
 -3.2126149089882490E-02 a      1564     0    79     1     4
  3.2781639775412846E-01 a      1565     0    79     1     5
 -1.7052235879665825E-01 a      1566     0    79     1     6
  3.2336995736082605E-02 a      1567     0    79     1     7
  4.1004190517616407E-01 a      1568     0    79     1     8
 -1.6372098459239599E-02 a      1569     0    79     1     9
  3.0521986289167718E-01 a      1570     0    79     1    10
  4.2943129864202684E-01 a      1571     0    79     1    11
  2.4686244587222247E-01 a      1572     0    79     1    12
 -2.5954841325165257E-01 a      1573     0    79     1    13
 -1.9487495362491999E-01 a      1574     0    79     1    14
  1.2988719587042744E-01 a      1575     0    79     1    15
 -4.2522318958058514E-01 a      1576     0    79     1    16
  2.7395394610706764E-01 a      1577     0    79     1    17
 -1.6494844669430450E-01 a      1578     0    79     1    18
  2.5061392643146552E-01 a      1579     0    79     1    19
  1.0918758872084953E-01 a      1580     0    79     1    20
 -2.5409980995484988E-01 a      1581     0    80     1     1
 -1.4060145170385777E-01 a      1582     0    80     1     2
 -2.2253717127082856E-01 a      1583     0    80     1     3
  1.0567004323875747E-04 a      1584     0    80     1     4
  3.8420075460444530E-01 a      1585     0    80     1     5
 -2.9451813012622252E-01 a      1586     0    80     1     6
 -2.4623466059658032E-02 a      1587     0    80     1     7
  1.3747590610345965E-02 a      1588     0    80     1     8
  1.4050281713763166E-01 a      1589     0    80     1     9
  4.7443457356259496E-02 a      1590     0    80     1    10
 -1.0534975820188069E-01 a      1591     0    80     1    11
  3.7300952194499487E-01 a      1592     0    80     1    12
 -1.8772463673172748E-01 a      1593     0    80     1    13
  4.4199241703471302E-02 a      1594     0    80     1    14
  3.2376311461183133E-01 a      1595     0    80     1    15
 -7.6066393728635759E-02 a      1596     0    80     1    16
 -2.5440446230257313E-01 a      1597     0    80     1    17
 -5.2333297476960239E-01 a      1598     0    80     1    18
  4.9543271626587121E-01 a      1599     0    80     1    19
  1.0049861179320917E-01 a      1600     0    80     1    20
  2.0478567740168541E-02 a      1601     0    81     1     1
 -1.6826504739994338E-01 a      1602     0    81     1     2
  5.1828224397214920E-02 a      1603     0    81     1     3
 -5.1443493189784355E-02 a      1604     0    81     1     4
 -1.8085565493092243E-01 a      1605     0    81     1     5
  4.2008053755496916E-01 a      1606     0    81     1     6
 -4.6585190189569234E-02 a      1607     0    81     1     7
 -6.8121784731893154E-01 a      1608     0    81     1     8
 -5.6497467800189138E-01 a      1609     0    81     1     9
  3.0174849652893621E-01 a      1610     0    81     1    10
 -5.2170260846168437E-01 a      1611     0    81     1    11
 -2.1777979977129922E-01 a      1612     0    81     1    12
  1.6419482094177781E-01 a      1613     0    81     1    13
 -8.3730572881836451E-01 a      1614     0    81     1    14
 -4.5717610484572185E-01 a      1615     0    81     1    15
  4.2452717699523068E-01 a      1616     0    81     1    16
 -2.6371921635317352E-01 a      1617     0    81     1    17
  2.0189369816726324E-01 a      1618     0    81     1    18
  1.7572798554601093E-01 a      1619     0    81     1    19
 -3.7507148932109408E-01 a      1620     0    81     1    20
  1.1191324074953488E-01 a      1621     0    82     1     1
 -1.9545601927829413E-02 a      1622     0    82     1     2
 -3.3786970806286371E-01 a      1623     0    82     1     3
