################################################################################
# Neural network connection values (weights and biases).
################################################################################
# Col  Name       Description
################################################################################
# 1    connection Neural network connection value.
# 2    t          Connection type (a = weight, b = bias).
# 3    index      Index enumerating weights.
# 4    l_s        Starting point layer (end point layer for biases).
# 5    n_s        Starting point neuron in starting layer (end point neuron for biases).
# 6    l_e        End point layer.
# 7    n_e        End point neuron in end layer.
################################################################################
#                      1 2         3     4     5     6     7
#             connection t     index   l_s   n_s   l_e   n_e
############################################################
  8.9374989462887050E-02 a         1     0     1     1     1
  3.3815809149539611E-01 a         2     0     1     1     2
 -1.0607634443307250E-01 a         3     0     1     1     3
  3.3406236964176572E-01 a         4     0     1     1     4
 -4.5412740348284952E-01 a         5     0     1     1     5
 -2.6900617850432912E-01 a         6     0     1     1     6
  8.3008694458220102E-03 a         7     0     1     1     7
 -3.0087843134476134E-03 a         8     0     1     1     8
  8.2257034182412300E-02 a         9     0     1     1     9
 -1.2691713247083750E-01 a        10     0     1     1    10
  6.3674051164915690E-01 a        11     0     1     1    11
  1.0675350276791820E-02 a        12     0     1     1    12
  3.3032141941308185E-01 a        13     0     1     1    13
 -5.5831915000474852E-02 a        14     0     1     1    14
 -7.1438366417525878E-02 a        15     0     1     1    15
 -1.1943001099441988E-01 a        16     0     1     1    16
 -1.6438405943457343E-01 a        17     0     1     1    17
  4.0436166278133057E-01 a        18     0     1     1    18
  1.5316616222752117E-02 a        19     0     1     1    19
 -3.2545047174439184E-01 a        20     0     1     1    20
  6.5018976170117260E-02 a        21     0     2     1     1
  2.7095428666817317E-01 a        22     0     2     1     2
  1.6656970921219655E-01 a        23     0     2     1     3
  1.6336046116669603E-01 a        24     0     2     1     4
 -5.2038078968015311E-01 a        25     0     2     1     5
  1.7030260325117272E-01 a        26     0     2     1     6
 -2.4897612827723833E-02 a        27     0     2     1     7
 -8.2793965713812145E-02 a        28     0     2     1     8
  2.7201814616293446E-01 a        29     0     2     1     9
 -1.7656818630578910E-01 a        30     0     2     1    10
  2.3483165566714118E-01 a        31     0     2     1    11
  8.2994032020786271E-02 a        32     0     2     1    12
 -8.5459600899176202E-02 a        33     0     2     1    13
 -3.1669783048178596E-01 a        34     0     2     1    14
 -3.0167847860287835E-02 a        35     0     2     1    15
 -2.4153713348550288E-01 a        36     0     2     1    16
 -2.2396558618769644E-01 a        37     0     2     1    17
  5.4892217509224524E-02 a        38     0     2     1    18
  2.7997433866670685E-01 a        39     0     2     1    19
 -4.2457818794011332E-01 a        40     0     2     1    20
 -9.2489778765164898E-02 a        41     0     3     1     1
 -1.2514480842881487E-01 a        42     0     3     1     2
  2.0458542137748706E-01 a        43     0     3     1     3
 -2.4027189650756695E-01 a        44     0     3     1     4
  4.3814171220037756E-01 a        45     0     3     1     5
 -3.0164064432137622E-01 a        46     0     3     1     6
  1.0542450954036674E-01 a        47     0     3     1     7
 -2.2109905832938073E-01 a        48     0     3     1     8
 -2.6523398096985346E-01 a        49     0     3     1     9
  3.4771985188756273E-02 a        50     0     3     1    10
 -4.1493651234547380E-01 a        51     0     3     1    11
 -9.7921375467978980E-02 a        52     0     3     1    12
 -1.3443894734438884E-02 a        53     0     3     1    13
  1.8023499786043989E-01 a        54     0     3     1    14
  1.0543016732759675E-02 a        55     0     3     1    15
  1.9717090930541512E-01 a        56     0     3     1    16
  2.2275998114301923E-01 a        57     0     3     1    17
 -2.6693313899780741E-01 a        58     0     3     1    18
  1.0849222016886514E-01 a        59     0     3     1    19
  1.6673097173947640E-01 a        60     0     3     1    20
  2.0892210560620011E-01 a        61     0     4     1     1
  4.6159810820757943E-02 a        62     0     4     1     2
 -4.2345125377544354E-02 a        63     0     4     1     3
 -1.8888520076603110E-01 a        64     0     4     1     4
  1.6512532962004367E-01 a        65     0     4     1     5
 -3.2620207963850062E-01 a        66     0     4     1     6
 -2.3915975793613120E-01 a        67     0     4     1     7
 -2.7053822832650332E-01 a        68     0     4     1     8
 -8.9564625423610877E-02 a        69     0     4     1     9
 -4.9267423829931600E-02 a        70     0     4     1    10
 -8.1421324170502588E-02 a        71     0     4     1    11
  1.9406777086413982E-01 a        72     0     4     1    12
  3.0666796898315041E-01 a        73     0     4     1    13
  3.6125467152573899E-02 a        74     0     4     1    14
  2.2819058239572945E-01 a        75     0     4     1    15
 -3.4801617249314337E-01 a        76     0     4     1    16
  5.5650602004950006E-02 a        77     0     4     1    17
 -1.3839753580317132E-01 a        78     0     4     1    18
  1.2425368176032603E-01 a        79     0     4     1    19
  3.0165178933939552E-01 a        80     0     4     1    20
 -3.1468648988667869E-01 a        81     0     5     1     1
 -3.7654692209816029E-02 a        82     0     5     1     2
 -1.1589408888104316E-01 a        83     0     5     1     3
 -6.4356110890906737E-01 a        84     0     5     1     4
 -4.3848049642462299E-02 a        85     0     5     1     5
  6.2796948374034589E-01 a        86     0     5     1     6
  2.1075142414354681E-01 a        87     0     5     1     7
  6.7461535712543175E-01 a        88     0     5     1     8
 -4.4447333110780202E-01 a        89     0     5     1     9
  1.1990124549187263E-01 a        90     0     5     1    10
  3.6069830367033473E-01 a        91     0     5     1    11
  2.0773882813232983E-01 a        92     0     5     1    12
 -4.6135304455815185E-01 a        93     0     5     1    13
 -7.7363977600747496E-03 a        94     0     5     1    14
  2.8516738410911996E-01 a        95     0     5     1    15
  5.6550079493532646E-01 a        96     0     5     1    16
 -2.6988257550156369E-01 a        97     0     5     1    17
 -5.8982827092313476E-03 a        98     0     5     1    18
  4.0590414292449334E-01 a        99     0     5     1    19
 -2.7781425209825594E-01 a       100     0     5     1    20
  2.0454435149398098E-02 a       101     0     6     1     1
  7.5058783952701644E-03 a       102     0     6     1     2
  4.7454320056586807E-01 a       103     0     6     1     3
 -8.3284006611371170E-03 a       104     0     6     1     4
  2.6775756496962899E-01 a       105     0     6     1     5
  1.1722410577530766E-01 a       106     0     6     1     6
  7.0884818495566992E-02 a       107     0     6     1     7
 -1.1096919852089686E-01 a       108     0     6     1     8
 -2.6942666378329200E-01 a       109     0     6     1     9
 -5.6904426055569265E-02 a       110     0     6     1    10
 -1.6089933905437184E-01 a       111     0     6     1    11
 -6.7753699120388774E-03 a       112     0     6     1    12
  1.2247438811391377E-01 a       113     0     6     1    13
 -4.1213981141047802E-02 a       114     0     6     1    14
  4.7391045141646083E-02 a       115     0     6     1    15
  1.4939258267734692E-01 a       116     0     6     1    16
  1.5013456356754087E-01 a       117     0     6     1    17
  1.7136437340143237E-02 a       118     0     6     1    18
  1.2644695654991668E-02 a       119     0     6     1    19
 -1.7269523834352171E-01 a       120     0     6     1    20
 -9.9239068904727985E-04 a       121     0     7     1     1
 -1.8072304426775171E-01 a       122     0     7     1     2
  8.0183885370787716E-02 a       123     0     7     1     3
 -1.5530397984428521E-01 a       124     0     7     1     4
  1.1460253240856395E-01 a       125     0     7     1     5
  6.8153814835660423E-02 a       126     0     7     1     6
 -1.1662376294137232E-02 a       127     0     7     1     7
 -2.7459822515720059E-02 a       128     0     7     1     8
  1.5501672424125332E-01 a       129     0     7     1     9
 -1.9098430069799374E-01 a       130     0     7     1    10
  2.7897192515558911E-01 a       131     0     7     1    11
 -2.4324401586439348E-01 a       132     0     7     1    12
  8.9779496046014956E-02 a       133     0     7     1    13
 -3.4880343885674507E-02 a       134     0     7     1    14
 -1.0945494866439363E-01 a       135     0     7     1    15
  4.1455687013014601E-02 a       136     0     7     1    16
 -1.0379037880463048E-01 a       137     0     7     1    17
  5.3008861314141162E-02 a       138     0     7     1    18
  1.7680567703476263E-01 a       139     0     7     1    19
 -8.2894068906501320E-02 a       140     0     7     1    20
  5.0066728579234519E-02 a       141     0     8     1     1
 -1.9503846630543022E-02 a       142     0     8     1     2
 -1.1583612959613457E-01 a       143     0     8     1     3
 -3.1098268456715056E-01 a       144     0     8     1     4
  1.1653444491611405E-01 a       145     0     8     1     5
  3.3957053487222832E-01 a       146     0     8     1     6
  1.6648204495821948E-03 a       147     0     8     1     7
 -1.1274173913380141E-01 a       148     0     8     1     8
 -5.8615693177502676E-02 a       149     0     8     1     9
 -7.6253008736119551E-02 a       150     0     8     1    10
 -2.4551072539476662E-01 a       151     0     8     1    11
  1.3511762300480051E-01 a       152     0     8     1    12
  2.0606379008976122E-01 a       153     0     8     1    13
  8.2435410799090988E-02 a       154     0     8     1    14
 -6.2725611543994308E-02 a       155     0     8     1    15
  5.3308605463942352E-03 a       156     0     8     1    16
  6.6153647341534477E-02 a       157     0     8     1    17
  1.0175658622400244E-01 a       158     0     8     1    18
  2.7833725556774058E-01 a       159     0     8     1    19
  3.0438254152047078E-01 a       160     0     8     1    20
 -6.8284838177763967E-03 a       161     0     9     1     1
 -2.6032604513841912E-01 a       162     0     9     1     2
 -8.1252925471568441E-02 a       163     0     9     1     3
  7.9117583455601492E-02 a       164     0     9     1     4
 -2.8651192922490093E-01 a       165     0     9     1     5
  6.0874220022206840E-02 a       166     0     9     1     6
 -1.5810276489672706E-01 a       167     0     9     1     7
 -2.5941855369740103E-02 a       168     0     9     1     8
 -2.6308802400012871E-01 a       169     0     9     1     9
  9.3316169013670704E-03 a       170     0     9     1    10
  2.6792356899298219E-02 a       171     0     9     1    11
 -2.9410180078537801E-01 a       172     0     9     1    12
 -9.9691311427743887E-03 a       173     0     9     1    13
  1.3045765225280537E-01 a       174     0     9     1    14
 -2.5836352907409083E-01 a       175     0     9     1    15
  2.2740108848356266E-02 a       176     0     9     1    16
  2.0779805917919147E-01 a       177     0     9     1    17
  4.8242691745752603E-02 a       178     0     9     1    18
 -7.8884842729610771E-02 a       179     0     9     1    19
  4.8624626379757362E-02 a       180     0     9     1    20
 -1.7726189541437849E-02 a       181     0    10     1     1
 -4.0564632570550272E-03 a       182     0    10     1     2
 -9.6177172208047654E-02 a       183     0    10     1     3
 -6.9782020050768959E-02 a       184     0    10     1     4
  1.5936086882047898E-01 a       185     0    10     1     5
 -5.8207820005270874E-02 a       186     0    10     1     6
  7.7754072772527388E-03 a       187     0    10     1     7
 -3.6144363407875045E-02 a       188     0    10     1     8
 -1.6438152787558141E-01 a       189     0    10     1     9
 -1.9662734928133288E-01 a       190     0    10     1    10
  6.7794972392793057E-02 a       191     0    10     1    11
 -3.2697926267657718E-02 a       192     0    10     1    12
  3.7844284579557741E-02 a       193     0    10     1    13
  1.4151218467369919E-01 a       194     0    10     1    14
 -1.2873342522262965E-01 a       195     0    10     1    15
 -5.2292304932303031E-02 a       196     0    10     1    16
 -6.0928048178446687E-02 a       197     0    10     1    17
 -2.0594619751895313E-01 a       198     0    10     1    18
  1.6238320203366499E-01 a       199     0    10     1    19
 -5.2422881961300780E-02 a       200     0    10     1    20
  7.6600408956318353E-02 a       201     0    11     1     1
  2.3430681633831937E-01 a       202     0    11     1     2
  2.7478452945176018E-01 a       203     0    11     1     3
 -7.4151808807794053E-02 a       204     0    11     1     4
  1.2294994439903482E-01 a       205     0    11     1     5
  7.7670628845104811E-02 a       206     0    11     1     6
  1.1070564944532933E-01 a       207     0    11     1     7
 -7.6487610778361081E-02 a       208     0    11     1     8
 -3.7048522203830848E-03 a       209     0    11     1     9
 -2.3710077120091913E-01 a       210     0    11     1    10
  1.2952065469404009E-02 a       211     0    11     1    11
 -3.2461780498867565E-01 a       212     0    11     1    12
  2.2279081100352341E-01 a       213     0    11     1    13
  1.0592799304985982E-01 a       214     0    11     1    14
 -2.3730941791315165E-02 a       215     0    11     1    15
  2.8133711565002018E-01 a       216     0    11     1    16
  3.3701116232300349E-01 a       217     0    11     1    17
  3.2914498022673278E-01 a       218     0    11     1    18
  3.1029888501593056E-01 a       219     0    11     1    19
  2.0726357873669796E-01 a       220     0    11     1    20
 -1.0278471521718363E-01 a       221     0    12     1     1
  2.1584684226719641E-01 a       222     0    12     1     2
  2.9273827991319717E-01 a       223     0    12     1     3
  2.3783171036950451E-01 a       224     0    12     1     4
  2.3311390651517802E-01 a       225     0    12     1     5
  1.6916351368850338E-01 a       226     0    12     1     6
  1.3141467596162262E-01 a       227     0    12     1     7
  1.7257118549681864E-02 a       228     0    12     1     8
 -1.3891555966056993E-01 a       229     0    12     1     9
 -3.9598483693971488E-02 a       230     0    12     1    10
  7.8911061320125278E-02 a       231     0    12     1    11
 -3.1391081957580655E-02 a       232     0    12     1    12
  1.6953643570973667E-01 a       233     0    12     1    13
 -8.6755822620301890E-02 a       234     0    12     1    14
 -1.1734691598680001E-01 a       235     0    12     1    15
  2.7887909447093456E-01 a       236     0    12     1    16
  8.3412942216362473E-02 a       237     0    12     1    17
 -9.4572759561496582E-04 a       238     0    12     1    18
  2.5882325666843153E-01 a       239     0    12     1    19
 -1.4024340008681005E-01 a       240     0    12     1    20
 -5.4332268331870763E-02 a       241     0    13     1     1
 -1.1063583545466418E-01 a       242     0    13     1     2
  1.2844079158740204E-01 a       243     0    13     1     3
 -1.3837804697360351E-01 a       244     0    13     1     4
 -8.2823287398235634E-02 a       245     0    13     1     5
 -6.7814447114936602E-02 a       246     0    13     1     6
  1.9438962906140578E-01 a       247     0    13     1     7
 -6.7477817402756227E-02 a       248     0    13     1     8
 -7.1396810199718289E-02 a       249     0    13     1     9
 -1.2494405273835628E-01 a       250     0    13     1    10
  2.0723306135189658E-02 a       251     0    13     1    11
 -2.3091480277382009E-01 a       252     0    13     1    12
 -1.5146070164850725E-01 a       253     0    13     1    13
 -2.5508979467503926E-02 a       254     0    13     1    14
 -1.0239603333008059E-02 a       255     0    13     1    15
  1.7315594871674778E-01 a       256     0    13     1    16
 -1.4625707338842475E-01 a       257     0    13     1    17
 -1.7106377794653863E-01 a       258     0    13     1    18
  1.7024125620803693E-01 a       259     0    13     1    19
  1.9281763446553798E-01 a       260     0    13     1    20
 -9.7736877296885280E-02 a       261     0    14     1     1
  1.7098039347510194E-01 a       262     0    14     1     2
  4.1357637908297391E-02 a       263     0    14     1     3
  3.6689277980125612E-02 a       264     0    14     1     4
  1.7573210010319437E-01 a       265     0    14     1     5
  3.9778133136016236E-01 a       266     0    14     1     6
 -3.2686838142252379E-02 a       267     0    14     1     7
  2.4155287279598817E-01 a       268     0    14     1     8
  2.6483671422832773E-02 a       269     0    14     1     9
 -1.4649063299451356E-01 a       270     0    14     1    10
 -1.4238189189151962E-01 a       271     0    14     1    11
 -4.1150751106596307E-02 a       272     0    14     1    12
  1.6765562596094924E-01 a       273     0    14     1    13
 -2.0366002731036206E-01 a       274     0    14     1    14
  9.4275177506973812E-02 a       275     0    14     1    15
  3.1623390436348014E-01 a       276     0    14     1    16
 -1.9661348392505082E-01 a       277     0    14     1    17
  7.8841176175757949E-02 a       278     0    14     1    18
  1.5775052290455419E-01 a       279     0    14     1    19
  1.5051071035213121E-01 a       280     0    14     1    20
 -2.3971469982118739E-02 a       281     0    15     1     1
 -6.4503907309745798E-02 a       282     0    15     1     2
  1.9049044687878117E-01 a       283     0    15     1     3
 -1.5722998432331628E-01 a       284     0    15     1     4
  2.9072117870636495E-02 a       285     0    15     1     5
 -1.8440671233700051E-01 a       286     0    15     1     6
  1.1217982306137153E-01 a       287     0    15     1     7
 -1.0567346402891037E-01 a       288     0    15     1     8
 -2.5120031512720259E-01 a       289     0    15     1     9
  5.1364423992200967E-02 a       290     0    15     1    10
  6.6162232105897126E-02 a       291     0    15     1    11
 -9.7926312811527777E-02 a       292     0    15     1    12
  1.4747228413274616E-01 a       293     0    15     1    13
  2.9520798869700776E-01 a       294     0    15     1    14
  3.9916444282146321E-03 a       295     0    15     1    15
 -6.5253402498639743E-02 a       296     0    15     1    16
 -9.8565892505085240E-02 a       297     0    15     1    17
 -3.0992074721075896E-01 a       298     0    15     1    18
  1.4253888647941690E-01 a       299     0    15     1    19
  5.6624731316187844E-02 a       300     0    15     1    20
  6.9558501235066517E-02 a       301     0    16     1     1
 -5.0583508780003161E-01 a       302     0    16     1     2
  1.0975279159833667E-01 a       303     0    16     1     3
 -2.8137674456371214E-01 a       304     0    16     1     4
  5.2555397744868233E-02 a       305     0    16     1     5
  1.0197264626282211E-01 a       306     0    16     1     6
  4.1201480764781931E-02 a       307     0    16     1     7
  1.1700827101825391E-01 a       308     0    16     1     8
  1.4136984491365864E-01 a       309     0    16     1     9
  6.5075384271186074E-02 a       310     0    16     1    10
  9.8567306716563340E-03 a       311     0    16     1    11
  1.9510819146003746E-02 a       312     0    16     1    12
  4.0034543072020701E-02 a       313     0    16     1    13
  2.6735876447299672E-01 a       314     0    16     1    14
 -2.5982949224268598E-02 a       315     0    16     1    15
 -1.4694606331624468E-01 a       316     0    16     1    16
  9.2040979295597292E-02 a       317     0    16     1    17
 -8.3849118687690169E-02 a       318     0    16     1    18
  3.3206105508839213E-02 a       319     0    16     1    19
  5.1631440424460266E-02 a       320     0    16     1    20
 -3.0324593880929659E-02 a       321     0    17     1     1
 -9.9531173307250715E-03 a       322     0    17     1     2
  8.9554812174099885E-02 a       323     0    17     1     3
  3.4748381175935877E-01 a       324     0    17     1     4
 -1.0320716967218098E-02 a       325     0    17     1     5
  1.2239461103326960E-01 a       326     0    17     1     6
 -1.3429478796238672E-01 a       327     0    17     1     7
  1.8211637087915598E-02 a       328     0    17     1     8
 -2.3272438428847370E-01 a       329     0    17     1     9
 -2.4251116971465272E-02 a       330     0    17     1    10
  2.4491820713882183E-02 a       331     0    17     1    11
 -1.3294758476377019E-01 a       332     0    17     1    12
  3.4331198417492166E-02 a       333     0    17     1    13
  3.7379425561574670E-02 a       334     0    17     1    14
 -6.7812916509661942E-03 a       335     0    17     1    15
  2.9773549397568549E-01 a       336     0    17     1    16
  7.2751559767994231E-02 a       337     0    17     1    17
 -1.9856839642720264E-01 a       338     0    17     1    18
  3.7328043214077367E-01 a       339     0    17     1    19
  1.6235520395872174E-01 a       340     0    17     1    20
 -4.3018494744173255E-02 a       341     0    18     1     1
  6.8337779752450284E-02 a       342     0    18     1     2
  4.3656152931595066E-01 a       343     0    18     1     3
  4.5159008792347174E-02 a       344     0    18     1     4
  3.2814255956417426E-01 a       345     0    18     1     5
 -1.9072624415683952E-02 a       346     0    18     1     6
 -1.2447720831049269E-01 a       347     0    18     1     7
 -9.8322137106356844E-02 a       348     0    18     1     8
  1.1507932668211406E-01 a       349     0    18     1     9
  1.9000230520068187E-01 a       350     0    18     1    10
  1.2332882145482484E-01 a       351     0    18     1    11
  1.1371213955882133E-01 a       352     0    18     1    12
 -1.3090157811475067E-01 a       353     0    18     1    13
  1.7690748287341285E-01 a       354     0    18     1    14
 -7.1213926856273146E-02 a       355     0    18     1    15
  9.0362393933682006E-02 a       356     0    18     1    16
 -1.5326936001875094E-01 a       357     0    18     1    17
  5.9882686689048580E-02 a       358     0    18     1    18
  6.8382321893325562E-02 a       359     0    18     1    19
  1.5511565092761176E-01 a       360     0    18     1    20
 -9.6048811206387419E-02 a       361     0    19     1     1
  1.2761738301887901E-03 a       362     0    19     1     2
  8.0093579007437118E-02 a       363     0    19     1     3
 -8.7300070885692950E-04 a       364     0    19     1     4
  1.4912815350236247E-01 a       365     0    19     1     5
  1.2340704871785410E-01 a       366     0    19     1     6
  9.6140171461763066E-04 a       367     0    19     1     7
 -1.4893595264394763E-01 a       368     0    19     1     8
 -5.0654460514991395E-02 a       369     0    19     1     9
 -2.5635976205349842E-01 a       370     0    19     1    10
  6.6015718931221545E-02 a       371     0    19     1    11
 -2.1361012326112705E-01 a       372     0    19     1    12
 -1.7946268457417691E-01 a       373     0    19     1    13
  1.8348714020337223E-01 a       374     0    19     1    14
  1.0966371916921604E-01 a       375     0    19     1    15
 -1.3845428747275623E-01 a       376     0    19     1    16
 -7.6799320817140096E-02 a       377     0    19     1    17
 -2.7523805848245712E-02 a       378     0    19     1    18
 -1.2732986835176321E-01 a       379     0    19     1    19
 -1.2074194764566974E-01 a       380     0    19     1    20
  1.1740716726659624E-01 a       381     0    20     1     1
  2.0261057141407757E-01 a       382     0    20     1     2
 -1.5458755926604803E-02 a       383     0    20     1     3
  9.9078742458055771E-02 a       384     0    20     1     4
  2.5745943328780264E-02 a       385     0    20     1     5
  1.1530972380680347E-01 a       386     0    20     1     6
  7.6581172618739021E-02 a       387     0    20     1     7
 -1.1692736126463389E-01 a       388     0    20     1     8
  1.8986527724056565E-01 a       389     0    20     1     9
 -8.1515398475912867E-02 a       390     0    20     1    10
 -9.4645381186590383E-02 a       391     0    20     1    11
 -1.4867358521991769E-01 a       392     0    20     1    12
  2.2474094439826833E-01 a       393     0    20     1    13
 -4.6344649693733871E-02 a       394     0    20     1    14
  1.9512425277527290E-01 a       395     0    20     1    15
  2.8239873955629091E-01 a       396     0    20     1    16
  1.6400444354455512E-01 a       397     0    20     1    17
  6.8183591304289665E-02 a       398     0    20     1    18
 -6.2455989834745484E-02 a       399     0    20     1    19
  9.1094575347493725E-02 a       400     0    20     1    20
 -7.2691668163284276E-02 a       401     0    21     1     1
 -5.5482390018664385E-01 a       402     0    21     1     2
 -2.9065823430720970E-02 a       403     0    21     1     3
 -1.9204784914689682E-01 a       404     0    21     1     4
 -2.2140084476530539E-01 a       405     0    21     1     5
  2.1237555427579813E-01 a       406     0    21     1     6
  2.2685776550202364E-02 a       407     0    21     1     7
  7.8482536497875427E-02 a       408     0    21     1     8
 -1.3228391729022798E-01 a       409     0    21     1     9
 -9.9402753463959034E-02 a       410     0    21     1    10
 -2.9036262026999896E-02 a       411     0    21     1    11
  3.2885803495736587E-01 a       412     0    21     1    12
 -1.9837066346155088E-01 a       413     0    21     1    13
  1.8221820565894012E-02 a       414     0    21     1    14
 -1.5141954625226808E-01 a       415     0    21     1    15
 -2.0500278238839459E-01 a       416     0    21     1    16
 -1.9183701264059930E-01 a       417     0    21     1    17
 -8.5023846706687889E-02 a       418     0    21     1    18
  1.5913514788843797E-01 a       419     0    21     1    19
  1.9308156876185850E-01 a       420     0    21     1    20
 -1.8717924563702143E-01 a       421     0    22     1     1
 -1.1669703101641473E-02 a       422     0    22     1     2
  8.8071557077441451E-02 a       423     0    22     1     3
 -2.1674486388674204E-02 a       424     0    22     1     4
  1.6121159991427561E-01 a       425     0    22     1     5
  1.5794562816611374E-01 a       426     0    22     1     6
 -9.5043881873157196E-02 a       427     0    22     1     7
 -2.3750135027752350E-01 a       428     0    22     1     8
  7.0691817203523494E-02 a       429     0    22     1     9
 -1.3560297309909564E-01 a       430     0    22     1    10
 -6.9009790547481992E-02 a       431     0    22     1    11
  1.5492401196381211E-01 a       432     0    22     1    12
 -1.1266461138354326E-01 a       433     0    22     1    13
  1.2087776998553010E-01 a       434     0    22     1    14
  4.9667674833290994E-02 a       435     0    22     1    15
  2.4364288151386074E-01 a       436     0    22     1    16
 -1.5989977582839841E-02 a       437     0    22     1    17
  3.0815668364995635E-01 a       438     0    22     1    18
  3.1552192380743810E-01 a       439     0    22     1    19
  2.8254264821476971E-01 a       440     0    22     1    20
 -5.2929187028176262E-02 a       441     0    23     1     1
 -1.1454768195626883E-02 a       442     0    23     1     2
  4.2557055371215256E-02 a       443     0    23     1     3
 -7.7736709599882919E-03 a       444     0    23     1     4
  5.4298743201949662E-02 a       445     0    23     1     5
 -6.4629296707808773E-02 a       446     0    23     1     6
 -7.8554768916375056E-02 a       447     0    23     1     7
 -2.6105963940976090E-01 a       448     0    23     1     8
 -1.1802222510200717E-01 a       449     0    23     1     9
 -1.8330392694083919E-01 a       450     0    23     1    10
 -2.7832392250954674E-01 a       451     0    23     1    11
 -1.4521625247714210E-02 a       452     0    23     1    12
  1.3782463948189105E-01 a       453     0    23     1    13
 -1.7399134928400012E-01 a       454     0    23     1    14
 -4.7496583215710576E-02 a       455     0    23     1    15
 -2.7361501390630813E-04 a       456     0    23     1    16
 -1.3292356694033644E-01 a       457     0    23     1    17
  1.3372572461958179E-01 a       458     0    23     1    18
  1.6692184186207926E-01 a       459     0    23     1    19
  3.4734928753337141E-02 a       460     0    23     1    20
  2.1896389009321765E-01 a       461     0    24     1     1
 -1.4574095518277166E-01 a       462     0    24     1     2
 -1.4144159463928471E-01 a       463     0    24     1     3
  6.2636587238559679E-02 a       464     0    24     1     4
 -7.7635121037053820E-02 a       465     0    24     1     5
  1.7135838304642528E-01 a       466     0    24     1     6
 -2.0925385675735757E-02 a       467     0    24     1     7
  1.8928490089211480E-01 a       468     0    24     1     8
  5.2132541055492823E-02 a       469     0    24     1     9
  4.6402891952629019E-02 a       470     0    24     1    10
  2.3066449439726661E-01 a       471     0    24     1    11
 -1.5534828905113668E-01 a       472     0    24     1    12
  1.3929445134375756E-01 a       473     0    24     1    13
  1.3940551873382334E-01 a       474     0    24     1    14
  7.2781560647983426E-02 a       475     0    24     1    15
  1.6307204023443297E-01 a       476     0    24     1    16
  4.9271022090843455E-02 a       477     0    24     1    17
  1.1636474902936805E-01 a       478     0    24     1    18
  2.2228157567450685E-01 a       479     0    24     1    19
  1.4533256920524407E-01 a       480     0    24     1    20
 -2.1856665654801610E-01 a       481     0    25     1     1
  8.4762115343783750E-02 a       482     0    25     1     2
  2.2756285556892261E-01 a       483     0    25     1     3
  5.9265099876498924E-02 a       484     0    25     1     4
 -3.1110509847869731E-02 a       485     0    25     1     5
 -8.6431450549264974E-02 a       486     0    25     1     6
 -1.2507179561287901E-01 a       487     0    25     1     7
 -1.9371221029755841E-02 a       488     0    25     1     8
 -1.4638359558067954E-01 a       489     0    25     1     9
 -3.8644807167345432E-02 a       490     0    25     1    10
 -1.4085284730225205E-02 a       491     0    25     1    11
 -1.6049540502474414E-02 a       492     0    25     1    12
 -1.2767088635067014E-01 a       493     0    25     1    13
  3.9300132060373971E-02 a       494     0    25     1    14
 -1.0588728289439125E-01 a       495     0    25     1    15
 -1.5919359361057994E-01 a       496     0    25     1    16
 -1.9643207166717813E-01 a       497     0    25     1    17
 -1.4216342421772613E-01 a       498     0    25     1    18
  1.2650484262380418E-01 a       499     0    25     1    19
 -7.0255596012066875E-03 a       500     0    25     1    20
  1.8641617413837996E-01 a       501     0    26     1     1
  1.6815336899485381E-01 a       502     0    26     1     2
  1.1689606306340884E-01 a       503     0    26     1     3
  1.2993809757370096E-03 a       504     0    26     1     4
 -1.6900128535069926E-02 a       505     0    26     1     5
  5.6710415394341143E-02 a       506     0    26     1     6
  1.0322246417571700E-01 a       507     0    26     1     7
  2.4331295097153576E-02 a       508     0    26     1     8
  6.8712985767084400E-02 a       509     0    26     1     9
 -2.3197813267083076E-01 a       510     0    26     1    10
  1.7513452513326552E-01 a       511     0    26     1    11
 -1.0071526142782283E-01 a       512     0    26     1    12
  7.0284411490453239E-02 a       513     0    26     1    13
  8.0132279585877469E-03 a       514     0    26     1    14
 -8.3792255512270694E-02 a       515     0    26     1    15
  6.8052045150883242E-02 a       516     0    26     1    16
 -7.1560680523386586E-02 a       517     0    26     1    17
  2.1615011544080953E-01 a       518     0    26     1    18
  4.2801292625151879E-02 a       519     0    26     1    19
  1.0862253676978580E-01 a       520     0    26     1    20
 -1.2021175900501165E-01 a       521     0    27     1     1
 -1.3901724633663784E-01 a       522     0    27     1     2
 -2.8693763889091409E-02 a       523     0    27     1     3
  1.8454906804791314E-02 a       524     0    27     1     4
 -9.1548795945598435E-02 a       525     0    27     1     5
 -3.4056378480149418E-02 a       526     0    27     1     6
 -8.5282077515548615E-02 a       527     0    27     1     7
  9.9417013020713749E-02 a       528     0    27     1     8
 -1.1826442888246298E-01 a       529     0    27     1     9
 -3.1593487310816210E-01 a       530     0    27     1    10
 -7.5092766025864968E-02 a       531     0    27     1    11
 -2.4413119282050733E-01 a       532     0    27     1    12
  1.1665207211561448E-02 a       533     0    27     1    13
 -6.6145438408876669E-02 a       534     0    27     1    14
 -4.1522057327199810E-02 a       535     0    27     1    15
 -1.9357443455552512E-01 a       536     0    27     1    16
  8.7936931674306940E-02 a       537     0    27     1    17
 -1.3921952055812412E-01 a       538     0    27     1    18
 -9.6751368924839782E-03 a       539     0    27     1    19
  1.9447213905355262E-01 a       540     0    27     1    20
 -1.7473309457740788E-01 a       541     0    28     1     1
 -5.9952380363577272E-02 a       542     0    28     1     2
  9.4528495006420660E-02 a       543     0    28     1     3
  2.8764651799838378E-02 a       544     0    28     1     4
 -1.1279820366604217E-01 a       545     0    28     1     5
  2.2692807447651790E-02 a       546     0    28     1     6
 -9.7925539034884754E-02 a       547     0    28     1     7
 -1.4076472625142261E-01 a       548     0    28     1     8
  4.2495224418111932E-02 a       549     0    28     1     9
  1.6426957204609896E-01 a       550     0    28     1    10
  4.9550318016992431E-02 a       551     0    28     1    11
  1.4207048652596280E-01 a       552     0    28     1    12
 -5.6580978751687404E-02 a       553     0    28     1    13
  1.4691777633326693E-02 a       554     0    28     1    14
 -9.1320663843286271E-02 a       555     0    28     1    15
  6.7286191916778926E-02 a       556     0    28     1    16
 -3.7371913118602698E-03 a       557     0    28     1    17
  6.0190143652695094E-02 a       558     0    28     1    18
  5.5687872045981246E-02 a       559     0    28     1    19
 -5.6433018713739673E-02 a       560     0    28     1    20
  1.3011064454216845E-01 a       561     0    29     1     1
  2.8123373835070672E-02 a       562     0    29     1     2
  1.9196991804879646E-01 a       563     0    29     1     3
  3.1561476603036481E-01 a       564     0    29     1     4
  1.9555459918621745E-01 a       565     0    29     1     5
  2.9558053608284268E-01 a       566     0    29     1     6
 -1.2418144852642951E-01 a       567     0    29     1     7
  1.5473278620167472E-01 a       568     0    29     1     8
 -2.6202331166227871E-01 a       569     0    29     1     9
  9.1946804543907024E-02 a       570     0    29     1    10
 -1.7530041965413196E-01 a       571     0    29     1    11
 -2.6635586802668965E-01 a       572     0    29     1    12
  1.1606633685536810E-01 a       573     0    29     1    13
 -1.9784454889618985E-01 a       574     0    29     1    14
  2.4009070627197265E-01 a       575     0    29     1    15
  2.3414554427591569E-01 a       576     0    29     1    16
  9.1640406523755560E-02 a       577     0    29     1    17
 -1.4375503621348112E-01 a       578     0    29     1    18
  4.2434227642748851E-01 a       579     0    29     1    19
 -1.3872904176729298E-01 a       580     0    29     1    20
 -7.8501509233964886E-02 a       581     0    30     1     1
 -8.3407082456214296E-02 a       582     0    30     1     2
 -7.5649797132476271E-02 a       583     0    30     1     3
  2.6411286395043167E-02 a       584     0    30     1     4
  1.4079762412037930E-01 a       585     0    30     1     5
  4.4923445168072451E-02 a       586     0    30     1     6
 -7.9495335636679348E-02 a       587     0    30     1     7
  1.6259181272996232E-01 a       588     0    30     1     8
  6.3605850356630245E-02 a       589     0    30     1     9
 -7.6192312665499182E-02 a       590     0    30     1    10
 -9.3466506836880382E-03 a       591     0    30     1    11
 -1.3885810257485340E-01 a       592     0    30     1    12
 -8.7905358494814179E-02 a       593     0    30     1    13
 -5.5588458012952612E-02 a       594     0    30     1    14
 -1.2332205770163597E-01 a       595     0    30     1    15
 -1.2255334087419380E-01 a       596     0    30     1    16
  4.5418056359095840E-03 a       597     0    30     1    17
 -2.3215449703687283E-01 a       598     0    30     1    18
 -1.1705036021397698E-01 a       599     0    30     1    19
 -2.0522246811151001E-01 a       600     0    30     1    20
  1.1361423222621786E-02 a       601     0    31     1     1
  2.9266531023344555E-01 a       602     0    31     1     2
  4.8471318334541169E-01 a       603     0    31     1     3
  1.6126532351855594E-01 a       604     0    31     1     4
 -5.0316382052398398E-02 a       605     0    31     1     5
 -2.2874259749262996E-01 a       606     0    31     1     6
  3.9594285200453189E-01 a       607     0    31     1     7
 -1.2632935773724918E-01 a       608     0    31     1     8
 -5.3340337207974695E-02 a       609     0    31     1     9
  1.9274306146879114E-01 a       610     0    31     1    10
  1.9280320654172689E-01 a       611     0    31     1    11
 -5.8022097467378042E-01 a       612     0    31     1    12
  3.4877145403681054E-01 a       613     0    31     1    13
  6.5155485456041013E-03 a       614     0    31     1    14
  2.5875554696351055E-01 a       615     0    31     1    15
  1.0418877344343314E-01 a       616     0    31     1    16
  8.6876290102013726E-02 a       617     0    31     1    17
 -2.1699280715285477E-01 a       618     0    31     1    18
 -2.4873750358157395E-01 a       619     0    31     1    19
 -1.0321105426055151E-01 a       620     0    31     1    20
 -2.2955652231859475E-01 a       621     0    32     1     1
  3.5301350611629140E-01 a       622     0    32     1     2
  7.1455059982031659E-03 a       623     0    32     1     3
  1.0124516062587945E-01 a       624     0    32     1     4
  1.9648106339307178E-01 a       625     0    32     1     5
 -9.0449328770127055E-02 a       626     0    32     1     6
  1.9575188734239923E-01 a       627     0    32     1     7
 -1.6902601198936293E-01 a       628     0    32     1     8
  3.0490000398027895E-02 a       629     0    32     1     9
  4.1827101455003013E-02 a       630     0    32     1    10
  1.8323639066771427E-01 a       631     0    32     1    11
 -4.8986826904623984E-02 a       632     0    32     1    12
  9.7120137892608427E-02 a       633     0    32     1    13
  8.0098790724046173E-02 a       634     0    32     1    14
  2.8743130224425237E-02 a       635     0    32     1    15
 -6.2562872069451020E-02 a       636     0    32     1    16
  3.8460201467281796E-02 a       637     0    32     1    17
  7.4478226299103056E-02 a       638     0    32     1    18
  1.8286740825561459E-02 a       639     0    32     1    19
  1.6035241467411915E-01 a       640     0    32     1    20
 -1.5246447281397543E-01 a       641     0    33     1     1
 -1.4185273050881211E-01 a       642     0    33     1     2
 -3.1329357178685147E-01 a       643     0    33     1     3
 -1.4613049808001793E-01 a       644     0    33     1     4
 -1.5735964577750755E-01 a       645     0    33     1     5
  4.2758445092660462E-02 a       646     0    33     1     6
 -1.2224089075876036E-01 a       647     0    33     1     7
 -9.3960164136348653E-02 a       648     0    33     1     8
  1.2058639354590507E-01 a       649     0    33     1     9
  7.4902085304440855E-02 a       650     0    33     1    10
  3.5158602495001984E-01 a       651     0    33     1    11
  1.5466681888745612E-01 a       652     0    33     1    12
 -1.1664930284588280E-01 a       653     0    33     1    13
 -1.2787658851837591E-01 a       654     0    33     1    14
 -8.2699161625057527E-02 a       655     0    33     1    15
 -1.8234598893869369E-01 a       656     0    33     1    16
 -5.0493997726870070E-02 a       657     0    33     1    17
 -8.3770249131213323E-02 a       658     0    33     1    18
 -1.0810642348295785E-01 a       659     0    33     1    19
  4.1373850384354732E-01 a       660     0    33     1    20
 -4.4098537577383118E-01 a       661     0    34     1     1
 -1.4841260133264075E-01 a       662     0    34     1     2
 -9.8730867250287513E-02 a       663     0    34     1     3
 -9.2914191065289600E-02 a       664     0    34     1     4
 -3.4574797037787821E-03 a       665     0    34     1     5
  1.5890163908376220E-01 a       666     0    34     1     6
 -3.1719833877640838E-02 a       667     0    34     1     7
  7.1094674912648620E-02 a       668     0    34     1     8
  2.1432598085285356E-02 a       669     0    34     1     9
 -1.4887977830103352E-01 a       670     0    34     1    10
 -1.4441098520723897E-01 a       671     0    34     1    11
 -1.4187017872832858E-01 a       672     0    34     1    12
 -3.9305432387502315E-01 a       673     0    34     1    13
 -3.5434519772403571E-05 a       674     0    34     1    14
  6.6125441546725361E-01 a       675     0    34     1    15
  8.4030036268293251E-02 a       676     0    34     1    16
  6.4812736098135522E-03 a       677     0    34     1    17
  2.2410338150984081E-02 a       678     0    34     1    18
  4.2728547646639387E-01 a       679     0    34     1    19
  1.4545860818619991E-01 a       680     0    34     1    20
 -1.9371452894854935E-01 a       681     0    35     1     1
  7.8014071518352088E-02 a       682     0    35     1     2
  3.2736389935983412E-01 a       683     0    35     1     3
  7.4065698866860541E-02 a       684     0    35     1     4
  2.0707335933404467E-01 a       685     0    35     1     5
  7.2705980628002598E-02 a       686     0    35     1     6
  1.0094436797928032E-01 a       687     0    35     1     7
 -1.9104724252580729E-01 a       688     0    35     1     8
 -1.8632482146717622E-01 a       689     0    35     1     9
  1.4667512357701323E-01 a       690     0    35     1    10
  1.2906233841599604E-01 a       691     0    35     1    11
 -2.3894653289794254E-01 a       692     0    35     1    12
  4.1942320615595226E-02 a       693     0    35     1    13
 -1.5950074608859974E-02 a       694     0    35     1    14
  1.0526010880829656E-01 a       695     0    35     1    15
  2.1811024970563372E-01 a       696     0    35     1    16
 -1.3500448409396266E-03 a       697     0    35     1    17
 -2.5638801005934003E-01 a       698     0    35     1    18
  2.9729730276693350E-01 a       699     0    35     1    19
  6.3725269415939811E-02 a       700     0    35     1    20
  2.6241197413228756E-01 a       701     0    36     1     1
 -1.5865049992908936E-01 a       702     0    36     1     2
 -2.5231980251587227E-01 a       703     0    36     1     3
 -1.5902997779924333E-01 a       704     0    36     1     4
  2.2804438039816005E-01 a       705     0    36     1     5
  1.5333501969296245E-01 a       706     0    36     1     6
  2.4058441173475584E-02 a       707     0    36     1     7
 -8.8666564279521493E-02 a       708     0    36     1     8
  3.0821785618344377E-02 a       709     0    36     1     9
 -7.1929650779081936E-02 a       710     0    36     1    10
 -2.0998676500861788E-01 a       711     0    36     1    11
  4.8557777868677265E-02 a       712     0    36     1    12
 -1.4925248194386370E-01 a       713     0    36     1    13
 -1.2435704826078139E-01 a       714     0    36     1    14
  1.5281536039534688E-01 a       715     0    36     1    15
  1.1168392218329111E-01 a       716     0    36     1    16
 -2.8343639944782306E-01 a       717     0    36     1    17
  2.4862495957522279E-01 a       718     0    36     1    18
  8.4524561298621764E-02 a       719     0    36     1    19
 -3.2036758864433723E-01 a       720     0    36     1    20
 -4.3395756907019904E-02 a       721     0    37     1     1
  2.0388381085845028E-01 a       722     0    37     1     2
  1.8471864887857650E-01 a       723     0    37     1     3
  2.4925634369498023E-01 a       724     0    37     1     4
 -4.8866976164570551E-02 a       725     0    37     1     5
 -1.7990944615104870E-01 a       726     0    37     1     6
  2.9057313723554118E-01 a       727     0    37     1     7
  2.2289392015226880E-02 a       728     0    37     1     8
  1.1714550115621429E-01 a       729     0    37     1     9
  2.0885057151398315E-01 a       730     0    37     1    10
 -7.0255417569817777E-02 a       731     0    37     1    11
 -7.1851285575374553E-03 a       732     0    37     1    12
  1.7364882424624245E-01 a       733     0    37     1    13
  2.0689489223843249E-01 a       734     0    37     1    14
  3.3896019595328114E-01 a       735     0    37     1    15
  2.3220674486428886E-01 a       736     0    37     1    16
 -9.8926470995710072E-02 a       737     0    37     1    17
 -2.4389286199021293E-01 a       738     0    37     1    18
  2.1834091437110503E-01 a       739     0    37     1    19
  6.2469347743913328E-02 a       740     0    37     1    20
  1.6919462528848794E-02 a       741     0    38     1     1
  6.4944603631869977E-02 a       742     0    38     1     2
  4.9940928953802151E-02 a       743     0    38     1     3
 -2.2979065175217997E-01 a       744     0    38     1     4
  6.0415644806404808E-02 a       745     0    38     1     5
 -1.6827956662843344E-01 a       746     0    38     1     6
  2.2287741354988615E-02 a       747     0    38     1     7
 -3.1496698404121531E-02 a       748     0    38     1     8
 -2.4463895460513502E-02 a       749     0    38     1     9
 -1.0888915343317704E-01 a       750     0    38     1    10
 -1.9582554146990888E-01 a       751     0    38     1    11
  1.2295668861480614E-01 a       752     0    38     1    12
 -4.0337060791678855E-02 a       753     0    38     1    13
 -1.1575873114656698E-01 a       754     0    38     1    14
  2.2285596397143378E-02 a       755     0    38     1    15
  6.4791848859255832E-02 a       756     0    38     1    16
  1.5988555594052146E-02 a       757     0    38     1    17
  7.2352856713370939E-02 a       758     0    38     1    18
  1.7384008654033192E-02 a       759     0    38     1    19
 -3.4402982441149456E-02 a       760     0    38     1    20
 -1.2624052636813779E-01 a       761     0    39     1     1
 -1.5253245018658798E-01 a       762     0    39     1     2
  3.6491866970822795E-02 a       763     0    39     1     3
  9.9168926646474392E-02 a       764     0    39     1     4
  4.8712896407088188E-02 a       765     0    39     1     5
 -2.9617515955254782E-02 a       766     0    39     1     6
 -4.2404824500805023E-02 a       767     0    39     1     7
  1.3642085822744709E-01 a       768     0    39     1     8
  3.3494159751939721E-02 a       769     0    39     1     9
 -8.6113500798725109E-02 a       770     0    39     1    10
  3.2824095774979249E-03 a       771     0    39     1    11
 -1.8953950497887711E-02 a       772     0    39     1    12
  1.2143619692008398E-01 a       773     0    39     1    13
 -3.1756104418170103E-02 a       774     0    39     1    14
 -1.5409009670443971E-02 a       775     0    39     1    15
  3.1910156046575404E-03 a       776     0    39     1    16
 -1.4009140704694653E-02 a       777     0    39     1    17
  9.8096911613587343E-02 a       778     0    39     1    18
 -2.7104645440563364E-02 a       779     0    39     1    19
  9.2888534130149220E-02 a       780     0    39     1    20
  1.3176108597257510E-01 a       781     0    40     1     1
  2.8405524709404201E-01 a       782     0    40     1     2
  2.3996685374591195E-01 a       783     0    40     1     3
  1.1218585453386394E-01 a       784     0    40     1     4
  1.5212488059043422E-01 a       785     0    40     1     5
  1.6329617156978035E-01 a       786     0    40     1     6
 -4.1074572628675152E-03 a       787     0    40     1     7
 -7.5326912166816890E-02 a       788     0    40     1     8
  1.6915738825185012E-01 a       789     0    40     1     9
 -4.7703502784586627E-01 a       790     0    40     1    10
 -2.3449385234561290E-01 a       791     0    40     1    11
  2.9781311003573419E-01 a       792     0    40     1    12
 -7.4569375105263638E-02 a       793     0    40     1    13
 -1.9984193775055117E-01 a       794     0    40     1    14
  2.4953720660135268E-02 a       795     0    40     1    15
  2.5810070755192954E-01 a       796     0    40     1    16
  3.7744912497719198E-02 a       797     0    40     1    17
 -1.7437237701670383E-01 a       798     0    40     1    18
  3.4229083710192193E-01 a       799     0    40     1    19
  4.8349179046267662E-02 a       800     0    40     1    20
  1.0268733555328904E-01 a       801     0    41     1     1
  2.0708306745837243E-01 a       802     0    41     1     2
  1.6054968158271188E-01 a       803     0    41     1     3
  4.8474481509956369E-02 a       804     0    41     1     4
  8.7673823650739210E-02 a       805     0    41     1     5
  2.1482049110605245E-01 a       806     0    41     1     6
 -2.4346665303146200E-01 a       807     0    41     1     7
  1.5366484593915306E-01 a       808     0    41     1     8
 -6.7884773803745441E-02 a       809     0    41     1     9
 -8.6847765748138211E-02 a       810     0    41     1    10
 -1.7668872892618342E-01 a       811     0    41     1    11
 -9.7594729585380180E-02 a       812     0    41     1    12
 -9.5500837668887575E-02 a       813     0    41     1    13
  1.2703988191560564E-01 a       814     0    41     1    14
  7.4397840408526164E-02 a       815     0    41     1    15
  2.5023020861420270E-01 a       816     0    41     1    16
  1.1947780954660400E-01 a       817     0    41     1    17
  1.1532123322989005E-01 a       818     0    41     1    18
  2.0353128754126659E-01 a       819     0    41     1    19
 -5.5295800393813294E-02 a       820     0    41     1    20
 -1.3221605944516923E-01 a       821     0    42     1     1
 -2.8455603453937661E-02 a       822     0    42     1     2
  1.7627783387817691E-03 a       823     0    42     1     3
  9.3566659662414758E-02 a       824     0    42     1     4
  1.3601053308071218E-01 a       825     0    42     1     5
  3.4642256358510162E-02 a       826     0    42     1     6
  1.7646792444603493E-01 a       827     0    42     1     7
 -8.0356605071585555E-02 a       828     0    42     1     8
 -3.6001141150775029E-01 a       829     0    42     1     9
  4.0410299937005276E-02 a       830     0    42     1    10
 -2.3413965883657167E-01 a       831     0    42     1    11
 -1.9606161857480103E-01 a       832     0    42     1    12
 -4.9027225018840069E-02 a       833     0    42     1    13
  2.2402162566973333E-01 a       834     0    42     1    14
  2.3995839386842063E-01 a       835     0    42     1    15
  5.2489459918674275E-01 a       836     0    42     1    16
  1.7389508742569049E-02 a       837     0    42     1    17
 -1.1146340450797508E-01 a       838     0    42     1    18
  1.4551799243809926E-02 a       839     0    42     1    19
 -2.1571121797257461E-01 a       840     0    42     1    20
 -2.2974654419599269E-02 a       841     0    43     1     1
 -1.1375367102067824E-01 a       842     0    43     1     2
  4.5040922458118131E-03 a       843     0    43     1     3
  9.4075939802485825E-02 a       844     0    43     1     4
 -9.8690809825828455E-03 a       845     0    43     1     5
  2.2844409856794669E-02 a       846     0    43     1     6
 -2.0808711473352351E-01 a       847     0    43     1     7
  1.0529482596539845E-01 a       848     0    43     1     8
 -1.0035832042475393E-01 a       849     0    43     1     9
 -1.7816326223306744E-01 a       850     0    43     1    10
 -2.7340708231141658E-01 a       851     0    43     1    11
  1.5593407338703585E-01 a       852     0    43     1    12
 -2.4244067233103747E-01 a       853     0    43     1    13
 -1.1589369928134327E-01 a       854     0    43     1    14
 -2.1115653099799167E-01 a       855     0    43     1    15
 -1.1287428568327876E-02 a       856     0    43     1    16
 -6.6492108432289018E-02 a       857     0    43     1    17
 -1.1056135858590206E-01 a       858     0    43     1    18
 -1.7754849966263142E-01 a       859     0    43     1    19
 -8.8470647950177589E-02 a       860     0    43     1    20
 -3.2253474953684819E-01 a       861     0    44     1     1
  3.5914710598374883E-01 a       862     0    44     1     2
  3.5471468319047783E-01 a       863     0    44     1     3
  7.1946617212696518E-02 a       864     0    44     1     4
  1.7258289414396227E-01 a       865     0    44     1     5
  2.5242609677507488E-01 a       866     0    44     1     6
  3.2578405501432789E-01 a       867     0    44     1     7
 -1.6836996521026316E-02 a       868     0    44     1     8
 -1.8218323130822706E-01 a       869     0    44     1     9
  2.2093455114311492E-01 a       870     0    44     1    10
  1.7719980613260888E-01 a       871     0    44     1    11
 -2.8817283353663981E-01 a       872     0    44     1    12
  1.3970325989821533E-01 a       873     0    44     1    13
  1.5162875012538621E-01 a       874     0    44     1    14
  3.0244858958785381E-01 a       875     0    44     1    15
  2.1416832137007416E-01 a       876     0    44     1    16
 -2.9963501679600216E-02 a       877     0    44     1    17
 -5.4922430627217800E-02 a       878     0    44     1    18
 -2.8472050036627439E-02 a       879     0    44     1    19
  3.0683949245327365E-02 a       880     0    44     1    20
  9.7545415757091219E-02 a       881     0    45     1     1
 -3.2598314341585066E-01 a       882     0    45     1     2
  1.2335474136030844E-01 a       883     0    45     1     3
 -2.5836913069981543E-01 a       884     0    45     1     4
  2.0947789399542174E-01 a       885     0    45     1     5
  3.0164425629496699E-01 a       886     0    45     1     6
 -2.1822578560002290E-01 a       887     0    45     1     7
  5.8692396514116223E-02 a       888     0    45     1     8
 -1.6126045641823186E-01 a       889     0    45     1     9
 -2.2303129980913719E-01 a       890     0    45     1    10
 -1.2956220711489785E-01 a       891     0    45     1    11
  1.4538122904936421E-01 a       892     0    45     1    12
 -3.1739695309831867E-01 a       893     0    45     1    13
 -1.0790232603810160E-01 a       894     0    45     1    14
 -2.5644099041961360E-01 a       895     0    45     1    15
  2.9287950276321334E-01 a       896     0    45     1    16
  9.1850967263680111E-02 a       897     0    45     1    17
  9.7368532289889731E-02 a       898     0    45     1    18
  3.0130764824606249E-01 a       899     0    45     1    19
 -2.4416016932033308E-01 a       900     0    45     1    20
 -1.2374760231829081E-01 a       901     0    46     1     1
  8.0062453732548944E-02 a       902     0    46     1     2
  6.7883587143446722E-02 a       903     0    46     1     3
 -9.8252351803819846E-02 a       904     0    46     1     4
  1.2867741082166609E-01 a       905     0    46     1     5
  6.3055268846558557E-02 a       906     0    46     1     6
  8.8305165096675173E-02 a       907     0    46     1     7
  5.7145645679452274E-03 a       908     0    46     1     8
 -1.8530484071586684E-02 a       909     0    46     1     9
  1.4608522828218204E-01 a       910     0    46     1    10
  3.5600629182898094E-02 a       911     0    46     1    11
  1.2996804800392683E-01 a       912     0    46     1    12
  2.4428084554337981E-01 a       913     0    46     1    13
 -1.4527344109873358E-01 a       914     0    46     1    14
  3.0043287999045071E-02 a       915     0    46     1    15
  1.5597647730354533E-01 a       916     0    46     1    16
 -8.2503120958333703E-02 a       917     0    46     1    17
  1.4233831284519716E-01 a       918     0    46     1    18
 -7.1325300274875200E-02 a       919     0    46     1    19
  1.4240388178834898E-02 a       920     0    46     1    20
 -9.1758462134676089E-02 a       921     0    47     1     1
 -1.0322629243070502E-01 a       922     0    47     1     2
  1.2887857286487742E-01 a       923     0    47     1     3
  1.8911627461950797E-01 a       924     0    47     1     4
 -6.9933446940569244E-02 a       925     0    47     1     5
 -4.4126395605506956E-02 a       926     0    47     1     6
 -1.0960625112632973E-01 a       927     0    47     1     7
  2.1185686238076903E-01 a       928     0    47     1     8
 -1.9874934219297163E-01 a       929     0    47     1     9
  1.7674701111248980E-01 a       930     0    47     1    10
 -6.7707237217988103E-02 a       931     0    47     1    11
  2.8843604916366400E-01 a       932     0    47     1    12
 -2.2560578112402893E-01 a       933     0    47     1    13
  2.5499707950131079E-01 a       934     0    47     1    14
  2.1937680704272616E-01 a       935     0    47     1    15
  2.6361032331473022E-01 a       936     0    47     1    16
  4.6183352362557245E-02 a       937     0    47     1    17
 -1.8461848759003452E-01 a       938     0    47     1    18
  8.8452257998782494E-02 a       939     0    47     1    19
 -6.6923238747055927E-02 a       940     0    47     1    20
 -2.6101226262577701E-02 a       941     0    48     1     1
  2.9212678227419331E-01 a       942     0    48     1     2
  1.3090342724316403E-01 a       943     0    48     1     3
 -2.1770368761651088E-02 a       944     0    48     1     4
  3.8802420650288200E-01 a       945     0    48     1     5
  2.1676409716618894E-01 a       946     0    48     1     6
  1.6445076383120111E-02 a       947     0    48     1     7
  2.2007435060951430E-01 a       948     0    48     1     8
  1.6434233911430593E-01 a       949     0    48     1     9
 -2.3447171618956658E-01 a       950     0    48     1    10
 -9.7947196687401580E-02 a       951     0    48     1    11
  2.2544325079989389E-01 a       952     0    48     1    12
  3.1449754186161694E-02 a       953     0    48     1    13
 -2.1815552754987394E-02 a       954     0    48     1    14
  1.0244720989130446E-01 a       955     0    48     1    15
  1.3955463041963231E-01 a       956     0    48     1    16
 -1.9668191548323019E-01 a       957     0    48     1    17
 -2.5852887952695081E-01 a       958     0    48     1    18
  4.6789191410506130E-02 a       959     0    48     1    19
 -3.9755735364320138E-01 a       960     0    48     1    20
 -2.1624458869286167E-03 a       961     0    49     1     1
 -1.4296190832150737E-01 a       962     0    49     1     2
  3.3836997581064726E-01 a       963     0    49     1     3
 -2.4421250662455110E-01 a       964     0    49     1     4
  3.4074010437683522E-01 a       965     0    49     1     5
  4.6337958496748610E-01 a       966     0    49     1     6
  1.6980739022037425E-01 a       967     0    49     1     7
  3.3492027103025335E-01 a       968     0    49     1     8
 -3.3930842797445843E-01 a       969     0    49     1     9
 -1.4443629466832308E-01 a       970     0    49     1    10
 -1.6597754921990990E-01 a       971     0    49     1    11
 -2.9407347750859442E-01 a       972     0    49     1    12
 -1.7923641127184084E-01 a       973     0    49     1    13
 -1.1733938209590213E-02 a       974     0    49     1    14
 -1.9854209193800962E-01 a       975     0    49     1    15
  3.7850913869378161E-01 a       976     0    49     1    16
 -3.9066798610555460E-02 a       977     0    49     1    17
  1.9774207647184694E-01 a       978     0    49     1    18
 -6.7493541968848519E-02 a       979     0    49     1    19
  1.9762274208308264E-01 a       980     0    49     1    20
 -2.6297730268091668E-01 a       981     0    50     1     1
  1.2051526873999349E-01 a       982     0    50     1     2
  2.4934010720282529E-01 a       983     0    50     1     3
 -1.7999018184174093E-01 a       984     0    50     1     4
  1.4141084817079805E-01 a       985     0    50     1     5
 -6.4643068759807118E-02 a       986     0    50     1     6
  9.7249453730629903E-02 a       987     0    50     1     7
  6.0786920287381724E-02 a       988     0    50     1     8
 -1.4462715338075804E-01 a       989     0    50     1     9
  9.9328233719489012E-02 a       990     0    50     1    10
  5.6962603840908101E-02 a       991     0    50     1    11
  1.4537632139065870E-01 a       992     0    50     1    12
 -1.0023896279815823E-01 a       993     0    50     1    13
  2.0081579967837984E-01 a       994     0    50     1    14
 -5.1577546635710021E-02 a       995     0    50     1    15
  2.3517601995835498E-03 a       996     0    50     1    16
 -1.2386899527203826E-02 a       997     0    50     1    17
  4.1688248249042582E-02 a       998     0    50     1    18
  3.6279094071707091E-01 a       999     0    50     1    19
  2.6599123580748907E-01 a      1000     0    50     1    20
  1.6304110645627237E-01 a      1001     0    51     1     1
  1.8093487845525752E-02 a      1002     0    51     1     2
 -1.4140556588152478E-01 a      1003     0    51     1     3
 -1.4619418188066460E-01 a      1004     0    51     1     4
 -4.7260532784764379E-02 a      1005     0    51     1     5
 -1.5394165508784849E-01 a      1006     0    51     1     6
  9.6216964596299789E-02 a      1007     0    51     1     7
 -2.0829694748415678E-01 a      1008     0    51     1     8
  2.6885399070030569E-01 a      1009     0    51     1     9
 -2.4485212008009616E-01 a      1010     0    51     1    10
  2.2051648566766429E-02 a      1011     0    51     1    11
 -1.8300712251048751E-01 a      1012     0    51     1    12
  1.4930889468721709E-01 a      1013     0    51     1    13
 -1.5737639747915491E-01 a      1014     0    51     1    14
  4.9214838969486856E-02 a      1015     0    51     1    15
  2.4193440712592348E-01 a      1016     0    51     1    16
 -1.1235505569429746E-01 a      1017     0    51     1    17
  1.7928068708801675E-01 a      1018     0    51     1    18
  7.6349751842519162E-03 a      1019     0    51     1    19
 -1.0628966128635241E-01 a      1020     0    51     1    20
  6.8011641492151262E-02 a      1021     0    52     1     1
 -8.1647033136600655E-02 a      1022     0    52     1     2
  3.6933316921726446E-02 a      1023     0    52     1     3
  4.6201104812088355E-02 a      1024     0    52     1     4
 -4.7107110135108585E-02 a      1025     0    52     1     5
  6.8904192366156122E-02 a      1026     0    52     1     6
 -1.0100098825053136E-01 a      1027     0    52     1     7
 -3.4971379480995268E-02 a      1028     0    52     1     8
  2.0177570528992578E-02 a      1029     0    52     1     9
 -2.2104140100572250E-02 a      1030     0    52     1    10
 -1.0631728222839870E-03 a      1031     0    52     1    11
 -1.8019159465954174E-02 a      1032     0    52     1    12
 -1.2671776294472475E-01 a      1033     0    52     1    13
 -1.3676241925811639E-01 a      1034     0    52     1    14
  7.6731526524184385E-02 a      1035     0    52     1    15
  1.9705866896989116E-01 a      1036     0    52     1    16
 -1.8914902203486153E-01 a      1037     0    52     1    17
 -6.0659337170650147E-02 a      1038     0    52     1    18
  1.4805645488201594E-01 a      1039     0    52     1    19
  2.3209097737953821E-01 a      1040     0    52     1    20
  5.0676098818120990E-02 a      1041     0    53     1     1
  1.1737651001928204E-02 a      1042     0    53     1     2
 -1.1528621244789902E-01 a      1043     0    53     1     3
 -8.0044658963228585E-02 a      1044     0    53     1     4
  5.1292517976225860E-02 a      1045     0    53     1     5
  1.7037456898109690E-01 a      1046     0    53     1     6
  1.9880359779570694E-01 a      1047     0    53     1     7
  1.8216678413833599E-02 a      1048     0    53     1     8
 -9.3490785462485265E-02 a      1049     0    53     1     9
  2.3763932233444654E-02 a      1050     0    53     1    10
 -1.4920099442078344E-01 a      1051     0    53     1    11
 -8.7317815156281842E-02 a      1052     0    53     1    12
  3.9512058017821934E-02 a      1053     0    53     1    13
 -2.1843737396265736E-01 a      1054     0    53     1    14
 -3.5307009915798146E-02 a      1055     0    53     1    15
  7.9095106274547855E-02 a      1056     0    53     1    16
  2.1771514279595228E-01 a      1057     0    53     1    17
 -7.8938121444222561E-02 a      1058     0    53     1    18
 -6.8236802042853595E-02 a      1059     0    53     1    19
 -1.3210811645452614E-01 a      1060     0    53     1    20
  8.5896513320429954E-02 a      1061     0    54     1     1
 -2.4150518286654113E-01 a      1062     0    54     1     2
 -8.0861842137988735E-02 a      1063     0    54     1     3
  5.4308110301067129E-03 a      1064     0    54     1     4
 -6.8405571772274954E-03 a      1065     0    54     1     5
 -9.6476474123784600E-02 a      1066     0    54     1     6
  1.6675518144731238E-01 a      1067     0    54     1     7
 -2.0217506582141737E-02 a      1068     0    54     1     8
 -2.3959998409463562E-01 a      1069     0    54     1     9
  1.9812974209443870E-01 a      1070     0    54     1    10
  2.8862891024522497E-01 a      1071     0    54     1    11
 -1.0159094563762897E-01 a      1072     0    54     1    12
  2.0248097168983278E-03 a      1073     0    54     1    13
  9.3556584867730941E-02 a      1074     0    54     1    14
 -1.1769178637505952E-01 a      1075     0    54     1    15
 -2.1429844532523551E-01 a      1076     0    54     1    16
  2.1524740842156304E-02 a      1077     0    54     1    17
  3.3049281573516096E-02 a      1078     0    54     1    18
 -2.2450597355382435E-01 a      1079     0    54     1    19
  4.3206073071448879E-02 a      1080     0    54     1    20
 -1.4111471523201170E-02 a      1081     0    55     1     1
 -3.9296304119203873E-02 a      1082     0    55     1     2
  2.4594881068248112E-01 a      1083     0    55     1     3
 -2.1487392812244949E-01 a      1084     0    55     1     4
  2.5307430294530336E-01 a      1085     0    55     1     5
  1.9616860620779220E-01 a      1086     0    55     1     6
 -1.7615160518589194E-02 a      1087     0    55     1     7
  1.8159442921599242E-01 a      1088     0    55     1     8
  2.4236780676066467E-03 a      1089     0    55     1     9
  1.5798224634839993E-02 a      1090     0    55     1    10
  9.3967863958486830E-02 a      1091     0    55     1    11
  4.0760418515267349E-01 a      1092     0    55     1    12
  2.0849840581892623E-01 a      1093     0    55     1    13
  1.3159969270186528E-01 a      1094     0    55     1    14
  1.2646926195731570E-01 a      1095     0    55     1    15
 -7.7728513329374848E-03 a      1096     0    55     1    16
  6.1246845928245738E-02 a      1097     0    55     1    17
 -1.0360222539609452E-01 a      1098     0    55     1    18
  4.4477715220732311E-01 a      1099     0    55     1    19
  1.1726461492814672E-01 a      1100     0    55     1    20
 -1.2287836166747827E-01 a      1101     0    56     1     1
 -6.0511172963683517E-02 a      1102     0    56     1     2
  3.2252900236904203E-03 a      1103     0    56     1     3
  2.9929333633025273E-02 a      1104     0    56     1     4
  6.2639859369814727E-02 a      1105     0    56     1     5
  1.5437056001202978E-01 a      1106     0    56     1     6
 -1.5864152679069331E-02 a      1107     0    56     1     7
  8.6808607878136865E-02 a      1108     0    56     1     8
 -1.4931337914420179E-01 a      1109     0    56     1     9
 -5.4786181422623502E-02 a      1110     0    56     1    10
 -1.5883072727007380E-01 a      1111     0    56     1    11
 -1.9538393042892013E-01 a      1112     0    56     1    12
 -5.3815266169215253E-02 a      1113     0    56     1    13
  7.0351424255150036E-02 a      1114     0    56     1    14
 -1.2591617961334289E-01 a      1115     0    56     1    15
 -1.1638133147738634E-02 a      1116     0    56     1    16
  6.9020549057687633E-02 a      1117     0    56     1    17
 -9.3724245992490313E-03 a      1118     0    56     1    18
  1.9606153622319940E-02 a      1119     0    56     1    19
  1.1195599672298209E-01 a      1120     0    56     1    20
  5.9335188794836090E-02 a      1121     0    57     1     1
 -1.8330983843481674E-01 a      1122     0    57     1     2
  4.2809483601844411E-01 a      1123     0    57     1     3
  2.4802958417962605E-02 a      1124     0    57     1     4
  1.3096260044206004E-01 a      1125     0    57     1     5
  1.8445097159558679E-01 a      1126     0    57     1     6
  1.7535646029116475E-01 a      1127     0    57     1     7
 -3.9575985578362241E-02 a      1128     0    57     1     8
 -1.4313653240047478E-02 a      1129     0    57     1     9
 -2.3250191977035645E-01 a      1130     0    57     1    10
 -2.8925755153953514E-01 a      1131     0    57     1    11
 -3.7722595414804344E-01 a      1132     0    57     1    12
 -4.2176884544592799E-02 a      1133     0    57     1    13
 -2.0704916858217451E-01 a      1134     0    57     1    14
  1.9505288354286865E-01 a      1135     0    57     1    15
  3.6547764949421174E-01 a      1136     0    57     1    16
 -2.6514018858828592E-01 a      1137     0    57     1    17
 -1.1975129661100764E-01 a      1138     0    57     1    18
 -4.0980041774797624E-02 a      1139     0    57     1    19
  1.5988068283841053E-01 a      1140     0    57     1    20
  2.2671488399139120E-01 a      1141     0    58     1     1
  2.7007025658674821E-01 a      1142     0    58     1     2
  3.0362327109856990E-01 a      1143     0    58     1     3
  6.9253351809206748E-02 a      1144     0    58     1     4
  1.6010482755398317E-01 a      1145     0    58     1     5
  2.7259208285433639E-01 a      1146     0    58     1     6
 -9.2927916508682123E-02 a      1147     0    58     1     7
 -2.9403136969790886E-02 a      1148     0    58     1     8
  4.9616670964634652E-02 a      1149     0    58     1     9
  1.0893883489002396E-01 a      1150     0    58     1    10
  7.5801887023573392E-02 a      1151     0    58     1    11
  5.1765969980122575E-02 a      1152     0    58     1    12
 -2.3448619303524962E-01 a      1153     0    58     1    13
  1.3814958624914103E-01 a      1154     0    58     1    14
  9.5376769312138635E-02 a      1155     0    58     1    15
  2.0699881275390850E-01 a      1156     0    58     1    16
 -3.8586915604555704E-02 a      1157     0    58     1    17
 -2.2770607740689697E-01 a      1158     0    58     1    18
  2.6600744091551976E-01 a      1159     0    58     1    19
  1.0215143339058574E-02 a      1160     0    58     1    20
 -6.6034922519263739E-02 a      1161     0    59     1     1
 -2.3014335882001660E-02 a      1162     0    59     1     2
 -1.8703504079391084E-01 a      1163     0    59     1     3
  1.7464486121002976E-01 a      1164     0    59     1     4
  1.3559951289812477E-01 a      1165     0    59     1     5
  3.1379675164595749E-02 a      1166     0    59     1     6
  2.7792187219401753E-02 a      1167     0    59     1     7
 -1.0101089050593497E-01 a      1168     0    59     1     8
  9.7868188159162997E-02 a      1169     0    59     1     9
 -1.3509750641999316E-01 a      1170     0    59     1    10
 -2.5874277495930170E-02 a      1171     0    59     1    11
 -1.9592574630339901E-01 a      1172     0    59     1    12
  1.5901719142937354E-01 a      1173     0    59     1    13
  8.3822085736745502E-02 a      1174     0    59     1    14
 -2.6306168209547770E-01 a      1175     0    59     1    15
 -6.3204722961787765E-02 a      1176     0    59     1    16
  5.1754409158452003E-02 a      1177     0    59     1    17
  1.6885909341505659E-01 a      1178     0    59     1    18
  1.1497903003346897E-01 a      1179     0    59     1    19
 -1.5096927484451217E-01 a      1180     0    59     1    20
 -1.2090468614473274E-01 a      1181     0    60     1     1
  1.4280818889208866E-01 a      1182     0    60     1     2
  3.1135341641661339E-02 a      1183     0    60     1     3
  2.1060342156184203E-01 a      1184     0    60     1     4
  2.9619274850291723E-02 a      1185     0    60     1     5
  1.3937659337944919E-01 a      1186     0    60     1     6
 -7.3441737158753218E-01 a      1187     0    60     1     7
  8.9070284566981663E-03 a      1188     0    60     1     8
 -5.6245166014629026E-02 a      1189     0    60     1     9
  5.5352796376500968E-01 a      1190     0    60     1    10
  4.3244263157868729E-01 a      1191     0    60     1    11
  1.3968230189667361E-01 a      1192     0    60     1    12
  5.1747690739890391E-02 a      1193     0    60     1    13
 -5.0246335643551310E-01 a      1194     0    60     1    14
  9.1284769339225677E-02 a      1195     0    60     1    15
  5.3864372984323217E-01 a      1196     0    60     1    16
  9.6478256221054597E-03 a      1197     0    60     1    17
  1.3233264281786294E-01 a      1198     0    60     1    18
  5.3867303754241913E-01 a      1199     0    60     1    19
  5.3082862907655182E-01 a      1200     0    60     1    20
 -1.2240428048556824E-01 a      1201     0    61     1     1
 -6.7847018152114344E-02 a      1202     0    61     1     2
  2.0907475973792683E-01 a      1203     0    61     1     3
  2.4331221219745583E-02 a      1204     0    61     1     4
 -2.2340984468522310E-01 a      1205     0    61     1     5
 -6.1415666132334124E-02 a      1206     0    61     1     6
  3.6378093374457660E-02 a      1207     0    61     1     7
  1.0172696192600156E-01 a      1208     0    61     1     8
  2.0348453855303056E-01 a      1209     0    61     1     9
 -2.9393882762443985E-01 a      1210     0    61     1    10
 -7.2695337865337592E-02 a      1211     0    61     1    11
 -4.4625949619208800E-02 a      1212     0    61     1    12
 -2.2342370669555350E-01 a      1213     0    61     1    13
  2.6691676026757050E-01 a      1214     0    61     1    14
 -2.7699591334639795E-01 a      1215     0    61     1    15
 -2.0039884710423617E-01 a      1216     0    61     1    16
  4.5920104821407613E-04 a      1217     0    61     1    17
  7.3992279410795933E-02 a      1218     0    61     1    18
 -2.2907244677655622E-01 a      1219     0    61     1    19
  1.4558852473750580E-01 a      1220     0    61     1    20
 -1.4681116447840483E-02 a      1221     0    62     1     1
  1.4378798310886168E-01 a      1222     0    62     1     2
  3.7017202383801218E-01 a      1223     0    62     1     3
  1.6429449877168911E-01 a      1224     0    62     1     4
 -1.0172376807200445E-01 a      1225     0    62     1     5
 -2.6791337012900268E-01 a      1226     0    62     1     6
  1.2377072998744737E-02 a      1227     0    62     1     7
  9.9312141110802069E-02 a      1228     0    62     1     8
  4.8717021329607473E-02 a      1229     0    62     1     9
 -5.8579838379045790E-02 a      1230     0    62     1    10
  9.5117083933432531E-02 a      1231     0    62     1    11
  1.2226131050312154E-01 a      1232     0    62     1    12
 -3.0700445420364808E-01 a      1233     0    62     1    13
 -1.3667264586653544E-02 a      1234     0    62     1    14
 -2.6186203871092849E-02 a      1235     0    62     1    15
  1.1129302601724755E-01 a      1236     0    62     1    16
 -4.0601243222263314E-02 a      1237     0    62     1    17
 -2.2530749437743519E-01 a      1238     0    62     1    18
 -2.1990576804949358E-01 a      1239     0    62     1    19
 -3.2169314125882881E-01 a      1240     0    62     1    20
  5.6354671963758561E-02 a      1241     0    63     1     1
  6.9528369856664829E-02 a      1242     0    63     1     2
  6.0361894259811935E-02 a      1243     0    63     1     3
 -1.8679179288909301E-01 a      1244     0    63     1     4
  1.4059058097670007E-01 a      1245     0    63     1     5
  4.4239909372051356E-01 a      1246     0    63     1     6
 -1.5628069681535106E-01 a      1247     0    63     1     7
  2.7071946981366063E-01 a      1248     0    63     1     8
 -2.6086920660477697E-01 a      1249     0    63     1     9
 -1.0837515114564894E-01 a      1250     0    63     1    10
  5.9619798720042881E-02 a      1251     0    63     1    11
  1.4818544497245512E-01 a      1252     0    63     1    12
  1.2872612706460979E-01 a      1253     0    63     1    13
  1.8948643198395790E-01 a      1254     0    63     1    14
  1.3744395398849935E-01 a      1255     0    63     1    15
  2.4345145403662832E-01 a      1256     0    63     1    16
 -8.5189952406836938E-02 a      1257     0    63     1    17
 -8.9566574420830866E-02 a      1258     0    63     1    18
  3.6633425004304576E-01 a      1259     0    63     1    19
  4.6199817448969345E-02 a      1260     0    63     1    20
 -1.0086129933564804E-01 a      1261     0    64     1     1
  1.5086713647644837E-01 a      1262     0    64     1     2
 -1.9061159174079562E-01 a      1263     0    64     1     3
  4.0027025307767090E-02 a      1264     0    64     1     4
  1.9527910110341837E-01 a      1265     0    64     1     5
 -9.0528758843092472E-02 a      1266     0    64     1     6
  1.8514457946263754E-01 a      1267     0    64     1     7
  1.1709953484234294E-01 a      1268     0    64     1     8
 -4.0528106890573831E-02 a      1269     0    64     1     9
  1.2570859095500098E-01 a      1270     0    64     1    10
 -8.5205134514741515E-02 a      1271     0    64     1    11
 -1.0830241350617663E-01 a      1272     0    64     1    12
 -1.1676492813006711E-01 a      1273     0    64     1    13
  1.2258574680637298E-02 a      1274     0    64     1    14
  1.7413904135204047E-02 a      1275     0    64     1    15
 -1.2170720642456678E-01 a      1276     0    64     1    16
 -8.6152262383569947E-02 a      1277     0    64     1    17
  1.2296566098481623E-01 a      1278     0    64     1    18
 -6.4496021093088413E-02 a      1279     0    64     1    19
  1.8715174521502301E-01 a      1280     0    64     1    20
 -3.9101045904601206E-01 a      1281     0    65     1     1
 -1.2917844433249767E-01 a      1282     0    65     1     2
  1.0304858443144092E-01 a      1283     0    65     1     3
  2.1183336440015316E-01 a      1284     0    65     1     4
 -3.2679286803332080E-01 a      1285     0    65     1     5
  6.2546822786399461E-02 a      1286     0    65     1     6
  1.0524690538514944E-01 a      1287     0    65     1     7
  1.0050092803771848E-01 a      1288     0    65     1     8
  9.2347032325786147E-03 a      1289     0    65     1     9
  5.9306956677667763E-02 a      1290     0    65     1    10
  7.1476123642043227E-02 a      1291     0    65     1    11
  4.2750189264686121E-02 a      1292     0    65     1    12
  9.9012716238764439E-02 a      1293     0    65     1    13
  1.9739374948428826E-01 a      1294     0    65     1    14
 -2.6990804263917495E-01 a      1295     0    65     1    15
 -1.7641907665025552E-01 a      1296     0    65     1    16
 -2.1080112051149105E-01 a      1297     0    65     1    17
  1.2343998039971173E-01 a      1298     0    65     1    18
 -1.0910922978511617E-01 a      1299     0    65     1    19
  1.3103163011290689E-01 a      1300     0    65     1    20
  3.3500766392872923E-02 a      1301     0    66     1     1
  1.7033288017106571E-01 a      1302     0    66     1     2
  3.7293548165535384E-01 a      1303     0    66     1     3
  2.7433039795999459E-01 a      1304     0    66     1     4
  7.7159481239983091E-02 a      1305     0    66     1     5
  5.1497957825541056E-02 a      1306     0    66     1     6
  1.3461320931398282E-01 a      1307     0    66     1     7
 -2.5044118409893595E-01 a      1308     0    66     1     8
  2.5931280708688909E-01 a      1309     0    66     1     9
  1.4332314782630645E-01 a      1310     0    66     1    10
  5.9524793867352530E-02 a      1311     0    66     1    11
  2.3213740234212468E-01 a      1312     0    66     1    12
 -3.6238365255113375E-01 a      1313     0    66     1    13
 -7.2424951507689579E-03 a      1314     0    66     1    14
  5.1712633489581709E-02 a      1315     0    66     1    15
  1.0289186678286680E-01 a      1316     0    66     1    16
  8.9399561113118337E-02 a      1317     0    66     1    17
 -2.2000533340079703E-01 a      1318     0    66     1    18
 -8.7903489621392869E-02 a      1319     0    66     1    19
 -5.3385951984799743E-02 a      1320     0    66     1    20
  6.4257983736434973E-02 a      1321     0    67     1     1
 -3.5384832099566464E-02 a      1322     0    67     1     2
 -7.5670594244007142E-02 a      1323     0    67     1     3
  7.6923552156333702E-02 a      1324     0    67     1     4
  2.0290870568742664E-01 a      1325     0    67     1     5
  2.6058116568473499E-01 a      1326     0    67     1     6
  1.6690470319716388E-02 a      1327     0    67     1     7
  1.6829472630528666E-01 a      1328     0    67     1     8
 -2.3414578879126777E-02 a      1329     0    67     1     9
 -7.3459306174401634E-02 a      1330     0    67     1    10
  1.5721762023731034E-01 a      1331     0    67     1    11
 -7.9120501906220733E-02 a      1332     0    67     1    12
 -8.5296225579989046E-03 a      1333     0    67     1    13
 -1.6361518574381584E-01 a      1334     0    67     1    14
  1.3302684752191088E-01 a      1335     0    67     1    15
  2.6531605745525599E-01 a      1336     0    67     1    16
  2.5067767809753118E-03 a      1337     0    67     1    17
  6.8701542525909778E-02 a      1338     0    67     1    18
  1.0409707829902948E-01 a      1339     0    67     1    19
 -1.7068977795566712E-01 a      1340     0    67     1    20
 -3.7373386843368295E-01 a      1341     0    68     1     1
 -7.5321892548656233E-02 a      1342     0    68     1     2
  2.7812486193659558E-02 a      1343     0    68     1     3
  1.6296483408447851E-01 a      1344     0    68     1     4
  1.9235828620461706E-02 a      1345     0    68     1     5
 -2.6848757660583339E-01 a      1346     0    68     1     6
 -3.4433426138402577E-02 a      1347     0    68     1     7
  1.3015052979621577E-01 a      1348     0    68     1     8
 -1.4407674575712376E-02 a      1349     0    68     1     9
 -1.0259133894014142E-02 a      1350     0    68     1    10
 -2.3546372995286649E-01 a      1351     0    68     1    11
  2.0106326475961314E-01 a      1352     0    68     1    12
 -2.8634128490499267E-01 a      1353     0    68     1    13
 -3.6904133290238367E-02 a      1354     0    68     1    14
 -2.1138041912952377E-01 a      1355     0    68     1    15
 -3.0139469138790737E-01 a      1356     0    68     1    16
 -8.9960990351273779E-02 a      1357     0    68     1    17
  5.1720284663765714E-02 a      1358     0    68     1    18
 -2.8416087125850592E-01 a      1359     0    68     1    19
  6.3429129418189997E-02 a      1360     0    68     1    20
  2.0870679645338641E-01 a      1361     0    69     1     1
 -1.8730599295286124E-01 a      1362     0    69     1     2
 -1.8840392810948547E-01 a      1363     0    69     1     3
  9.1322796165095310E-02 a      1364     0    69     1     4
  5.9496475921869775E-02 a      1365     0    69     1     5
  3.9987699027652569E-02 a      1366     0    69     1     6
 -5.8755258665931204E-02 a      1367     0    69     1     7
  2.4808021125875879E-02 a      1368     0    69     1     8
  2.1419121465317534E-01 a      1369     0    69     1     9
 -1.0384599598128355E-01 a      1370     0    69     1    10
  6.8285447103453162E-02 a      1371     0    69     1    11
  1.5537405124573217E-01 a      1372     0    69     1    12
  9.8201804680455460E-02 a      1373     0    69     1    13
 -2.2218701748592523E-01 a      1374     0    69     1    14
  1.3439850345697230E-01 a      1375     0    69     1    15
 -1.8885905207095066E-01 a      1376     0    69     1    16
  2.1134628889676635E-01 a      1377     0    69     1    17
  1.0545675232965906E-01 a      1378     0    69     1    18
  2.5183852368876120E-02 a      1379     0    69     1    19
  3.7797379581775231E-02 a      1380     0    69     1    20
  2.1955631443950966E-02 a      1381     0    70     1     1
 -5.1405547464161400E-02 a      1382     0    70     1     2
  1.5962839193724146E-01 a      1383     0    70     1     3
 -3.2803432195565869E-02 a      1384     0    70     1     4
  2.0751679447423101E-02 a      1385     0    70     1     5
 -1.3204075873466342E-01 a      1386     0    70     1     6
  2.0561040337410108E-01 a      1387     0    70     1     7
  4.6556555095867640E-02 a      1388     0    70     1     8
  9.6434155178608219E-02 a      1389     0    70     1     9
  1.0227866948496503E-01 a      1390     0    70     1    10
  2.5398374039865096E-01 a      1391     0    70     1    11
  2.3147485807221563E-02 a      1392     0    70     1    12
  5.9473937474336609E-02 a      1393     0    70     1    13
 -1.0424770488080908E-01 a      1394     0    70     1    14
  2.2327452005596726E-02 a      1395     0    70     1    15
 -5.7675247664651694E-02 a      1396     0    70     1    16
 -2.5484740312101162E-01 a      1397     0    70     1    17
  1.5762315578213323E-01 a      1398     0    70     1    18
 -1.1893153227915751E-01 a      1399     0    70     1    19
  5.9125858322843748E-02 a      1400     0    70     1    20
 -7.4595207596660426E-03 a      1401     0    71     1     1
  2.7122820910078937E-01 a      1402     0    71     1     2
  3.0868273110310446E-01 a      1403     0    71     1     3
  1.5050670433778671E-01 a      1404     0    71     1     4
 -2.6808893657552742E-02 a      1405     0    71     1     5
 -1.9911838249801131E-01 a      1406     0    71     1     6
  4.9792415515407792E-02 a      1407     0    71     1     7
  8.7398269351122576E-02 a      1408     0    71     1     8
 -5.2495992772637655E-03 a      1409     0    71     1     9
  1.3497984736921542E-01 a      1410     0    71     1    10
  5.2569660493843685E-02 a      1411     0    71     1    11
  3.0066366832584296E-01 a      1412     0    71     1    12
 -3.6814645401698687E-01 a      1413     0    71     1    13
 -2.1565897874115544E-01 a      1414     0    71     1    14
  8.1605624310617159E-02 a      1415     0    71     1    15
  1.2484727588055733E-01 a      1416     0    71     1    16
  2.7594044652691628E-02 a      1417     0    71     1    17
 -1.8168083744468050E-01 a      1418     0    71     1    18
 -2.0640473307775237E-01 a      1419     0    71     1    19
 -2.2036551839540966E-01 a      1420     0    71     1    20
  2.2075852959980789E-02 a      1421     0    72     1     1
 -2.0289673274738210E-01 a      1422     0    72     1     2
 -1.8744935444038571E-01 a      1423     0    72     1     3
 -2.6601686816227810E-01 a      1424     0    72     1     4
 -3.9187311337339553E-03 a      1425     0    72     1     5
  1.4382028615628428E-01 a      1426     0    72     1     6
 -1.6607774599181993E-01 a      1427     0    72     1     7
 -1.1015611396364454E-01 a      1428     0    72     1     8
 -2.0321324487195636E-01 a      1429     0    72     1     9
 -2.0695340169953100E-02 a      1430     0    72     1    10
 -1.8502761878558788E-01 a      1431     0    72     1    11
  1.5034831559865373E-02 a      1432     0    72     1    12
  4.2459876822347052E-02 a      1433     0    72     1    13
 -2.1313664778804386E-01 a      1434     0    72     1    14
  7.3407871537008854E-02 a      1435     0    72     1    15
  3.7706535237829436E-01 a      1436     0    72     1    16
  4.2601135124096280E-02 a      1437     0    72     1    17
 -1.1179958253289052E-01 a      1438     0    72     1    18
  6.0206128721061174E-02 a      1439     0    72     1    19
  7.5296528173040375E-02 a      1440     0    72     1    20
 -9.8079059811477090E-02 a      1441     0    73     1     1
 -1.5639432673996100E-02 a      1442     0    73     1     2
  6.1237637949172918E-02 a      1443     0    73     1     3
  2.3475294916390968E-01 a      1444     0    73     1     4
 -1.3509871895325709E-01 a      1445     0    73     1     5
 -1.5901829955871272E-01 a      1446     0    73     1     6
  1.0788228396187972E-01 a      1447     0    73     1     7
 -2.1897508538548752E-01 a      1448     0    73     1     8
 -3.4717838753855007E-02 a      1449     0    73     1     9
  1.3012213456685384E-01 a      1450     0    73     1    10
 -1.7332888486024875E-01 a      1451     0    73     1    11
  1.8657570396363368E-02 a      1452     0    73     1    12
 -3.1302224019494046E-01 a      1453     0    73     1    13
 -3.0157379394376654E-01 a      1454     0    73     1    14
 -1.3148345088818902E-01 a      1455     0    73     1    15
 -1.4378425470763578E-01 a      1456     0    73     1    16
  8.9285475416361632E-03 a      1457     0    73     1    17
  1.1029611796736224E-01 a      1458     0    73     1    18
 -4.8031463986898237E-01 a      1459     0    73     1    19
  2.0801285646607043E-01 a      1460     0    73     1    20
  7.4772671324881135E-02 a      1461     0    74     1     1
 -2.4301960701287813E-02 a      1462     0    74     1     2
 -1.8106681646863568E-01 a      1463     0    74     1     3
  1.3056188539500038E-01 a      1464     0    74     1     4
 -1.3355446867894843E-02 a      1465     0    74     1     5
 -7.6649275340827855E-02 a      1466     0    74     1     6
 -1.7393993926012025E-01 a      1467     0    74     1     7
 -6.2242348870899480E-02 a      1468     0    74     1     8
 -1.3993462744187021E-01 a      1469     0    74     1     9
  1.1101329718839681E-01 a      1470     0    74     1    10
 -1.1607060903337213E-01 a      1471     0    74     1    11
  1.3479042603938640E-01 a      1472     0    74     1    12
  1.2809567468751459E-01 a      1473     0    74     1    13
 -7.6577271817040063E-02 a      1474     0    74     1    14
 -1.2904601948098146E-01 a      1475     0    74     1    15
  1.3390329878314294E-01 a      1476     0    74     1    16
 -9.9679985086898570E-02 a      1477     0    74     1    17
 -1.0647472325045748E-01 a      1478     0    74     1    18
 -1.6889585800849685E-01 a      1479     0    74     1    19
 -2.1765533889550122E-03 a      1480     0    74     1    20
  1.8403880831027128E-01 a      1481     0    75     1     1
 -2.5744115366992304E-01 a      1482     0    75     1     2
 -2.6666926002939667E-01 a      1483     0    75     1     3
 -3.7553224379944644E-01 a      1484     0    75     1     4
 -2.4308334882929133E-02 a      1485     0    75     1     5
 -8.4781744195752073E-02 a      1486     0    75     1     6
 -9.3083838640507829E-02 a      1487     0    75     1     7
  3.3606128955525699E-02 a      1488     0    75     1     8
 -1.4116978553140555E-01 a      1489     0    75     1     9
 -1.6483665331410846E-01 a      1490     0    75     1    10
 -1.8043290259488642E-01 a      1491     0    75     1    11
  3.5146729279986288E-01 a      1492     0    75     1    12
 -5.7301595925906947E-03 a      1493     0    75     1    13
 -1.6585570164124450E-01 a      1494     0    75     1    14
 -1.2664979799824622E-01 a      1495     0    75     1    15
 -1.9615159915987751E-01 a      1496     0    75     1    16
 -8.2926655376229397E-02 a      1497     0    75     1    17
  7.7982535250120374E-02 a      1498     0    75     1    18
 -2.2544317862579866E-01 a      1499     0    75     1    19
  6.3076844023541953E-02 a      1500     0    75     1    20
  1.6323908969594347E-01 a      1501     0    76     1     1
 -4.5128279820207111E-02 a      1502     0    76     1     2
 -1.1997504541985293E-01 a      1503     0    76     1     3
 -1.9319637844420112E-01 a      1504     0    76     1     4
  3.9137350845903314E-02 a      1505     0    76     1     5
  2.2301528666266382E-01 a      1506     0    76     1     6
 -1.5295190550598921E-02 a      1507     0    76     1     7
 -2.4019292611513601E-02 a      1508     0    76     1     8
 -5.9203531189546646E-02 a      1509     0    76     1     9
 -6.5482801426687637E-02 a      1510     0    76     1    10
  7.0003167141623635E-02 a      1511     0    76     1    11
  3.4059232129221362E-01 a      1512     0    76     1    12
  7.2182842761704211E-02 a      1513     0    76     1    13
  8.3759198107925134E-02 a      1514     0    76     1    14
 -1.6791674689736555E-01 a      1515     0    76     1    15
  3.0141917148093184E-01 a      1516     0    76     1    16
  1.2349996168497702E-01 a      1517     0    76     1    17
  1.1625337263709347E-01 a      1518     0    76     1    18
  1.0189272334353268E-01 a      1519     0    76     1    19
  1.5833023995355824E-01 a      1520     0    76     1    20
  2.3225905728201079E-01 a      1521     0    77     1     1
 -2.4936123489614054E-01 a      1522     0    77     1     2
  2.0968989240550375E-02 a      1523     0    77     1     3
  9.8425107785072616E-02 a      1524     0    77     1     4
  3.0581279575644948E-01 a      1525     0    77     1     5
  3.0839125188133343E-01 a      1526     0    77     1     6
 -1.9803209595068588E-01 a      1527     0    77     1     7
 -8.7745197164527042E-02 a      1528     0    77     1     8
  1.2758650266519868E-03 a      1529     0    77     1     9
  8.4388739257470383E-02 a      1530     0    77     1    10
 -1.8316943105456970E-01 a      1531     0    77     1    11
  6.4442113676522569E-02 a      1532     0    77     1    12
 -4.8577497375507935E-02 a      1533     0    77     1    13
 -2.8207632314413100E-02 a      1534     0    77     1    14
  1.2509070803433453E-01 a      1535     0    77     1    15
  5.2517755128025624E-02 a      1536     0    77     1    16
 -2.4292407240950130E-02 a      1537     0    77     1    17
  9.9088537963323453E-02 a      1538     0    77     1    18
  1.5664435204374197E-01 a      1539     0    77     1    19
  1.8319787330617335E-01 a      1540     0    77     1    20
  1.9402852124063980E-01 a      1541     0    78     1     1
  5.7813010621665728E-01 a      1542     0    78     1     2
  3.6473316306078191E-01 a      1543     0    78     1     3
  1.9194016719770546E-01 a      1544     0    78     1     4
  1.3776393917958218E-01 a      1545     0    78     1     5
 -2.0042007016577532E-01 a      1546     0    78     1     6
  3.0699021067099447E-01 a      1547     0    78     1     7
  4.8233292088835245E-01 a      1548     0    78     1     8
 -2.9589458084723075E-01 a      1549     0    78     1     9
  3.6831913428079915E-01 a      1550     0    78     1    10
 -2.5479192778858523E-01 a      1551     0    78     1    11
 -9.9261435356207336E-03 a      1552     0    78     1    12
  4.3630067688767143E-01 a      1553     0    78     1    13
  6.9179648791710513E-02 a      1554     0    78     1    14
 -9.9199703980158756E-03 a      1555     0    78     1    15
  4.8554091017730661E-01 a      1556     0    78     1    16
  2.6484325470390180E-01 a      1557     0    78     1    17
 -4.7844884727676040E-01 a      1558     0    78     1    18
 -5.6444470673105603E-02 a      1559     0    78     1    19
  8.6987309791412781E-02 a      1560     0    78     1    20
 -6.4445312665122781E-02 a      1561     0    79     1     1
  2.0147325928671765E-02 a      1562     0    79     1     2
 -1.1905305264109547E-01 a      1563     0    79     1     3
  5.0308363179660124E-03 a      1564     0    79     1     4
  1.2540356506448957E-01 a      1565     0    79     1     5
  2.9573039944833495E-02 a      1566     0    79     1     6
 -9.9380224987401858E-03 a      1567     0    79     1     7
 -1.1503340595855494E-01 a      1568     0    79     1     8
 -1.3051922667517066E-01 a      1569     0    79     1     9
 -1.0729180549770673E-01 a      1570     0    79     1    10
  9.7144413609718552E-02 a      1571     0    79     1    11
  1.2877212360680526E-01 a      1572     0    79     1    12
  1.3924372972740928E-01 a      1573     0    79     1    13
  1.0032335714062683E-01 a      1574     0    79     1    14
  1.6371884516234236E-01 a      1575     0    79     1    15
 -1.4630166442526005E-01 a      1576     0    79     1    16
 -2.7906107754010912E-02 a      1577     0    79     1    17
  1.0412193088485841E-01 a      1578     0    79     1    18
 -1.1100484396064587E-01 a      1579     0    79     1    19
  1.3933683699120572E-01 a      1580     0    79     1    20
 -1.4727654484820923E-01 a      1581     0    80     1     1
 -6.2601425625512783E-02 a      1582     0    80     1     2
 -2.3463217176431855E-01 a      1583     0    80     1     3
 -1.3627486627261465E-01 a      1584     0    80     1     4
 -6.2566618581133104E-01 a      1585     0    80     1     5
 -2.5112024159836605E-01 a      1586     0    80     1     6
 -3.4142328918271014E-02 a      1587     0    80     1     7
  4.2896562995216263E-02 a      1588     0    80     1     8
  1.6045847905994223E-01 a      1589     0    80     1     9
  5.0843698279183981E-02 a      1590     0    80     1    10
  1.5179398521485277E-01 a      1591     0    80     1    11
 -1.6598104416852520E-03 a      1592     0    80     1    12
 -4.4287717541302909E-02 a      1593     0    80     1    13
 -6.1022226267003855E-02 a      1594     0    80     1    14
  5.2736040267775709E-02 a      1595     0    80     1    15
 -8.4643094389262610E-02 a      1596     0    80     1    16
  1.7019132341766513E-01 a      1597     0    80     1    17
 -2.0381282701477174E-01 a      1598     0    80     1    18
 -3.2926176899360371E-01 a      1599     0    80     1    19
 -8.2084982323528705E-02 a      1600     0    80     1    20
 -4.9298658264818739E-02 a      1601     0    81     1     1
  4.5682795534360138E-02 a      1602     0    81     1     2
 -4.2298737291211985E-01 a      1603     0    81     1     3
  1.1991003086182511E-01 a      1604     0    81     1     4
  1.4852844879460331E-02 a      1605     0    81     1     5
  1.6379415426811936E-01 a      1606     0    81     1     6
  4.6706400484191313E-01 a      1607     0    81     1     7
 -3.2846806132917633E-01 a      1608     0    81     1     8
 -1.8905737044809071E-01 a      1609     0    81     1     9
 -2.4367652925125510E-01 a      1610     0    81     1    10
  2.3886925264444528E-01 a      1611     0    81     1    11
  2.0372272876202333E-01 a      1612     0    81     1    12
  4.0711801547006460E-02 a      1613     0    81     1    13
  9.0985976629303703E-02 a      1614     0    81     1    14
  2.8469008785003268E-02 a      1615     0    81     1    15
  2.1858324842656005E-01 a      1616     0    81     1    16
  3.8721343875231889E-01 a      1617     0    81     1    17
  4.6499414797696748E-01 a      1618     0    81     1    18
  3.4362908515859009E-01 a      1619     0    81     1    19
  1.1478266637046108E-01 a      1620     0    81     1    20
 -9.9470858648066061E-03 a      1621     0    82     1     1
 -1.3246050589364469E-01 a      1622     0    82     1     2
  9.5596510831142720E-02 a      1623     0    82     1     3
