################################################################################
# Neural network connection values (weights and biases).
################################################################################
# Col  Name       Description
################################################################################
# 1    connection Neural network connection value.
# 2    t          Connection type (a = weight, b = bias).
# 3    index      Index enumerating weights.
# 4    l_s        Starting point layer (end point layer for biases).
# 5    n_s        Starting point neuron in starting layer (end point neuron for biases).
# 6    l_e        End point layer.
# 7    n_e        End point neuron in end layer.
################################################################################
#                      1 2         3     4     5     6     7
#             connection t     index   l_s   n_s   l_e   n_e
############################################################
 -1.5200191730693182E+00 a         1     0     1     1     1
 -1.2487476757929408E+00 a         2     0     1     1     2
  9.2557610730577181E-02 a         3     0     1     1     3
  1.2693901082657009E+00 a         4     0     1     1     4
  3.4349972622699104E-01 a         5     0     1     1     5
  1.0173804615642873E-01 a         6     0     1     1     6
 -2.2103701556622650E+00 a         7     0     1     1     7
  5.6502580564116389E-01 a         8     0     1     1     8
  2.6071348144436302E+00 a         9     0     1     1     9
 -4.6259703131550711E-01 a        10     0     1     1    10
 -1.4230853829684453E+00 a        11     0     1     1    11
 -2.1691499991893748E+00 a        12     0     1     1    12
 -1.2140256699198733E+00 a        13     0     1     1    13
  8.3323404319957217E-01 a        14     0     1     1    14
  5.1361771086173158E-01 a        15     0     1     1    15
  3.6165396658469595E-01 a        16     0     1     1    16
 -1.4180376562789774E+00 a        17     0     1     1    17
 -2.6517919957108851E+00 a        18     0     1     1    18
 -2.4502461292374758E+00 a        19     0     1     1    19
 -8.3708332538079200E-01 a        20     0     1     1    20
  1.5414696426208678E+00 a        21     0     2     1     1
  2.2420898567143381E+00 a        22     0     2     1     2
 -5.3459226765391976E-01 a        23     0     2     1     3
  5.7530438610912860E-01 a        24     0     2     1     4
 -4.1593082377838075E-01 a        25     0     2     1     5
  3.6442207328680443E-01 a        26     0     2     1     6
  1.8295871788129174E+00 a        27     0     2     1     7
 -3.2287999778778043E-01 a        28     0     2     1     8
  1.1258923695589305E+00 a        29     0     2     1     9
  9.6356487437879140E-02 a        30     0     2     1    10
  2.4080166076952421E+00 a        31     0     2     1    11
  1.1429758439886866E+00 a        32     0     2     1    12
  1.2334150642608500E-01 a        33     0     2     1    13
 -5.9260424931722644E-01 a        34     0     2     1    14
 -8.5421743236288872E-01 a        35     0     2     1    15
 -1.2188174581531706E+00 a        36     0     2     1    16
  5.6332222039558377E-01 a        37     0     2     1    17
  1.7976039078447070E-01 a        38     0     2     1    18
 -3.8285270625925055E-01 a        39     0     2     1    19
  6.9348757579959974E-01 a        40     0     2     1    20
  5.1667336019175898E-02 a        41     0     3     1     1
 -2.8890882644422122E+00 a        42     0     3     1     2
  1.8089466039175555E+00 a        43     0     3     1     3
  2.7644627958351292E-01 a        44     0     3     1     4
  6.2836064828658373E-03 a        45     0     3     1     5
 -2.0586883747010465E-01 a        46     0     3     1     6
 -1.8088751657471647E+00 a        47     0     3     1     7
  1.5974210895197571E+00 a        48     0     3     1     8
 -1.2899369865876507E+00 a        49     0     3     1     9
 -7.7304674517657979E-01 a        50     0     3     1    10
 -2.3794329472864555E+00 a        51     0     3     1    11
 -2.2950400293977684E+00 a        52     0     3     1    12
 -1.6010520213439547E+00 a        53     0     3     1    13
  6.0510039323181930E-01 a        54     0     3     1    14
  2.5140851882973294E+00 a        55     0     3     1    15
  1.4740396879042561E+00 a        56     0     3     1    16
 -1.2239758730052674E+00 a        57     0     3     1    17
  1.2331778175531186E-01 a        58     0     3     1    18
  1.3516398242369791E+00 a        59     0     3     1    19
 -1.9887621374644124E-01 a        60     0     3     1    20
  8.0625181863812589E-01 a        61     0     4     1     1
 -1.7056511250742645E-01 a        62     0     4     1     2
  1.0120973108932474E+00 a        63     0     4     1     3
 -1.0398912350551432E+00 a        64     0     4     1     4
 -8.8811427897090722E-01 a        65     0     4     1     5
 -7.8946551482509036E-02 a        66     0     4     1     6
  1.7787635310740963E+00 a        67     0     4     1     7
  9.4380298835016996E-01 a        68     0     4     1     8
 -2.0868657961576478E+00 a        69     0     4     1     9
 -3.1771229388544225E-01 a        70     0     4     1    10
  1.2691873198771841E+00 a        71     0     4     1    11
 -6.6313656439259194E-01 a        72     0     4     1    12
  1.0403869620893418E+00 a        73     0     4     1    13
 -3.9212955047639481E-01 a        74     0     4     1    14
 -2.1390114049311949E-02 a        75     0     4     1    15
 -1.2588701394636778E-01 a        76     0     4     1    16
 -4.2033247847368532E-02 a        77     0     4     1    17
  2.5880374976277176E+00 a        78     0     4     1    18
  4.5056069935456931E+00 a        79     0     4     1    19
  1.2983080229660340E+00 a        80     0     4     1    20
  7.3861714918404853E-01 a        81     0     5     1     1
 -3.5933021835729509E-02 a        82     0     5     1     2
 -9.6209747534296661E-02 a        83     0     5     1     3
 -2.7641705120896959E-01 a        84     0     5     1     4
  1.2230191725049882E+00 a        85     0     5     1     5
 -6.8245377181899569E-01 a        86     0     5     1     6
 -3.2492804628442694E-02 a        87     0     5     1     7
 -7.5564383128647095E-01 a        88     0     5     1     8
  8.8624629148648792E-01 a        89     0     5     1     9
  3.0397520932345534E-01 a        90     0     5     1    10
 -4.5310521663605491E-01 a        91     0     5     1    11
  1.2106082790822781E+00 a        92     0     5     1    12
 -4.9111006242163102E-01 a        93     0     5     1    13
 -4.2951700974010781E-01 a        94     0     5     1    14
  4.9306169290743850E-02 a        95     0     5     1    15
 -1.2070083647458960E-01 a        96     0     5     1    16
 -6.5438989174757034E-01 a        97     0     5     1    17
 -1.1093182080942128E+00 a        98     0     5     1    18
 -6.0425533225219286E-01 a        99     0     5     1    19
 -7.5638702372402189E-01 a       100     0     5     1    20
  1.0887773999178680E+00 a       101     0     6     1     1
  5.0821913318242462E-01 a       102     0     6     1     2
 -1.1265642842263484E+00 a       103     0     6     1     3
  1.4057544257702816E+00 a       104     0     6     1     4
  1.3402649314048802E+00 a       105     0     6     1     5
  2.8617154101560893E-01 a       106     0     6     1     6
  2.2734241681423079E-01 a       107     0     6     1     7
 -9.8422255881946263E-01 a       108     0     6     1     8
  8.6688652614513262E-01 a       109     0     6     1     9
 -2.4509893272030423E+00 a       110     0     6     1    10
 -1.5018925930322984E+00 a       111     0     6     1    11
 -2.2613042793723235E+00 a       112     0     6     1    12
 -1.1421716311081916E-01 a       113     0     6     1    13
 -1.1129783411013017E+00 a       114     0     6     1    14
 -1.6401931605640812E+00 a       115     0     6     1    15
  2.7144675952320969E+00 a       116     0     6     1    16
  2.1095527216340764E+00 a       117     0     6     1    17
  1.9089475829294658E-01 a       118     0     6     1    18
  2.3124665711294830E+00 a       119     0     6     1    19
 -2.3801491595860838E+00 a       120     0     6     1    20
  1.2966814486588544E-02 a       121     0     7     1     1
 -1.0389946542986734E+00 a       122     0     7     1     2
  8.4271259641162133E-01 a       123     0     7     1     3
 -2.3661492849269559E+00 a       124     0     7     1     4
 -1.2703367520307716E+00 a       125     0     7     1     5
  2.2990309130354664E-01 a       126     0     7     1     6
  9.5332507491704332E-01 a       127     0     7     1     7
  1.3670654537762075E+00 a       128     0     7     1     8
  1.0731522660250064E+00 a       129     0     7     1     9
  1.2940460467215480E+00 a       130     0     7     1    10
  2.9358405310459607E-01 a       131     0     7     1    11
  1.3929775736655656E-01 a       132     0     7     1    12
 -3.2510123945433189E-01 a       133     0     7     1    13
  4.6076920427832724E-01 a       134     0     7     1    14
  1.7368039226760896E+00 a       135     0     7     1    15
 -1.0701158878626280E+00 a       136     0     7     1    16
  1.3632639384830842E+00 a       137     0     7     1    17
  1.6900724918479983E+00 a       138     0     7     1    18
  5.1423173711282788E-01 a       139     0     7     1    19
 -7.1639895846605073E-01 a       140     0     7     1    20
  1.4955761893950199E+00 a       141     0     8     1     1
 -1.2906145267546414E+00 a       142     0     8     1     2
 -1.7860844626416970E+00 a       143     0     8     1     3
 -2.4638197299101492E+00 a       144     0     8     1     4
 -8.4411234128458656E-01 a       145     0     8     1     5
  7.9335042601653327E-01 a       146     0     8     1     6
 -1.7293565921604657E+00 a       147     0     8     1     7
  6.8749538665491872E-01 a       148     0     8     1     8
  1.5234184965298505E+00 a       149     0     8     1     9
 -4.5436673875200245E-01 a       150     0     8     1    10
  9.9793069800989520E-01 a       151     0     8     1    11
  1.5014684201266904E+00 a       152     0     8     1    12
 -1.4154284775813537E+00 a       153     0     8     1    13
  3.1393323406417911E-01 a       154     0     8     1    14
  1.8118549749226467E-01 a       155     0     8     1    15
  1.1275791285471830E+00 a       156     0     8     1    16
 -3.0520047591278819E-02 a       157     0     8     1    17
  9.9126868249361524E-02 a       158     0     8     1    18
 -1.3608814632996027E-01 a       159     0     8     1    19
 -3.5427863336198950E-01 a       160     0     8     1    20
  8.9441307712555262E-01 a       161     0     9     1     1
  8.4221062988389883E-02 a       162     0     9     1     2
 -1.7933071461603708E-01 a       163     0     9     1     3
 -5.6615272161152674E-01 a       164     0     9     1     4
  9.0068553974141630E-01 a       165     0     9     1     5
 -6.7004842495247341E-01 a       166     0     9     1     6
 -3.2659804237713702E-01 a       167     0     9     1     7
 -4.7575759648383892E-01 a       168     0     9     1     8
  1.0280206527177065E+00 a       169     0     9     1     9
  6.8373549612947848E-01 a       170     0     9     1    10
 -3.5122458239414672E-01 a       171     0     9     1    11
  1.0473885794190247E+00 a       172     0     9     1    12
 -6.7640186953607762E-01 a       173     0     9     1    13
 -1.7497982028089798E-01 a       174     0     9     1    14
  2.1057827861708009E-01 a       175     0     9     1    15
 -2.3232758216378824E-01 a       176     0     9     1    16
 -8.4380893419976577E-01 a       177     0     9     1    17
 -1.1437651102218303E+00 a       178     0     9     1    18
 -5.0681394317673145E-01 a       179     0     9     1    19
 -4.7722532603919465E-01 a       180     0     9     1    20
  7.2056594122656770E-01 a       181     0    10     1     1
  7.2914710880155997E-01 a       182     0    10     1     2
  4.5741872434411074E-01 a       183     0    10     1     3
 -1.1168306425644470E+00 a       184     0    10     1     4
 -1.1598468829837055E-01 a       185     0    10     1     5
  1.9581926778327438E-01 a       186     0    10     1     6
 -1.6133710072470309E+00 a       187     0    10     1     7
  2.6426976795694235E-01 a       188     0    10     1     8
  1.5081186618427952E-01 a       189     0    10     1     9
  8.5094765440063513E-01 a       190     0    10     1    10
  3.9319623934428122E-01 a       191     0    10     1    11
  6.2738719743651805E-01 a       192     0    10     1    12
 -2.0273852177033533E+00 a       193     0    10     1    13
  2.0136829721287366E-01 a       194     0    10     1    14
  5.4635738630919573E-01 a       195     0    10     1    15
 -3.6922538047681597E-01 a       196     0    10     1    16
 -1.6303795356671060E+00 a       197     0    10     1    17
 -9.3109376263701998E-02 a       198     0    10     1    18
 -9.2632003275830921E-01 a       199     0    10     1    19
 -3.1747033875934771E-01 a       200     0    10     1    20
  2.0751403138952998E-01 a       201     0    11     1     1
 -8.5794526058305187E-01 a       202     0    11     1     2
  7.3578286212788324E-01 a       203     0    11     1     3
 -2.2587309085003975E+00 a       204     0    11     1     4
 -1.5181832752129940E+00 a       205     0    11     1     5
  2.7522492016929145E-02 a       206     0    11     1     6
  7.3458940555982832E-01 a       207     0    11     1     7
  1.0101119719172895E+00 a       208     0    11     1     8
  1.1614503179720121E+00 a       209     0    11     1     9
  1.2945522384874846E+00 a       210     0    11     1    10
  3.4753991040767246E-01 a       211     0    11     1    11
 -1.1032930858479974E-01 a       212     0    11     1    12
  5.5162607559474733E-02 a       213     0    11     1    13
  4.9310234767337413E-01 a       214     0    11     1    14
  1.3454969228239519E+00 a       215     0    11     1    15
 -9.8185408954281206E-01 a       216     0    11     1    16
  1.5593866704675230E+00 a       217     0    11     1    17
  1.4449683998804919E+00 a       218     0    11     1    18
  5.0576496696192064E-01 a       219     0    11     1    19
 -6.5316983267601902E-01 a       220     0    11     1    20
  5.6940095229360332E-01 a       221     0    12     1     1
 -2.2351227376759447E-01 a       222     0    12     1     2
 -1.1986245589052477E-01 a       223     0    12     1     3
 -8.4984328484833860E-01 a       224     0    12     1     4
  2.2051967282140875E-01 a       225     0    12     1     5
 -7.1831101941745668E-01 a       226     0    12     1     6
 -2.4899850754405806E-01 a       227     0    12     1     7
 -2.3132692833090118E-01 a       228     0    12     1     8
  7.9799971670742498E-01 a       229     0    12     1     9
  1.0760895648187307E+00 a       230     0    12     1    10
  3.1956926317106900E-02 a       231     0    12     1    11
  8.9582071991336865E-01 a       232     0    12     1    12
 -4.4937140414485993E-01 a       233     0    12     1    13
 -1.7401814361447579E-01 a       234     0    12     1    14
  3.2156565852009494E-01 a       235     0    12     1    15
 -6.2251752628620305E-01 a       236     0    12     1    16
 -1.0473080710498330E+00 a       237     0    12     1    17
 -5.3253412463204042E-01 a       238     0    12     1    18
 -6.6277303850992331E-01 a       239     0    12     1    19
  9.0841904883663088E-02 a       240     0    12     1    20
 -6.1811871506381255E-01 a       241     0    13     1     1
  1.7194173309848976E-01 a       242     0    13     1     2
  1.1140428665728287E-01 a       243     0    13     1     3
  1.1058574335657618E+00 a       244     0    13     1     4
 -7.2381235128463439E-01 a       245     0    13     1     5
 -2.2598606078551856E-01 a       246     0    13     1     6
  3.2173533753289058E-01 a       247     0    13     1     7
  9.6238985956561551E-01 a       248     0    13     1     8
  9.0769826151722199E-01 a       249     0    13     1     9
  2.9416291218277940E-01 a       250     0    13     1    10
 -3.6914116876596348E-01 a       251     0    13     1    11
  2.1200297444402243E+00 a       252     0    13     1    12
 -1.3209078158251715E+00 a       253     0    13     1    13
 -1.3135828652206880E+00 a       254     0    13     1    14
  3.0657858170728175E-01 a       255     0    13     1    15
  1.4537917026824099E+00 a       256     0    13     1    16
  3.5409298322224597E-01 a       257     0    13     1    17
  7.1150454768550209E-01 a       258     0    13     1    18
  6.0145946729957689E-01 a       259     0    13     1    19
  5.0247448407403106E-01 a       260     0    13     1    20
  1.7939525080840199E-01 a       261     0    14     1     1
 -1.0521626600020266E+00 a       262     0    14     1     2
  6.7006110625968229E-01 a       263     0    14     1     3
 -1.8494374049743205E+00 a       264     0    14     1     4
 -1.2252167048907516E+00 a       265     0    14     1     5
  1.4870059663388496E-01 a       266     0    14     1     6
  8.6005681130678602E-01 a       267     0    14     1     7
  1.1502143048791389E+00 a       268     0    14     1     8
  8.4267485126857167E-01 a       269     0    14     1     9
  1.4900351717018736E+00 a       270     0    14     1    10
  1.4632826542545613E-01 a       271     0    14     1    11
 -2.6399364072340831E-01 a       272     0    14     1    12
  4.7847474292536635E-02 a       273     0    14     1    13
  2.9256821573586961E-01 a       274     0    14     1    14
  1.4909906028085025E+00 a       275     0    14     1    15
 -1.1269287265893790E+00 a       276     0    14     1    16
  1.2007727786314777E+00 a       277     0    14     1    17
  1.3920819199125338E+00 a       278     0    14     1    18
  2.1660991293277945E-01 a       279     0    14     1    19
 -6.4116019651926970E-01 a       280     0    14     1    20
 -1.4703116067771002E-01 a       281     0    15     1     1
 -1.8060231918861858E+00 a       282     0    15     1     2
 -1.4483175224740126E+00 a       283     0    15     1     3
 -1.1736388896159302E+00 a       284     0    15     1     4
 -1.8758171516804054E+00 a       285     0    15     1     5
 -7.7410510548827260E-01 a       286     0    15     1     6
  1.5238498279170765E+00 a       287     0    15     1     7
  1.9252054745257041E+00 a       288     0    15     1     8
  1.8625539744525270E+00 a       289     0    15     1     9
  3.2773984592336838E+00 a       290     0    15     1    10
  9.8313456134443478E-01 a       291     0    15     1    11
  2.3340386975510845E+00 a       292     0    15     1    12
 -8.3142131089450955E-01 a       293     0    15     1    13
  3.2126998957349056E+00 a       294     0    15     1    14
  1.8812110037441541E+00 a       295     0    15     1    15
 -4.3470841680511896E+00 a       296     0    15     1    16
 -1.3725452704115768E+00 a       297     0    15     1    17
  2.8030419309098749E+00 a       298     0    15     1    18
 -6.6906384229468729E-01 a       299     0    15     1    19
  2.8373331344219643E+00 a       300     0    15     1    20
  3.6211011749623984E-01 a       301     0    16     1     1
 -1.9172349591812419E+00 a       302     0    16     1     2
 -1.1624695390094239E-01 a       303     0    16     1     3
 -3.4349790761484936E-02 a       304     0    16     1     4
 -7.4044491969424564E-01 a       305     0    16     1     5
 -4.9856552072457422E-01 a       306     0    16     1     6
  4.1408472707668970E-01 a       307     0    16     1     7
  2.8570292458294971E-01 a       308     0    16     1     8
  6.0578864305649172E-01 a       309     0    16     1     9
 -2.6655796263255316E-01 a       310     0    16     1    10
 -4.4390632561479443E-01 a       311     0    16     1    11
 -1.1261734295397927E+00 a       312     0    16     1    12
  1.4548332618638782E+00 a       313     0    16     1    13
  3.6864890315606819E-01 a       314     0    16     1    14
 -6.0147637453164160E-01 a       315     0    16     1    15
  2.3071487214768471E-01 a       316     0    16     1    16
  3.6650536463411498E-01 a       317     0    16     1    17
  1.1021251347044873E-01 a       318     0    16     1    18
  7.4434612952444357E-01 a       319     0    16     1    19
  1.1275216893902664E+00 a       320     0    16     1    20
 -3.2413260416648361E-02 a       321     0    17     1     1
 -1.0610089829418381E+00 a       322     0    17     1     2
  6.7213239992792417E-01 a       323     0    17     1     3
 -1.5801753595511312E+00 a       324     0    17     1     4
 -1.2299114823885544E+00 a       325     0    17     1     5
  3.1717160747691181E-01 a       326     0    17     1     6
  1.1965135311777571E+00 a       327     0    17     1     7
  1.0536382842705581E+00 a       328     0    17     1     8
  8.4301799763224516E-01 a       329     0    17     1     9
  1.4661544109262714E+00 a       330     0    17     1    10
  3.3767607677180228E-01 a       331     0    17     1    11
 -6.8487645553957510E-01 a       332     0    17     1    12
  4.9138162684033598E-01 a       333     0    17     1    13
  3.0200495585260934E-01 a       334     0    17     1    14
  1.3830008166268455E+00 a       335     0    17     1    15
 -1.1597899542372530E+00 a       336     0    17     1    16
  1.3445947428247040E+00 a       337     0    17     1    17
  1.1743553093676959E+00 a       338     0    17     1    18
  2.7791169772683577E-01 a       339     0    17     1    19
 -1.9690782436983775E-01 a       340     0    17     1    20
 -2.9056428484343405E-01 a       341     0    18     1     1
 -5.4523613935096893E-01 a       342     0    18     1     2
 -1.1388829959256253E+00 a       343     0    18     1     3
 -2.8324811947385817E+00 a       344     0    18     1     4
 -6.2651042148939218E-01 a       345     0    18     1     5
  4.7955841358117901E-01 a       346     0    18     1     6
  5.5715975196613277E-01 a       347     0    18     1     7
  1.3013633711396531E+00 a       348     0    18     1     8
  4.5171507548299211E-01 a       349     0    18     1     9
  1.9419536875886745E+00 a       350     0    18     1    10
  8.1555987705772004E-01 a       351     0    18     1    11
 -1.9065599628116632E+00 a       352     0    18     1    12
  7.0015851858879941E-01 a       353     0    18     1    13
 -2.0961902126699222E-01 a       354     0    18     1    14
  1.2116608514836449E+00 a       355     0    18     1    15
 -7.3266870777587079E-01 a       356     0    18     1    16
  9.0922880476587045E-02 a       357     0    18     1    17
  1.4755150976533602E+00 a       358     0    18     1    18
 -6.4795394240489834E-01 a       359     0    18     1    19
  2.0132408283659031E+00 a       360     0    18     1    20
 -7.1524745457204289E-02 a       361     0    19     1     1
 -2.7575469478761705E+00 a       362     0    19     1     2
  9.6622817700334440E-01 a       363     0    19     1     3
 -7.3821695020148215E-01 a       364     0    19     1     4
 -2.0309747590753680E+00 a       365     0    19     1     5
 -8.4342002911553737E-01 a       366     0    19     1     6
 -3.9980698807745879E-02 a       367     0    19     1     7
  5.8244378206987768E-01 a       368     0    19     1     8
  1.7802692283215588E-01 a       369     0    19     1     9
  6.1554556827845164E-01 a       370     0    19     1    10
  2.2595009618951362E-01 a       371     0    19     1    11
 -3.2272249394555008E-01 a       372     0    19     1    12
  2.1910972525373498E+00 a       373     0    19     1    13
  1.6146723676311114E+00 a       374     0    19     1    14
 -1.3639273025675699E-01 a       375     0    19     1    15
 -1.5356241827630628E+00 a       376     0    19     1    16
 -9.0239269821051227E-01 a       377     0    19     1    17
 -2.5412412818913871E-01 a       378     0    19     1    18
  1.1253856352176194E-02 a       379     0    19     1    19
  3.8913631582128367E+00 a       380     0    19     1    20
  5.7992489501172118E-01 a       381     0    20     1     1
 -7.1360644390767769E-01 a       382     0    20     1     2
  5.6858299139264925E-03 a       383     0    20     1     3
  3.7188740371045770E-01 a       384     0    20     1     4
 -7.2997646655301429E-01 a       385     0    20     1     5
 -7.4214239652371983E-01 a       386     0    20     1     6
  9.4891035386983202E-01 a       387     0    20     1     7
  8.0541239070631898E-01 a       388     0    20     1     8
  5.8406755480602823E-01 a       389     0    20     1     9
  1.6025034563697189E+00 a       390     0    20     1    10
  3.5192740525593108E-01 a       391     0    20     1    11
  8.3646626929228396E-01 a       392     0    20     1    12
 -1.9942316672393642E-01 a       393     0    20     1    13
  1.1722217102892525E+00 a       394     0    20     1    14
  6.3719616626349751E-01 a       395     0    20     1    15
 -1.6458362746385540E+00 a       396     0    20     1    16
 -5.6983148435406383E-01 a       397     0    20     1    17
  4.5012481358040635E-01 a       398     0    20     1    18
 -5.2387245480306377E-01 a       399     0    20     1    19
  1.3348623259284891E+00 a       400     0    20     1    20
 -9.1658865957450181E-02 a       401     0    21     1     1
  1.5410081818478624E-01 a       402     0    21     1     2
 -7.3187505767749117E-01 a       403     0    21     1     3
  6.1238799623670537E-01 a       404     0    21     1     4
  1.1066602776908918E+00 a       405     0    21     1     5
  3.3023218430454998E-01 a       406     0    21     1     6
 -7.1004308722479959E-01 a       407     0    21     1     7
  9.0314163090507338E-01 a       408     0    21     1     8
  1.7587299318834324E+00 a       409     0    21     1     9
  2.8482458202600930E-01 a       410     0    21     1    10
 -4.5944807641456781E-01 a       411     0    21     1    11
  8.5950809046394139E-01 a       412     0    21     1    12
 -8.2253499115381912E-01 a       413     0    21     1    13
  7.2861493777876385E-01 a       414     0    21     1    14
  1.2412773257983796E-01 a       415     0    21     1    15
 -2.9339730991338986E-01 a       416     0    21     1    16
 -8.3965221258125866E-01 a       417     0    21     1    17
 -4.4778948653182066E-01 a       418     0    21     1    18
  8.5547675671841378E-02 a       419     0    21     1    19
 -1.9728163976015844E-01 a       420     0    21     1    20
  1.2166325063208843E-02 a       421     0    22     1     1
  1.0458195210647696E+00 a       422     0    22     1     2
 -2.2704013754121710E-01 a       423     0    22     1     3
 -1.7208786339079940E+00 a       424     0    22     1     4
 -2.3914927311736371E+00 a       425     0    22     1     5
  2.1061514750636787E-01 a       426     0    22     1     6
 -4.3603534993987370E-01 a       427     0    22     1     7
  1.0963789402252595E+00 a       428     0    22     1     8
 -6.7237519444285035E-02 a       429     0    22     1     9
  7.9451615612833137E-01 a       430     0    22     1    10
  8.4897709473188110E-01 a       431     0    22     1    11
 -7.0481267670762449E-01 a       432     0    22     1    12
 -2.0990327198170533E+00 a       433     0    22     1    13
  1.8491208714361380E+00 a       434     0    22     1    14
 -7.1799135942869061E-02 a       435     0    22     1    15
 -2.9271242606635726E+00 a       436     0    22     1    16
 -1.4435588026679083E+00 a       437     0    22     1    17
  1.7060889231155882E+00 a       438     0    22     1    18
  1.1653329857586593E-01 a       439     0    22     1    19
  1.7785020093844695E+00 a       440     0    22     1    20
 -1.6530964855190469E-01 a       441     0    23     1     1
  1.4239076956352983E+00 a       442     0    23     1     2
  9.6352997852869904E-01 a       443     0    23     1     3
  1.7270163796982283E+00 a       444     0    23     1     4
  6.2129184478456934E-01 a       445     0    23     1     5
 -1.0103471282135341E+00 a       446     0    23     1     6
  3.8472650844256844E+00 a       447     0    23     1     7
 -3.0753044982176774E+00 a       448     0    23     1     8
  1.5213472746882184E-01 a       449     0    23     1     9
 -2.4876972592734110E+00 a       450     0    23     1    10
 -2.2845864121277395E+00 a       451     0    23     1    11
  1.1388067566820084E+00 a       452     0    23     1    12
  8.8900674078986441E-01 a       453     0    23     1    13
  1.3249733071509668E+00 a       454     0    23     1    14
 -2.9968111745238035E-01 a       455     0    23     1    15
 -1.9424772435440871E+00 a       456     0    23     1    16
  2.1700158117943585E-01 a       457     0    23     1    17
 -6.0288569360283902E-03 a       458     0    23     1    18
  2.8839024068105967E+00 a       459     0    23     1    19
 -2.7771102793931353E+00 a       460     0    23     1    20
  8.3773269218106725E-02 a       461     0    24     1     1
 -1.2924819764240777E-01 a       462     0    24     1     2
 -3.4979891825294779E-01 a       463     0    24     1     3
  9.0535667685124244E-01 a       464     0    24     1     4
  7.5334474792583250E-01 a       465     0    24     1     5
  2.6146312704901692E-01 a       466     0    24     1     6
  2.2734951224381730E+00 a       467     0    24     1     7
 -3.3007798068251970E-01 a       468     0    24     1     8
  7.3492374610161379E-02 a       469     0    24     1     9
 -9.2014596661904802E-01 a       470     0    24     1    10
  4.6039243232665183E-01 a       471     0    24     1    11
  1.9499241019464980E-01 a       472     0    24     1    12
 -3.7712227486829414E-01 a       473     0    24     1    13
  1.0910373475422270E+00 a       474     0    24     1    14
  2.2152709627912529E-01 a       475     0    24     1    15
 -1.0406129441030132E+00 a       476     0    24     1    16
  2.8944415562969017E-01 a       477     0    24     1    17
  8.0956534436718064E-01 a       478     0    24     1    18
  8.5036541667503773E-01 a       479     0    24     1    19
 -1.5816651481639579E+00 a       480     0    24     1    20
  3.2419982274012454E-01 a       481     0    25     1     1
 -7.6797292380075088E-01 a       482     0    25     1     2
 -1.0854354413336707E-01 a       483     0    25     1     3
 -1.1931296589818476E+00 a       484     0    25     1     4
  9.3085391745017121E-01 a       485     0    25     1     5
  5.4768420705216370E-02 a       486     0    25     1     6
 -1.8178874177062179E-01 a       487     0    25     1     7
 -9.7110858281866763E-01 a       488     0    25     1     8
 -6.7263694781562644E-01 a       489     0    25     1     9
 -5.1986715107645332E-01 a       490     0    25     1    10
  3.3510816974368918E-01 a       491     0    25     1    11
 -2.1522777253616030E+00 a       492     0    25     1    12
  1.4420086717459752E+00 a       493     0    25     1    13
  1.1360537254525283E+00 a       494     0    25     1    14
 -7.4689997542418429E-01 a       495     0    25     1    15
 -1.1867017771739956E+00 a       496     0    25     1    16
  5.7039362769461449E-02 a       497     0    25     1    17
 -6.5577381154217629E-01 a       498     0    25     1    18
 -3.9084686174291700E-01 a       499     0    25     1    19
 -4.2138625887477760E-01 a       500     0    25     1    20
  6.4990290971114839E-01 a       501     0    26     1     1
  4.1377767105211677E-01 a       502     0    26     1     2
  3.2629520457855571E-01 a       503     0    26     1     3
  9.4227352599146541E-01 a       504     0    26     1     4
  5.0045624835941815E-01 a       505     0    26     1     5
 -5.3130217949478931E-01 a       506     0    26     1     6
  1.1927617583680399E+00 a       507     0    26     1     7
 -5.7194453726634420E-01 a       508     0    26     1     8
 -8.1987017325132375E-02 a       509     0    26     1     9
 -6.2560027209791880E-01 a       510     0    26     1    10
 -7.4339542036037853E-01 a       511     0    26     1    11
  6.8263533638898100E-01 a       512     0    26     1    12
 -1.0019468471461408E-01 a       513     0    26     1    13
  1.8410305333628236E+00 a       514     0    26     1    14
 -8.7617470152055288E-01 a       515     0    26     1    15
 -2.1548141324947512E+00 a       516     0    26     1    16
  1.1414195093680084E+00 a       517     0    26     1    17
 -8.9847762088196018E-02 a       518     0    26     1    18
  7.1414989685659858E-01 a       519     0    26     1    19
 -1.5154821382708266E+00 a       520     0    26     1    20
 -3.7386288541975360E-01 a       521     0    27     1     1
 -1.9761306214895435E+00 a       522     0    27     1     2
 -1.8379226069244159E+00 a       523     0    27     1     3
  2.4989630644471239E+00 a       524     0    27     1     4
 -5.1240195877056161E-01 a       525     0    27     1     5
 -7.5014786234884201E-01 a       526     0    27     1     6
  7.4791826460639554E-01 a       527     0    27     1     7
  2.8153743341744297E-01 a       528     0    27     1     8
  7.0668776748381082E-02 a       529     0    27     1     9
 -1.5181150456026034E+00 a       530     0    27     1    10
 -5.4438473117253794E-01 a       531     0    27     1    11
  1.7206390624330359E-01 a       532     0    27     1    12
 -1.0162190644689486E+00 a       533     0    27     1    13
  2.4167674125271983E+00 a       534     0    27     1    14
  8.8173843925081585E-01 a       535     0    27     1    15
 -1.4243065345092356E+00 a       536     0    27     1    16
 -1.0112216558631419E+00 a       537     0    27     1    17
  1.0616912613651939E+00 a       538     0    27     1    18
  1.5523838381767543E-01 a       539     0    27     1    19
 -1.1282394857058622E+00 a       540     0    27     1    20
  2.6378113631251482E-01 a       541     0    28     1     1
  6.7770836069874818E-01 a       542     0    28     1     2
 -1.6310875512256251E-01 a       543     0    28     1     3
  2.7552173988372075E-01 a       544     0    28     1     4
 -2.3588186081878009E+00 a       545     0    28     1     5
 -2.6781135719682997E-01 a       546     0    28     1     6
 -6.8600902176634226E-01 a       547     0    28     1     7
 -1.5986247794889047E-01 a       548     0    28     1     8
 -6.0800165587691815E-02 a       549     0    28     1     9
 -2.8325970344113757E-02 a       550     0    28     1    10
 -8.1412278100435864E-01 a       551     0    28     1    11
 -4.7121085084119302E-01 a       552     0    28     1    12
 -4.6146948462916454E-01 a       553     0    28     1    13
  6.4278393207848528E-01 a       554     0    28     1    14
  1.0597253788831009E+00 a       555     0    28     1    15
 -9.1484539175028790E-01 a       556     0    28     1    16
  2.4446297828789901E-01 a       557     0    28     1    17
 -3.6438869854502320E-01 a       558     0    28     1    18
 -1.5457170946202511E-01 a       559     0    28     1    19
 -2.6359210515352177E-01 a       560     0    28     1    20
  1.1893468143702743E+00 a       561     0    29     1     1
  9.0973551940664643E-01 a       562     0    29     1     2
  1.7028077647710052E+00 a       563     0    29     1     3
  1.3325275053717907E+00 a       564     0    29     1     4
  1.2330778114016416E+00 a       565     0    29     1     5
 -8.2037035000686798E-01 a       566     0    29     1     6
  4.0298119266608379E-01 a       567     0    29     1     7
 -8.7936338702980135E-02 a       568     0    29     1     8
 -1.1217780195154381E+00 a       569     0    29     1     9
 -2.4686392463907925E-01 a       570     0    29     1    10
 -2.2693698963077782E-01 a       571     0    29     1    11
 -9.2502498951032541E-01 a       572     0    29     1    12
 -1.2812914968712660E-01 a       573     0    29     1    13
 -1.7968648899194553E+00 a       574     0    29     1    14
 -1.2112067718425650E+00 a       575     0    29     1    15
  2.0149076815444200E+00 a       576     0    29     1    16
  8.7922253203372935E-01 a       577     0    29     1    17
 -1.7540588579581797E+00 a       578     0    29     1    18
 -4.3369167364797956E-01 a       579     0    29     1    19
 -4.9728897523015186E-01 a       580     0    29     1    20
  5.7671977474938026E-02 a       581     0    30     1     1
  4.4922017192014030E+00 a       582     0    30     1     2
 -2.8275209264902229E-01 a       583     0    30     1     3
  1.1785739250509562E+00 a       584     0    30     1     4
 -1.0735899890532923E-01 a       585     0    30     1     5
  5.4535979516120281E-01 a       586     0    30     1     6
 -6.6728784425538290E-01 a       587     0    30     1     7
 -2.2544706693897916E+00 a       588     0    30     1     8
 -1.6152764332891556E+00 a       589     0    30     1     9
 -3.6761346905196941E+00 a       590     0    30     1    10
 -1.9457778853611567E+00 a       591     0    30     1    11
 -1.8268504563782935E+00 a       592     0    30     1    12
 -2.7355352781457083E+00 a       593     0    30     1    13
  1.2232887685186167E+00 a       594     0    30     1    14
 -2.3071724809998773E+00 a       595     0    30     1    15
 -6.1357737140134783E-01 a       596     0    30     1    16
  2.6895483929219310E-01 a       597     0    30     1    17
  1.0565348807608224E+00 a       598     0    30     1    18
  2.8350790811664570E+00 a       599     0    30     1    19
 -4.5712076944420899E+00 a       600     0    30     1    20
 -3.6449046390612988E-01 a       601     0    31     1     1
  7.1513735223223951E-01 a       602     0    31     1     2
 -7.6525894986405885E-01 a       603     0    31     1     3
  5.0871262108501636E-01 a       604     0    31     1     4
 -4.6417534177824843E-01 a       605     0    31     1     5
  2.6219845102384992E-01 a       606     0    31     1     6
 -1.0905664863341789E-01 a       607     0    31     1     7
  4.5984711435491310E-01 a       608     0    31     1     8
 -9.2709484565342215E-01 a       609     0    31     1     9
 -6.5572510588650240E-02 a       610     0    31     1    10
  1.8147197410947644E+00 a       611     0    31     1    11
 -1.9147160601387456E+00 a       612     0    31     1    12
  1.9146293361088440E+00 a       613     0    31     1    13
 -7.5580305908987311E-01 a       614     0    31     1    14
  6.6165054291161984E-02 a       615     0    31     1    15
 -1.3140199062771199E-01 a       616     0    31     1    16
  9.8272550555269367E-01 a       617     0    31     1    17
 -2.4446767495120605E-01 a       618     0    31     1    18
  6.3151581008333990E-01 a       619     0    31     1    19
  1.2184897299731303E+00 a       620     0    31     1    20
 -6.9263269539402827E-01 a       621     0    32     1     1
 -3.9991229352151175E-01 a       622     0    32     1     2
  4.1777954612072510E-01 a       623     0    32     1     3
 -2.1395178236025528E-01 a       624     0    32     1     4
 -9.4298296530286030E-01 a       625     0    32     1     5
 -5.5799604733723296E-01 a       626     0    32     1     6
 -6.1779106118411187E-01 a       627     0    32     1     7
 -1.9377435554883080E-01 a       628     0    32     1     8
 -7.9306267015247522E-01 a       629     0    32     1     9
  7.8407091120582473E-02 a       630     0    32     1    10
 -9.6954258736725391E-02 a       631     0    32     1    11
 -1.2892287854065593E-01 a       632     0    32     1    12
  1.4197940150763055E+00 a       633     0    32     1    13
 -1.0213049016471727E+00 a       634     0    32     1    14
 -1.1369369789379737E+00 a       635     0    32     1    15
  7.1722524800786913E-01 a       636     0    32     1    16
  9.1302706805046774E-01 a       637     0    32     1    17
 -2.7252216877825697E-01 a       638     0    32     1    18
  1.5890096903208653E-01 a       639     0    32     1    19
  1.4093310019325700E+00 a       640     0    32     1    20
 -6.8250107923368519E-01 a       641     0    33     1     1
 -3.7787311932978518E-01 a       642     0    33     1     2
  8.7471321008567060E-01 a       643     0    33     1     3
  2.2778121389498258E+00 a       644     0    33     1     4
 -7.2097518711930764E-02 a       645     0    33     1     5
 -2.3976760156848390E-01 a       646     0    33     1     6
  1.0976280607160802E+00 a       647     0    33     1     7
 -7.0749516497577136E-01 a       648     0    33     1     8
  1.6872337907579624E-01 a       649     0    33     1     9
 -2.7831424598185289E-01 a       650     0    33     1    10
 -1.2918271213031562E-01 a       651     0    33     1    11
 -7.0805980206700747E-01 a       652     0    33     1    12
  2.9260613540488380E+00 a       653     0    33     1    13
  7.2618163385416823E-02 a       654     0    33     1    14
  4.9429428219091698E-01 a       655     0    33     1    15
 -3.3555860308147206E-01 a       656     0    33     1    16
 -1.7086602390838130E+00 a       657     0    33     1    17
 -2.4795623311922381E+00 a       658     0    33     1    18
 -1.1924375903925878E-01 a       659     0    33     1    19
  2.9464772206953089E+00 a       660     0    33     1    20
 -2.6987756893821196E-01 a       661     0    34     1     1
  9.4053998453021936E-01 a       662     0    34     1     2
  1.7046934734331294E+00 a       663     0    34     1     3
  2.1664623535640124E+00 a       664     0    34     1     4
  1.1595282684835353E+00 a       665     0    34     1     5
 -1.4452009579363456E+00 a       666     0    34     1     6
  3.2358052549218694E+00 a       667     0    34     1     7
 -1.1618724932086811E-02 a       668     0    34     1     8
 -7.4248426278253987E-01 a       669     0    34     1     9
  1.1821020988297557E+00 a       670     0    34     1    10
 -1.3945642124279805E+00 a       671     0    34     1    11
  4.5503829287160646E-01 a       672     0    34     1    12
  8.7846217845493346E-01 a       673     0    34     1    13
  1.0659194499997318E+00 a       674     0    34     1    14
 -2.8991305825700725E-01 a       675     0    34     1    15
 -1.4058765874303210E+00 a       676     0    34     1    16
  1.4157834294175629E+00 a       677     0    34     1    17
 -1.4998056046919896E+00 a       678     0    34     1    18
  1.2524274235123189E+00 a       679     0    34     1    19
  7.9309127238829402E-01 a       680     0    34     1    20
 -2.1680731525761243E-01 a       681     0    35     1     1
 -1.2064360418542432E+00 a       682     0    35     1     2
 -1.1495722771730397E+00 a       683     0    35     1     3
 -6.1761593552695437E-01 a       684     0    35     1     4
 -6.9715110650391299E-01 a       685     0    35     1     5
  5.2545095389097785E-01 a       686     0    35     1     6
  9.8470883314633262E-01 a       687     0    35     1     7
  1.3825583900611160E+00 a       688     0    35     1     8
  3.4041086876143561E-01 a       689     0    35     1     9
 -7.2142906209441815E-01 a       690     0    35     1    10
 -1.7870489183572507E+00 a       691     0    35     1    11
  1.7438395250493419E+00 a       692     0    35     1    12
 -3.3393773950508852E+00 a       693     0    35     1    13
  2.1794174712906673E+00 a       694     0    35     1    14
 -4.1152246009898413E-01 a       695     0    35     1    15
 -2.1222154285412409E+00 a       696     0    35     1    16
  1.8453198305986494E-02 a       697     0    35     1    17
  2.5616248838172637E-02 a       698     0    35     1    18
  1.4909858015795545E+00 a       699     0    35     1    19
 -4.9748141920860817E-01 a       700     0    35     1    20
 -1.4262745770880174E+00 a       701     0    36     1     1
 -3.2123941205297815E+00 a       702     0    36     1     2
 -1.0232047411303247E+00 a       703     0    36     1     3
 -2.1366295157345943E+00 a       704     0    36     1     4
  2.5541222282413085E+00 a       705     0    36     1     5
  1.9799207536652923E+00 a       706     0    36     1     6
  3.1985033275650556E+00 a       707     0    36     1     7
  5.2169253730819314E+00 a       708     0    36     1     8
 -5.3976885423326548E-01 a       709     0    36     1     9
  4.6505088068436945E-01 a       710     0    36     1    10
  2.3909907500540721E+00 a       711     0    36     1    11
 -6.6977800958963121E+00 a       712     0    36     1    12
  5.5672906571737499E+00 a       713     0    36     1    13
 -1.6580718480552057E+00 a       714     0    36     1    14
  4.3916405478148999E+00 a       715     0    36     1    15
 -1.2173325156733850E+00 a       716     0    36     1    16
 -2.4496381275687928E-01 a       717     0    36     1    17
 -1.0602773976512918E+00 a       718     0    36     1    18
 -3.9012445148725421E+00 a       719     0    36     1    19
  1.6642499984975401E+00 a       720     0    36     1    20
 -4.7131533328498021E-01 a       721     0    37     1     1
 -3.6815545692579121E-01 a       722     0    37     1     2
  1.4287387090463287E-02 a       723     0    37     1     3
 -1.2824113750711750E+00 a       724     0    37     1     4
  1.2909348067221935E+00 a       725     0    37     1     5
  1.3471131872557798E+00 a       726     0    37     1     6
  1.4182083403526063E-01 a       727     0    37     1     7
  1.5373527572010999E+00 a       728     0    37     1     8
  2.0158269107462456E-01 a       729     0    37     1     9
 -7.6001390599698160E-01 a       730     0    37     1    10
  1.0084763394695753E+00 a       731     0    37     1    11
 -1.7739546092474794E+00 a       732     0    37     1    12
  3.6813850499707873E-01 a       733     0    37     1    13
 -1.7735044415905379E+00 a       734     0    37     1    14
  3.6536769876754510E-01 a       735     0    37     1    15
  1.6363753720839338E+00 a       736     0    37     1    16
  4.4535953959117636E-01 a       737     0    37     1    17
 -3.5329720013316890E-01 a       738     0    37     1    18
  2.0336947727950037E+00 a       739     0    37     1    19
  2.2193393478101395E+00 a       740     0    37     1    20
 -6.5502090270919611E-01 a       741     0    38     1     1
 -3.4537231504965860E-01 a       742     0    38     1     2
  1.8607381846391377E-01 a       743     0    38     1     3
 -7.5701074984807618E-02 a       744     0    38     1     4
  1.9849737256763365E+00 a       745     0    38     1     5
  2.0613280768161743E-01 a       746     0    38     1     6
  5.6979671260757603E-01 a       747     0    38     1     7
 -1.1484656249761091E-02 a       748     0    38     1     8
  1.9321616367507710E-01 a       749     0    38     1     9
  2.8731780941843826E-01 a       750     0    38     1    10
  6.7802623980461141E-01 a       751     0    38     1    11
 -8.1204015016085221E-02 a       752     0    38     1    12
  5.1499935320868773E-01 a       753     0    38     1    13
 -5.1589972305539267E-01 a       754     0    38     1    14
 -7.9332757965812406E-01 a       755     0    38     1    15
  8.5109349847141569E-01 a       756     0    38     1    16
 -2.1359412056169508E-01 a       757     0    38     1    17
  3.2775263314764747E-01 a       758     0    38     1    18
 -3.0543069590837185E-01 a       759     0    38     1    19
  1.4093766131060254E-01 a       760     0    38     1    20
 -7.2237541444636144E-01 a       761     0    39     1     1
 -2.2943178366102446E+00 a       762     0    39     1     2
  1.8762387043771946E+00 a       763     0    39     1     3
  9.7070055118177501E-01 a       764     0    39     1     4
 -2.0018320956871000E-01 a       765     0    39     1     5
 -2.2287647978365177E+00 a       766     0    39     1     6
  3.3785519638993091E+00 a       767     0    39     1     7
 -7.7161327397643009E-01 a       768     0    39     1     8
  1.8302548401257585E-01 a       769     0    39     1     9
  1.2942571133284264E+00 a       770     0    39     1    10
 -1.6438940499324045E-01 a       771     0    39     1    11
  1.7917604765796061E-01 a       772     0    39     1    12
  3.7496523695720754E+00 a       773     0    39     1    13
  1.0297674607469998E+00 a       774     0    39     1    14
  2.4411822111053723E+00 a       775     0    39     1    15
 -1.5866808318251648E+00 a       776     0    39     1    16
 -3.6128507255984810E-01 a       777     0    39     1    17
 -2.8257056961909952E+00 a       778     0    39     1    18
  3.4539423859176001E-02 a       779     0    39     1    19
  1.3869199610254885E+00 a       780     0    39     1    20
  6.7304811098428622E-03 a       781     0    40     1     1
 -1.7535807583887744E+00 a       782     0    40     1     2
  1.2812482925986675E+00 a       783     0    40     1     3
  2.0922121007937355E-01 a       784     0    40     1     4
 -5.2189962959110914E-01 a       785     0    40     1     5
 -1.2184682622294132E+00 a       786     0    40     1     6
  1.5280913408305379E+00 a       787     0    40     1     7
  1.3534617134118582E-01 a       788     0    40     1     8
  1.1681293667749324E+00 a       789     0    40     1     9
 -1.8004998200794262E+00 a       790     0    40     1    10
  3.1063352066002098E-01 a       791     0    40     1    11
  1.6174884252925357E+00 a       792     0    40     1    12
  2.1829061594789541E+00 a       793     0    40     1    13
 -1.0050903308508066E+00 a       794     0    40     1    14
  9.2804240885336697E-01 a       795     0    40     1    15
 -1.6347658893367338E+00 a       796     0    40     1    16
 -2.1804017473056749E+00 a       797     0    40     1    17
  6.8598122721081967E-01 a       798     0    40     1    18
 -5.4908833196616857E-01 a       799     0    40     1    19
  2.6100594058804416E-01 a       800     0    40     1    20
 -8.7330634082990322E-01 a       801     0    41     1     1
 -1.0316480822192289E+00 a       802     0    41     1     2
  2.3678226065659693E+00 a       803     0    41     1     3
 -9.5655149255333038E-01 a       804     0    41     1     4
 -2.4683900555458291E+00 a       805     0    41     1     5
 -1.6739263691430282E+00 a       806     0    41     1     6
  2.4820193642119803E+00 a       807     0    41     1     7
  7.5392183939931445E-01 a       808     0    41     1     8
  2.7785402854133040E-01 a       809     0    41     1     9
 -1.6005344530621808E+00 a       810     0    41     1    10
 -1.1872290779972507E-01 a       811     0    41     1    11
  1.2132772401677521E+00 a       812     0    41     1    12
  2.4516815816847077E+00 a       813     0    41     1    13
 -5.3002812499886942E-01 a       814     0    41     1    14
  2.2859208433411596E-01 a       815     0    41     1    15
  7.6596091228042162E-01 a       816     0    41     1    16
 -3.0945958868434037E-01 a       817     0    41     1    17
 -1.3557261091853583E+00 a       818     0    41     1    18
  4.6253262429415354E-01 a       819     0    41     1    19
 -2.0846717409688328E-01 a       820     0    41     1    20
 -6.0842617532051868E-01 a       821     0    42     1     1
  4.7771281789965653E-01 a       822     0    42     1     2
  5.8844012573044191E-01 a       823     0    42     1     3
  1.2778281361860080E+00 a       824     0    42     1     4
 -8.6329544378524936E-01 a       825     0    42     1     5
  4.5679206931117561E-01 a       826     0    42     1     6
 -2.7432925148573473E-01 a       827     0    42     1     7
  3.6128134824711339E-01 a       828     0    42     1     8
  9.0410825563609654E-01 a       829     0    42     1     9
 -4.2428755145298971E-03 a       830     0    42     1    10
 -4.9741011611840869E-01 a       831     0    42     1    11
  9.0171148796383960E-01 a       832     0    42     1    12
 -1.3893738422724453E+00 a       833     0    42     1    13
 -1.2741984706404338E-01 a       834     0    42     1    14
 -1.7510831982984060E-01 a       835     0    42     1    15
 -1.5474958062156896E-01 a       836     0    42     1    16
 -3.1454111751802588E-01 a       837     0    42     1    17
  7.6120876533481507E-01 a       838     0    42     1    18
 -4.1691343140293946E-01 a       839     0    42     1    19
  1.7976134561689464E-01 a       840     0    42     1    20
 -9.9559128807269748E-01 a       841     0    43     1     1
 -5.2990615257409050E-02 a       842     0    43     1     2
 -1.6234084185593629E+00 a       843     0    43     1     3
  9.2569361235750769E-01 a       844     0    43     1     4
 -3.0812717795910771E-01 a       845     0    43     1     5
 -4.4126697746727422E-01 a       846     0    43     1     6
 -6.7678536372653653E-01 a       847     0    43     1     7
  1.0327624196497107E+00 a       848     0    43     1     8
  5.3911971348725440E-01 a       849     0    43     1     9
  6.9956078787281828E-01 a       850     0    43     1    10
 -6.2011725728956990E-01 a       851     0    43     1    11
  5.6535687365667853E-01 a       852     0    43     1    12
  1.4143242242532147E-01 a       853     0    43     1    13
 -2.8169442516074961E-01 a       854     0    43     1    14
 -8.1001918196941070E-01 a       855     0    43     1    15
  7.0803567361017661E-01 a       856     0    43     1    16
 -1.6881240495766519E+00 a       857     0    43     1    17
 -1.2902226910235626E+00 a       858     0    43     1    18
 -5.6264257371353255E-01 a       859     0    43     1    19
  2.0982003573734760E+00 a       860     0    43     1    20
 -1.2085052364388380E+00 a       861     0    44     1     1
  1.2210407460647456E-01 a       862     0    44     1     2
 -8.5382518393133733E-01 a       863     0    44     1     3
 -2.6481414898046873E-01 a       864     0    44     1     4
  3.4452961923691411E-01 a       865     0    44     1     5
  8.9542272884222507E-01 a       866     0    44     1     6
 -1.7468313628879690E+00 a       867     0    44     1     7
  1.3878225000320430E+00 a       868     0    44     1     8
  3.5660598764627388E-01 a       869     0    44     1     9
 -1.0226510425626560E+00 a       870     0    44     1    10
  2.3639190535208537E-01 a       871     0    44     1    11
 -7.9269104081673547E-01 a       872     0    44     1    12
 -4.6903665135899836E-01 a       873     0    44     1    13
 -1.9589360027475389E+00 a       874     0    44     1    14
  8.2662477495460263E-01 a       875     0    44     1    15
  1.6662756581607006E+00 a       876     0    44     1    16
  9.1024247826892307E-02 a       877     0    44     1    17
  1.1481273154520373E+00 a       878     0    44     1    18
 -1.0223174699039455E+00 a       879     0    44     1    19
  1.0598344550371598E-01 a       880     0    44     1    20
 -3.5240099392097063E-01 a       881     0    45     1     1
  1.1045298051078731E+00 a       882     0    45     1     2
  1.5454357614263001E-01 a       883     0    45     1     3
  1.7741955982859620E-01 a       884     0    45     1     4
 -2.3600274641445012E+00 a       885     0    45     1     5
  2.9683347153642287E-01 a       886     0    45     1     6
 -2.0893704875969545E+00 a       887     0    45     1     7
 -4.7553049245538992E-01 a       888     0    45     1     8
  1.6854541142200781E+00 a       889     0    45     1     9
  6.6260178954691518E-01 a       890     0    45     1    10
 -3.4311801757381057E-02 a       891     0    45     1    11
  2.3013371803139799E+00 a       892     0    45     1    12
 -2.1059119450639092E+00 a       893     0    45     1    13
  1.6301491407282764E-01 a       894     0    45     1    14
 -3.8180685371097045E+00 a       895     0    45     1    15
  8.5241944044350859E-01 a       896     0    45     1    16
 -1.1156750238557280E+00 a       897     0    45     1    17
  3.6475768076540103E+00 a       898     0    45     1    18
  2.2505713684794966E+00 a       899     0    45     1    19
  1.3734104248911831E+00 a       900     0    45     1    20
  5.8244226804453247E-01 a       901     0    46     1     1
 -1.6314364580347968E-01 a       902     0    46     1     2
  5.1060487233938179E-01 a       903     0    46     1     3
  7.8978607050893712E-01 a       904     0    46     1     4
  6.7597501472413724E-01 a       905     0    46     1     5
  6.6926852625761327E-02 a       906     0    46     1     6
 -5.9996480184965018E-01 a       907     0    46     1     7
 -1.1776527274165829E+00 a       908     0    46     1     8
 -2.3795964705856218E-01 a       909     0    46     1     9
 -1.3349935832594915E+00 a       910     0    46     1    10
 -6.5862895184930792E-01 a       911     0    46     1    11
  5.2665187484214859E-01 a       912     0    46     1    12
  4.6892381286476070E-01 a       913     0    46     1    13
 -2.2104759389307521E-01 a       914     0    46     1    14
 -2.4345011491127844E-01 a       915     0    46     1    15
 -3.6350387091071812E-01 a       916     0    46     1    16
  5.8708401573095559E-01 a       917     0    46     1    17
  9.3789258864457839E-02 a       918     0    46     1    18
  1.3622109312398972E-02 a       919     0    46     1    19
  5.7327736045349308E-04 a       920     0    46     1    20
  6.7953134018684480E-01 a       921     0    47     1     1
 -1.5140508753345796E+00 a       922     0    47     1     2
 -1.9210193915039200E-01 a       923     0    47     1     3
 -8.9298955593163820E-01 a       924     0    47     1     4
  7.3979943939226467E-01 a       925     0    47     1     5
  6.3815193356502697E-01 a       926     0    47     1     6
  2.1140988702681010E-01 a       927     0    47     1     7
  8.6301515372377691E-01 a       928     0    47     1     8
  1.2965958285753093E-01 a       929     0    47     1     9
  1.8557377097030845E+00 a       930     0    47     1    10
  5.5988027499036830E-01 a       931     0    47     1    11
 -1.0048228549484048E+00 a       932     0    47     1    12
  1.0061802416684804E+00 a       933     0    47     1    13
 -1.4855828112049230E-01 a       934     0    47     1    14
  8.8789921333581390E-01 a       935     0    47     1    15
 -1.6143602939616514E-01 a       936     0    47     1    16
  7.5121416012020781E-01 a       937     0    47     1    17
  1.0413821187087773E+00 a       938     0    47     1    18
 -1.8233337548649502E+00 a       939     0    47     1    19
  8.6184187463283746E-01 a       940     0    47     1    20
 -3.8802977222102647E-01 a       941     0    48     1     1
 -7.6680643666541592E-01 a       942     0    48     1     2
  3.6387977772560302E-02 a       943     0    48     1     3
  2.8553055913037889E-01 a       944     0    48     1     4
  7.0175161833550148E-01 a       945     0    48     1     5
  3.2084796997841125E-01 a       946     0    48     1     6
  7.8808488242346209E-01 a       947     0    48     1     7
  8.4442029245776218E-01 a       948     0    48     1     8
 -4.2226458497132646E-01 a       949     0    48     1     9
  8.9384930572311028E-01 a       950     0    48     1    10
  5.2808764566168442E-01 a       951     0    48     1    11
  4.6254692733079866E-01 a       952     0    48     1    12
  4.7364504604219293E-01 a       953     0    48     1    13
  6.4981208588595774E-01 a       954     0    48     1    14
  4.8938541606720942E-01 a       955     0    48     1    15
 -2.7001234814001979E-01 a       956     0    48     1    16
 -1.3604784569751056E+00 a       957     0    48     1    17
 -8.7551402463838723E-01 a       958     0    48     1    18
 -3.7169328001316682E-01 a       959     0    48     1    19
  3.5734216444638042E-03 a       960     0    48     1    20
 -6.1554322158837438E-01 a       961     0    49     1     1
 -6.2821493595723965E-01 a       962     0    49     1     2
 -1.0773100751146132E+00 a       963     0    49     1     3
 -5.8377373838580704E-01 a       964     0    49     1     4
  1.1425778407260863E+00 a       965     0    49     1     5
 -6.0514842956301118E-01 a       966     0    49     1     6
  3.6011139976201867E-01 a       967     0    49     1     7
  1.1113437684330894E+00 a       968     0    49     1     8
  7.8163371825203320E-01 a       969     0    49     1     9
 -9.5288538776911347E-01 a       970     0    49     1    10
 -3.0942026759793145E-01 a       971     0    49     1    11
  8.7594107778587038E-01 a       972     0    49     1    12
 -2.3496256173765950E-01 a       973     0    49     1    13
  4.7262260123126071E-01 a       974     0    49     1    14
  1.1381481381604643E+00 a       975     0    49     1    15
 -1.2672792794247081E+00 a       976     0    49     1    16
  7.0747192489210142E-01 a       977     0    49     1    17
  9.5440123211161326E-02 a       978     0    49     1    18
 -5.6378487660444543E-01 a       979     0    49     1    19
 -1.6887211396926234E+00 a       980     0    49     1    20
  2.7772714367264140E-01 a       981     0    50     1     1
  5.7951014811128843E-01 a       982     0    50     1     2
 -1.0424979774923366E+00 a       983     0    50     1     3
 -1.4223967873123958E-01 a       984     0    50     1     4
 -1.4158105262105021E+00 a       985     0    50     1     5
 -5.5542102158295192E-01 a       986     0    50     1     6
  8.6591610907328323E-02 a       987     0    50     1     7
  2.4298196792715754E-01 a       988     0    50     1     8
  6.5162269217106294E-01 a       989     0    50     1     9
 -2.4805634068330096E-01 a       990     0    50     1    10
  1.0254076119088605E-01 a       991     0    50     1    11
 -1.2659025773668360E+00 a       992     0    50     1    12
 -3.3246454508492952E-03 a       993     0    50     1    13
  1.8706029601929830E-01 a       994     0    50     1    14
 -7.8867285298225154E-01 a       995     0    50     1    15
  4.0805262738128217E-01 a       996     0    50     1    16
  5.4547099984978797E-01 a       997     0    50     1    17
  8.9332587784319317E-01 a       998     0    50     1    18
 -7.0305599137335043E-02 a       999     0    50     1    19
  6.1485392042647480E-01 a      1000     0    50     1    20
  1.6148919012782217E+00 a      1001     0    51     1     1
 -8.7871134689621461E-03 a      1002     0    51     1     2
  7.4006629890099640E-01 a      1003     0    51     1     3
 -6.5001679110468355E-03 a      1004     0    51     1     4
 -3.0602315183671858E-01 a      1005     0    51     1     5
 -2.8703054366697733E-01 a      1006     0    51     1     6
  3.5842958627919974E-01 a      1007     0    51     1     7
 -4.7167742644595023E-01 a      1008     0    51     1     8
 -9.6508041251078769E-01 a      1009     0    51     1     9
 -4.3748896732461427E-02 a      1010     0    51     1    10
  2.2756598679310958E-01 a      1011     0    51     1    11
 -5.7417440643435280E-01 a      1012     0    51     1    12
  2.7625584393557660E-02 a      1013     0    51     1    13
  8.6817486974521396E-01 a      1014     0    51     1    14
  7.1456118143578340E-01 a      1015     0    51     1    15
 -4.7727416965542324E-01 a      1016     0    51     1    16
  5.5368034196846558E-03 a      1017     0    51     1    17
 -1.0217778808231954E+00 a      1018     0    51     1    18
  2.1856203609718930E-01 a      1019     0    51     1    19
 -1.2147468934445411E-01 a      1020     0    51     1    20
  5.1166469543765158E-01 a      1021     0    52     1     1
 -7.0997872145376040E-01 a      1022     0    52     1     2
 -1.0676649459792682E+00 a      1023     0    52     1     3
 -2.1517043347242120E-02 a      1024     0    52     1     4
 -6.2262986306279477E-01 a      1025     0    52     1     5
 -3.0535329203448658E-01 a      1026     0    52     1     6
  2.8058130488418510E-03 a      1027     0    52     1     7
  8.8576459504452498E-01 a      1028     0    52     1     8
 -4.9378912888773036E-01 a      1029     0    52     1     9
 -1.8406125708482435E-01 a      1030     0    52     1    10
  4.5389332778829339E-01 a      1031     0    52     1    11
 -4.2212902794760404E-01 a      1032     0    52     1    12
 -1.0441970148522766E+00 a      1033     0    52     1    13
 -1.0929660890200496E-01 a      1034     0    52     1    14
  1.2940708492821140E-02 a      1035     0    52     1    15
 -1.0050553908592568E+00 a      1036     0    52     1    16
 -8.7443611095836005E-01 a      1037     0    52     1    17
 -1.8757633504841273E-01 a      1038     0    52     1    18
 -1.1858523508736578E+00 a      1039     0    52     1    19
  5.6790305438274161E-03 a      1040     0    52     1    20
 -1.0237085853479051E+00 a      1041     0    53     1     1
  2.4642030201392995E+00 a      1042     0    53     1     2
 -2.1185057330227625E-01 a      1043     0    53     1     3
  7.1299537577723826E-01 a      1044     0    53     1     4
 -1.0720765894156321E+00 a      1045     0    53     1     5
 -2.8799608444743758E+00 a      1046     0    53     1     6
  4.4263963739848480E+00 a      1047     0    53     1     7
  2.0313840158551320E+00 a      1048     0    53     1     8
  1.7763037164424708E-01 a      1049     0    53     1     9
  4.3535783170770417E+00 a      1050     0    53     1    10
 -2.2223495825514017E-01 a      1051     0    53     1    11
 -7.4409186846314879E-01 a      1052     0    53     1    12
 -1.6361761133800026E+00 a      1053     0    53     1    13
  9.6192112706622324E-01 a      1054     0    53     1    14
 -6.9447985431815393E-02 a      1055     0    53     1    15
 -2.4610723841659534E+00 a      1056     0    53     1    16
  2.0010472588204413E+00 a      1057     0    53     1    17
  5.4488942611738111E-01 a      1058     0    53     1    18
 -3.6688087828505228E-01 a      1059     0    53     1    19
  2.1901197200495650E+00 a      1060     0    53     1    20
 -1.8006962905696355E+00 a      1061     0    54     1     1
 -6.0983764293480691E+00 a      1062     0    54     1     2
  2.4090697017988369E+00 a      1063     0    54     1     3
  1.3822638689736219E-01 a      1064     0    54     1     4
 -2.5026661411406043E-01 a      1065     0    54     1     5
 -8.2751035195921877E-02 a      1066     0    54     1     6
  4.7543013373390219E-01 a      1067     0    54     1     7
  5.1326691383996412E-02 a      1068     0    54     1     8
  3.8916543657258242E+00 a      1069     0    54     1     9
  4.9846429358150723E-01 a      1070     0    54     1    10
 -9.5216017936719821E-01 a      1071     0    54     1    11
  7.1852624975425465E+00 a      1072     0    54     1    12
  3.3767725261472048E+00 a      1073     0    54     1    13
 -5.3275977916240758E-01 a      1074     0    54     1    14
  1.6162610470127070E-01 a      1075     0    54     1    15
  1.2408197924713968E+00 a      1076     0    54     1    16
 -3.7354461723611445E+00 a      1077     0    54     1    17
  2.7367131494044035E+00 a      1078     0    54     1    18
 -1.7038200433331283E+00 a      1079     0    54     1    19
  6.9698220307902203E-01 a      1080     0    54     1    20
  8.7513858255197341E-01 a      1081     0    55     1     1
  5.1311329310863940E-01 a      1082     0    55     1     2
 -1.2037664748044061E+00 a      1083     0    55     1     3
 -1.9953971978303957E+00 a      1084     0    55     1     4
 -6.8041849491846074E-01 a      1085     0    55     1     5
 -1.0569848852218522E+00 a      1086     0    55     1     6
 -1.2639506322355309E+00 a      1087     0    55     1     7
  6.7844640879574630E-03 a      1088     0    55     1     8
  4.0421188607025860E-01 a      1089     0    55     1     9
  4.0667739850286493E+00 a      1090     0    55     1    10
  1.9141868726027758E-02 a      1091     0    55     1    11
  4.1329093402792960E+00 a      1092     0    55     1    12
 -1.8331550739159472E+00 a      1093     0    55     1    13
 -6.0766006210825929E-01 a      1094     0    55     1    14
 -1.0673594402814000E+00 a      1095     0    55     1    15
  1.6631505287372073E+00 a      1096     0    55     1    16
 -7.2028420863914810E-02 a      1097     0    55     1    17
 -1.2080133728414134E-01 a      1098     0    55     1    18
  7.2566187134111490E-02 a      1099     0    55     1    19
  1.2577673299799077E+00 a      1100     0    55     1    20
 -1.0875653036278852E+00 a      1101     0    56     1     1
  2.2887951767854062E+00 a      1102     0    56     1     2
  1.1647395614967843E-01 a      1103     0    56     1     3
  7.7163941288053239E-01 a      1104     0    56     1     4
 -1.2197522409414661E+00 a      1105     0    56     1     5
 -3.1915670624854022E+00 a      1106     0    56     1     6
  4.1918142227881940E+00 a      1107     0    56     1     7
  1.9107608249577557E+00 a      1108     0    56     1     8
  5.7777500110823901E-02 a      1109     0    56     1     9
  4.0018701794088427E+00 a      1110     0    56     1    10
 -5.2661246160677161E-02 a      1111     0    56     1    11
 -4.7557155717405392E-01 a      1112     0    56     1    12
 -1.4071974229800950E+00 a      1113     0    56     1    13
  8.2947146868118771E-01 a      1114     0    56     1    14
 -2.3331544295618224E-02 a      1115     0    56     1    15
 -2.4844397696456011E+00 a      1116     0    56     1    16
  1.9335111892906505E+00 a      1117     0    56     1    17
  3.3981402699848628E-01 a      1118     0    56     1    18
 -4.4570946402136796E-01 a      1119     0    56     1    19
  2.2334752381818181E+00 a      1120     0    56     1    20
 -1.6019506542330513E+00 a      1121     0    57     1     1
 -2.5694346209043988E+00 a      1122     0    57     1     2
 -7.2570179005979318E-01 a      1123     0    57     1     3
 -3.2436519199376637E+00 a      1124     0    57     1     4
 -1.5606484289557983E+00 a      1125     0    57     1     5
  4.5614859137393005E+00 a      1126     0    57     1     6
 -2.5046641571520376E+00 a      1127     0    57     1     7
  3.7970947126169632E+00 a      1128     0    57     1     8
  3.6080100947673275E+00 a      1129     0    57     1     9
  2.0763178664421198E+00 a      1130     0    57     1    10
  3.3370972670365902E+00 a      1131     0    57     1    11
  1.4050202752549936E+00 a      1132     0    57     1    12
 -5.0461213978021580E-01 a      1133     0    57     1    13
 -9.8261502086416230E-01 a      1134     0    57     1    14
 -1.8453585543514055E+00 a      1135     0    57     1    15
  2.6010901115797993E+00 a      1136     0    57     1    16
  9.5571036466192583E-01 a      1137     0    57     1    17
  3.0255343252289193E+00 a      1138     0    57     1    18
 -1.2402722787547169E+00 a      1139     0    57     1    19
  4.5506005855581266E+00 a      1140     0    57     1    20
  7.5178191482898754E-02 a      1141     0    58     1     1
 -1.0826369089677692E+00 a      1142     0    58     1     2
  2.1103244017263167E-01 a      1143     0    58     1     3
  1.0736611025486126E-01 a      1144     0    58     1     4
 -1.8496278467391791E-04 a      1145     0    58     1     5
  2.9654253444068407E-01 a      1146     0    58     1     6
  7.8528211735208100E-03 a      1147     0    58     1     7
 -3.5869562658158100E-01 a      1148     0    58     1     8
  1.5805634597176596E-01 a      1149     0    58     1     9
  2.0409985387108470E-01 a      1150     0    58     1    10
  4.3329265400198347E-01 a      1151     0    58     1    11
  1.9781505975664884E-02 a      1152     0    58     1    12
 -9.7784383314422274E-01 a      1153     0    58     1    13
  1.4133489234929819E-01 a      1154     0    58     1    14
  1.1385375658111674E-01 a      1155     0    58     1    15
 -1.1525915860089722E-01 a      1156     0    58     1    16
  9.1754454656227813E-01 a      1157     0    58     1    17
  1.9145623897235245E-01 a      1158     0    58     1    18
  3.7136769354764798E-01 a      1159     0    58     1    19
 -2.4602454038555865E-01 a      1160     0    58     1    20
  2.1654832941846228E-01 a      1161     0    59     1     1
  1.3259607539503682E+00 a      1162     0    59     1     2
 -1.1454662866154930E+00 a      1163     0    59     1     3
 -6.6137380531601203E-02 a      1164     0    59     1     4
  9.5417406797922999E-01 a      1165     0    59     1     5
  5.5347870174201153E-01 a      1166     0    59     1     6
 -1.6213061290436563E+00 a      1167     0    59     1     7
  6.1696435907345093E-01 a      1168     0    59     1     8
  2.4125562407944948E-01 a      1169     0    59     1     9
  8.9249833623064512E-01 a      1170     0    59     1    10
 -1.3829770084143320E+00 a      1171     0    59     1    11
  3.5368808204214008E-01 a      1172     0    59     1    12
 -2.8525623822056509E+00 a      1173     0    59     1    13
  1.6782327239503976E+00 a      1174     0    59     1    14
 -1.8298981527466567E+00 a      1175     0    59     1    15
  1.2818214891797661E+00 a      1176     0    59     1    16
  6.1391458450396197E-01 a      1177     0    59     1    17
  1.3133220146685125E+00 a      1178     0    59     1    18
 -5.3693467609242818E-01 a      1179     0    59     1    19
 -1.8860111001120015E+00 a      1180     0    59     1    20
  1.6564660619933538E+00 a      1181     0    60     1     1
 -3.7355691394094093E+00 a      1182     0    60     1     2
  2.3556747902089139E+00 a      1183     0    60     1     3
  5.0852742477225501E+00 a      1184     0    60     1     4
 -1.4287155864440078E+00 a      1185     0    60     1     5
  2.7990841659712680E+00 a      1186     0    60     1     6
 -3.5243321752175727E+00 a      1187     0    60     1     7
 -2.5933925875814907E+00 a      1188     0    60     1     8
  4.2030371489518448E+00 a      1189     0    60     1     9
 -2.5185559905077253E+00 a      1190     0    60     1    10
 -2.7276988129825561E+00 a      1191     0    60     1    11
  1.3796538775036931E+00 a      1192     0    60     1    12
  3.1509704920735109E+00 a      1193     0    60     1    13
  4.4758340386852051E+00 a      1194     0    60     1    14
  2.1254136391252798E+00 a      1195     0    60     1    15
 -3.1710570326798204E+00 a      1196     0    60     1    16
 -1.9584647250355667E+00 a      1197     0    60     1    17
  2.4861360425570562E+00 a      1198     0    60     1    18
 -6.0524439397539820E-01 a      1199     0    60     1    19
 -3.3586218035238113E+00 a      1200     0    60     1    20
  2.0155602732894665E-01 a      1201     0    61     1     1
  1.3123667621361608E+00 a      1202     0    61     1     2
 -1.8431671115605262E+00 a      1203     0    61     1     3
 -2.2275182781142351E+00 a      1204     0    61     1     4
  4.7066348256678786E-01 a      1205     0    61     1     5
 -2.7615627454767810E-01 a      1206     0    61     1     6
  3.3498103481997316E-01 a      1207     0    61     1     7
  3.9947186709851037E+00 a      1208     0    61     1     8
  8.7693916322934840E-01 a      1209     0    61     1     9
  4.2561267636419657E+00 a      1210     0    61     1    10
  3.7079900833136809E-02 a      1211     0    61     1    11
 -9.3221091507193643E-01 a      1212     0    61     1    12
 -2.5690833357916047E+00 a      1213     0    61     1    13
  3.1190422990678979E-01 a      1214     0    61     1    14
 -5.4598246098229675E-01 a      1215     0    61     1    15
  2.0581645266656499E+00 a      1216     0    61     1    16
  1.1895720009666360E+00 a      1217     0    61     1    17
 -1.4941090247706251E-01 a      1218     0    61     1    18
  4.2989593148676353E-01 a      1219     0    61     1    19
  5.2011544383815367E-01 a      1220     0    61     1    20
 -3.0690608443646298E-02 a      1221     0    62     1     1
  6.8780557239577367E-01 a      1222     0    62     1     2
 -3.0285338640149362E-01 a      1223     0    62     1     3
  5.1042689386639040E-01 a      1224     0    62     1     4
  6.8268653050864503E-01 a      1225     0    62     1     5
  6.8099454548768912E-01 a      1226     0    62     1     6
 -1.0649407683544541E+00 a      1227     0    62     1     7
  3.8761905688089543E-02 a      1228     0    62     1     8
  3.9184342682813078E-01 a      1229     0    62     1     9
  2.9387864874328112E-01 a      1230     0    62     1    10
 -1.3737317048779896E+00 a      1231     0    62     1    11
  1.3200644531746486E-01 a      1232     0    62     1    12
 -1.8535176545044645E+00 a      1233     0    62     1    13
  1.4896369599732666E+00 a      1234     0    62     1    14
 -1.3691539372611579E+00 a      1235     0    62     1    15
  7.4746028764250450E-01 a      1236     0    62     1    16
  1.5963333216223360E-01 a      1237     0    62     1    17
  8.8616810068930696E-01 a      1238     0    62     1    18
 -3.5236164764575728E-01 a      1239     0    62     1    19
 -1.4477856061401582E+00 a      1240     0    62     1    20
  1.2413878098783557E+00 a      1241     0    63     1     1
  1.1300939493641889E-01 a      1242     0    63     1     2
  6.6475958387835943E-01 a      1243     0    63     1     3
  6.1238019989145642E-01 a      1244     0    63     1     4
  8.1528088794801348E-02 a      1245     0    63     1     5
  1.1826226311649295E+00 a      1246     0    63     1     6
 -4.1875459840355495E-01 a      1247     0    63     1     7
 -1.4426445074255796E+00 a      1248     0    63     1     8
 -8.8464560941762999E-02 a      1249     0    63     1     9
 -1.2955312656639397E+00 a      1250     0    63     1    10
 -2.3823400616553938E+00 a      1251     0    63     1    11
 -2.1158172623292111E+00 a      1252     0    63     1    12
  2.9423144971394966E-01 a      1253     0    63     1    13
  1.9704484710454975E+00 a      1254     0    63     1    14
  7.8737750947920027E-01 a      1255     0    63     1    15
 -5.3886902860393970E-01 a      1256     0    63     1    16
 -6.5622309091410136E-01 a      1257     0    63     1    17
 -1.4611144747633393E+00 a      1258     0    63     1    18
 -1.0050978117763305E+00 a      1259     0    63     1    19
 -1.2135573705550640E+00 a      1260     0    63     1    20
  6.9639155248768736E-02 a      1261     0    64     1     1
  3.3223543492974900E-01 a      1262     0    64     1     2
 -5.7699223545507627E-01 a      1263     0    64     1     3
 -1.5650388022164712E+00 a      1264     0    64     1     4
  3.5912131663800795E-01 a      1265     0    64     1     5
 -5.1739191527998507E-01 a      1266     0    64     1     6
  8.1371007743394697E-01 a      1267     0    64     1     7
  2.4259615698504127E+00 a      1268     0    64     1     8
  6.0474359607080153E-01 a      1269     0    64     1     9
  2.3712559094878722E+00 a      1270     0    64     1    10
  4.9716982630236101E-01 a      1271     0    64     1    11
 -2.3757086794262638E-01 a      1272     0    64     1    12
 -9.2138944873556372E-01 a      1273     0    64     1    13
  1.4202225556623052E-01 a      1274     0    64     1    14
  7.5673743954881717E-02 a      1275     0    64     1    15
  1.2695616500180000E+00 a      1276     0    64     1    16
  2.0910689326050677E-01 a      1277     0    64     1    17
 -7.3611824294135519E-01 a      1278     0    64     1    18
  6.4608187606431655E-01 a      1279     0    64     1    19
  2.7813016330732782E-01 a      1280     0    64     1    20
  3.8468997212676959E-01 a      1281     0    65     1     1
 -7.6078331982434078E-01 a      1282     0    65     1     2
  5.2785104289103058E-01 a      1283     0    65     1     3
  7.8873829748415281E-01 a      1284     0    65     1     4
  4.7009918792956085E-01 a      1285     0    65     1     5
  4.8324633598681405E-01 a      1286     0    65     1     6
 -3.4679594930106827E-01 a      1287     0    65     1     7
 -6.8767650371826350E-01 a      1288     0    65     1     8
 -2.2600028193262969E-01 a      1289     0    65     1     9
 -8.2511440565976191E-01 a      1290     0    65     1    10
 -6.2902952379499322E-01 a      1291     0    65     1    11
 -2.4363120503771207E-01 a      1292     0    65     1    12
 -4.0434043319251788E-02 a      1293     0    65     1    13
  1.2503174299999971E+00 a      1294     0    65     1    14
 -8.7081989047703562E-02 a      1295     0    65     1    15
 -3.3817361306332439E-01 a      1296     0    65     1    16
 -5.7122485918317700E-01 a      1297     0    65     1    17
 -6.5782738880670585E-02 a      1298     0    65     1    18
 -7.1085333641206638E-01 a      1299     0    65     1    19
 -6.3383685262165979E-01 a      1300     0    65     1    20
  3.6653522932667770E+00 a      1301     0    66     1     1
  7.0705377000176544E+00 a      1302     0    66     1     2
 -3.0137451383674754E+00 a      1303     0    66     1     3
 -7.8647354132030545E-01 a      1304     0    66     1     4
  7.3222373478782898E-01 a      1305     0    66     1     5
  9.8278263823263279E-01 a      1306     0    66     1     6
  2.6616964834915596E-01 a      1307     0    66     1     7
 -1.7271023381914066E-02 a      1308     0    66     1     8
 -4.8692673588548248E+00 a      1309     0    66     1     9
  4.4531020413264710E-01 a      1310     0    66     1    10
 -1.3450803634886421E+00 a      1311     0    66     1    11
 -1.0685638348289052E+01 a      1312     0    66     1    12
 -3.8406442715371636E+00 a      1313     0    66     1    13
 -1.4783371072606826E+00 a      1314     0    66     1    14
 -2.6471758040908373E+00 a      1315     0    66     1    15
  6.8551341381310860E-01 a      1316     0    66     1    16
  4.1517471680002798E+00 a      1317     0    66     1    17
 -5.3829362657694335E-01 a      1318     0    66     1    18
  2.0304261070595402E+00 a      1319     0    66     1    19
 -2.0378606664409316E+00 a      1320     0    66     1    20
 -1.6246677234284008E+00 a      1321     0    67     1     1
 -1.3553493010495726E-01 a      1322     0    67     1     2
  1.9581237589537632E+00 a      1323     0    67     1     3
  1.8228941369824996E+00 a      1324     0    67     1     4
 -8.2167773578521863E-01 a      1325     0    67     1     5
 -1.3445773050738847E+00 a      1326     0    67     1     6
  3.5099992547831999E-01 a      1327     0    67     1     7
 -9.4322874780657517E-01 a      1328     0    67     1     8
  8.7332630165740932E-01 a      1329     0    67     1     9
 -7.0079725371568957E-01 a      1330     0    67     1    10
  4.8100629380407395E-01 a      1331     0    67     1    11
  1.4481846487258372E+00 a      1332     0    67     1    12
  1.1897895414373498E+00 a      1333     0    67     1    13
  7.5001627956415262E-01 a      1334     0    67     1    14
  7.2873556450263688E-01 a      1335     0    67     1    15
 -2.1309868986333740E+00 a      1336     0    67     1    16
 -1.6546818209054994E+00 a      1337     0    67     1    17
 -2.8356504267555827E-01 a      1338     0    67     1    18
 -1.0452845096985242E+00 a      1339     0    67     1    19
  9.3244252308973907E-01 a      1340     0    67     1    20
 -9.1915801955244278E-03 a      1341     0    68     1     1
  2.7667058632339470E+00 a      1342     0    68     1     2
 -7.7686886254841755E-02 a      1343     0    68     1     3
  1.8888277502464851E-01 a      1344     0    68     1     4
 -1.7262026956626080E+00 a      1345     0    68     1     5
 -1.3699929334691789E+00 a      1346     0    68     1     6
  8.1602673752153965E-01 a      1347     0    68     1     7
 -1.1660419463768352E+00 a      1348     0    68     1     8
 -2.7886259419708050E+00 a      1349     0    68     1     9
 -2.5558576987269057E+00 a      1350     0    68     1    10
  5.7855602098237446E-01 a      1351     0    68     1    11
 -1.4426350450896344E+00 a      1352     0    68     1    12
 -1.8453883222909306E+00 a      1353     0    68     1    13
  1.3658837882102002E+00 a      1354     0    68     1    14
 -1.4467593282652162E+00 a      1355     0    68     1    15
 -2.3227523141861348E+00 a      1356     0    68     1    16
  1.4629454773019683E+00 a      1357     0    68     1    17
  4.3103578318925767E-01 a      1358     0    68     1    18
  1.0128450465717163E+00 a      1359     0    68     1    19
 -2.7097496042079507E+00 a      1360     0    68     1    20
  2.2653560115706228E-01 a      1361     0    69     1     1
 -8.9628805768497366E-01 a      1362     0    69     1     2
  1.0528275607219739E+00 a      1363     0    69     1     3
 -2.2462505429454474E-01 a      1364     0    69     1     4
  2.8004129734756145E-01 a      1365     0    69     1     5
 -3.8317576416172594E-01 a      1366     0    69     1     6
  6.7272851696985247E-01 a      1367     0    69     1     7
  3.7045601108398646E-01 a      1368     0    69     1     8
  4.6260775678229671E-01 a      1369     0    69     1     9
 -6.5902694040705900E-01 a      1370     0    69     1    10
  1.1180956913577280E+00 a      1371     0    69     1    11
  1.4788800604569698E+00 a      1372     0    69     1    12
  1.3183161321781709E+00 a      1373     0    69     1    13
 -8.8665826760059618E-01 a      1374     0    69     1    14
  3.3690639400168793E-01 a      1375     0    69     1    15
  9.3856589555963610E-01 a      1376     0    69     1    16
 -7.3542513254621711E-01 a      1377     0    69     1    17
 -1.1832063982033316E+00 a      1378     0    69     1    18
  1.3750942717244325E+00 a      1379     0    69     1    19
  3.1856790226455663E-02 a      1380     0    69     1    20
 -2.4491940078824212E-01 a      1381     0    70     1     1
  4.9517960589861282E-01 a      1382     0    70     1     2
  3.1878544764687531E+00 a      1383     0    70     1     3
  1.4324672615200933E+00 a      1384     0    70     1     4
 -1.0795730467949156E+00 a      1385     0    70     1     5
 -2.9776187486902468E+00 a      1386     0    70     1     6
  2.5487972024485699E+00 a      1387     0    70     1     7
 -1.6910097512433708E+00 a      1388     0    70     1     8
  3.5792899869662487E-01 a      1389     0    70     1     9
 -1.7036907393089171E+00 a      1390     0    70     1    10
 -2.0045769141421346E+00 a      1391     0    70     1    11
  3.1471961533993804E+00 a      1392     0    70     1    12
  1.5226893157993877E+00 a      1393     0    70     1    13
  7.8365527126779233E-01 a      1394     0    70     1    14
 -2.6259166840181231E-01 a      1395     0    70     1    15
 -1.3794534457871681E+00 a      1396     0    70     1    16
  1.4126315289622596E-01 a      1397     0    70     1    17
 -1.0239569795868533E+00 a      1398     0    70     1    18
  1.5486400272036598E+00 a      1399     0    70     1    19
 -3.4023712368504899E+00 a      1400     0    70     1    20
 -1.7726075123767757E+00 a      1401     0    71     1     1
 -4.4321125820361313E+00 a      1402     0    71     1     2
  3.3654860922177426E-01 a      1403     0    71     1     3
 -2.3725807705505577E+00 a      1404     0    71     1     4
 -4.4646002912847678E+00 a      1405     0    71     1     5
  2.8284908581567678E+00 a      1406     0    71     1     6
 -3.3797555123354650E+00 a      1407     0    71     1     7
  3.8870597782599137E+00 a      1408     0    71     1     8
  2.7140416419831963E+00 a      1409     0    71     1     9
 -9.7655364644710463E-01 a      1410     0    71     1    10
  4.1945888782388696E-01 a      1411     0    71     1    11
  5.1843770786986998E-01 a      1412     0    71     1    12
 -9.8571774957101732E-01 a      1413     0    71     1    13
  1.2601313887863339E+00 a      1414     0    71     1    14
 -1.6391928598537493E+00 a      1415     0    71     1    15
  2.4820256321022867E+00 a      1416     0    71     1    16
 -6.0283157617361183E-01 a      1417     0    71     1    17
  2.7740256864137405E+00 a      1418     0    71     1    18
 -8.0490280057351749E-01 a      1419     0    71     1    19
  1.9011186729979836E+00 a      1420     0    71     1    20
 -3.9693332030526154E+00 a      1421     0    72     1     1
 -1.5699170559421841E-01 a      1422     0    72     1     2
 -3.0899785636398441E-01 a      1423     0    72     1     3
  4.6746823153621575E+00 a      1424     0    72     1     4
 -8.9759024778171204E-01 a      1425     0    72     1     5
 -3.4494145765894685E-02 a      1426     0    72     1     6
  1.0221006662989454E+00 a      1427     0    72     1     7
  4.8002902600819591E-01 a      1428     0    72     1     8
 -1.3874812958986922E+00 a      1429     0    72     1     9
 -5.6706979048318651E-01 a      1430     0    72     1    10
  1.4921408357244590E+00 a      1431     0    72     1    11
 -7.2751502364081400E-01 a      1432     0    72     1    12
 -1.7031682444933707E+00 a      1433     0    72     1    13
 -1.4763198550456686E+00 a      1434     0    72     1    14
 -3.0169859708632081E+00 a      1435     0    72     1    15
 -5.0019437626310259E-01 a      1436     0    72     1    16
  4.2144550614729143E-01 a      1437     0    72     1    17
  2.4693862089863625E+00 a      1438     0    72     1    18
 -2.3363974115213165E-01 a      1439     0    72     1    19
  2.4668736742564246E+00 a      1440     0    72     1    20
  2.6789341764193847E-01 a      1441     0    73     1     1
 -2.7738019926274031E+00 a      1442     0    73     1     2
  2.4137608688612215E+00 a      1443     0    73     1     3
  1.1207515199805418E+00 a      1444     0    73     1     4
  1.3919574440048033E-01 a      1445     0    73     1     5
  6.9975782324198210E-02 a      1446     0    73     1     6
  9.8867378257707828E-01 a      1447     0    73     1     7
 -2.2090466525797727E+00 a      1448     0    73     1     8
 -9.6436393827608591E-01 a      1449     0    73     1     9
 -2.7678220972190402E+00 a      1450     0    73     1    10
  8.0697236068000100E-01 a      1451     0    73     1    11
 -7.1799827158449270E-01 a      1452     0    73     1    12
  2.8233441612039041E+00 a      1453     0    73     1    13
  6.2879956585012753E-01 a      1454     0    73     1    14
  1.3007679856907661E+00 a      1455     0    73     1    15
 -1.5234250423221285E+00 a      1456     0    73     1    16
 -1.3222185272778835E+00 a      1457     0    73     1    17
 -1.3596867317397106E+00 a      1458     0    73     1    18
 -4.6761927374873791E-01 a      1459     0    73     1    19
  7.3730469127771736E-01 a      1460     0    73     1    20
  6.5621677838514780E-01 a      1461     0    74     1     1
 -1.5873421594698853E-01 a      1462     0    74     1     2
 -1.2351410709610183E-01 a      1463     0    74     1     3
  1.7038006892545010E+00 a      1464     0    74     1     4
  1.3966093284506496E+00 a      1465     0    74     1     5
 -1.6245934831651554E-01 a      1466     0    74     1     6
 -9.6136158221484830E-02 a      1467     0    74     1     7
 -7.0599789228274390E-01 a      1468     0    74     1     8
 -1.0729576675576933E+00 a      1469     0    74     1     9
 -2.7474848502728637E+00 a      1470     0    74     1    10
 -4.8165644313365868E-01 a      1471     0    74     1    11
 -2.7609339352036888E+00 a      1472     0    74     1    12
  8.6932247932529105E-01 a      1473     0    74     1    13
  9.7856736647056053E-01 a      1474     0    74     1    14
  5.1450819568907713E-01 a      1475     0    74     1    15
 -1.8197151797459168E+00 a      1476     0    74     1    16
 -5.2104252365697357E-01 a      1477     0    74     1    17
  1.8431027906378702E-01 a      1478     0    74     1    18
  1.5469952075622695E-01 a      1479     0    74     1    19
 -2.3094010094862520E+00 a      1480     0    74     1    20
 -1.3774255490562928E+00 a      1481     0    75     1     1
 -3.3344088868672500E-01 a      1482     0    75     1     2
  7.8905044041449346E-01 a      1483     0    75     1     3
  9.2698915333520282E-01 a      1484     0    75     1     4
 -1.7014287783943227E-01 a      1485     0    75     1     5
  5.5419426834415486E-01 a      1486     0    75     1     6
 -1.9507264333815288E+00 a      1487     0    75     1     7
 -4.8057510687427635E-01 a      1488     0    75     1     8
  2.1563365618715766E-01 a      1489     0    75     1     9
 -1.7115930760229887E+00 a      1490     0    75     1    10
  1.3347111661450732E+00 a      1491     0    75     1    11
  2.4245966887268272E-01 a      1492     0    75     1    12
  1.8467016054388066E+00 a      1493     0    75     1    13
  5.5344832704719604E-01 a      1494     0    75     1    14
  8.7244886362584995E-01 a      1495     0    75     1    15
 -1.0470584090712385E+00 a      1496     0    75     1    16
 -2.4622599795083198E+00 a      1497     0    75     1    17
 -6.3298791913674879E-03 a      1498     0    75     1    18
 -2.0239892750242605E+00 a      1499     0    75     1    19
  8.5643346879473115E-01 a      1500     0    75     1    20
 -6.8541407203681226E-01 a      1501     0    76     1     1
 -5.8414375197426804E-01 a      1502     0    76     1     2
 -9.5871526853986999E-01 a      1503     0    76     1     3
  6.2886887943392544E-01 a      1504     0    76     1     4
  9.3120740853823569E-01 a      1505     0    76     1     5
  4.5316773870830461E-02 a      1506     0    76     1     6
  6.6538542758717145E-01 a      1507     0    76     1     7
  4.9079433033764402E-01 a      1508     0    76     1     8
 -2.4720785036792908E-01 a      1509     0    76     1     9
  3.9307812439246006E+00 a      1510     0    76     1    10
  1.1002017663546746E+00 a      1511     0    76     1    11
 -5.9405983503923274E-02 a      1512     0    76     1    12
  1.6276677737405805E+00 a      1513     0    76     1    13
  4.8744425895569093E-01 a      1514     0    76     1    14
  3.5001838586219369E+00 a      1515     0    76     1    15
  1.6015579278303793E-01 a      1516     0    76     1    16
 -1.0957646790234703E+00 a      1517     0    76     1    17
 -1.4382771322446681E+00 a      1518     0    76     1    18
 -3.0348066499983113E+00 a      1519     0    76     1    19
  3.7404325253506814E+00 a      1520     0    76     1    20
  3.1659028034117193E-01 a      1521     0    77     1     1
  2.9367204226376105E+00 a      1522     0    77     1     2
  7.5913587459095400E-01 a      1523     0    77     1     3
 -3.9405069600122794E-01 a      1524     0    77     1     4
 -6.1780859715545777E-01 a      1525     0    77     1     5
 -1.5759730103703045E+00 a      1526     0    77     1     6
  1.9616601110307805E+00 a      1527     0    77     1     7
 -2.5576401630343994E+00 a      1528     0    77     1     8
 -2.5122984147528373E+00 a      1529     0    77     1     9
 -4.9008514984306367E-01 a      1530     0    77     1    10
  1.0378984101531681E+00 a      1531     0    77     1    11
 -1.2333913605245508E+00 a      1532     0    77     1    12
  9.2590203021123341E-01 a      1533     0    77     1    13
  4.0404665314852167E-01 a      1534     0    77     1    14
  2.5606620482232101E-01 a      1535     0    77     1    15
 -1.7161565345742948E+00 a      1536     0    77     1    16
  2.1289449750600906E+00 a      1537     0    77     1    17
 -4.0229977645886023E-01 a      1538     0    77     1    18
 -4.9447851042251495E-01 a      1539     0    77     1    19
 -6.7688797918419696E-01 a      1540     0    77     1    20
  7.0754211929431787E-01 a      1541     0    78     1     1
 -9.5668430673918137E-01 a      1542     0    78     1     2
  8.6767906309492515E-01 a      1543     0    78     1     3
  4.5978919365073567E-01 a      1544     0    78     1     4
  6.9129418254888120E-01 a      1545     0    78     1     5
  1.0108474718275540E+00 a      1546     0    78     1     6
 -5.3639991079550209E-01 a      1547     0    78     1     7
 -1.4226403071992220E+00 a      1548     0    78     1     8
 -1.7381440664907355E-01 a      1549     0    78     1     9
 -3.3470138612346600E+00 a      1550     0    78     1    10
  1.4221267929087207E+00 a      1551     0    78     1    11
  1.7938929566128874E+00 a      1552     0    78     1    12
  2.0815839751549716E+00 a      1553     0    78     1    13
 -2.4733690601738552E+00 a      1554     0    78     1    14
 -4.1985181476768274E-01 a      1555     0    78     1    15
  1.7378748222428346E+00 a      1556     0    78     1    16
 -9.1797138742130158E-01 a      1557     0    78     1    17
 -8.6969211567068938E-01 a      1558     0    78     1    18
  2.7112906268521444E+00 a      1559     0    78     1    19
 -1.0486016065815225E+00 a      1560     0    78     1    20
 -2.8952135061210620E-02 a      1561     0    79     1     1
  3.5367033721656629E+00 a      1562     0    79     1     2
  5.3287274036936583E-01 a      1563     0    79     1     3
  1.4312261723786202E-01 a      1564     0    79     1     4
  1.9642826146468162E+00 a      1565     0    79     1     5
 -2.5595198184186478E+00 a      1566     0    79     1     6
  2.4438132489509852E+00 a      1567     0    79     1     7
  5.3967851773202923E-02 a      1568     0    79     1     8
 -8.3506716930434166E-01 a      1569     0    79     1     9
  5.3018299270249425E-01 a      1570     0    79     1    10
 -1.2029922939578459E+00 a      1571     0    79     1    11
  1.8781956216430379E-01 a      1572     0    79     1    12
  2.3610258113208296E-01 a      1573     0    79     1    13
 -3.2381555375607793E+00 a      1574     0    79     1    14
 -3.6442394000699990E-01 a      1575     0    79     1    15
  2.7497508735247820E+00 a      1576     0    79     1    16
  1.0137164900493087E+00 a      1577     0    79     1    17
 -7.9743996955559626E-01 a      1578     0    79     1    18
  1.1715036814717703E+00 a      1579     0    79     1    19
 -2.6667184149006884E+00 a      1580     0    79     1    20
  1.4501601189052091E-01 a      1581     0    80     1     1
  2.2240050496890627E+00 a      1582     0    80     1     2
 -1.3189767177735157E+00 a      1583     0    80     1     3
  1.6829906386432509E+00 a      1584     0    80     1     4
  2.8941729004324674E+00 a      1585     0    80     1     5
 -2.4889184782975708E+00 a      1586     0    80     1     6
  4.3416069395656436E+00 a      1587     0    80     1     7
  1.1632528492529773E-01 a      1588     0    80     1     8
  6.9420304351621687E-01 a      1589     0    80     1     9
  8.8385076846113808E-01 a      1590     0    80     1    10
 -1.0575536216236094E+00 a      1591     0    80     1    11
  2.1869309900357194E+00 a      1592     0    80     1    12
 -7.4855048071415312E-05 a      1593     0    80     1    13
 -5.4263303416641839E-01 a      1594     0    80     1    14
 -3.7789324693154897E-01 a      1595     0    80     1    15
 -2.1372815093093459E-01 a      1596     0    80     1    16
  2.1129012897589075E+00 a      1597     0    80     1    17
 -2.5219735361462758E+00 a      1598     0    80     1    18
  1.8312807618392402E+00 a      1599     0    80     1    19
 -2.3074319339152738E+00 a      1600     0    80     1    20
 -9.3075674720440171E-01 a      1601     0    81     1     1
 -1.6587738586813658E+00 a      1602     0    81     1     2
  6.6284947077560918E-01 a      1603     0    81     1     3
 -4.0937444415848129E-01 a      1604     0    81     1     4
  5.5664847848441751E-02 a      1605     0    81     1     5
  2.5535266479058799E-01 a      1606     0    81     1     6
  2.9293553523620564E-01 a      1607     0    81     1     7
 -5.5696755162219447E-01 a      1608     0    81     1     8
  2.8966288268504253E-01 a      1609     0    81     1     9
 -3.0304019742304511E-01 a      1610     0    81     1    10
  8.4778638344634416E-01 a      1611     0    81     1    11
  8.6537084248207119E-01 a      1612     0    81     1    12
  9.1224075117846290E-02 a      1613     0    81     1    13
 -3.8939348544340324E-01 a      1614     0    81     1    14
 -1.9276240058680199E+00 a      1615     0    81     1    15
 -9.8805641242678865E-01 a      1616     0    81     1    16
  1.3567732629499258E+00 a      1617     0    81     1    17
  1.8818507500004131E+00 a      1618     0    81     1    18
  8.8822577792884505E-01 a      1619     0    81     1    19
 -4.4191010711106637E-01 a      1620     0    81     1    20
  6.6749910954839342E-01 a      1621     0    82     1     1
 -4.3630804613590843E+00 a      1622     0    82     1     2
  3.9319719120403853E+00 a      1623     0    82     1     3
