################################################################################
# Neural network connection values (weights and biases).
################################################################################
# Col  Name       Description
################################################################################
# 1    connection Neural network connection value.
# 2    t          Connection type (a = weight, b = bias).
# 3    index      Index enumerating weights.
# 4    l_s        Starting point layer (end point layer for biases).
# 5    n_s        Starting point neuron in starting layer (end point neuron for biases).
# 6    l_e        End point layer.
# 7    n_e        End point neuron in end layer.
################################################################################
#                      1 2         3     4     5     6     7
#             connection t     index   l_s   n_s   l_e   n_e
############################################################
 -4.4585023522643112E+00 a         1     0     1     1     1
 -9.3251099668732209E+00 a         2     0     1     1     2
 -6.4114197500940406E+00 a         3     0     1     1     3
 -1.4119945449945776E+01 a         4     0     1     1     4
  1.7238523824285668E+01 a         5     0     1     1     5
 -8.8624178483760048E+00 a         6     0     1     1     6
 -1.4991751864895193E+00 a         7     0     1     1     7
  4.0301441049937610E-02 a         8     0     1     1     8
  1.8737916532574423E+00 a         9     0     1     1     9
 -5.8532208634617362E+00 a        10     0     1     1    10
 -6.6432040502335283E+00 a        11     0     1     1    11
  1.0462621845890892E+00 a        12     0     1     1    12
 -1.1746632556523080E+00 a        13     0     1     1    13
 -2.5761589535489429E+00 a        14     0     1     1    14
 -8.5188789524286133E+00 a        15     0     1     1    15
 -5.8874825144717482E+00 a        16     0     1     1    16
 -3.9269884500574461E+00 a        17     0     1     1    17
 -1.3016813959512126E+01 a        18     0     1     1    18
 -9.5934630697798688E+00 a        19     0     1     1    19
  8.9630142549117338E+00 a        20     0     1     1    20
  5.7703212537862489E+00 a        21     0     2     1     1
  1.5014163264990065E+01 a        22     0     2     1     2
  7.3930657140710272E+00 a        23     0     2     1     3
  1.4320611961300997E+01 a        24     0     2     1     4
 -1.2786552543831386E+01 a        25     0     2     1     5
  1.8053741025469154E+00 a        26     0     2     1     6
  4.0287759938117729E+00 a        27     0     2     1     7
 -3.9345799526534169E+00 a        28     0     2     1     8
  1.2399594920454041E-01 a        29     0     2     1     9
  7.3330291697268351E+00 a        30     0     2     1    10
  4.0539701233879697E+00 a        31     0     2     1    11
 -3.4213421905681538E+00 a        32     0     2     1    12
  2.2996648229693721E+00 a        33     0     2     1    13
 -1.4718340247421458E+00 a        34     0     2     1    14
  9.7089090063182155E+00 a        35     0     2     1    15
  8.4863650855059483E+00 a        36     0     2     1    16
  4.1533113967362514E+00 a        37     0     2     1    17
  1.8241540979528079E+01 a        38     0     2     1    18
  1.4168898296062615E+01 a        39     0     2     1    19
 -5.6261871427796297E+00 a        40     0     2     1    20
 -1.7122541034855174E+00 a        41     0     3     1     1
  9.8941604163314145E-01 a        42     0     3     1     2
 -8.0411471294367960E+00 a        43     0     3     1     3
 -3.2758031545023965E+00 a        44     0     3     1     4
  6.4947373448575565E+00 a        45     0     3     1     5
 -2.4057488787984198E+00 a        46     0     3     1     6
 -4.4627059737920227E-01 a        47     0     3     1     7
  2.7471554379364003E+00 a        48     0     3     1     8
 -6.1394188718865772E-01 a        49     0     3     1     9
 -5.6233202637627819E+00 a        50     0     3     1    10
 -2.0733102609962502E+00 a        51     0     3     1    11
 -2.2892276168502698E-01 a        52     0     3     1    12
  5.0955744123493183E+00 a        53     0     3     1    13
  2.8225489932133065E+00 a        54     0     3     1    14
 -6.6883275432506188E+00 a        55     0     3     1    15
 -2.6836385219010739E-01 a        56     0     3     1    16
  7.3551024364036710E-01 a        57     0     3     1    17
 -2.6940032496053226E+00 a        58     0     3     1    18
 -3.1639060568440147E+00 a        59     0     3     1    19
 -1.3433038762946732E+00 a        60     0     3     1    20
  1.9163061281600442E+00 a        61     0     4     1     1
 -1.0221817729135994E+00 a        62     0     4     1     2
  8.8316955645147051E+00 a        63     0     4     1     3
  4.8754928473830859E+00 a        64     0     4     1     4
 -9.2688347823000274E+00 a        65     0     4     1     5
  4.2119369263430322E+00 a        66     0     4     1     6
  6.9383190986055909E-01 a        67     0     4     1     7
 -2.8226332187550254E+00 a        68     0     4     1     8
  8.2172477991985293E-01 a        69     0     4     1     9
  5.3903121145018096E+00 a        70     0     4     1    10
  2.6057129601596865E+00 a        71     0     4     1    11
 -5.9743664123195733E-02 a        72     0     4     1    12
 -7.0076185592769384E+00 a        73     0     4     1    13
 -2.1727230051153610E+00 a        74     0     4     1    14
  8.3233343418615089E+00 a        75     0     4     1    15
  9.7399092963511280E-01 a        76     0     4     1    16
 -7.2411456541672448E-01 a        77     0     4     1    17
  3.1016188126220263E+00 a        78     0     4     1    18
  3.2329942405610339E+00 a        79     0     4     1    19
  5.7042812580760174E-02 a        80     0     4     1    20
 -1.8832417122824721E+00 a        81     0     5     1     1
 -4.0370926613424043E+00 a        82     0     5     1     2
 -1.8786649121037915E+00 a        83     0     5     1     3
 -1.6059452962141745E+00 a        84     0     5     1     4
  2.1032531821153455E+00 a        85     0     5     1     5
  2.8972329497999674E+00 a        86     0     5     1     6
 -4.8058771675771972E+00 a        87     0     5     1     7
  4.8142308889398611E-01 a        88     0     5     1     8
 -1.0606748689499321E+00 a        89     0     5     1     9
  2.2936423274900788E-01 a        90     0     5     1    10
 -1.5900604250153707E+00 a        91     0     5     1    11
 -1.1642296419474780E+00 a        92     0     5     1    12
 -1.4226431399884487E+00 a        93     0     5     1    13
  4.1747616543873134E+00 a        94     0     5     1    14
 -2.6529091515223824E+00 a        95     0     5     1    15
 -8.9929562571136690E-01 a        96     0     5     1    16
  3.5983247990003409E+00 a        97     0     5     1    17
 -7.7645528434721500E+00 a        98     0     5     1    18
 -5.4954994807804649E+00 a        99     0     5     1    19
  4.6820382564603058E-01 a       100     0     5     1    20
 -3.3344561058367783E-01 a       101     0     6     1     1
  2.6704229145098757E+00 a       102     0     6     1     2
 -9.2874782318402060E-01 a       103     0     6     1     3
 -3.1885504702314122E+00 a       104     0     6     1     4
 -9.6856438328023287E-01 a       105     0     6     1     5
  3.3975934270861652E+00 a       106     0     6     1     6
 -8.0959969113823815E-01 a       107     0     6     1     7
 -2.5879869428192661E+00 a       108     0     6     1     8
 -2.0806466398909698E+00 a       109     0     6     1     9
  1.1459012789951579E+00 a       110     0     6     1    10
 -1.9416256958519831E+00 a       111     0     6     1    11
 -3.9239946035483664E-01 a       112     0     6     1    12
 -1.5471290297872804E+00 a       113     0     6     1    13
 -2.9026737181032427E+00 a       114     0     6     1    14
  1.8644565607596235E+00 a       115     0     6     1    15
  1.3508142351131376E+00 a       116     0     6     1    16
 -1.8295378891196967E+00 a       117     0     6     1    17
 -2.9325294853912185E+00 a       118     0     6     1    18
  5.8749708121096678E-01 a       119     0     6     1    19
 -4.5834025643733589E-01 a       120     0     6     1    20
  5.3319295222132503E-02 a       121     0     7     1     1
  2.7809699653288225E+00 a       122     0     7     1     2
  1.4671504214144169E+00 a       123     0     7     1     3
  4.5061296335808759E-01 a       124     0     7     1     4
  2.0388788011856587E+00 a       125     0     7     1     5
 -2.1164458263215957E-01 a       126     0     7     1     6
 -4.8772401747419289E+00 a       127     0     7     1     7
  2.8816230390900590E+00 a       128     0     7     1     8
 -1.9257953239261711E+00 a       129     0     7     1     9
 -2.5183346429195375E-01 a       130     0     7     1    10
 -5.1527292702114895E+00 a       131     0     7     1    11
  1.0365347728041129E-01 a       132     0     7     1    12
 -5.5102820825111287E+00 a       133     0     7     1    13
  3.9168953581088573E-01 a       134     0     7     1    14
  7.9554841794242814E-01 a       135     0     7     1    15
 -1.8782113723956018E+00 a       136     0     7     1    16
  4.9560174998606425E-02 a       137     0     7     1    17
  5.0925771081009339E+00 a       138     0     7     1    18
 -1.5709046960013220E+00 a       139     0     7     1    19
  9.9946969906107430E-01 a       140     0     7     1    20
 -6.8817906143655694E-01 a       141     0     8     1     1
 -8.8939551901816849E-02 a       142     0     8     1     2
 -9.1787816782031328E-01 a       143     0     8     1     3
 -2.3035055197410870E-01 a       144     0     8     1     4
  1.6452825014985020E-01 a       145     0     8     1     5
  7.7051568056241693E-01 a       146     0     8     1     6
 -1.0348610869453205E+00 a       147     0     8     1     7
  5.8305493991990875E-01 a       148     0     8     1     8
  1.8310837877134569E+00 a       149     0     8     1     9
 -2.3840162716569520E+00 a       150     0     8     1    10
 -2.2631157889783768E+00 a       151     0     8     1    11
  1.3528021524799472E+00 a       152     0     8     1    12
 -8.3766650671886000E-01 a       153     0     8     1    13
 -3.1837652790983789E-01 a       154     0     8     1    14
 -1.8677840924279578E+00 a       155     0     8     1    15
 -1.4558297827328623E-01 a       156     0     8     1    16
 -3.7376199033152302E+00 a       157     0     8     1    17
 -8.8445925860432717E-01 a       158     0     8     1    18
 -1.3115053770075771E+00 a       159     0     8     1    19
 -8.1180556938296233E-01 a       160     0     8     1    20
 -1.5736169781718204E-01 a       161     0     9     1     1
 -1.7470357652067705E+00 a       162     0     9     1     2
  5.9579444527558012E-01 a       163     0     9     1     3
 -3.5430931292797391E-01 a       164     0     9     1     4
  6.4688990519923206E-01 a       165     0     9     1     5
  9.8763997759110711E-02 a       166     0     9     1     6
 -4.2716093566184399E-01 a       167     0     9     1     7
  7.0081519603625375E-01 a       168     0     9     1     8
 -4.9052492208027049E-01 a       169     0     9     1     9
 -1.3340682608974921E+00 a       170     0     9     1    10
 -1.3039683256128667E+00 a       171     0     9     1    11
  7.0968333668362737E-01 a       172     0     9     1    12
  1.1130251384581364E+00 a       173     0     9     1    13
  1.2122478370814784E+00 a       174     0     9     1    14
 -7.5910562199198506E-01 a       175     0     9     1    15
  5.2232813737922201E-01 a       176     0     9     1    16
 -1.1539047286387620E+00 a       177     0     9     1    17
 -2.1841759025584304E-01 a       178     0     9     1    18
 -5.7145971127518513E-01 a       179     0     9     1    19
 -9.2955510871601066E-01 a       180     0     9     1    20
 -9.2046916657337485E-01 a       181     0    10     1     1
 -2.7356215121820289E+00 a       182     0    10     1     2
 -2.2595851575497194E+00 a       183     0    10     1     3
 -1.3051213684517349E+00 a       184     0    10     1     4
  3.0483114351657061E+00 a       185     0    10     1     5
 -1.5282710718480550E+00 a       186     0    10     1     6
 -4.4120047353523523E-01 a       187     0    10     1     7
  3.2669337458011496E+00 a       188     0    10     1     8
 -1.7601459360971934E+00 a       189     0    10     1     9
 -3.0830468447983583E+00 a       190     0    10     1    10
  7.8818822635726704E-01 a       191     0    10     1    11
  2.8759811667665519E-01 a       192     0    10     1    12
 -1.8962080541931955E-01 a       193     0    10     1    13
  2.2487601274432330E-02 a       194     0    10     1    14
 -3.7992289957539105E-01 a       195     0    10     1    15
  3.7608271836583046E-01 a       196     0    10     1    16
  6.9716570165775615E-01 a       197     0    10     1    17
  7.6735625313678257E-01 a       198     0    10     1    18
 -5.9776235403937339E-01 a       199     0    10     1    19
  4.7677247892403907E-01 a       200     0    10     1    20
  6.9198812786152897E-01 a       201     0    11     1     1
 -6.8456676972585626E+00 a       202     0    11     1     2
 -1.0173759398008351E+00 a       203     0    11     1     3
 -3.1587502595458514E+00 a       204     0    11     1     4
  3.5220391406263909E+00 a       205     0    11     1     5
 -1.1538288757368178E+00 a       206     0    11     1     6
  1.1489978468718476E+00 a       207     0    11     1     7
  1.1900137376063864E+00 a       208     0    11     1     8
 -1.4329930189219622E+00 a       209     0    11     1     9
  1.0579011126397043E-01 a       210     0    11     1    10
 -1.4872105407677407E+00 a       211     0    11     1    11
  2.5985383546507035E+00 a       212     0    11     1    12
  3.2707692745542003E+00 a       213     0    11     1    13
  1.1372237453672722E+00 a       214     0    11     1    14
 -3.6610679509045854E-02 a       215     0    11     1    15
  1.3951067305027871E+00 a       216     0    11     1    16
  2.3942044319602379E-01 a       217     0    11     1    17
 -1.5840067351116065E+00 a       218     0    11     1    18
 -1.2655212363805997E+00 a       219     0    11     1    19
  3.4809557732750709E+00 a       220     0    11     1    20
 -1.2321697621397344E-01 a       221     0    12     1     1
  2.5626079962828339E+00 a       222     0    12     1     2
 -9.5651384038551102E-01 a       223     0    12     1     3
 -3.1890110054005234E+00 a       224     0    12     1     4
 -1.0221867348852658E+00 a       225     0    12     1     5
  3.2794885818759840E+00 a       226     0    12     1     6
 -7.9671947914035368E-01 a       227     0    12     1     7
 -3.0152407088927067E+00 a       228     0    12     1     8
 -1.9248638361803685E+00 a       229     0    12     1     9
  1.2014111846127116E+00 a       230     0    12     1    10
 -1.7901865759432358E+00 a       231     0    12     1    11
 -4.1469424521457343E-01 a       232     0    12     1    12
 -1.4628722383886172E+00 a       233     0    12     1    13
 -2.9822803372745472E+00 a       234     0    12     1    14
  1.7925336712795747E+00 a       235     0    12     1    15
  1.3711342351946412E+00 a       236     0    12     1    16
 -1.4920853040164039E+00 a       237     0    12     1    17
 -2.6040083561532055E+00 a       238     0    12     1    18
  3.4610017578111441E-01 a       239     0    12     1    19
 -1.7876236950342686E-01 a       240     0    12     1    20
 -2.0447671992472985E-01 a       241     0    13     1     1
  2.1386049206384943E+00 a       242     0    13     1     2
  1.2979917791306534E+00 a       243     0    13     1     3
  5.0330111288140567E-01 a       244     0    13     1     4
  2.0984819022458234E+00 a       245     0    13     1     5
 -1.0426495846726892E-01 a       246     0    13     1     6
 -4.4590864371198906E+00 a       247     0    13     1     7
  2.0389543978427254E+00 a       248     0    13     1     8
 -1.7760077270930490E+00 a       249     0    13     1     9
 -7.3421648514408452E-02 a       250     0    13     1    10
 -5.1706416874579899E+00 a       251     0    13     1    11
  9.5730282631526567E-03 a       252     0    13     1    12
 -5.0436961906996096E+00 a       253     0    13     1    13
  4.5424539241276080E-01 a       254     0    13     1    14
  7.3673363171942985E-01 a       255     0    13     1    15
 -1.5761801529461994E+00 a       256     0    13     1    16
  3.1626531195952901E-01 a       257     0    13     1    17
  4.4859582218795833E+00 a       258     0    13     1    18
 -1.3353802205367904E+00 a       259     0    13     1    19
  1.0023134051157736E+00 a       260     0    13     1    20
 -4.9537794048401568E-01 a       261     0    14     1     1
 -9.0167951872532751E-02 a       262     0    14     1     2
 -9.7520139126656602E-01 a       263     0    14     1     3
 -5.3462679921470031E-02 a       264     0    14     1     4
  1.9068380744051694E-01 a       265     0    14     1     5
  8.3960355705813461E-01 a       266     0    14     1     6
 -7.6548587268572355E-01 a       267     0    14     1     7
  5.6193646383990437E-01 a       268     0    14     1     8
  1.6739403895315699E+00 a       269     0    14     1     9
 -2.1031759519066449E+00 a       270     0    14     1    10
 -2.2936807837193327E+00 a       271     0    14     1    11
  1.3477841272556104E+00 a       272     0    14     1    12
 -8.6892411932753721E-01 a       273     0    14     1    13
 -3.6051020916137161E-01 a       274     0    14     1    14
 -1.5714717667758813E+00 a       275     0    14     1    15
 -2.9279631868955636E-01 a       276     0    14     1    16
 -3.3673140262617034E+00 a       277     0    14     1    17
 -4.3636941519058203E-01 a       278     0    14     1    18
 -1.1651798793758783E+00 a       279     0    14     1    19
 -8.1994241173362026E-01 a       280     0    14     1    20
  1.1637741856093432E-01 a       281     0    15     1     1
 -1.3412485425082128E+00 a       282     0    15     1     2
  3.3733331627689761E-01 a       283     0    15     1     3
 -2.9103516503504551E-01 a       284     0    15     1     4
  1.0936646641137618E-01 a       285     0    15     1     5
 -2.7156586321138442E-02 a       286     0    15     1     6
 -3.6731741621565389E-01 a       287     0    15     1     7
  8.3072757214020854E-01 a       288     0    15     1     8
 -5.3892167064986229E-01 a       289     0    15     1     9
 -1.1522542131138225E+00 a       290     0    15     1    10
 -1.3914344492287114E+00 a       291     0    15     1    11
  4.7452091116113659E-01 a       292     0    15     1    12
  1.0057948066628870E+00 a       293     0    15     1    13
  1.5317093062567484E+00 a       294     0    15     1    14
 -1.0389250597852224E+00 a       295     0    15     1    15
  2.3796393284218584E-01 a       296     0    15     1    16
 -1.3664570448289839E+00 a       297     0    15     1    17
 -2.1279872559079782E-01 a       298     0    15     1    18
 -3.7152767798321429E-01 a       299     0    15     1    19
 -1.0425697408523942E+00 a       300     0    15     1    20
  2.5096692533846774E+00 a       301     0    16     1     1
 -5.6614243720026689E+00 a       302     0    16     1     2
 -2.4129185554691754E+00 a       303     0    16     1     3
  5.9344875249324369E-01 a       304     0    16     1     4
  1.5500833499651570E+00 a       305     0    16     1     5
 -2.3749211264474419E+00 a       306     0    16     1     6
 -7.1037097395189108E-01 a       307     0    16     1     7
 -5.9611238784665765E+00 a       308     0    16     1     8
 -6.3184069806876542E-01 a       309     0    16     1     9
  4.6878496145511117E-01 a       310     0    16     1    10
 -1.5013950498057862E+00 a       311     0    16     1    11
 -8.7362660965698413E-01 a       312     0    16     1    12
  1.7856895320199446E+00 a       313     0    16     1    13
 -2.0691971715051984E+00 a       314     0    16     1    14
 -3.1394770390509783E+00 a       315     0    16     1    15
  9.2275746193581465E-01 a       316     0    16     1    16
 -4.0672282141807459E-01 a       317     0    16     1    17
 -1.4672182985387914E+00 a       318     0    16     1    18
 -1.7676778019694075E+00 a       319     0    16     1    19
 -1.6414949259010728E-02 a       320     0    16     1    20
  1.3699759901269561E+00 a       321     0    17     1     1
 -9.9768184319192910E-01 a       322     0    17     1     2
  1.1347334555854172E-01 a       323     0    17     1     3
  1.1259042412654356E+00 a       324     0    17     1     4
 -1.6217765843366314E+00 a       325     0    17     1     5
  1.8593370675092111E+00 a       326     0    17     1     6
 -1.8886717745059192E+00 a       327     0    17     1     7
  7.0996363826115660E-01 a       328     0    17     1     8
  7.4731723448920562E-01 a       329     0    17     1     9
  9.8027422536354902E-01 a       330     0    17     1    10
 -2.3338610146318958E-01 a       331     0    17     1    11
  1.2244994852536226E+00 a       332     0    17     1    12
 -2.3997395185059342E-01 a       333     0    17     1    13
  1.4940097520843492E+00 a       334     0    17     1    14
  3.1821645181077027E+00 a       335     0    17     1    15
  6.8533032142476258E-01 a       336     0    17     1    16
 -1.8435592024487433E+00 a       337     0    17     1    17
  1.9119595668548528E-01 a       338     0    17     1    18
  8.1579713277253696E-01 a       339     0    17     1    19
 -2.0127312200766672E+00 a       340     0    17     1    20
  3.9363104080301098E-01 a       341     0    18     1     1
 -6.2657274242845717E-01 a       342     0    18     1     2
 -3.1867989344074710E-01 a       343     0    18     1     3
 -3.4079307411126114E-01 a       344     0    18     1     4
 -1.1211155639313193E+00 a       345     0    18     1     5
  1.9592718951294399E+00 a       346     0    18     1     6
  1.0803964547679668E+00 a       347     0    18     1     7
 -5.1523752220668042E+00 a       348     0    18     1     8
 -2.0340717913513312E-01 a       349     0    18     1     9
  1.4316735871207049E+00 a       350     0    18     1    10
 -5.0893377401449569E-01 a       351     0    18     1    11
  3.3902732885270077E-02 a       352     0    18     1    12
  1.5137406039745640E+00 a       353     0    18     1    13
 -9.2861668289439459E-01 a       354     0    18     1    14
  2.2493381535845995E+00 a       355     0    18     1    15
  1.9282999115659565E+00 a       356     0    18     1    16
  7.3062870993167361E-01 a       357     0    18     1    17
 -2.0637820983285198E+00 a       358     0    18     1    18
  1.2301471983607370E+00 a       359     0    18     1    19
  1.0887299332060478E-01 a       360     0    18     1    20
 -3.9929510270704843E-01 a       361     0    19     1     1
 -3.2667531453160832E+00 a       362     0    19     1     2
 -1.3768916150601092E+00 a       363     0    19     1     3
  1.5885114945189441E-01 a       364     0    19     1     4
  4.8814248363637258E-01 a       365     0    19     1     5
 -9.6634584320623196E-01 a       366     0    19     1     6
 -3.5742890882735406E-01 a       367     0    19     1     7
 -3.1505111864938780E+00 a       368     0    19     1     8
 -3.3268254873766850E-01 a       369     0    19     1     9
  3.9180336228160684E-01 a       370     0    19     1    10
 -5.8112439312532582E-01 a       371     0    19     1    11
  6.6030814882182265E-03 a       372     0    19     1    12
  1.0954496537338221E+00 a       373     0    19     1    13
  1.1138812201064843E+00 a       374     0    19     1    14
  3.5755183337376586E+00 a       375     0    19     1    15
  2.9228117827982301E+00 a       376     0    19     1    16
  1.7902739254706352E+00 a       377     0    19     1    17
 -8.2621521130105424E-01 a       378     0    19     1    18
  2.8960322758345001E+00 a       379     0    19     1    19
  1.0081947077046032E+00 a       380     0    19     1    20
  1.0219979856324677E+00 a       381     0    20     1     1
 -2.0590729622506827E+00 a       382     0    20     1     2
  4.1891576042912060E-01 a       383     0    20     1     3
 -7.3820876164727256E-01 a       384     0    20     1     4
 -8.9315664904991565E-01 a       385     0    20     1     5
  5.9538110557228019E-01 a       386     0    20     1     6
  2.0094742781890069E+00 a       387     0    20     1     7
 -1.3919185335212549E+00 a       388     0    20     1     8
  1.3626998795469469E-01 a       389     0    20     1     9
  8.6006891303616517E-01 a       390     0    20     1    10
 -6.6576667011566171E-01 a       391     0    20     1    11
  6.4919850755880226E-01 a       392     0    20     1    12
  4.9813910804712047E-01 a       393     0    20     1    13
 -4.4715319635778233E-01 a       394     0    20     1    14
  1.6426772931188294E+00 a       395     0    20     1    15
  1.4298724620998768E+00 a       396     0    20     1    16
  8.8969916961687423E-01 a       397     0    20     1    17
  1.0156403632702884E+00 a       398     0    20     1    18
  1.1856080533973217E+00 a       399     0    20     1    19
  3.2722606649887709E-01 a       400     0    20     1    20
  1.5600833317107092E+00 a       401     0    21     1     1
 -1.9315045484412448E+00 a       402     0    21     1     2
  1.7342689981745831E+00 a       403     0    21     1     3
  1.3285878586230189E+00 a       404     0    21     1     4
 -1.6800920063618969E+00 a       405     0    21     1     5
 -3.5126121674972455E-01 a       406     0    21     1     6
  1.9965614580376279E+00 a       407     0    21     1     7
 -4.4806565518874581E+00 a       408     0    21     1     8
  4.8417114102081216E-01 a       409     0    21     1     9
  1.2534599381091487E+00 a       410     0    21     1    10
  1.6786443982763963E-01 a       411     0    21     1    11
 -7.1386687725944220E-01 a       412     0    21     1    12
 -2.0372841438633410E-01 a       413     0    21     1    13
 -1.9826126680232359E+00 a       414     0    21     1    14
 -1.3437756685465283E+00 a       415     0    21     1    15
  9.0163028477949902E-01 a       416     0    21     1    16
  1.8143406241814211E+00 a       417     0    21     1    17
  5.6167968524533451E-01 a       418     0    21     1    18
  5.0965861246998823E-01 a       419     0    21     1    19
  2.8966348632458072E-01 a       420     0    21     1    20
  1.3809342070636361E+00 a       421     0    22     1     1
  1.6313607177729661E+00 a       422     0    22     1     2
  1.1974167745151307E+00 a       423     0    22     1     3
  3.3403180686312989E-01 a       424     0    22     1     4
  1.4445423643399184E+00 a       425     0    22     1     5
  1.2681926210806868E-01 a       426     0    22     1     6
 -2.0838370005404597E-01 a       427     0    22     1     7
  2.2154441919220802E+00 a       428     0    22     1     8
  2.0024707593383315E-01 a       429     0    22     1     9
 -4.2174888762167290E-01 a       430     0    22     1    10
 -5.3224624493671346E-01 a       431     0    22     1    11
  1.7667483748862045E+00 a       432     0    22     1    12
  1.0516233517807437E-02 a       433     0    22     1    13
  1.7374933013261975E+00 a       434     0    22     1    14
 -3.7847430603103835E+00 a       435     0    22     1    15
 -2.8676549462221961E+00 a       436     0    22     1    16
 -6.1666315150771922E-01 a       437     0    22     1    17
  1.8243563400095910E+00 a       438     0    22     1    18
 -2.5824407472027731E+00 a       439     0    22     1    19
  3.2271384175191833E+00 a       440     0    22     1    20
  9.7047862227374715E-01 a       441     0    23     1     1
 -2.1907530510097630E+00 a       442     0    23     1     2
  1.7218168903167892E+00 a       443     0    23     1     3
  2.1839571747284614E+00 a       444     0    23     1     4
 -1.3030908141151376E+00 a       445     0    23     1     5
  4.6051365366934022E-01 a       446     0    23     1     6
  3.1168658222816417E+00 a       447     0    23     1     7
 -6.0251151438273149E+00 a       448     0    23     1     8
  6.8548384540306018E-01 a       449     0    23     1     9
  1.6574700820143544E+00 a       450     0    23     1    10
  3.3802667142432968E-01 a       451     0    23     1    11
  7.2045217565897146E-01 a       452     0    23     1    12
  2.3538335284398646E+00 a       453     0    23     1    13
  7.1291090500266163E-01 a       454     0    23     1    14
  2.0317000085642842E+00 a       455     0    23     1    15
  1.6605233695721724E+00 a       456     0    23     1    16
  3.4201721977679456E+00 a       457     0    23     1    17
  3.7404146130733973E-01 a       458     0    23     1    18
  9.5822917807753705E-01 a       459     0    23     1    19
  5.1210765452749130E-01 a       460     0    23     1    20
 -9.4503938205222859E-01 a       461     0    24     1     1
  1.0750384130186839E+00 a       462     0    24     1     2
  4.0878623007350114E+00 a       463     0    24     1     3
  6.4567775051138365E-01 a       464     0    24     1     4
 -2.5483914214884623E-01 a       465     0    24     1     5
  1.3025672382674527E+00 a       466     0    24     1     6
  3.1658955956604804E+00 a       467     0    24     1     7
  6.2752230329306902E-01 a       468     0    24     1     8
  1.8858484911504214E+00 a       469     0    24     1     9
 -3.5913347843795336E+00 a       470     0    24     1    10
 -1.2561540024157400E+00 a       471     0    24     1    11
 -8.1999015692693633E-01 a       472     0    24     1    12
  3.2183526333302415E-01 a       473     0    24     1    13
 -1.9755713080821391E+00 a       474     0    24     1    14
 -4.6191636763424715E-01 a       475     0    24     1    15
 -2.6950474928212503E-01 a       476     0    24     1    16
 -5.5341810464833561E+00 a       477     0    24     1    17
 -9.4225401589834912E-01 a       478     0    24     1    18
 -9.1831921048973641E-01 a       479     0    24     1    19
 -3.4492085257403273E+00 a       480     0    24     1    20
 -5.8233787272608151E-01 a       481     0    25     1     1
 -5.3733375433275059E+00 a       482     0    25     1     2
 -2.4284133606805467E+00 a       483     0    25     1     3
  2.5400384843840862E-01 a       484     0    25     1     4
  5.8206879333790162E-01 a       485     0    25     1     5
 -1.5399912656472374E+00 a       486     0    25     1     6
  1.3736494027778612E+00 a       487     0    25     1     7
 -4.6395116596904709E+00 a       488     0    25     1     8
 -4.6659486363925824E-03 a       489     0    25     1     9
  5.9422759978764150E-01 a       490     0    25     1    10
  2.4939026197551590E+00 a       491     0    25     1    11
 -5.7810701237457995E-01 a       492     0    25     1    12
  2.4214193136505866E+00 a       493     0    25     1    13
  9.2627390179019597E-01 a       494     0    25     1    14
  3.0143940982546327E+00 a       495     0    25     1    15
  3.7779444152137973E+00 a       496     0    25     1    16
  2.5233159964442349E+00 a       497     0    25     1    17
 -2.7354506454855985E+00 a       498     0    25     1    18
  3.5536676205731963E+00 a       499     0    25     1    19
  1.6965954935977030E+00 a       500     0    25     1    20
  2.2324514776731195E+00 a       501     0    26     1     1
 -2.2980603774024257E+00 a       502     0    26     1     2
  1.0181023365859192E+00 a       503     0    26     1     3
 -9.2237282808221777E-01 a       504     0    26     1     4
 -9.7251663336392102E-01 a       505     0    26     1     5
  1.8235261778198706E-02 a       506     0    26     1     6
  2.5462090842959482E+00 a       507     0    26     1     7
 -2.3103162546242428E+00 a       508     0    26     1     8
 -7.4486626198776429E-01 a       509     0    26     1     9
  2.4807417296989760E+00 a       510     0    26     1    10
  6.6547143549076848E-01 a       511     0    26     1    11
  1.4256933248317696E-01 a       512     0    26     1    12
  7.9703547206007330E-01 a       513     0    26     1    13
 -1.2216898047453819E+00 a       514     0    26     1    14
  2.5208113022193821E+00 a       515     0    26     1    15
  9.1703617057829101E-01 a       516     0    26     1    16
  3.4736808599903837E+00 a       517     0    26     1    17
  2.0341127169374773E+00 a       518     0    26     1    18
  1.5039919294227524E+00 a       519     0    26     1    19
  2.1975026988105166E+00 a       520     0    26     1    20
  1.5405212558063555E+00 a       521     0    27     1     1
  1.5450112697691707E+00 a       522     0    27     1     2
 -1.3213695053389825E+00 a       523     0    27     1     3
 -7.1118781983290835E-01 a       524     0    27     1     4
 -1.0309206044871646E+00 a       525     0    27     1     5
  2.2811355653277118E-01 a       526     0    27     1     6
  1.8198649578612489E+00 a       527     0    27     1     7
 -1.3721146882747493E+00 a       528     0    27     1     8
 -1.0407890177862913E+00 a       529     0    27     1     9
  2.6447435740391616E+00 a       530     0    27     1    10
  1.3913018324712141E+00 a       531     0    27     1    11
 -8.6591142670978838E-01 a       532     0    27     1    12
 -1.2503226571347354E+00 a       533     0    27     1    13
 -3.9805308900739911E-02 a       534     0    27     1    14
  9.7599897141628200E-01 a       535     0    27     1    15
 -6.1139014206737152E-01 a       536     0    27     1    16
  1.3584381891449817E+00 a       537     0    27     1    17
  1.3091777775952491E+00 a       538     0    27     1    18
  1.3873158288297782E+00 a       539     0    27     1    19
  2.1772446910512731E+00 a       540     0    27     1    20
  1.7385974547772536E+00 a       541     0    28     1     1
  4.8908645003636373E+00 a       542     0    28     1     2
  3.5460912798520847E+00 a       543     0    28     1     3
  1.1804443138798275E+00 a       544     0    28     1     4
 -5.4292402665414130E+00 a       545     0    28     1     5
  1.4733715829006935E+00 a       546     0    28     1     6
  1.6889877863061031E+00 a       547     0    28     1     7
 -5.3625124538809610E+00 a       548     0    28     1     8
  2.3932298170688315E+00 a       549     0    28     1     9
  3.9424483495170342E+00 a       550     0    28     1    10
 -2.0981758451489081E+00 a       551     0    28     1    11
 -5.5624631523361434E-01 a       552     0    28     1    12
  1.6472583018961193E+00 a       553     0    28     1    13
  1.1667789355561184E+00 a       554     0    28     1    14
 -2.5303717981123847E-01 a       555     0    28     1    15
 -1.3747474741720256E+00 a       556     0    28     1    16
 -1.9551364354790031E+00 a       557     0    28     1    17
 -1.3695507219029748E+00 a       558     0    28     1    18
  6.0129132723196410E-01 a       559     0    28     1    19
 -6.2720063505083790E-01 a       560     0    28     1    20
  2.7551340830069737E+00 a       561     0    29     1     1
  1.0857093842874842E-01 a       562     0    29     1     2
  7.0168634158181282E+00 a       563     0    29     1     3
  4.7513784748331584E+00 a       564     0    29     1     4
 -1.5385123965891216E+00 a       565     0    29     1     5
 -2.9840785826710070E-01 a       566     0    29     1     6
  4.6612596271282536E+00 a       567     0    29     1     7
 -2.9944644381560463E+00 a       568     0    29     1     8
 -8.4251121615360386E-02 a       569     0    29     1     9
  2.0714105360291399E+00 a       570     0    29     1    10
 -5.2198879218225303E-01 a       571     0    29     1    11
  5.6036386271441230E-01 a       572     0    29     1    12
 -1.8249975495685646E+00 a       573     0    29     1    13
  1.9948069605795056E+00 a       574     0    29     1    14
 -1.3186300390758674E+00 a       575     0    29     1    15
 -2.2572922610963775E+00 a       576     0    29     1    16
  5.1332110944189271E+00 a       577     0    29     1    17
  7.3808379754628675E+00 a       578     0    29     1    18
 -2.6689594343784337E+00 a       579     0    29     1    19
  1.0224608524035486E+00 a       580     0    29     1    20
  3.1238572847302921E-02 a       581     0    30     1     1
 -2.3664775630500129E-01 a       582     0    30     1     2
 -1.6265835595514853E+00 a       583     0    30     1     3
 -1.0807849034371981E+00 a       584     0    30     1     4
  1.4726318431145460E+00 a       585     0    30     1     5
 -1.5320665639954881E-01 a       586     0    30     1     6
 -1.1371145919181713E+00 a       587     0    30     1     7
 -3.1431087799835002E+00 a       588     0    30     1     8
 -4.0059302976992921E+00 a       589     0    30     1     9
  5.0314769450182553E+00 a       590     0    30     1    10
  1.9536764026899029E+00 a       591     0    30     1    11
  2.9896077163710877E+00 a       592     0    30     1    12
 -1.8586694194813138E+00 a       593     0    30     1    13
 -2.6000400875174839E-01 a       594     0    30     1    14
 -7.0458884198800253E-01 a       595     0    30     1    15
  7.6723799415326399E-01 a       596     0    30     1    16
  2.6992061516117616E+00 a       597     0    30     1    17
  3.3125216904807679E+00 a       598     0    30     1    18
 -2.9526520580837529E-01 a       599     0    30     1    19
  3.7196472010413157E+00 a       600     0    30     1    20
  1.1126276747501407E+00 a       601     0    31     1     1
 -3.0907275836578907E+00 a       602     0    31     1     2
 -5.2932117306814348E+00 a       603     0    31     1     3
 -1.0125924338430436E+00 a       604     0    31     1     4
 -7.1565647136581745E-01 a       605     0    31     1     5
 -2.2419936427095637E+00 a       606     0    31     1     6
 -3.0286044975330459E+00 a       607     0    31     1     7
 -3.9372183584981491E-01 a       608     0    31     1     8
 -2.8798560393757895E+00 a       609     0    31     1     9
  6.0773090160475682E+00 a       610     0    31     1    10
 -1.1452125032490745E+00 a       611     0    31     1    11
  2.6084713065264991E+00 a       612     0    31     1    12
  8.0772627604530911E-01 a       613     0    31     1    13
  9.5836062280963141E-01 a       614     0    31     1    14
  9.1338461320200415E-01 a       615     0    31     1    15
  1.8254620244928410E-01 a       616     0    31     1    16
  1.9331749916037217E+00 a       617     0    31     1    17
  8.6369041328221741E-01 a       618     0    31     1    18
  2.8791767688064867E+00 a       619     0    31     1    19
  1.4345954672233945E+00 a       620     0    31     1    20
 -7.1441419589140198E-01 a       621     0    32     1     1
 -1.4546407400960337E+00 a       622     0    32     1     2
  8.0232670790773175E-01 a       623     0    32     1     3
  6.7189817045584221E-01 a       624     0    32     1     4
  2.9289638010506951E+00 a       625     0    32     1     5
 -1.2015673921139796E+00 a       626     0    32     1     6
 -1.3866916876502184E+00 a       627     0    32     1     7
  1.7032443357179490E+00 a       628     0    32     1     8
 -1.3748489415481964E+00 a       629     0    32     1     9
 -1.1108871258430246E-01 a       630     0    32     1    10
  1.8346481478635086E+00 a       631     0    32     1    11
 -1.3032285263391119E+00 a       632     0    32     1    12
 -5.1201738581599967E+00 a       633     0    32     1    13
  2.4362218501407262E-01 a       634     0    32     1    14
 -3.9685055944357366E+00 a       635     0    32     1    15
 -3.1947830950976961E+00 a       636     0    32     1    16
  7.2932578469553955E-01 a       637     0    32     1    17
  3.6730394387830732E+00 a       638     0    32     1    18
 -4.3756289819253444E+00 a       639     0    32     1    19
  3.7194926600149714E+00 a       640     0    32     1    20
  3.0512706239334562E+00 a       641     0    33     1     1
  2.1374418147094394E+00 a       642     0    33     1     2
  3.1616282632662442E+00 a       643     0    33     1     3
 -1.3414411709944958E+00 a       644     0    33     1     4
  2.0053020684704995E-01 a       645     0    33     1     5
 -2.0562371011461758E-01 a       646     0    33     1     6
  5.0569232896351524E-01 a       647     0    33     1     7
 -3.5318650085387171E-01 a       648     0    33     1     8
 -1.6000343089887548E-01 a       649     0    33     1     9
  3.0596114525989253E+00 a       650     0    33     1    10
  1.3340851765701716E+00 a       651     0    33     1    11
 -7.3641981624477459E-01 a       652     0    33     1    12
 -1.2096633552617069E+00 a       653     0    33     1    13
 -2.7138990211748668E+00 a       654     0    33     1    14
  1.1175616975061378E+00 a       655     0    33     1    15
 -3.5902627532283455E+00 a       656     0    33     1    16
  3.3304928388870674E+00 a       657     0    33     1    17
  1.7108634212402702E+00 a       658     0    33     1    18
 -4.9550529102994817E-02 a       659     0    33     1    19
  5.0816830058291975E+00 a       660     0    33     1    20
 -1.9817280335905779E-01 a       661     0    34     1     1
 -3.4323755903924141E-01 a       662     0    34     1     2
 -9.5361183919271016E-03 a       663     0    34     1     3
  2.8411017475123146E-02 a       664     0    34     1     4
  2.4479247183500369E-01 a       665     0    34     1     5
  1.2153414778981728E+00 a       666     0    34     1     6
 -1.8625504585581459E-01 a       667     0    34     1     7
  1.8447738929692792E-01 a       668     0    34     1     8
  2.4725269442335947E-02 a       669     0    34     1     9
  1.0516595459187930E+00 a       670     0    34     1    10
 -3.6077530518552015E-01 a       671     0    34     1    11
 -6.0129051629881891E-01 a       672     0    34     1    12
 -3.5903004681576767E-01 a       673     0    34     1    13
 -9.4574298181944710E-02 a       674     0    34     1    14
 -5.2400965911259589E-02 a       675     0    34     1    15
  4.7154323589501662E-01 a       676     0    34     1    16
  5.4059048955724642E-01 a       677     0    34     1    17
 -5.5078701669568808E-01 a       678     0    34     1    18
 -2.0548691545279529E-01 a       679     0    34     1    19
  4.4012354959423944E-01 a       680     0    34     1    20
 -3.8897535806005559E+00 a       681     0    35     1     1
 -4.7155425813575000E+00 a       682     0    35     1     2
 -9.2483712126557869E+00 a       683     0    35     1     3
 -7.8464434898886628E+00 a       684     0    35     1     4
  1.1285496249385998E+01 a       685     0    35     1     5
 -4.4423702750700746E+00 a       686     0    35     1     6
 -4.5680789825555159E+00 a       687     0    35     1     7
  8.6154669178109629E+00 a       688     0    35     1     8
 -1.3409412232560891E+00 a       689     0    35     1     9
 -7.6010096277226289E+00 a       690     0    35     1    10
  3.0517817500298219E+00 a       691     0    35     1    11
  1.4108668339518284E+00 a       692     0    35     1    12
 -2.9861165265807244E+00 a       693     0    35     1    13
  1.2348920412459150E+00 a       694     0    35     1    14
 -6.3454636588610169E+00 a       695     0    35     1    15
 -2.8935180293067835E+00 a       696     0    35     1    16
  1.2058098907555472E+00 a       697     0    35     1    17
 -2.6180930444309736E+00 a       698     0    35     1    18
 -5.3091993362070662E+00 a       699     0    35     1    19
  1.3834016938167386E+00 a       700     0    35     1    20
 -1.1513528750613464E+00 a       701     0    36     1     1
  6.8782003076343037E-02 a       702     0    36     1     2
 -2.2296223273307381E+00 a       703     0    36     1     3
 -1.8644951278970991E+00 a       704     0    36     1     4
  2.2874775924577921E+00 a       705     0    36     1     5
 -1.9284608102788319E+00 a       706     0    36     1     6
 -5.5365968724716619E-01 a       707     0    36     1     7
 -4.9296887677652168E-02 a       708     0    36     1     8
  5.0501750558856229E-01 a       709     0    36     1     9
 -1.2732965714184965E+00 a       710     0    36     1    10
  2.0916650869661777E+00 a       711     0    36     1    11
 -1.8805196525550180E-01 a       712     0    36     1    12
 -1.1456630191460937E+00 a       713     0    36     1    13
 -1.1174497154513527E+00 a       714     0    36     1    14
 -1.2245612662507586E+00 a       715     0    36     1    15
 -2.0189208704447870E-01 a       716     0    36     1    16
  1.6217781226081922E+00 a       717     0    36     1    17
  1.7141713045723331E-01 a       718     0    36     1    18
 -2.6092685356910326E+00 a       719     0    36     1    19
  2.9114818539101655E+00 a       720     0    36     1    20
 -2.4416557113222055E+00 a       721     0    37     1     1
 -3.1540357513809691E-01 a       722     0    37     1     2
 -2.9671591001223230E+00 a       723     0    37     1     3
 -1.5991710235879186E+00 a       724     0    37     1     4
  1.4134888658638263E+00 a       725     0    37     1     5
 -3.3079547900082762E-01 a       726     0    37     1     6
 -2.4312644409286803E+00 a       727     0    37     1     7
  7.8132036978291231E+00 a       728     0    37     1     8
  2.3435302521325951E+00 a       729     0    37     1     9
  7.4618453722449823E-02 a       730     0    37     1    10
  1.8962707555650697E+00 a       731     0    37     1    11
  1.6985254352130225E-01 a       732     0    37     1    12
 -2.3494932520620972E+00 a       733     0    37     1    13
  1.9763964265511762E+00 a       734     0    37     1    14
  1.6424734580206843E+00 a       735     0    37     1    15
  1.8975633161712573E+00 a       736     0    37     1    16
  1.4586875805102242E+00 a       737     0    37     1    17
  7.2311007828497154E-01 a       738     0    37     1    18
  1.3418365341447822E+00 a       739     0    37     1    19
  3.1878074740252287E+00 a       740     0    37     1    20
 -6.0752467210462735E-01 a       741     0    38     1     1
 -8.4715571735020800E-01 a       742     0    38     1     2
 -1.9396330178738539E+00 a       743     0    38     1     3
 -1.1980138242081182E+00 a       744     0    38     1     4
  3.4018876391757208E-01 a       745     0    38     1     5
 -6.5872279264469158E-01 a       746     0    38     1     6
 -2.1608525230376645E+00 a       747     0    38     1     7
 -2.5504314408290996E+00 a       748     0    38     1     8
 -1.5860387147012089E-01 a       749     0    38     1     9
  2.6173706086573829E+00 a       750     0    38     1    10
  6.8235559219554154E-01 a       751     0    38     1    11
  3.3140224882664575E+00 a       752     0    38     1    12
  4.3939872563588439E-01 a       753     0    38     1    13
  1.0554964188652376E+00 a       754     0    38     1    14
 -3.6576244063771077E+00 a       755     0    38     1    15
 -7.4624739018234632E-01 a       756     0    38     1    16
 -4.7507132651215678E-01 a       757     0    38     1    17
  2.1961387335907617E-01 a       758     0    38     1    18
 -1.3466652685649876E+00 a       759     0    38     1    19
  2.7834053877052871E+00 a       760     0    38     1    20
 -7.8603352176096675E-01 a       761     0    39     1     1
 -2.1365622053957294E+00 a       762     0    39     1     2
 -1.7673449707794182E+00 a       763     0    39     1     3
 -6.3017384628888851E-01 a       764     0    39     1     4
  2.3781949658491945E+00 a       765     0    39     1     5
 -8.1022357209901963E-01 a       766     0    39     1     6
 -5.6557840132440484E-01 a       767     0    39     1     7
  2.3792841789636929E+00 a       768     0    39     1     8
 -1.2533806046379581E+00 a       769     0    39     1     9
 -2.0547471381375164E+00 a       770     0    39     1    10
  3.8915138945568062E-01 a       771     0    39     1    11
  1.0175412923097725E-01 a       772     0    39     1    12
 -4.5252944194319383E-01 a       773     0    39     1    13
 -9.2652890279503380E-02 a       774     0    39     1    14
 -1.2749904496485617E-01 a       775     0    39     1    15
  5.0689527966410830E-01 a       776     0    39     1    16
  8.3225765104952587E-01 a       777     0    39     1    17
  5.0001990737484281E-01 a       778     0    39     1    18
 -3.7858233190940110E-01 a       779     0    39     1    19
  6.9792651895176883E-01 a       780     0    39     1    20
 -2.0229306692240621E+00 a       781     0    40     1     1
  5.9928360533028648E+00 a       782     0    40     1     2
  1.1251058159039291E+00 a       783     0    40     1     3
 -3.8483449332348258E+00 a       784     0    40     1     4
 -1.3092570393893903E+00 a       785     0    40     1     5
  7.0482684769823667E-01 a       786     0    40     1     6
  4.1278784857700463E+00 a       787     0    40     1     7
  3.7175165645375102E-01 a       788     0    40     1     8
  2.6312639799398321E+00 a       789     0    40     1     9
 -2.5254863232649267E+00 a       790     0    40     1    10
  1.6755965439710394E+00 a       791     0    40     1    11
  9.5566778134626662E-02 a       792     0    40     1    12
  2.7032182299141385E+00 a       793     0    40     1    13
  9.8571567723691889E-01 a       794     0    40     1    14
 -8.3333335827336086E-01 a       795     0    40     1    15
 -2.1982553558523477E+00 a       796     0    40     1    16
  7.9860658771669268E-01 a       797     0    40     1    17
 -4.2961679342814483E+00 a       798     0    40     1    18
  4.3401841788768820E+00 a       799     0    40     1    19
 -7.5832751497358630E-01 a       800     0    40     1    20
  9.8763849312443452E-01 a       801     0    41     1     1
 -1.7670248241924180E+00 a       802     0    41     1     2
  3.9977458376125501E+00 a       803     0    41     1     3
 -2.8628886646217238E+00 a       804     0    41     1     4
 -3.5730872600238115E+00 a       805     0    41     1     5
  5.7817406993996723E-01 a       806     0    41     1     6
  8.2049020097415610E+00 a       807     0    41     1     7
 -4.4830078746147164E+00 a       808     0    41     1     8
 -2.3118876946386719E+00 a       809     0    41     1     9
 -5.1254940440506658E-01 a       810     0    41     1    10
  3.5588856317892121E+00 a       811     0    41     1    11
  8.6643252570269913E-01 a       812     0    41     1    12
  2.6836183566335601E+00 a       813     0    41     1    13
  2.5256510165243884E-01 a       814     0    41     1    14
  3.0341639757562664E+00 a       815     0    41     1    15
  3.8298075952694424E+00 a       816     0    41     1    16
  4.6180724466548853E+00 a       817     0    41     1    17
 -2.5576968309383457E+00 a       818     0    41     1    18
  4.7399015524338344E+00 a       819     0    41     1    19
  9.6142671724345397E-01 a       820     0    41     1    20
 -9.8041211129232164E-01 a       821     0    42     1     1
 -9.9102718613831975E-01 a       822     0    42     1     2
  1.3603331061165902E+00 a       823     0    42     1     3
  4.5742066528306749E-03 a       824     0    42     1     4
 -4.1393805082485136E-01 a       825     0    42     1     5
 -2.3990806160556004E+00 a       826     0    42     1     6
  1.1215137995498181E+00 a       827     0    42     1     7
  2.0331364160260407E-01 a       828     0    42     1     8
  2.3457798205154301E+00 a       829     0    42     1     9
 -1.1778824413148492E+00 a       830     0    42     1    10
  3.6846667341127306E+00 a       831     0    42     1    11
  2.0812661571978621E+00 a       832     0    42     1    12
  3.3871928156167336E-01 a       833     0    42     1    13
  5.3971390713089200E-02 a       834     0    42     1    14
  3.0440919693756925E+00 a       835     0    42     1    15
  1.0712689299173968E+00 a       836     0    42     1    16
  3.7190081136584521E+00 a       837     0    42     1    17
  2.1086350141468100E+00 a       838     0    42     1    18
  2.4127830345310475E+00 a       839     0    42     1    19
  6.7990360790722992E-01 a       840     0    42     1    20
 -5.3656491901193448E-01 a       841     0    43     1     1
  1.3348128424272485E+00 a       842     0    43     1     2
  1.5206031863147421E-01 a       843     0    43     1     3
  7.3639796438479593E-02 a       844     0    43     1     4
  8.1600919050187160E-01 a       845     0    43     1     5
  4.7448195653782976E-01 a       846     0    43     1     6
  1.5387080749329318E+00 a       847     0    43     1     7
 -2.9155632616303308E-02 a       848     0    43     1     8
  6.1203439007669802E-01 a       849     0    43     1     9
 -7.7699317818994762E-01 a       850     0    43     1    10
 -7.4374355209131171E-01 a       851     0    43     1    11
 -1.3314268390098407E+00 a       852     0    43     1    12
 -4.1236956396211270E-02 a       853     0    43     1    13
 -6.7567245472454018E-01 a       854     0    43     1    14
 -7.4169860149844424E-01 a       855     0    43     1    15
  1.1684684294272647E-02 a       856     0    43     1    16
  8.0014377810548321E-01 a       857     0    43     1    17
 -4.3762352287851769E-01 a       858     0    43     1    18
 -2.1476576037246134E-01 a       859     0    43     1    19
  1.4103771062188939E+00 a       860     0    43     1    20
 -1.3747388554449167E+00 a       861     0    44     1     1
 -6.0772028706377057E+00 a       862     0    44     1     2
 -3.0154414902899194E+00 a       863     0    44     1     3
 -2.8775575742065906E+00 a       864     0    44     1     4
  1.3821566414396496E+00 a       865     0    44     1     5
 -6.1218465451254844E-01 a       866     0    44     1     6
  8.1439004238490631E-01 a       867     0    44     1     7
 -5.0610318057601855E-01 a       868     0    44     1     8
 -4.0238916327949675E-01 a       869     0    44     1     9
 -3.2753528215563930E+00 a       870     0    44     1    10
  3.9176438084692373E+00 a       871     0    44     1    11
  7.1493652909415484E-01 a       872     0    44     1    12
  2.7453796746893828E+00 a       873     0    44     1    13
  7.2628355356302754E-01 a       874     0    44     1    14
 -8.6684647609264220E-01 a       875     0    44     1    15
  1.9713137181831364E+00 a       876     0    44     1    16
  1.7922232750532225E+00 a       877     0    44     1    17
 -7.0663459384490777E+00 a       878     0    44     1    18
  5.8029833109447992E-01 a       879     0    44     1    19
  3.4913492136825335E+00 a       880     0    44     1    20
  1.5951866995673445E+00 a       881     0    45     1     1
 -1.1800279441156634E+00 a       882     0    45     1     2
  1.4091236960388824E+00 a       883     0    45     1     3
  3.0495208100366136E+00 a       884     0    45     1     4
 -1.6133773185324898E+00 a       885     0    45     1     5
 -3.0536779195276414E-01 a       886     0    45     1     6
  4.4991767438895911E+00 a       887     0    45     1     7
 -3.9122773376634994E+00 a       888     0    45     1     8
  4.5556467480736798E+00 a       889     0    45     1     9
  1.5976145800028057E+00 a       890     0    45     1    10
 -3.2139900736023228E+00 a       891     0    45     1    11
  3.1938877874633826E+00 a       892     0    45     1    12
  6.1573508282341693E+00 a       893     0    45     1    13
 -6.1476134348557088E-01 a       894     0    45     1    14
 -2.9663910414160415E+00 a       895     0    45     1    15
 -7.1418305777671998E-01 a       896     0    45     1    16
  1.9146217097220919E+00 a       897     0    45     1    17
 -1.7266971762750618E+00 a       898     0    45     1    18
 -2.0701871230104629E+00 a       899     0    45     1    19
 -5.6710534686474574E+00 a       900     0    45     1    20
 -4.7908083354885535E-02 a       901     0    46     1     1
 -2.8504408355886696E-01 a       902     0    46     1     2
  7.2006878259398388E-02 a       903     0    46     1     3
  3.8300487590445181E-01 a       904     0    46     1     4
  3.3903361293618234E-01 a       905     0    46     1     5
  7.7836952164485351E-01 a       906     0    46     1     6
  2.1259604302457280E-01 a       907     0    46     1     7
 -1.8075802951093059E-01 a       908     0    46     1     8
 -5.4822034980996337E-01 a       909     0    46     1     9
 -2.5143825978458373E-01 a       910     0    46     1    10
 -2.0015961279882530E+00 a       911     0    46     1    11
  4.3855980627725943E-01 a       912     0    46     1    12
  4.5864623643661823E-01 a       913     0    46     1    13
  1.4288274952349787E+00 a       914     0    46     1    14
 -1.1654251075670923E+00 a       915     0    46     1    15
  3.9316125606566549E-01 a       916     0    46     1    16
 -4.6614853227053010E-01 a       917     0    46     1    17
 -1.4591260701050255E+00 a       918     0    46     1    18
 -3.4267533103750952E-01 a       919     0    46     1    19
 -8.1466778528490225E-01 a       920     0    46     1    20
 -3.3737655671971392E+00 a       921     0    47     1     1
 -3.6644443765438195E-01 a       922     0    47     1     2
 -7.6876108706386126E-01 a       923     0    47     1     3
 -1.5042227943460134E+00 a       924     0    47     1     4
 -1.7594199357042598E-01 a       925     0    47     1     5
 -2.2936717186719933E+00 a       926     0    47     1     6
  6.0542263722839407E-01 a       927     0    47     1     7
  2.2517051874552161E+00 a       928     0    47     1     8
  2.1140724336389916E+00 a       929     0    47     1     9
 -1.1296914091756978E+00 a       930     0    47     1    10
  1.5548750950922750E+00 a       931     0    47     1    11
  8.9031152468736230E-01 a       932     0    47     1    12
  1.2908490084381843E+00 a       933     0    47     1    13
  2.1895772938579783E+00 a       934     0    47     1    14
  1.5448190231477543E+00 a       935     0    47     1    15
  6.0694805835598264E-01 a       936     0    47     1    16
  2.4133678005639925E+00 a       937     0    47     1    17
  1.5481339740243967E+00 a       938     0    47     1    18
  2.4791011533295833E+00 a       939     0    47     1    19
  1.5367373347949382E+00 a       940     0    47     1    20
  2.0840737704617585E-01 a       941     0    48     1     1
 -5.2386283024279479E+00 a       942     0    48     1     2
 -1.0064877658000955E+00 a       943     0    48     1     3
 -8.0030151353818257E-01 a       944     0    48     1     4
  2.0865420798505658E+00 a       945     0    48     1     5
 -3.6312948579959285E+00 a       946     0    48     1     6
 -7.2008759507971198E-01 a       947     0    48     1     7
  3.5627918495494182E+00 a       948     0    48     1     8
 -1.8876934500484903E+00 a       949     0    48     1     9
 -9.4402376872029403E-01 a       950     0    48     1    10
 -1.5321612539607463E+00 a       951     0    48     1    11
  4.0631530430465645E-01 a       952     0    48     1    12
  1.2473319306508348E+00 a       953     0    48     1    13
  1.4477712459084686E+00 a       954     0    48     1    14
  1.1544857213194978E-02 a       955     0    48     1    15
 -6.7519994226560121E-01 a       956     0    48     1    16
  7.1148433879281792E-01 a       957     0    48     1    17
 -2.2863841375937852E-01 a       958     0    48     1    18
 -1.8266387942443416E+00 a       959     0    48     1    19
 -6.7662348486737534E-01 a       960     0    48     1    20
 -2.6030348509286649E+00 a       961     0    49     1     1
 -4.8174401901378126E+00 a       962     0    49     1     2
 -3.0590425029247026E+00 a       963     0    49     1     3
  2.0211788094054997E-01 a       964     0    49     1     4
  1.0440571961751277E-01 a       965     0    49     1     5
 -2.0304225947538508E+00 a       966     0    49     1     6
 -8.7269555494163253E-01 a       967     0    49     1     7
 -3.8372889010721196E+00 a       968     0    49     1     8
  1.8273692390834280E+00 a       969     0    49     1     9
 -1.2290592297865659E+00 a       970     0    49     1    10
  3.7336766027614434E+00 a       971     0    49     1    11
  5.5283543730341689E-01 a       972     0    49     1    12
  2.6615837005839835E+00 a       973     0    49     1    13
  1.4434874681370267E+00 a       974     0    49     1    14
  2.5403749472833868E+00 a       975     0    49     1    15
  2.8404697857890149E+00 a       976     0    49     1    16
  1.4696145918888381E+00 a       977     0    49     1    17
 -1.6188339729521337E+00 a       978     0    49     1    18
  1.5962750511767394E+00 a       979     0    49     1    19
 -2.1398819505032289E+00 a       980     0    49     1    20
 -2.5883581336380496E-01 a       981     0    50     1     1
 -6.1466185099905690E-01 a       982     0    50     1     2
  2.9355244858861890E-01 a       983     0    50     1     3
 -3.9892970417916712E-01 a       984     0    50     1     4
 -5.1892103309699156E-01 a       985     0    50     1     5
  4.5743347858213274E-01 a       986     0    50     1     6
  3.9924948452647752E-01 a       987     0    50     1     7
 -1.2221354237535336E+00 a       988     0    50     1     8
 -3.3811918058338875E-01 a       989     0    50     1     9
  8.0987609556892451E-02 a       990     0    50     1    10
  1.2950940739445267E+00 a       991     0    50     1    11
 -4.4542884377131081E-01 a       992     0    50     1    12
 -2.8251041156906326E-01 a       993     0    50     1    13
 -5.5235866135075939E-01 a       994     0    50     1    14
  7.6551949043701384E-02 a       995     0    50     1    15
 -5.0360888041868401E-01 a       996     0    50     1    16
  1.0200719377295324E+00 a       997     0    50     1    17
 -5.5360458326060968E-01 a       998     0    50     1    18
 -1.7377952219792960E-02 a       999     0    50     1    19
  4.1756486561893563E-01 a      1000     0    50     1    20
 -2.1290980204294124E-01 a      1001     0    51     1     1
 -5.6131893724001436E-01 a      1002     0    51     1     2
 -1.3246798562979145E-01 a      1003     0    51     1     3
  5.1734879492561101E-02 a      1004     0    51     1     4
  4.8766367474162675E-01 a      1005     0    51     1     5
  2.2391021917942427E-01 a      1006     0    51     1     6
 -8.5060735178160218E-01 a      1007     0    51     1     7
  1.3356091949520665E+00 a      1008     0    51     1     8
  3.2246143586995740E-01 a      1009     0    51     1     9
  2.2471502188793618E-01 a      1010     0    51     1    10
 -3.8696699175542665E-01 a      1011     0    51     1    11
  1.4525065850395196E+00 a      1012     0    51     1    12
  4.2304699160102910E-01 a      1013     0    51     1    13
  4.2566333381334626E-01 a      1014     0    51     1    14
  6.5767182702440841E-01 a      1015     0    51     1    15
  2.6486609719730042E-01 a      1016     0    51     1    16
 -9.2868663338476149E-04 a      1017     0    51     1    17
  8.6593007981223857E-01 a      1018     0    51     1    18
  7.5717347393702028E-01 a      1019     0    51     1    19
  7.4879502564145706E-01 a      1020     0    51     1    20
  2.4213935231591124E-02 a      1021     0    52     1     1
 -2.4266580639647266E+00 a      1022     0    52     1     2
 -6.6063575442818234E-01 a      1023     0    52     1     3
  5.4024225355738656E-02 a      1024     0    52     1     4
  4.6356067766828579E-01 a      1025     0    52     1     5
 -2.6715131166856215E-01 a      1026     0    52     1     6
  2.4033268907794972E-01 a      1027     0    52     1     7
  3.9046865643961537E-01 a      1028     0    52     1     8
  2.6391355061162752E-01 a      1029     0    52     1     9
  2.4170029809996996E-02 a      1030     0    52     1    10
  1.8458517749346498E-01 a      1031     0    52     1    11
 -1.0168671374686169E+00 a      1032     0    52     1    12
  2.0742549847475944E-01 a      1033     0    52     1    13
  3.5176799250940755E-01 a      1034     0    52     1    14
 -1.9375501978604329E-01 a      1035     0    52     1    15
 -3.0294722931111667E-01 a      1036     0    52     1    16
  1.8863650206164844E+00 a      1037     0    52     1    17
  4.1686540061622918E-01 a      1038     0    52     1    18
 -2.6829562990838102E-01 a      1039     0    52     1    19
 -1.0864029933535553E+00 a      1040     0    52     1    20
 -7.1485927213828282E-01 a      1041     0    53     1     1
 -1.4888383118425452E-01 a      1042     0    53     1     2
 -3.7817987146462650E-01 a      1043     0    53     1     3
 -3.1219966616849709E-01 a      1044     0    53     1     4
 -6.7761258391787271E-01 a      1045     0    53     1     5
 -2.2153319825328407E-01 a      1046     0    53     1     6
 -4.4120217975330467E-01 a      1047     0    53     1     7
 -6.2960648819316012E-01 a      1048     0    53     1     8
  9.5444720005399650E-02 a      1049     0    53     1     9
  7.6577433253452376E-01 a      1050     0    53     1    10
 -1.4894106665577034E-01 a      1051     0    53     1    11
  1.1557487114702354E-01 a      1052     0    53     1    12
 -2.2642413116436377E-01 a      1053     0    53     1    13
  2.4371749453967206E-02 a      1054     0    53     1    14
  6.5352368677885664E-01 a      1055     0    53     1    15
  1.7963780679534563E-01 a      1056     0    53     1    16
  6.7130655123886473E-01 a      1057     0    53     1    17
  3.4499628011888311E-01 a      1058     0    53     1    18
  3.6359044153666925E-01 a      1059     0    53     1    19
  5.9950857551939574E-01 a      1060     0    53     1    20
 -6.2907463779237657E-02 a      1061     0    54     1     1
  6.7549613959349786E-01 a      1062     0    54     1     2
  2.6336002882089055E-01 a      1063     0    54     1     3
  2.0274115960510108E-01 a      1064     0    54     1     4
 -1.3814823860218839E-01 a      1065     0    54     1     5
  6.7195090682221359E-01 a      1066     0    54     1     6
  2.1503806541123599E-01 a      1067     0    54     1     7
 -1.1329962046548401E+00 a      1068     0    54     1     8
  4.7197583147550480E-02 a      1069     0    54     1     9
  2.2832201052978579E-01 a      1070     0    54     1    10
  6.9084295647817859E-02 a      1071     0    54     1    11
  2.5017909530177090E-01 a      1072     0    54     1    12
 -6.5304654788127758E-01 a      1073     0    54     1    13
  1.4964565486279108E-01 a      1074     0    54     1    14
  9.9860199578194239E-02 a      1075     0    54     1    15
  1.6779981803309366E-01 a      1076     0    54     1    16
 -5.9137079672728876E-01 a      1077     0    54     1    17
  7.8366392422751840E-02 a      1078     0    54     1    18
  1.9402569323968094E-01 a      1079     0    54     1    19
  2.3153485068425952E-01 a      1080     0    54     1    20
 -1.2403068091534346E+00 a      1081     0    55     1     1
 -1.2487998977168997E+00 a      1082     0    55     1     2
 -1.3759191272025542E+00 a      1083     0    55     1     3
 -6.0437803501322322E-02 a      1084     0    55     1     4
  2.0701735054161299E-01 a      1085     0    55     1     5
  9.7879319321791825E-03 a      1086     0    55     1     6
 -4.1584822924825945E-02 a      1087     0    55     1     7
 -2.1281320614553598E+00 a      1088     0    55     1     8
  5.5502164557881051E-01 a      1089     0    55     1     9
 -5.5213557778161959E-01 a      1090     0    55     1    10
 -4.8454140534313245E-01 a      1091     0    55     1    11
  5.1851687001245350E-01 a      1092     0    55     1    12
  2.4100240037004217E+00 a      1093     0    55     1    13
  9.3657603877247186E-01 a      1094     0    55     1    14
 -1.4638143038966328E-01 a      1095     0    55     1    15
  2.5665884465057814E-01 a      1096     0    55     1    16
 -6.0838993997033342E-01 a      1097     0    55     1    17
 -1.4189710133864430E+00 a      1098     0    55     1    18
  9.7838497049361789E-02 a      1099     0    55     1    19
 -8.3614995634507749E-01 a      1100     0    55     1    20
  9.0732434759653902E-01 a      1101     0    56     1     1
  1.4110687693248087E+00 a      1102     0    56     1     2
  9.4582932573983014E-01 a      1103     0    56     1     3
 -6.1673467830489992E-02 a      1104     0    56     1     4
 -1.2114564652655182E+00 a      1105     0    56     1     5
  1.3128221979710597E+00 a      1106     0    56     1     6
  1.0999994299512943E+00 a      1107     0    56     1     7
 -3.2154218786229571E-01 a      1108     0    56     1     8
  7.3531596988717474E-02 a      1109     0    56     1     9
  9.4661630132149643E-01 a      1110     0    56     1    10
 -5.2427308445999410E-01 a      1111     0    56     1    11
 -5.5092049736966098E-01 a      1112     0    56     1    12
 -8.9565878313119496E-01 a      1113     0    56     1    13
  4.9715304938514487E-01 a      1114     0    56     1    14
 -5.3383344295869772E-01 a      1115     0    56     1    15
 -6.2070704454103587E-01 a      1116     0    56     1    16
  9.4886992872289119E-02 a      1117     0    56     1    17
  8.6073158892225943E-01 a      1118     0    56     1    18
 -3.0369061223134758E-01 a      1119     0    56     1    19
 -5.9721327534727287E-01 a      1120     0    56     1    20
 -9.4573019196797659E-01 a      1121     0    57     1     1
  3.2909064967589305E+00 a      1122     0    57     1     2
  6.4618717004186426E+00 a      1123     0    57     1     3
 -5.3860627722052481E+00 a      1124     0    57     1     4
  2.4129058624008548E-02 a      1125     0    57     1     5
  1.7791646662909060E+00 a      1126     0    57     1     6
  2.0389662091010039E+00 a      1127     0    57     1     7
 -7.7072875122411277E+00 a      1128     0    57     1     8
 -4.9258604029722558E-01 a      1129     0    57     1     9
 -2.6903491783927009E+00 a      1130     0    57     1    10
 -5.0587174807704880E+00 a      1131     0    57     1    11
  8.5709358941975855E-01 a      1132     0    57     1    12
 -4.2387140018627889E+00 a      1133     0    57     1    13
  5.6328100228104094E-01 a      1134     0    57     1    14
 -3.0976757009260786E-01 a      1135     0    57     1    15
 -6.2926570071606946E-01 a      1136     0    57     1    16
 -6.1207939459471561E-01 a      1137     0    57     1    17
 -2.2219574694459210E+00 a      1138     0    57     1    18
 -7.6466354356764354E-01 a      1139     0    57     1    19
  2.0311069423213368E+00 a      1140     0    57     1    20
  5.6766224120396414E-01 a      1141     0    58     1     1
 -3.4551201480554754E+00 a      1142     0    58     1     2
  2.9428757338530680E+00 a      1143     0    58     1     3
 -3.9271264306067994E+00 a      1144     0    58     1     4
  4.4506916106916433E-01 a      1145     0    58     1     5
  3.1356265298725678E+00 a      1146     0    58     1     6
  1.6983611086406862E+00 a      1147     0    58     1     7
 -7.0381131175302802E-01 a      1148     0    58     1     8
  1.7451075242891692E+00 a      1149     0    58     1     9
  1.0237689734587809E+00 a      1150     0    58     1    10
  6.1851229065013544E-02 a      1151     0    58     1    11
 -6.2793472953726925E-01 a      1152     0    58     1    12
 -1.9548251340710847E+00 a      1153     0    58     1    13
 -3.3052188164678551E+00 a      1154     0    58     1    14
 -2.7573529706355077E-01 a      1155     0    58     1    15
 -1.2614664479815081E+00 a      1156     0    58     1    16
 -7.5862172082969381E-01 a      1157     0    58     1    17
 -7.8835092787743200E-01 a      1158     0    58     1    18
 -2.7263874124979881E+00 a      1159     0    58     1    19
 -3.5166308562227053E+00 a      1160     0    58     1    20
  3.5126599195610747E-01 a      1161     0    59     1     1
  1.8562668471798758E+00 a      1162     0    59     1     2
  3.1411250159446364E+00 a      1163     0    59     1     3
  7.0127514408235880E+00 a      1164     0    59     1     4
 -2.7135730423840223E+00 a      1165     0    59     1     5
  1.6902650743291874E+00 a      1166     0    59     1     6
 -1.8737710417232303E+00 a      1167     0    59     1     7
  4.3865576325750277E-01 a      1168     0    59     1     8
  2.5651114388605039E+00 a      1169     0    59     1     9
  3.2946169051356450E-01 a      1170     0    59     1    10
 -1.8714211549653801E+00 a      1171     0    59     1    11
  2.6753952638041084E-01 a      1172     0    59     1    12
 -2.7511528287944281E-01 a      1173     0    59     1    13
 -8.0748304636943391E-01 a      1174     0    59     1    14
  1.5097470791967420E+00 a      1175     0    59     1    15
  3.9072014396292148E-01 a      1176     0    59     1    16
  2.1783893812783712E+00 a      1177     0    59     1    17
  4.2061787612037120E+00 a      1178     0    59     1    18
 -2.2417078158657722E+00 a      1179     0    59     1    19
 -2.8285769905175480E+00 a      1180     0    59     1    20
  4.0176871627814331E-02 a      1181     0    60     1     1
 -5.8295687740322577E-01 a      1182     0    60     1     2
 -8.8085034133771001E-01 a      1183     0    60     1     3
  1.7673555897378357E+00 a      1184     0    60     1     4
 -2.3584659451135508E+00 a      1185     0    60     1     5
  1.3827433916305236E+00 a      1186     0    60     1     6
 -1.2331930191109799E+00 a      1187     0    60     1     7
 -9.3691771366352550E-01 a      1188     0    60     1     8
  8.3922436409467793E-01 a      1189     0    60     1     9
 -4.7665608172327092E+00 a      1190     0    60     1    10
 -1.3826004293280572E+00 a      1191     0    60     1    11
  9.9404478361128157E-01 a      1192     0    60     1    12
  3.7020201141884235E-01 a      1193     0    60     1    13
  7.2844175191990279E-01 a      1194     0    60     1    14
  9.4652519811225688E-01 a      1195     0    60     1    15
  1.9520647603175565E+00 a      1196     0    60     1    16
  4.0512275883347787E-01 a      1197     0    60     1    17
  2.4567731731892484E+00 a      1198     0    60     1    18
 -1.7803572004085093E+00 a      1199     0    60     1    19
 -1.7892612121507776E+00 a      1200     0    60     1    20
 -3.4130082156558750E-01 a      1201     0    61     1     1
 -2.1796396961395472E+00 a      1202     0    61     1     2
  9.2625395441583303E-01 a      1203     0    61     1     3
 -3.8995058639146862E-01 a      1204     0    61     1     4
 -8.3515868744982236E-01 a      1205     0    61     1     5
 -2.9189289344702851E-01 a      1206     0    61     1     6
 -3.4004149253200051E+00 a      1207     0    61     1     7
  1.9299774129049947E+00 a      1208     0    61     1     8
  4.5600803583323812E-01 a      1209     0    61     1     9
 -1.9722844703332820E+00 a      1210     0    61     1    10
 -6.7674956338049463E-01 a      1211     0    61     1    11
 -1.6131723492232700E-01 a      1212     0    61     1    12
  1.7029057939445098E+00 a      1213     0    61     1    13
 -8.9995735545724698E-01 a      1214     0    61     1    14
  3.2990974321327200E+00 a      1215     0    61     1    15
  1.4502265618371748E+00 a      1216     0    61     1    16
 -1.6786878558340704E-01 a      1217     0    61     1    17
  3.4170977871367958E+00 a      1218     0    61     1    18
 -1.1405569495136292E+00 a      1219     0    61     1    19
 -6.5221215742140604E-01 a      1220     0    61     1    20
 -2.1563969293684515E+00 a      1221     0    62     1     1
 -2.1329376993660709E+00 a      1222     0    62     1     2
  3.7133469856443990E-01 a      1223     0    62     1     3
 -1.7454426541065180E+00 a      1224     0    62     1     4
 -1.5509686301681458E+00 a      1225     0    62     1     5
  1.6526121484685197E+00 a      1226     0    62     1     6
 -1.5445698515887432E+00 a      1227     0    62     1     7
  8.3349717617678432E-01 a      1228     0    62     1     8
 -5.8106446912736387E-01 a      1229     0    62     1     9
  2.8285689662843239E+00 a      1230     0    62     1    10
 -6.0703205442432639E-01 a      1231     0    62     1    11
 -7.2028388519411657E-01 a      1232     0    62     1    12
  6.5685222273420296E-01 a      1233     0    62     1    13
 -2.2121431786823007E+00 a      1234     0    62     1    14
  1.7454328600083506E+00 a      1235     0    62     1    15
 -9.4364136918126706E-01 a      1236     0    62     1    16
 -6.2936206137864472E+00 a      1237     0    62     1    17
 -2.6797027133084139E+00 a      1238     0    62     1    18
 -7.7903246567080253E-01 a      1239     0    62     1    19
 -2.5910515265992058E+00 a      1240     0    62     1    20
  5.4371913160689456E-01 a      1241     0    63     1     1
 -3.3991239810353604E+00 a      1242     0    63     1     2
  1.9827524995416754E+00 a      1243     0    63     1     3
 -4.0425906244294074E+00 a      1244     0    63     1     4
  7.9021186776304708E-01 a      1245     0    63     1     5
  2.7921233097313158E+00 a      1246     0    63     1     6
  1.4728567028484936E+00 a      1247     0    63     1     7
 -5.1658101320591321E-01 a      1248     0    63     1     8
  1.1781796700738516E+00 a      1249     0    63     1     9
  8.2580371029725486E-01 a      1250     0    63     1    10
  8.8475785641922577E-01 a      1251     0    63     1    11
 -3.6419389417337161E-01 a      1252     0    63     1    12
 -1.9332666458568846E+00 a      1253     0    63     1    13
 -2.3429387016329071E+00 a      1254     0    63     1    14
 -4.4564747347080991E-01 a      1255     0    63     1    15
 -8.7084699122070797E-01 a      1256     0    63     1    16
 -5.3400583503588539E-01 a      1257     0    63     1    17
 -6.5712580889469019E-01 a      1258     0    63     1    18
 -2.0785635265930575E+00 a      1259     0    63     1    19
 -2.6172513567500699E+00 a      1260     0    63     1    20
  1.3825086535115841E-01 a      1261     0    64     1     1
  1.1729215567126088E+00 a      1262     0    64     1     2
  1.4121490459735593E+00 a      1263     0    64     1     3
  6.2240588034609790E+00 a      1264     0    64     1     4
 -1.9907273633618117E+00 a      1265     0    64     1     5
  1.1758273864239468E+00 a      1266     0    64     1     6
 -1.6951390600415490E+00 a      1267     0    64     1     7
 -3.3534305230015105E-01 a      1268     0    64     1     8
  2.2382273160187665E+00 a      1269     0    64     1     9
 -1.9525050273626862E-01 a      1270     0    64     1    10
 -1.0860382655428682E+00 a      1271     0    64     1    11
  1.8570314182634573E-01 a      1272     0    64     1    12
  9.7362581111651836E-01 a      1273     0    64     1    13
 -2.1352677701314235E-01 a      1274     0    64     1    14
  1.5385479194457350E+00 a      1275     0    64     1    15
  1.0190432783494299E+00 a      1276     0    64     1    16
  1.8708345891520912E+00 a      1277     0    64     1    17
  2.6670105080773125E+00 a      1278     0    64     1    18
 -8.0215718366466238E-01 a      1279     0    64     1    19
 -2.0406658254084875E+00 a      1280     0    64     1    20
  1.5474530215297985E-01 a      1281     0    65     1     1
 -1.6441092776086474E+00 a      1282     0    65     1     2
  5.5835798583793317E-01 a      1283     0    65     1     3
 -6.5898322399150588E-01 a      1284     0    65     1     4
 -6.6016400568586830E-01 a      1285     0    65     1     5
 -3.8002992828634535E-01 a      1286     0    65     1     6
 -2.6939373422345123E+00 a      1287     0    65     1     7
  1.2414101051842790E+00 a      1288     0    65     1     8
  1.7896628321244792E-01 a      1289     0    65     1     9
 -1.9208195999378388E+00 a      1290     0    65     1    10
 -5.5449084368740020E-01 a      1291     0    65     1    11
  2.5530799823131327E-02 a      1292     0    65     1    12
  2.0640494233468329E+00 a      1293     0    65     1    13
 -3.3410557924004708E-01 a      1294     0    65     1    14
  2.5283029568794921E+00 a      1295     0    65     1    15
  1.6075904271737769E+00 a      1296     0    65     1    16
 -7.7838586121988643E-02 a      1297     0    65     1    17
  2.8913787548266900E+00 a      1298     0    65     1    18
 -5.5644870245738376E-01 a      1299     0    65     1    19
 -3.5286789970000254E-01 a      1300     0    65     1    20
 -1.1715886610354660E+00 a      1301     0    66     1     1
 -6.6371035692208424E-02 a      1302     0    66     1     2
  5.3645295314091046E-01 a      1303     0    66     1     3
 -6.8644213927124975E-01 a      1304     0    66     1     4
 -2.7307760215305703E+00 a      1305     0    66     1     5
  1.7091620020293814E+00 a      1306     0    66     1     6
 -8.1738922633190589E-02 a      1307     0    66     1     7
  1.1757690224393920E+00 a      1308     0    66     1     8
 -1.8388965907670367E+00 a      1309     0    66     1     9
  2.9094663172350663E+00 a      1310     0    66     1    10
  7.8824796233279204E-01 a      1311     0    66     1    11
  1.9938879819648109E-01 a      1312     0    66     1    12
  2.4093535548209727E-01 a      1313     0    66     1    13
 -1.2013336672158754E+00 a      1314     0    66     1    14
  2.3281521465181396E+00 a      1315     0    66     1    15
  9.0432139711701232E-01 a      1316     0    66     1    16
 -4.3772652625447872E+00 a      1317     0    66     1    17
 -1.9765493936802019E+00 a      1318     0    66     1    18
  1.5407388312410728E+00 a      1319     0    66     1    19
 -1.2031563277518460E+00 a      1320     0    66     1    20
  7.5172957674282059E-01 a      1321     0    67     1     1
 -2.9405503711131660E+00 a      1322     0    67     1     2
  3.0092365043591673E-01 a      1323     0    67     1     3
 -3.6836181680109696E+00 a      1324     0    67     1     4
  1.3764352445621171E+00 a      1325     0    67     1     5
  1.9402114471428518E+00 a      1326     0    67     1     6
  1.0109940238340560E+00 a      1327     0    67     1     7
 -1.2267409520210000E-01 a      1328     0    67     1     8
  3.5806874731658689E-01 a      1329     0    67     1     9
  8.2019500564005299E-01 a      1330     0    67     1    10
  1.9647990286978740E+00 a      1331     0    67     1    11
  1.1668597920198744E-01 a      1332     0    67     1    12
 -1.4009063639974830E+00 a      1333     0    67     1    13
 -1.1253872145118993E+00 a      1334     0    67     1    14
 -4.2636402833125392E-01 a      1335     0    67     1    15
 -4.6102765226655890E-01 a      1336     0    67     1    16
 -4.5678241913201406E-01 a      1337     0    67     1    17
 -9.2574878306386232E-01 a      1338     0    67     1    18
 -5.1437760395685150E-01 a      1339     0    67     1    19
 -1.2378353351535627E+00 a      1340     0    67     1    20
 -2.7988962813708612E-01 a      1341     0    68     1     1
 -3.7264506725185376E+00 a      1342     0    68     1     2
  1.7570824606871267E+00 a      1343     0    68     1     3
 -1.0829376706218852E+00 a      1344     0    68     1     4
  1.8809572413823394E-01 a      1345     0    68     1     5
  2.3981899394464973E-01 a      1346     0    68     1     6
  8.8403221241997521E-01 a      1347     0    68     1     7
 -7.1425220793377237E-02 a      1348     0    68     1     8
  2.1263047076891430E+00 a      1349     0    68     1     9
  4.1718412388088764E+00 a      1350     0    68     1    10
 -1.0969867372781010E+00 a      1351     0    68     1    11
 -2.8642728504053133E-01 a      1352     0    68     1    12
  3.5349925657118203E-01 a      1353     0    68     1    13
 -6.4614068344891618E-01 a      1354     0    68     1    14
  5.7020924307215202E+00 a      1355     0    68     1    15
 -1.9297096204790443E+00 a      1356     0    68     1    16
 -2.6959338030736446E-01 a      1357     0    68     1    17
  4.4039592797964877E+00 a      1358     0    68     1    18
  2.5437937853991799E-01 a      1359     0    68     1    19
  6.9865770877005329E-01 a      1360     0    68     1    20
  4.1226580711362572E-02 a      1361     0    69     1     1
  1.1100150260685911E-01 a      1362     0    69     1     2
 -1.5736223961296258E+00 a      1363     0    69     1     3
  4.8570566904552503E+00 a      1364     0    69     1     4
 -1.0769838047351485E+00 a      1365     0    69     1     5
  2.0531134028427458E-01 a      1366     0    69     1     6
 -1.4051014352771918E+00 a      1367     0    69     1     7
 -1.4282812537469580E+00 a      1368     0    69     1     8
  1.3587531838263323E+00 a      1369     0    69     1     9
 -8.4841296452539483E-01 a      1370     0    69     1    10
  7.3369938339050900E-01 a      1371     0    69     1    11
  5.0189444940582351E-01 a      1372     0    69     1    12
  2.9535141895767767E+00 a      1373     0    69     1    13
  7.6957557970048729E-01 a      1374     0    69     1    14
  1.6678978746567401E+00 a      1375     0    69     1    15
  2.0683077143747526E+00 a      1376     0    69     1    16
  1.2309895246848535E+00 a      1377     0    69     1    17
 -4.0919845284443490E-01 a      1378     0    69     1    18
  1.4039895332259660E+00 a      1379     0    69     1    19
 -4.0807641437561520E-01 a      1380     0    69     1    20
  8.8431461338057371E-01 a      1381     0    70     1     1
 -9.8966179417727185E-01 a      1382     0    70     1     2
 -9.6078863757838417E-02 a      1383     0    70     1     3
 -4.1981042834057763E-01 a      1384     0    70     1     4
 -7.2958938281520458E-01 a      1385     0    70     1     5
 -4.0338506415729797E-01 a      1386     0    70     1     6
 -1.5929501355780664E+00 a      1387     0    70     1     7
 -1.5710734546022087E-01 a      1388     0    70     1     8
 -3.0365136633494755E-01 a      1389     0    70     1     9
 -1.1941401879123992E+00 a      1390     0    70     1    10
  6.8359816614141089E-02 a      1391     0    70     1    11
  1.9029911256423251E-01 a      1392     0    70     1    12
  2.1922766801209810E+00 a      1393     0    70     1    13
  4.7358082085259073E-01 a      1394     0    70     1    14
  1.5670081497925898E+00 a      1395     0    70     1    15
  1.2876968413667951E+00 a      1396     0    70     1    16
 -2.4547185390404078E-01 a      1397     0    70     1    17
  1.8640835902491937E+00 a      1398     0    70     1    18
  5.9853808295341748E-01 a      1399     0    70     1    19
  4.1454409986008101E-01 a      1400     0    70     1    20
  8.6879875671891893E-01 a      1401     0    71     1     1
  4.6334216857254633E+00 a      1402     0    71     1     2
  1.1092131346952072E+00 a      1403     0    71     1     3
  1.0020451088535840E+00 a      1404     0    71     1     4
 -5.9746139318635443E+00 a      1405     0    71     1     5
  2.3141693125333362E+00 a      1406     0    71     1     6
  2.2306873081299927E+00 a      1407     0    71     1     7
  1.9304218548254646E+00 a      1408     0    71     1     8
 -4.1542217353140574E+00 a      1409     0    71     1     9
  3.2244053082636661E+00 a      1410     0    71     1    10
  3.5583557973040771E+00 a      1411     0    71     1    11
  2.4556974614239020E+00 a      1412     0    71     1    12
 -8.7677721539616404E-01 a      1413     0    71     1    13
  3.1954570628552759E-01 a      1414     0    71     1    14
  2.8735066540072620E+00 a      1415     0    71     1    15
  3.5015604284685518E+00 a      1416     0    71     1    16
  3.0049891735586376E-01 a      1417     0    71     1    17
  7.0861179920479667E-01 a      1418     0    71     1    18
  5.4057570333917031E+00 a      1419     0    71     1    19
  1.4170403503083924E+00 a      1420     0    71     1    20
  1.0780029513566673E+00 a      1421     0    72     1     1
 -2.2170012122252065E+00 a      1422     0    72     1     2
 -2.0769520178944010E+00 a      1423     0    72     1     3
 -3.2428900087897552E+00 a      1424     0    72     1     4
  2.3321888987030674E+00 a      1425     0    72     1     5
  5.2387513525167684E-01 a      1426     0    72     1     6
 -1.2981084680098148E-01 a      1427     0    72     1     7
  8.2237740028079320E-01 a      1428     0    72     1     8
 -9.2574756019610782E-01 a      1429     0    72     1     9
  1.3680679274398719E-01 a      1430     0    72     1    10
  3.8711165640344576E+00 a      1431     0    72     1    11
  1.1318471186985897E+00 a      1432     0    72     1    12
 -1.2091177454425561E+00 a      1433     0    72     1    13
  8.9417346488959060E-01 a      1434     0    72     1    14
 -1.0899347236645049E+00 a      1435     0    72     1    15
  1.5202467552295004E-01 a      1436     0    72     1    16
 -4.4973226612979206E-01 a      1437     0    72     1    17
 -1.0472641138279823E+00 a      1438     0    72     1    18
  1.4634714861372449E+00 a      1439     0    72     1    19
  1.4954230895856124E+00 a      1440     0    72     1    20
  7.1370381965036767E-01 a      1441     0    73     1     1
  1.5684512922839076E+00 a      1442     0    73     1     2
 -1.0758163359581174E+00 a      1443     0    73     1     3
 -1.5517580177589274E-01 a      1444     0    73     1     4
  6.1094990885665401E-01 a      1445     0    73     1     5
 -3.2777297035965478E-02 a      1446     0    73     1     6
  5.5754223067670095E-01 a      1447     0    73     1     7
 -1.0039067359633624E-01 a      1448     0    73     1     8
  2.8404874169401689E-01 a      1449     0    73     1     9
  1.9421859024190122E+00 a      1450     0    73     1    10
  4.6817261605850913E-01 a      1451     0    73     1    11
  1.6102961190329146E+00 a      1452     0    73     1    12
  6.5192700506019174E-01 a      1453     0    73     1    13
  2.0746969451709327E-01 a      1454     0    73     1    14
  8.4483977952256351E-01 a      1455     0    73     1    15
 -6.3447609105733282E-01 a      1456     0    73     1    16
  5.1147476635073841E-01 a      1457     0    73     1    17
  2.2104135453912512E+00 a      1458     0    73     1    18
  1.3206279970363104E+00 a      1459     0    73     1    19
  3.6389970816994541E+00 a      1460     0    73     1    20
  1.9905425493836262E+00 a      1461     0    74     1     1
  9.8833839233017762E-01 a      1462     0    74     1     2
 -7.4680243380162836E-01 a      1463     0    74     1     3
 -4.5235559541150644E-01 a      1464     0    74     1     4
 -1.1713964564388144E+00 a      1465     0    74     1     5
 -6.6615352950584494E-01 a      1466     0    74     1     6
  1.0367185292363874E+00 a      1467     0    74     1     7
 -1.9833627976019885E+00 a      1468     0    74     1     8
 -1.1954505312302477E+00 a      1469     0    74     1     9
 -5.5387140265001822E-01 a      1470     0    74     1    10
  6.8092745322582848E-01 a      1471     0    74     1    11
  2.4838894523209598E-01 a      1472     0    74     1    12
  1.9142002855321023E+00 a      1473     0    74     1    13
  1.8163980497701848E+00 a      1474     0    74     1    14
 -8.7873917362761034E-01 a      1475     0    74     1    15
 -1.8660797314482019E-01 a      1476     0    74     1    16
 -4.0287303791295426E-01 a      1477     0    74     1    17
  1.0234156557850092E-01 a      1478     0    74     1    18
  1.3696286499834311E+00 a      1479     0    74     1    19
  1.8588411186897595E+00 a      1480     0    74     1    20
  3.5150035276156406E+00 a      1481     0    75     1     1
 -5.6895836636256965E+00 a      1482     0    75     1     2
 -9.0366330570513469E+00 a      1483     0    75     1     3
  5.0508247811777904E+00 a      1484     0    75     1     4
  5.1851635048973872E+00 a      1485     0    75     1     5
 -2.5143676457690134E+00 a      1486     0    75     1     6
 -5.1679366909895208E+00 a      1487     0    75     1     7
  3.5996303357770656E+00 a      1488     0    75     1     8
  1.1373403481625353E+00 a      1489     0    75     1     9
  5.6394410713200971E+00 a      1490     0    75     1    10
  7.9887722950616336E-01 a      1491     0    75     1    11
 -1.7144087809577395E+00 a      1492     0    75     1    12
  4.2320187321265399E+00 a      1493     0    75     1    13
 -7.8944099353592112E-01 a      1494     0    75     1    14
  3.4671665522035124E+00 a      1495     0    75     1    15
  2.3374852589357453E+00 a      1496     0    75     1    16
  7.7892134194821910E-02 a      1497     0    75     1    17
  4.9227351254463043E+00 a      1498     0    75     1    18
  2.6900330587534942E+00 a      1499     0    75     1    19
  8.6397512452299918E-01 a      1500     0    75     1    20
  1.5403715503973465E+00 a      1501     0    76     1     1
  2.6091812439727430E-01 a      1502     0    76     1     2
 -4.8760605584350385E+00 a      1503     0    76     1     3
 -1.2949334293483119E+00 a      1504     0    76     1     4
  4.1670045462078784E+00 a      1505     0    76     1     5
 -1.7439476393824997E+00 a      1506     0    76     1     6
 -1.7010177553884218E+00 a      1507     0    76     1     7
  3.1355055700307259E+00 a      1508     0    76     1     8
 -2.4356414331001091E+00 a      1509     0    76     1     9
 -8.2207136933983216E-01 a      1510     0    76     1    10
  5.3271641848285514E+00 a      1511     0    76     1    11
  1.8795608514400959E+00 a      1512     0    76     1    12
 -2.1981524439677647E+00 a      1513     0    76     1    13
  4.3114227290700322E+00 a      1514     0    76     1    14
 -3.9426155703982961E+00 a      1515     0    76     1    15
 -1.7058340606756011E+00 a      1516     0    76     1    16
  3.5237316441943101E-01 a      1517     0    76     1    17
  1.8893963290022533E+00 a      1518     0    76     1    18
  1.0679731768818275E+00 a      1519     0    76     1    19
  4.2311321399296382E+00 a      1520     0    76     1    20
  2.6933366248003394E+00 a      1521     0    77     1     1
  3.2651842602723078E+00 a      1522     0    77     1     2
 -7.5900975856394226E-01 a      1523     0    77     1     3
 -7.8717165635448494E-01 a      1524     0    77     1     4
 -6.0796324131142765E-01 a      1525     0    77     1     5
 -6.2311773728426390E-01 a      1526     0    77     1     6
  4.1492370438050390E+00 a      1527     0    77     1     7
 -3.1036380698745760E+00 a      1528     0    77     1     8
 -2.1769602435050506E+00 a      1529     0    77     1     9
  2.9856283793928307E-01 a      1530     0    77     1    10
  3.3533124665313740E-01 a      1531     0    77     1    11
  1.8213191281475438E-01 a      1532     0    77     1    12
 -2.6987926058015504E-01 a      1533     0    77     1    13
  3.4287809913940976E+00 a      1534     0    77     1    14
 -4.8938137466412472E+00 a      1535     0    77     1    15
 -3.2073475736665431E+00 a      1536     0    77     1    16
 -4.4329671665641091E-01 a      1537     0    77     1    17
 -1.7564534011210946E+00 a      1538     0    77     1    18
  1.2054518717240037E+00 a      1539     0    77     1    19
  2.9432196293813386E+00 a      1540     0    77     1    20
  1.9575286331868016E+00 a      1541     0    78     1     1
  3.8806121114315251E-01 a      1542     0    78     1     2
  1.1181735744902432E+00 a      1543     0    78     1     3
 -2.1633960524782472E+00 a      1544     0    78     1     4
  3.1799185397321716E+00 a      1545     0    78     1     5
 -4.6078492724693550E-03 a      1546     0    78     1     6
 -3.4826841074941965E+00 a      1547     0    78     1     7
 -7.4081879604892968E+00 a      1548     0    78     1     8
 -2.7351936189495935E-01 a      1549     0    78     1     9
 -1.7180604983347429E+00 a      1550     0    78     1    10
 -7.1556544964590723E+00 a      1551     0    78     1    11
 -2.7405162081792680E+00 a      1552     0    78     1    12
 -6.5969638074388670E-01 a      1553     0    78     1    13
  1.4447279772705243E-01 a      1554     0    78     1    14
  2.7296802288307567E+00 a      1555     0    78     1    15
  1.1516351991204155E-01 a      1556     0    78     1    16
  4.3857109503141167E-01 a      1557     0    78     1    17
  2.8479831066597785E+00 a      1558     0    78     1    18
  9.3490471491640448E-01 a      1559     0    78     1    19
  1.8491850403915699E+00 a      1560     0    78     1    20
  1.1262261142450161E+00 a      1561     0    79     1     1
  2.8550684978208127E+00 a      1562     0    79     1     2
 -3.0031612513717776E+00 a      1563     0    79     1     3
  2.1969395026680303E+00 a      1564     0    79     1     4
  4.3810757946209522E+00 a      1565     0    79     1     5
 -4.2710358931737300E+00 a      1566     0    79     1     6
 -2.8810092622903656E+00 a      1567     0    79     1     7
  5.3686349652527259E+00 a      1568     0    79     1     8
 -6.1418418478109038E-01 a      1569     0    79     1     9
 -3.2702677770958677E+00 a      1570     0    79     1    10
  2.9654127342305312E+00 a      1571     0    79     1    11
  8.2169691977484971E-01 a      1572     0    79     1    12
 -3.8533832909767614E+00 a      1573     0    79     1    13
  5.9391504279560623E+00 a      1574     0    79     1    14
 -8.2452954044793785E+00 a      1575     0    79     1    15
 -6.8387091194630969E+00 a      1576     0    79     1    16
  1.5633799823153764E+00 a      1577     0    79     1    17
  9.3703198977619753E+00 a      1578     0    79     1    18
 -5.7905260017209308E+00 a      1579     0    79     1    19
  2.2177269894227445E+00 a      1580     0    79     1    20
  1.1190618460196899E+00 a      1581     0    80     1     1
  1.1032176977823982E+00 a      1582     0    80     1     2
  1.3371871309365291E+00 a      1583     0    80     1     3
 -2.6916633780825601E+00 a      1584     0    80     1     4
  2.5175303665815991E+00 a      1585     0    80     1     5
  4.9597911251519500E-01 a      1586     0    80     1     6
  7.1593413125950833E-01 a      1587     0    80     1     7
  5.2137341315122687E-01 a      1588     0    80     1     8
  2.0578110169568825E-01 a      1589     0    80     1     9
  1.0196831654977612E+00 a      1590     0    80     1    10
  1.3748898633162845E+00 a      1591     0    80     1    11
 -2.4298298944678948E-01 a      1592     0    80     1    12
 -1.2884264540314232E+00 a      1593     0    80     1    13
 -2.2396978635904108E+00 a      1594     0    80     1    14
 -2.8581601073349678E+00 a      1595     0    80     1    15
 -2.4140895965235623E+00 a      1596     0    80     1    16
 -1.1130210635045288E+00 a      1597     0    80     1    17
 -3.2312784656954929E+00 a      1598     0    80     1    18
 -1.8559750266210440E+00 a      1599     0    80     1    19
 -4.9949935264126311E-01 a      1600     0    80     1    20
  3.1276813384005414E-01 a      1601     0    81     1     1
  1.0200229811551897E+00 a      1602     0    81     1     2
 -6.6827721816284003E-01 a      1603     0    81     1     3
 -2.7289317807147701E-01 a      1604     0    81     1     4
  5.7019456516308853E-01 a      1605     0    81     1     5
 -1.7992764840423452E+00 a      1606     0    81     1     6
 -6.5244353576877112E-01 a      1607     0    81     1     7
 -1.9973752469738659E+00 a      1608     0    81     1     8
  1.3100770190297599E+00 a      1609     0    81     1     9
 -1.8132915300010404E+00 a      1610     0    81     1    10
 -7.1268160461566166E-01 a      1611     0    81     1    11
 -1.1494131784601477E-01 a      1612     0    81     1    12
 -6.7133576367371317E-01 a      1613     0    81     1    13
 -6.0998732565539493E-01 a      1614     0    81     1    14
  2.9677461391497378E-01 a      1615     0    81     1    15
  8.1813856195361834E-01 a      1616     0    81     1    16
  3.0049102494511076E-01 a      1617     0    81     1    17
  2.0140054899226114E+00 a      1618     0    81     1    18
  3.3789495481986426E-01 a      1619     0    81     1    19
  2.8048448366311496E-01 a      1620     0    81     1    20
 -1.3910091818576684E-01 a      1621     0    82     1     1
  1.0471718894167051E+01 a      1622     0    82     1     2
 -3.2338803940102836E+00 a      1623     0    82     1     3
